{"layers":[{"out_depth":1,"out_sx":100,"out_sy":200,"layer_type":"input"},{"sx":10,"sy":10,"stride":5,"in_depth":1,"out_depth":8,"out_sx":19,"out_sy":39,"layer_type":"conv","l1_decay_mul":0,"l2_decay_mul":1,"pad":2,"filters":[{"sx":10,"sy":10,"depth":1,"w":{"0":-1.3103048411138147,"1":-1.0852388647666649,"2":-0.9802887615544056,"3":-0.6461860240392183,"4":-0.8899035632505043,"5":-0.8498757974495768,"6":-1.4217532452457065,"7":-1.1048890769532063,"8":-0.8532336522380355,"9":-1.2141767322095747,"10":-0.5317986397435246,"11":-1.1877473309407178,"12":-0.693452487835391,"13":-0.5315103316473441,"14":-0.6952596259749874,"15":-1.1150999737854814,"16":-1.108947514610819,"17":-1.2200567220046319,"18":-0.8554075725407545,"19":-0.7462759638094201,"20":-0.8868840732892321,"21":-0.7684353512336194,"22":-0.47756599656022386,"23":-0.6494171115580181,"24":-0.5102359302659881,"25":-0.3012380945559333,"26":-0.9728972782537209,"27":-0.7581840418941302,"28":-0.8441124377445294,"29":-0.34108361125343273,"30":-0.7186601613756631,"31":-0.7843863393063136,"32":-0.5483585739250337,"33":-0.5481614507616173,"34":-0.4413502157189633,"35":-0.45776154161763283,"36":-0.39426841477127106,"37":-0.4628828933325381,"38":-0.6649987201621093,"39":-0.6388606701921761,"40":-0.6308083176491022,"41":-0.5803216888923377,"42":-0.5957198249098093,"43":-0.7022016036543578,"44":-0.5111398096798532,"45":-0.13759637986140855,"46":-0.2775324628009712,"47":0.036184477350740235,"48":-0.4793428721918158,"49":-0.529435442847637,"50":-0.9432026415876241,"51":-0.9906283120389203,"52":-0.46132103515903505,"53":-0.39988965359746353,"54":-0.4048482314989194,"55":-0.49120790641224477,"56":-0.318151289117289,"57":-0.4996246710892524,"58":-0.4778861903748312,"59":-0.5839723855584967,"60":-0.7189036565876981,"61":-0.9434515715563146,"62":-0.5896267249844945,"63":-0.30207754439473866,"64":-0.49516138483222727,"65":-0.48619331133869637,"66":-0.8498948208084358,"67":-0.7709625683133106,"68":-1.0642561925106626,"69":-0.6304917758497414,"70":-1.0423861079350851,"71":-1.1644411792452984,"72":-1.0858801749986444,"73":-0.5515754838753292,"74":-0.4384314723663571,"75":-0.7765104982765008,"76":-0.8668548897339284,"77":-0.6342151997898309,"78":-0.8771689643189616,"79":-0.9847442759252413,"80":-1.2092930800513149,"81":-0.8169644257436243,"82":-0.7965942284693965,"83":-0.6199765994605121,"84":-0.5576874766489314,"85":-0.5102213459779351,"86":-0.7906969894575374,"87":-0.9142370262500343,"88":-1.17399720269546,"89":-0.8295362829156181,"90":-1.5645046704890144,"91":-1.104018331961369,"92":-1.0336836123556798,"93":-0.7245314177069652,"94":-0.5803110175097802,"95":-0.2507459964281253,"96":-0.9910963334138135,"97":-1.0895496813616523,"98":-0.7073717872793722,"99":-1.0445872051113783}},{"sx":10,"sy":10,"depth":1,"w":{"0":-0.7312249615511359,"1":-1.0874480535178574,"2":-0.6811329673576244,"3":-1.0075915866183205,"4":-0.5182305404443728,"5":-0.993151337713029,"6":-0.7448848124278336,"7":-0.5292965032389458,"8":0.12422210395061814,"9":0.924972334223961,"10":-0.2243172835673829,"11":-0.815093965336615,"12":-0.7888460705919451,"13":-0.7932960612205672,"14":-1.3088844436704938,"15":-0.27992286698507385,"16":-0.58612984269656,"17":-0.6279675501652887,"18":-1.0118220011592614,"19":-0.6464629621332891,"20":1.2820051652062383,"21":0.6858754022318501,"22":-0.055829035983754896,"23":-0.27629875432282747,"24":-0.3166383297625695,"25":-1.310947021653829,"26":0.10538004090598108,"27":-0.2089057960034246,"28":-0.9488268308606989,"29":-0.7311888154692056,"30":1.1642209892446878,"31":0.5630255684678194,"32":0.9755517617050214,"33":0.8508331384740353,"34":0.8785529387140062,"35":0.8601018329719999,"36":-0.03604189539514436,"37":0.18537623386873026,"38":-0.21240016913036955,"39":-0.4446715048486318,"40":0.6226726257438503,"41":0.39613170787468593,"42":-0.24833272399533127,"43":1.0039574060762324,"44":1.4941742625895602,"45":1.386333457733304,"46":0.999059794669908,"47":0.3598934772408055,"48":0.9082425410876773,"49":0.21271073318224426,"50":0.44279026975765556,"51":-0.2312855925118317,"52":-0.5930109714872137,"53":-0.6433502830311676,"54":0.2863094338826713,"55":0.6533757861899143,"56":0.8573652104097915,"57":0.40132418240272033,"58":0.5999047662974727,"59":1.258804869678084,"60":0.030586607551070816,"61":-0.030691095229674573,"62":-0.258822871262974,"63":-0.4640129018803739,"64":0.1947830023957723,"65":-0.09106544180461706,"66":-0.1813088849739685,"67":1.1819575478349973,"68":1.5640224318445095,"69":0.9535610096879733,"70":-0.1383421359839404,"71":-0.023441730698424954,"72":0.11573182972251514,"73":-0.1438316853907435,"74":-0.4676094263981411,"75":0.2824630873724529,"76":0.30156535986218297,"77":-0.24984626445077723,"78":1.2762613212414866,"79":1.69117188911836,"80":-0.0005579068034200004,"81":0.27352481309824106,"82":0.2247603033813249,"83":-0.3236275503084367,"84":-0.8967857949094467,"85":-1.0027750692291022,"86":-0.22083278736576858,"87":0.16946909844480343,"88":0.2296221821042511,"89":1.2413320989849181,"90":-0.24784716187788605,"91":0.0013778888904133362,"92":-0.048042382265383723,"93":0.24953290843965117,"94":-0.06272650263395334,"95":0.022301727635136697,"96":-0.48360790888305666,"97":0.06792396522628277,"98":0.6710905935628466,"99":1.180537999511498}},{"sx":10,"sy":10,"depth":1,"w":{"0":0.0470243390499916,"1":0.0634186842448505,"2":-0.018227611794354275,"3":0.14421787952201184,"4":-0.03732751581774924,"5":0.1647900903352973,"6":0.12378255783341821,"7":0.07129585270638453,"8":0.26419267163644017,"9":0.6287376031183952,"10":-0.1862984473337061,"11":0.11578765158574499,"12":-0.013644685545528019,"13":0.01721397131739284,"14":-0.16054408975490994,"15":0.1329105602151947,"16":0.06764118784732405,"17":0.10973367333258174,"18":-0.2701048633817246,"19":0.12228438443080401,"20":-0.23157114650014418,"21":-0.15909631802041685,"22":0.04025613378242005,"23":-0.06648817724914051,"24":0.09191334487087918,"25":-0.2622900790301558,"26":-0.02262437940308893,"27":-0.01635414774524538,"28":-0.2055051836187895,"29":-0.20918706275077992,"30":-0.12840256508850362,"31":-0.1570424282554633,"32":-0.0027167411476991246,"33":0.047698360926333755,"34":-0.06289130878809698,"35":-0.24127031794263956,"36":0.02779070705853895,"37":-0.14804153181521573,"38":0.026934368875917436,"39":-0.17740917475620638,"40":-0.09591564169059807,"41":-0.10498466666735948,"42":0.04863864811603522,"43":0.053925304377185096,"44":0.05203351446632263,"45":0.02436324466556485,"46":-0.16696602362431304,"47":-0.008359133645572826,"48":-0.20088576051899779,"49":-0.04717566094971491,"50":0.003153693630226541,"51":-0.01616644911727363,"52":-0.05074083879231331,"53":0.17646537372409624,"54":-0.09868215536597764,"55":-0.009657176229882287,"56":-0.1365061006832602,"57":0.24248816427563583,"58":-0.15132363540227364,"59":-0.0659630638243346,"60":-0.19413697936786944,"61":0.009073190452577089,"62":-0.006464286457059809,"63":0.07523172840290215,"64":-0.08594561858506186,"65":-0.05371293360053905,"66":0.06280708365699834,"67":-0.14450551315797128,"68":-0.0662290117691336,"69":-0.14908083848239692,"70":-0.16557948313873935,"71":-0.12241413897622914,"72":0.08384821085395665,"73":0.21639744677315692,"74":0.039229346106528826,"75":-0.15801351245270753,"76":-0.006591593798827576,"77":0.03798436980926862,"78":0.03915452376798322,"79":-0.1564815937565101,"80":-0.2706983232170019,"81":-0.3287865487426076,"82":0.20011048091029182,"83":0.15187133368640612,"84":-0.14687069033423175,"85":-0.1331857217065701,"86":0.0916015244685428,"87":-0.06126080004964233,"88":0.15793216132348856,"89":-0.15269055974534718,"90":-0.12538206002794036,"91":-0.23890839150862309,"92":-0.02389568808220086,"93":0.04169152811127173,"94":0.09229366087460927,"95":-0.09980131504382767,"96":0.019473730425981346,"97":-0.04402026854359063,"98":0.14747132355808826,"99":-0.0029949244534567595}},{"sx":10,"sy":10,"depth":1,"w":{"0":1.4752625063620872,"1":0.9643135550890312,"2":1.3853423960857787,"3":1.1083603898731877,"4":0.6221279981299334,"5":0.017040394852622723,"6":-0.6747441998045864,"7":0.12585591777052044,"8":0.5228610496413241,"9":0.10852264687026353,"10":0.7211080680299394,"11":0.6993295269967029,"12":1.5367892784442483,"13":0.9513830579182836,"14":0.49909760720980384,"15":0.19143957141107604,"16":0.19164440070100142,"17":0.32438856306340913,"18":0.7701206329347969,"19":0.9397775842410384,"20":-0.4186570854285833,"21":-0.06890838457260517,"22":0.4165219785537294,"23":0.7307979059116385,"24":0.6415744004047714,"25":-0.010255796637540936,"26":0.20263754229237968,"27":0.34956153090586173,"28":0.36807843494814924,"29":0.07361648547235636,"30":-0.16157968537565345,"31":0.3347330594818293,"32":0.5833713361563352,"33":0.39634525069601045,"34":1.0440088738827482,"35":0.5897519216518717,"36":0.3097748464003693,"37":0.6453276279255918,"38":0.23982324846752018,"39":-0.06822612733289427,"40":-0.08483350920344326,"41":-0.06973821525422719,"42":0.041090967934830226,"43":0.12021703277252813,"44":-0.24798899151893075,"45":0.3104200072433161,"46":-0.14202232136408408,"47":0.0769156068056656,"48":-0.321142084003648,"49":-0.025405198900305032,"50":-0.34639833692967603,"51":-0.22993700300792666,"52":-0.20094631415525346,"53":-0.08648260526898563,"54":0.03238448218595892,"55":-0.17882489719546246,"56":-0.432048551366367,"57":-0.4064921543033973,"58":-0.09415832634271687,"59":-0.2884361699774258,"60":-0.3944791809537962,"61":-0.4416771972379937,"62":-0.47923909248774993,"63":-0.6469699156020626,"64":-0.26908774870637536,"65":-0.5474490557408228,"66":-0.6618123364929062,"67":-0.8223621200872266,"68":-0.8727819695383119,"69":-0.625715274610713,"70":-0.2689147061257667,"71":-0.4080230783826432,"72":-0.5951299390815267,"73":-0.7107445619077315,"74":-0.7713275844153223,"75":-0.537106327916504,"76":-0.6601080182728394,"77":-0.7573997948787594,"78":-0.7934287811318289,"79":-1.0408097172098043,"80":-0.19990002789614378,"81":0.009866316140768442,"82":-0.5470287850481641,"83":-0.67802039508126,"84":-0.5641043423777432,"85":-0.5708642811451052,"86":-0.4558687341380241,"87":-0.5848379791067866,"88":-0.7832189543649754,"89":-0.6715103157999067,"90":-0.2792813479717414,"91":-0.3579584324062909,"92":-0.18986138993912047,"93":-0.30799122811942214,"94":-0.5181944313414233,"95":-0.5458819492670715,"96":-0.4021615989111046,"97":-0.35643828834960006,"98":-0.4953988163667253,"99":-0.6107302045475578}},{"sx":10,"sy":10,"depth":1,"w":{"0":-0.647248180123136,"1":-0.9629634227739403,"2":-0.5113723693068872,"3":-0.39452998424464203,"4":-0.6474425177072173,"5":-0.07844487585005643,"6":0.16749320200968296,"7":0.5386314174411337,"8":0.3095010879527797,"9":0.7991425005306001,"10":-0.13944402784169696,"11":-1.153524936110849,"12":-0.547908275762058,"13":-0.9631341355509065,"14":-0.51930252972675,"15":-0.3288107452258785,"16":0.4693089758278187,"17":0.2503409800943883,"18":0.4324283683276273,"19":0.07368276882900707,"20":-0.793721478510789,"21":-0.7181195015821393,"22":-0.15852193151671456,"23":-0.8602339437658687,"24":-0.7483662606578884,"25":-1.075582516028163,"26":-0.7416704819703339,"27":0.03714636823915832,"28":-0.4957977166116911,"29":-0.2118434638286487,"30":-0.30075822964610927,"31":-1.0292397262431778,"32":0.44781789453408705,"33":-0.19802587986824113,"34":-1.1116429993381738,"35":-0.8976678631395744,"36":-0.42768135757143594,"37":-0.7471092194101306,"38":0.09453728020796584,"39":0.5093674372035067,"40":-0.05257674724825307,"41":-0.01839347445550495,"42":0.40612461880084616,"43":0.8114674398908689,"44":-0.7778812165682317,"45":-0.9282582133928845,"46":-0.8869661145835053,"47":-0.7925772543637885,"48":-0.5581494558081553,"49":0.23114341675846423,"50":0.20442204057561109,"51":-0.1539510372089625,"52":0.25420637782527467,"53":0.1389537320812393,"54":0.08168563445946257,"55":-0.7833324933612076,"56":-0.8666198945462789,"57":-0.8515995548199006,"58":-0.5769539350989464,"59":-0.7136132088885886,"60":1.051916708725634,"61":0.45737481207547076,"62":-0.179973029998976,"63":0.18218996435608828,"64":0.36507713119970187,"65":-0.17498754957400037,"66":-0.8686493062576001,"67":-1.1781186694208678,"68":-1.3134518255351235,"69":-0.8624303471960721,"70":0.15879442972903296,"71":0.8290937159672812,"72":0.7222935150189189,"73":0.3522986178430797,"74":0.7021237686213442,"75":0.4850476836848015,"76":-0.2789110036160085,"77":-0.7758525375651123,"78":-0.6587541789890855,"79":-0.868069475950054,"80":0.6314192539042942,"81":0.31216924743761204,"82":1.3424044344156585,"83":0.5966507364383626,"84":0.5940550126177324,"85":0.10413385869426209,"86":0.09423993693159993,"87":0.18964868348940458,"88":-0.03373176853035116,"89":-0.37298864582174535,"90":0.7196765640188268,"91":1.867226544646576,"92":1.929930465152949,"93":1.9540761761747873,"94":0.7093055968228864,"95":0.8626956203679494,"96":0.1267789842040931,"97":0.5398331765937048,"98":0.9667470088038523,"99":0.02165523725518861}},{"sx":10,"sy":10,"depth":1,"w":{"0":0.09117033769426064,"1":0.04993811358914913,"2":0.06158648105789963,"3":0.07111118211051694,"4":0.5713037753218746,"5":0.14983133059035658,"6":0.21679491660569553,"7":0.2608211893457507,"8":0.05829236977510552,"9":-0.037922390075701716,"10":-0.09872891299375036,"11":-0.14172761583910695,"12":-0.17653539252938663,"13":-0.4045991767056261,"14":0.14980046304321706,"15":-0.0011085915583079848,"16":-0.1448465363444132,"17":-0.1952886397779918,"18":-0.11787312875367598,"19":-0.2353971874801858,"20":-0.29065489736863187,"21":-0.2647033910023961,"22":-0.1545439292084127,"23":-0.1985102633368391,"24":-0.16300189010716906,"25":0.2115596656163995,"26":0.2192987341980234,"27":0.12961342012610652,"28":-0.08685062396771867,"29":0.015054285308959683,"30":-0.467404219490789,"31":-0.425688903002751,"32":-0.07069355096664352,"33":-0.2511359620907728,"34":-0.03850821002185258,"35":-0.16619360750298484,"36":0.08490355134484703,"37":0.19409527425628464,"38":0.14406376732004778,"39":-0.0335152742761831,"40":-0.4631464851920472,"41":-0.5053809912969275,"42":-0.6384887072064492,"43":-0.004368707162169436,"44":-0.29496861521502876,"45":-0.047346336434113345,"46":-0.10784183614952983,"47":0.39910444636904513,"48":0.15170704278519284,"49":-0.16886108862273494,"50":-0.3549384378399113,"51":-0.2886901108717446,"52":-0.5249953005218148,"53":-0.332779290645328,"54":-0.4778120913848588,"55":-0.4081759095979592,"56":-0.36930066538030853,"57":-0.07757602630646394,"58":0.2971672533846106,"59":0.22933181778676345,"60":-0.6810209412206135,"61":-0.48642035675680184,"62":-0.26503429610688906,"63":-0.271365023784849,"64":-0.25005026422987287,"65":-0.264356346901981,"66":-0.4753538398294512,"67":-0.38740144172322316,"68":0.01965955131800676,"69":0.23003781251848537,"70":-0.8348357388553772,"71":-0.862389808822227,"72":-0.8306920584444569,"73":-0.5550455060203957,"74":-0.5196801398890684,"75":-0.6130701776277767,"76":-0.2905504462437157,"77":-0.4108598166689478,"78":-0.4884248906699981,"79":-0.026013753264615608,"80":-0.883411340429658,"81":-0.8871105146549181,"82":-0.8319622410246218,"83":-0.833945135289943,"84":-0.8316885662047735,"85":-0.5214155629828122,"86":-0.499019422721246,"87":-0.4118278732934759,"88":-0.6357591775993975,"89":-0.4230940828784051,"90":-0.5137839315327052,"91":-0.6331199369530407,"92":-0.6939240367175126,"93":-0.5583563586822448,"94":-0.4824259097586748,"95":-0.340260806141245,"96":-0.43876196764667214,"97":-0.3206647941454087,"98":-0.582187577983659,"99":-0.46970999824636367}},{"sx":10,"sy":10,"depth":1,"w":{"0":0.7742627524842192,"1":0.604121913991793,"2":0.5443555668265289,"3":0.2748634063614971,"4":0.03067112273499023,"5":0.1688245675579922,"6":0.16732169342652717,"7":0.3000043554317481,"8":0.23846895510179228,"9":0.6685574196008359,"10":0.7688638288003746,"11":0.5129161489858961,"12":0.06406031571655675,"13":0.20886749917916878,"14":0.41554736793437747,"15":0.294717974765226,"16":0.1735384739155732,"17":0.30250581220411193,"18":-0.007928761659332867,"19":0.35246391070077593,"20":0.7634238242987366,"21":0.44473964813268635,"22":0.0713602300943658,"23":-0.04609717450386772,"24":0.206250447534205,"25":0.009002805146326471,"26":-0.03188976648251201,"27":-0.169516014972502,"28":0.030089518628696844,"29":-0.3018400458507518,"30":0.4438852380481924,"31":-0.0026073637500956463,"32":-0.28567234493792276,"33":-0.16433182025545104,"34":-0.07973215603546749,"35":0.07643401194961967,"36":-0.099089763560791,"37":-0.15136149693023115,"38":-0.31604178487096257,"39":-0.08958391036881386,"40":0.36354695832245654,"41":0.05618791567871795,"42":-0.271412520657656,"43":-0.19781904342795323,"44":-0.4466692996303992,"45":-0.051838876073644256,"46":0.0562312121105381,"47":0.006650159150769043,"48":-0.14472918933422074,"49":-0.40620024695188206,"50":0.19629855840493277,"51":0.12224836977789394,"52":-0.20822110939164645,"53":-0.3793005809741501,"54":-0.12954904161051803,"55":-0.4509455138499047,"56":-0.32409808713122257,"57":-0.10486549279026178,"58":-0.2670940712638989,"59":-0.12017420996579922,"60":-0.17355949972182325,"61":-0.04347079019431553,"62":0.006327503838752667,"63":-0.12173609909397219,"64":-0.21798080817949758,"65":-0.1003023944666495,"66":-0.30177328480773774,"67":-0.18108274544935712,"68":-0.10050784478146656,"69":-0.21293088506001195,"70":-0.2667139312962364,"71":-0.13932550882667927,"72":-0.01422158971251725,"73":-0.13079678656601224,"74":-0.03237064592429743,"75":-0.1695146216877213,"76":-0.0671444428659097,"77":-0.18707888906922174,"78":-0.00792094715974917,"79":-0.1513546651602783,"80":-0.16414889975745184,"81":-0.1789688736273945,"82":-0.3170409081476343,"83":0.006588890926626362,"84":-0.013617768306933616,"85":-0.18127482720883506,"86":-0.33633118048248734,"87":-0.23515016793579221,"88":-0.07620422126810356,"89":-0.28906836403361785,"90":0.13957904990315476,"91":-0.13455880653841634,"92":-0.34558123837892757,"93":-0.2394308159817859,"94":0.049518487419509434,"95":-0.0802113746932076,"96":-0.2076619924848837,"97":-0.4166395331498532,"98":-0.21860531558762197,"99":-0.18863946419376035}},{"sx":10,"sy":10,"depth":1,"w":{"0":1.7380264458482482,"1":1.9348673742449023,"2":1.7667612706321913,"3":1.6070000844644754,"4":0.594670419895653,"5":0.29243115073481224,"6":1.671218692308889,"7":1.640027656562158,"8":1.5504964783075077,"9":-1.711825845348657,"10":1.4552392361715456,"11":1.7299396225426587,"12":1.8709391768762627,"13":1.0081160513277392,"14":0.47126746185513796,"15":0.16780476569459946,"16":0.8565792397412327,"17":1.8839479781335187,"18":0.9264907991287905,"19":1.1603113597446577,"20":-0.02762039470100474,"21":0.268134889726296,"22":0.4904603033028653,"23":1.2156784887732957,"24":0.5490154901100647,"25":0.19431947594227755,"26":-0.8478985679086087,"27":0.5771093286661563,"28":1.1969721725073845,"29":0.4662799021449766,"30":0.46579326914874547,"31":-0.13342979367208727,"32":-0.15730082839392148,"33":0.04241537672731689,"34":0.3025764219157526,"35":-0.34817295968873857,"36":-0.04928558236096596,"37":-0.6733889688720434,"38":0.4557820346124075,"39":0.6735272662326617,"40":0.33838016204192,"41":0.5442701689841325,"42":-0.28696244941282045,"43":-0.34776554918779945,"44":1.1050983455095307,"45":0.35001474688428635,"46":-0.3388606884552793,"47":-0.10390213225553493,"48":-0.30042388612194443,"49":0.6298006831874068,"50":0.2658440515915781,"51":-0.09882248135490823,"52":0.09474619139828507,"53":0.8044865599814965,"54":0.416796905093374,"55":0.5144876162732309,"56":-0.5260276365919352,"57":0.008955870755768801,"58":0.3954111509900444,"59":0.4244320626511064,"60":1.7954722666239191,"61":1.4685794003157375,"62":0.7927394332308535,"63":0.39491131250683353,"64":1.004418806135508,"65":0.03853255874560363,"66":0.4430928536325474,"67":0.13410288227781694,"68":0.7477421336938642,"69":0.9592129997425553,"70":1.4760621441520367,"71":2.396006783487311,"72":2.01770567296003,"73":0.9619968363546826,"74":1.4033560156705038,"75":1.985482412023714,"76":1.4958847966204882,"77":0.20525210066120403,"78":-0.3650976696796169,"79":0.6974400822032614,"80":1.1027468360284056,"81":0.7052867810185186,"82":1.2608028471058932,"83":1.8621481942711535,"84":0.33533945157344575,"85":1.6594389665519886,"86":1.9897847914354654,"87":1.5835480105433144,"88":-0.8117814530258217,"89":-0.2698942523267263,"90":0.5396288588279833,"91":0.4418189389264885,"92":0.08850063074038958,"93":0.3179441583658396,"94":0.93420798317542,"95":0.3039148528488927,"96":0.990805587617458,"97":1.1040607051073548,"98":0.5335520484284334,"99":-0.15179977872870132}}],"biases":{"sx":1,"sy":1,"depth":8,"w":{"0":0.0002684020791301549,"1":1.0635648415563754,"2":1.439257999729157,"3":0.020198068645593148,"4":1.7395916832945526,"5":0.2727313694895846,"6":1.3843252246827558,"7":2.2543049690477655}}},{"out_depth":8,"out_sx":19,"out_sy":39,"layer_type":"relu"},{"sx":5,"sy":5,"stride":5,"in_depth":8,"out_depth":8,"out_sx":3,"out_sy":7,"layer_type":"pool","pad":0},{"sx":5,"sy":5,"stride":2,"in_depth":8,"out_depth":20,"out_sx":2,"out_sy":4,"layer_type":"conv","l1_decay_mul":0,"l2_decay_mul":1,"pad":2,"filters":[{"sx":5,"sy":5,"depth":8,"w":{"0":0.2350394869022433,"1":0.1416236601031141,"2":0.054807296150290126,"3":0.1309704171753078,"4":0.17438533580197876,"5":0.06941709492311694,"6":-0.07791764841192074,"7":0.12471073927456802,"8":-0.0985439562733069,"9":-0.38461539015726365,"10":0.06958517658589168,"11":-0.10865416701320381,"12":-0.27000371121361977,"13":-0.03862910195920009,"14":0.003730176545429313,"15":-0.17151736177657706,"16":0.10750917765363012,"17":-0.2482549367983981,"18":-0.1177261425913147,"19":-0.04692771890024269,"20":0.07139875825749659,"21":0.025161501758960297,"22":0.2760050881316256,"23":0.08597765214192739,"24":-0.011286561751627622,"25":0.16898978122599573,"26":-0.11714006552664899,"27":0.186857951661738,"28":0.11551660560023376,"29":-0.05759922738753507,"30":0.21058400217077872,"31":-0.09955559564181464,"32":-0.08656677570723928,"33":0.0574148933060938,"34":0.001321344531870447,"35":-0.08190656678466197,"36":0.0876930755927107,"37":-0.021612231522665712,"38":0.07072949919846415,"39":-0.1441803603983595,"40":0.19836609693536844,"41":0.28080090802975854,"42":0.11171788367246058,"43":-0.09505278574403739,"44":0.07152335734561685,"45":-0.09045607284173683,"46":-0.04300103702535166,"47":-0.21497461951985053,"48":0.17529193398833312,"49":-0.2910321528389616,"50":0.16460933177947343,"51":0.15612899409903744,"52":-0.04199378260671498,"53":-0.010275461551231225,"54":-0.01401333744984841,"55":0.5860990690479762,"56":0.04240536865213927,"57":-0.6307420190805749,"58":-0.04430432662689761,"59":-0.2445926901260724,"60":-0.062088066107948016,"61":-0.14551996727086833,"62":0.24933524279475264,"63":0.46404630147461856,"64":0.059951555111466714,"65":-0.1775908837964952,"66":0.007637127842332703,"67":-0.009652642740288278,"68":-0.011077411036482484,"69":0.01945146093595095,"70":-0.0016475077573243997,"71":-0.6037737093644393,"72":0.04434871209985149,"73":0.27326522112139573,"74":0.07709222609334415,"75":0.17320728800076474,"76":0.12535187376576717,"77":0.05580959909239187,"78":0.06554719054777294,"79":-0.13055225076779678,"80":0.02965379067540651,"81":-0.06051576181443885,"82":0.36385806616924676,"83":-0.04997283639282777,"84":-0.003104677144995633,"85":0.0748253251894882,"86":0.10476159757541328,"87":0.25485943888116935,"88":-0.26206560894669034,"89":0.6713994611009059,"90":0.21968305627760637,"91":-0.0571198915872411,"92":0.28209617670634446,"93":-0.1165250194354404,"94":0.21102367340490202,"95":0.1988726235514363,"96":-0.17780117035618997,"97":0.20551234859159898,"98":0.018107726033615806,"99":-0.6181276162024082,"100":0.31840400161119026,"101":-0.3001341923962566,"102":0.04231350925156609,"103":-0.04362970379938066,"104":-0.036040913303756264,"105":0.12568276311901405,"106":-0.03914227612069524,"107":-0.03387629774714661,"108":0.0951870464920188,"109":0.031181478092135742,"110":0.009585348564944855,"111":-0.1755404800013775,"112":-0.0513901872287384,"113":-0.01842993242755755,"114":-0.010255153045841207,"115":-0.07890735095733044,"116":0.14480277713118755,"117":0.032769742177298694,"118":0.0005473624367147214,"119":-0.17833951782834473,"120":0.04135285566468569,"121":0.027661152194210076,"122":0.18131243711036243,"123":-0.009618124345988077,"124":0.059027620524976884,"125":0.12348929493213094,"126":0.1360391037131325,"127":0.2651538970599737,"128":-0.23746596208422258,"129":-0.22672279652252408,"130":0.26304505400557,"131":-0.507284522961048,"132":0.12458106546611283,"133":0.12161159753116323,"134":0.31131683757020606,"135":-0.15230240489765548,"136":-0.2349801853384302,"137":-0.08876041476386269,"138":0.24292606737972938,"139":-0.06606954398593964,"140":-0.13742846457201077,"141":-0.12635565745354457,"142":0.12497890742059509,"143":-0.15929309339058442,"144":0.017963526610435706,"145":0.014236524631950779,"146":0.03703569709512594,"147":-0.06699861433904647,"148":-0.02731370272608499,"149":0.010155757640753446,"150":-0.04919946413465798,"151":-0.08215560999309646,"152":-0.0462460184803842,"153":-0.2161418466309206,"154":0.024143053308006167,"155":0.1253742316045149,"156":0.14000145822346802,"157":0.15350341243004792,"158":0.05141016393999063,"159":0.011058526243237995,"160":-0.23039540906155373,"161":-0.29177966591196114,"162":0.4064939563583124,"163":-0.21360503201086511,"164":0.28811711404359347,"165":-0.24552386009791285,"166":0.07436834926542138,"167":-0.2263211428414365,"168":0.025226699662075934,"169":-0.04044042625235147,"170":0.5127442849310375,"171":0.3216021998230336,"172":-0.07589055903306875,"173":0.1973909289940383,"174":0.204779069024437,"175":0.01973898892232194,"176":-0.08530332719558432,"177":0.19526562246858734,"178":0.06871913758717428,"179":-0.30362544247599854,"180":0.36236004087362894,"181":-0.2202704940583511,"182":0.2721743000257898,"183":0.23838839087575356,"184":0.08390647300917888,"185":0.11689196138324236,"186":0.012904284982690403,"187":-0.2415546762693955,"188":0.13081068412303823,"189":0.02866840738783146,"190":0.029527794506362812,"191":-0.08065992749715598,"192":0.020021464513122613,"193":0.24330950408404925,"194":0.13385324173337115,"195":-0.026910062274412897,"196":0.12327201587835605,"197":0.061764701441565234,"198":0.10651793516024469,"199":0.09259254067988779}},{"sx":5,"sy":5,"depth":8,"w":{"0":0.35709444394690476,"1":-0.011351620079884547,"2":0.0020225534211741124,"3":0.5280308681970488,"4":-0.04248804980991162,"5":0.32723048905104446,"6":0.24580388174419132,"7":-0.1761090948564593,"8":-0.11036727143286945,"9":-0.4285221110060101,"10":-0.13408116246440735,"11":0.36609397280458833,"12":-0.19487885160075474,"13":0.09744508133702227,"14":-0.20628705113634732,"15":0.1504237476126793,"16":-0.4239056689677783,"17":0.10259803982192199,"18":-0.21479641517163425,"19":-0.4802384292225608,"20":-0.3779160560457363,"21":-0.40987190119970335,"22":-0.4727999717983313,"23":-0.016840973026717637,"24":0.038717929179085266,"25":-0.3844706612968101,"26":-0.07107740997469726,"27":-0.039189858722952685,"28":-0.09874951085730427,"29":-0.13238487226053064,"30":-0.17188024676794375,"31":-0.14881822992592433,"32":0.14104177627943415,"33":-0.22415127350983166,"34":-0.1523906091522974,"35":-0.06260839414402908,"36":-0.24063269464837236,"37":0.012849365586576575,"38":-0.19579284467559716,"39":-0.5150257910018976,"40":-0.43658900690035957,"41":0.2951109137188581,"42":0.031877967388995294,"43":-0.029267014052839928,"44":1.0099477252676328,"45":-0.11373515713740154,"46":0.06395308637338581,"47":-0.14898092297304963,"48":-0.02581364234248319,"49":0.16760367653031258,"50":0.23224913533014152,"51":-0.36199505182800146,"52":-0.3323059838341707,"53":0.057875118846572204,"54":-0.10421976480885124,"55":0.1078796113579664,"56":-0.6870335568607863,"57":0.18613988375173807,"58":-0.003486083192254105,"59":0.08681994709844224,"60":0.08473562285957675,"61":-0.5073507487555484,"62":0.22927948897514613,"63":-0.009415212177323466,"64":-0.4356664005633384,"65":-0.30303718466851426,"66":-0.21347290677101446,"67":-0.18779970970501603,"68":-0.2618413347080262,"69":0.11041112589299937,"70":-0.2050248372755527,"71":-0.2729735197764709,"72":-0.478573767773525,"73":-0.07601383763626371,"74":-0.24337315820683145,"75":-0.057874799857752006,"76":-0.11311243246473918,"77":-0.4109432251526592,"78":-0.3614855729380981,"79":-0.36826021980129114,"80":0.1852378454000993,"81":0.21556424415975906,"82":0.1004952894715815,"83":-0.09529747621151533,"84":-0.05901756725877154,"85":-0.2422430290020422,"86":0.2608479933251326,"87":0.20829539996881352,"88":-0.011368566496909668,"89":-0.3971910467653233,"90":0.282972451035571,"91":-0.26039291711728774,"92":-0.09006329012179216,"93":-0.46025215584742946,"94":0.5651009067748949,"95":-0.15821276295968895,"96":-0.04573087191046106,"97":-0.5982337084581132,"98":-0.03148708198360625,"99":0.24893746887627988,"100":-0.4833926449651775,"101":-0.09446335750819969,"102":0.1311709395767653,"103":0.21685344641334145,"104":0.2093929791188863,"105":0.38555446121243236,"106":-0.06584476401384083,"107":0.3256676758916428,"108":0.3700425248096028,"109":0.08423346093328389,"110":-0.04876022230456852,"111":0.35395076745866705,"112":0.03560314480644075,"113":0.2873617424883507,"114":0.20671189368546375,"115":-0.23555206575318993,"116":0.41419658144459853,"117":-0.0763824070093808,"118":0.19270058967224396,"119":-0.3006615410255922,"120":0.3265517640042914,"121":0.47667822936659154,"122":0.06663549273240363,"123":-0.1107200364356528,"124":0.5645365852882992,"125":0.21115712929734326,"126":0.1291352251962259,"127":-0.36772880599575364,"128":0.21481389760363376,"129":0.6528652545764183,"130":-0.1297748208365235,"131":0.10243347984878717,"132":0.3492700956885686,"133":0.2541011461736635,"134":0.1577473317201865,"135":0.19268285261482712,"136":-0.04090124108200228,"137":-0.08568620145896765,"138":0.05464787926645999,"139":-0.22842217429128372,"140":-0.35056312825613795,"141":0.0029845260841005737,"142":-0.07582786536399143,"143":0.29639944326183554,"144":-0.3230687532693843,"145":-0.2760486433470051,"146":0.04946994716776958,"147":0.3012268484840498,"148":0.1304785415059876,"149":-0.04865386964483078,"150":0.016578637030874952,"151":0.12871069600263,"152":0.05682863437999001,"153":0.08129901771178871,"154":-0.0662643937342149,"155":0.921483582303882,"156":0.2032000890662786,"157":0.10600592386724315,"158":0.5042847524094725,"159":0.43588582887087723,"160":0.004900551531482369,"161":0.04473552524262128,"162":0.1655775756604083,"163":0.10570633934706006,"164":0.2993467544467526,"165":-0.23151767789638628,"166":0.3179275898026326,"167":0.19002254161883372,"168":-0.06768346058887671,"169":0.9077256458495081,"170":-0.12703063663880582,"171":0.16676273401838373,"172":0.4105709388265136,"173":-0.07958732713800097,"174":0.0562629489048332,"175":-0.021823892262063452,"176":0.04061796893700125,"177":0.2406773443386321,"178":-0.013090884637423738,"179":-0.6495701641433077,"180":0.08371417265661601,"181":-0.13041591676051842,"182":0.09116471423341507,"183":-0.18495234791544077,"184":0.26716675390336303,"185":-0.31234190756766805,"186":0.08796555150615655,"187":-0.029776806443204865,"188":-0.08207685804525151,"189":0.04273144400272649,"190":-0.003756638580615097,"191":0.08813498070145576,"192":0.33231474593302596,"193":-0.4032571024404608,"194":0.15238328361334116,"195":0.32572646418324624,"196":0.1811356195055175,"197":0.2850461057947853,"198":0.3743296869333648,"199":0.008670177402123426}},{"sx":5,"sy":5,"depth":8,"w":{"0":-0.1756382731468049,"1":-0.6583313635100239,"2":0.23697399227288088,"3":-0.3556373261047272,"4":-0.30741428674302207,"5":-0.07733838916619896,"6":0.2219812330396394,"7":0.06342821725018612,"8":0.028346963476951884,"9":0.03688619090384501,"10":0.4267138447209775,"11":-0.5086507837175953,"12":0.21171627806289905,"13":-0.026450010784006956,"14":0.5768011041617396,"15":-0.0428535824106804,"16":-0.06281907908516983,"17":-0.049754785496246914,"18":0.19321620581430382,"19":-0.15628477618204187,"20":-0.027834723466830764,"21":-0.049828496918800494,"22":0.3582918768774637,"23":0.02660115056459706,"24":-0.16579759181046277,"25":-0.09459133493468691,"26":0.025105083604796245,"27":0.26349204878990384,"28":0.14709562773724497,"29":0.057598392712567975,"30":-0.04819660180084625,"31":-0.20942487974599205,"32":0.03195750369492275,"33":-0.25799227512577105,"34":0.11027615970557883,"35":-0.23499591953881338,"36":0.04413854515449452,"37":0.03273859095964287,"38":0.04152245288235032,"39":-0.2413722559598336,"40":0.06314492097937997,"41":0.45895996872615913,"42":0.2196562787372485,"43":0.3017389249288179,"44":-0.03742445984998461,"45":0.13937363707410774,"46":0.47094693934624665,"47":-0.2807329620911545,"48":0.008945905728700377,"49":0.2909605446497233,"50":0.20461849638138965,"51":-0.3273407715400283,"52":-0.16572625673772462,"53":0.08944500133345488,"54":0.24087504988573843,"55":-0.03524556981690594,"56":-0.2472358672343757,"57":0.06724994362813012,"58":0.14678049896598488,"59":-0.2649571791898217,"60":0.0772638170359604,"61":-0.14764164407310149,"62":0.1418400632778414,"63":0.22419891199448508,"64":-0.3412237703802051,"65":0.0007492003512555741,"66":-0.047395528474623125,"67":-0.08773300664523417,"68":-0.06312063531069774,"69":-0.2153984063150455,"70":-0.06079735816332027,"71":-0.10353572412021389,"72":0.21139733202489927,"73":-0.2013181036812338,"74":0.011109259342369332,"75":0.07040377496799415,"76":0.01569568691763999,"77":0.1796185271558768,"78":0.08605588497186312,"79":-0.29180723607958436,"80":-0.10964020111823586,"81":0.19467489821774145,"82":0.5379515567492893,"83":-0.02461552246342629,"84":0.39140364480684176,"85":-0.08794043182384413,"86":0.23159089647001177,"87":0.05144854298904066,"88":-0.05993742117465532,"89":0.18028323834784266,"90":0.39915160978859876,"91":0.17064806756635229,"92":0.2285407634442253,"93":-0.4259957082261452,"94":0.2283151479482731,"95":0.07067017216535035,"96":-0.15467805890028744,"97":0.30400507581383357,"98":0.37717012110262454,"99":-0.2481521718528202,"100":-0.3490787299481015,"101":-0.22058396060046273,"102":0.22693074686220163,"103":-0.295713481015873,"104":-0.036654696483403526,"105":0.2964205234627824,"106":-0.25078728325295074,"107":-0.09101218196250614,"108":0.028167109450651606,"109":-0.00714528463577297,"110":-0.3447497828080609,"111":0.21403813635352123,"112":0.15179219981702682,"113":0.13875032038535448,"114":-0.0938693600941516,"115":0.2087233403492176,"116":0.1227490713321234,"117":0.11073579236960694,"118":-0.14409559411843773,"119":0.15556159631961483,"120":-0.11233938665159579,"121":-0.08710402140259432,"122":0.34613288290646527,"123":0.11207454391774305,"124":-0.007628893000571656,"125":-0.2984522804520762,"126":0.32344938223595315,"127":-0.2498604443014944,"128":-0.08773778955299545,"129":0.07874061112831815,"130":0.40736740356339857,"131":-0.11710862685731456,"132":0.1093323446091958,"133":-0.034574109957646634,"134":0.12345461770289876,"135":0.10495160001039826,"136":0.1367211813195922,"137":0.07769242809082373,"138":0.25346220354125726,"139":-0.16697611392370104,"140":-0.12737779972999472,"141":-0.15635111801191237,"142":0.22023057090693265,"143":-0.416861287976256,"144":0.15929992990832223,"145":0.10975767861709335,"146":-0.13627254015508503,"147":-0.09400028012038464,"148":-0.12317284219330818,"149":0.02063222886043137,"150":-0.11481973597467289,"151":-0.07687426699997427,"152":0.19848627549979694,"153":-0.20159880022112067,"154":0.12524035849646875,"155":0.1765326393599488,"156":-0.2883747981212699,"157":0.11389351738843419,"158":0.23826878895811704,"159":-0.40381754521678553,"160":0.10328818189911132,"161":0.04715497242660182,"162":0.39790568281208827,"163":-0.07746098542389533,"164":0.11341785648351967,"165":0.15387868457560444,"166":0.3642270898057974,"167":0.2244844358701408,"168":0.11193193085877394,"169":-0.4540332565609884,"170":0.5148552651568384,"171":-0.19539813552735547,"172":0.1258912708379952,"173":0.08918462265856324,"174":0.39420329346896826,"175":-0.25574266278979046,"176":-0.055702430712621494,"177":0.02385980105473116,"178":0.38369020699722894,"179":0.0036757364385149155,"180":0.264572711995956,"181":-0.013066800084571057,"182":0.46642448458726554,"183":-0.10559658926261155,"184":-0.07055044142026098,"185":-0.0346896595595807,"186":-0.07019358185700379,"187":0.06801501200355595,"188":-0.18089988375019642,"189":0.10161805725484455,"190":0.03786141641597327,"191":0.038461382034052985,"192":0.20827831989746073,"193":-0.5195438231800695,"194":-0.09902894668105573,"195":-0.7559684240676695,"196":-0.3079982126838918,"197":0.05856597430360804,"198":-0.00769670222254498,"199":-0.14403665821713035}},{"sx":5,"sy":5,"depth":8,"w":{"0":0.09476951324515004,"1":-0.01569236759837524,"2":-0.02784349186687448,"3":0.03131606633419293,"4":-0.03717208830589566,"5":0.055508336408925864,"6":0.040604014748940015,"7":0.05433276578679766,"8":-0.04680241198992479,"9":-0.03890357227551242,"10":-0.07950298379327936,"11":0.008416128610927671,"12":-0.009714985708191844,"13":0.03135656545396132,"14":-0.02644719988659535,"15":0.09119402072265634,"16":-0.09307656636750572,"17":-0.21628444684496106,"18":0.14551906302217346,"19":-0.332297444300415,"20":-0.05455773730454123,"21":-0.09302157179400464,"22":0.42010389636533063,"23":0.16462647203340977,"24":-0.2155285038716115,"25":0.13335687077321381,"26":0.19732908430386234,"27":-0.20566145860708748,"28":0.403769603720203,"29":-0.11386024505348952,"30":0.5003402589569583,"31":-0.11422406531681094,"32":0.11379299960274329,"33":0.28387418671639775,"34":0.25457791966126,"35":0.4161871138050605,"36":0.2914238259856682,"37":0.3162655285422526,"38":0.05784313303652754,"39":-0.030109296876363302,"40":0.013057268708964174,"41":0.010251280201305365,"42":-0.04552899334213056,"43":-0.05091363423390807,"44":-0.07584365062606821,"45":-0.07734922690391081,"46":0.010989175772906179,"47":0.01945081069677391,"48":-0.025631715809480676,"49":0.025404996800026024,"50":0.004095002286977132,"51":-0.05867631125878313,"52":-0.13597384845578717,"53":0.05558681373465381,"54":0.06874723992844028,"55":-0.004727049356793649,"56":-0.07387668575801043,"57":-0.020466342485749075,"58":0.061526442205901206,"59":0.3529124412258366,"60":0.17836361001828366,"61":0.21203060251166236,"62":0.08245814835687858,"63":-0.4008061803515347,"64":-0.1513780608180125,"65":0.08340283056887708,"66":0.19462631866484947,"67":0.22667508308382034,"68":0.2408322348794237,"69":0.04812967112346538,"70":0.4602049602701779,"71":-0.14142586937328933,"72":0.07258847729015921,"73":0.8192211688416141,"74":0.3469617649907576,"75":0.05153790667772427,"76":0.2982749100883982,"77":0.1525998224391231,"78":-0.12573276641768047,"79":0.2045120598621726,"80":-0.03836965616674541,"81":0.007073657482258739,"82":-0.005734838742471213,"83":-0.040806469388597555,"84":-0.008779097708855751,"85":-0.0014328549289443662,"86":0.0518671844511109,"87":0.003526378070283234,"88":0.06319051021499489,"89":-0.08913252830912097,"90":-0.0233591168167821,"91":-0.06755913707141449,"92":0.03396293202104836,"93":-0.04112623519560605,"94":0.06270623621706102,"95":-0.027665343214353186,"96":-0.05758598211795635,"97":-0.014715919450859021,"98":0.05572377664839803,"99":-0.09253921215640802,"100":-0.342872304241029,"101":0.02101500840412357,"102":0.18581031903069592,"103":0.17965542780192845,"104":0.04700050912013093,"105":0.14585422343677304,"106":0.33103658978081707,"107":-0.14253840506052562,"108":0.398745172760178,"109":0.21269645260508857,"110":0.3320448532242391,"111":0.02471496508627843,"112":0.10497233833886506,"113":-0.3362674756590442,"114":0.43783174312576295,"115":-0.10555705781046837,"116":-0.252196140698202,"117":0.4702062793382729,"118":-0.2981273748527432,"119":0.14500747061036515,"120":0.01037606551058403,"121":-0.15313023441008664,"122":-0.07188582222651904,"123":-0.012395976728998516,"124":-0.06794655570704265,"125":0.02909588755993671,"126":-0.05811123630355959,"127":0.013268322172232205,"128":-0.044940247618659813,"129":0.0422999464945708,"130":0.027695557029383998,"131":0.03775685245437193,"132":-0.017096254563186232,"133":0.006238426030400713,"134":0.02260210608300814,"135":-0.006454071334923665,"136":-0.28036508275708427,"137":0.8542428939472126,"138":0.4956050359890875,"139":-0.009441592151149774,"140":-0.11882372396034331,"141":-0.25248535319462506,"142":-0.21450866867130086,"143":-0.0022585433521006364,"144":-0.2172316612870478,"145":-0.4241241134051903,"146":0.1085019238281005,"147":-0.4943795639157427,"148":-0.2965836540465734,"149":-0.3951190967656344,"150":0.006555600608112137,"151":0.018304755055862976,"152":0.1762999888425585,"153":0.31248412525413305,"154":0.12108741727029085,"155":-0.22181018610671857,"156":0.29570222605471536,"157":0.25980764001753703,"158":0.013586879578352577,"159":-0.09322479990018603,"160":0.024706537241947418,"161":-0.04365044649949195,"162":0.02735950180901576,"163":-0.09811592686918735,"164":0.012289643202304024,"165":-0.047011545464589403,"166":0.04450584941464714,"167":-0.06468144098006785,"168":-0.007653015936980416,"169":-0.042312274384868426,"170":-0.06401540236999073,"171":-0.04999755497276984,"172":-0.08609217352037196,"173":0.014548370795781479,"174":0.024155681271584056,"175":0.0057836495866585135,"176":-0.14007949458484456,"177":-0.13201916467038483,"178":0.26271664115768556,"179":0.20421733006235226,"180":0.04100523107322351,"181":-0.446904563081999,"182":0.1328840832572099,"183":-0.3196165372615687,"184":-0.02613696558019924,"185":-0.20081366012931717,"186":0.3945166030099469,"187":0.03924266199781668,"188":0.4025528400296059,"189":-0.0648884666936291,"190":0.28695119922927154,"191":0.2412557337287297,"192":0.09027582246789885,"193":0.10489684181907093,"194":0.390567969829452,"195":0.0026648716852064967,"196":-0.034430940286387546,"197":0.3663530735893218,"198":-0.14500125134586034,"199":0.23808208911828888}},{"sx":5,"sy":5,"depth":8,"w":{"0":0.056265974340752915,"1":0.08552284355924576,"2":0.46716802854267286,"3":0.11446183785985559,"4":0.017259064221122777,"5":0.2167919472175424,"6":0.09358445736814712,"7":0.05451725058939851,"8":-0.24143688361021526,"9":0.17094298807765082,"10":0.2821979624223919,"11":-0.9244480503194246,"12":0.15653055740620517,"13":0.06863303826243809,"14":0.14033782903781092,"15":-0.27148320224047184,"16":-0.2263514396604285,"17":0.28772662769937374,"18":0.14647686803465376,"19":-0.1633486152619076,"20":0.08390261253385124,"21":-0.03001823033394161,"22":0.020511043692097997,"23":-0.17542732195058836,"24":0.17793806652544383,"25":-0.21158862490822963,"26":-0.2129345719424871,"27":-0.05182808941597172,"28":-0.0462607959603271,"29":0.01734175681668463,"30":-0.3605208991223941,"31":-0.06263527067261787,"32":0.03710461661141406,"33":-0.035327638746850146,"34":-0.08428417983979845,"35":0.024596021091947976,"36":0.28563339616406286,"37":0.03287280086297208,"38":-0.2413846046490573,"39":-0.12197776217920221,"40":0.2426692425272723,"41":0.16791529674528932,"42":0.6039496875204375,"43":-0.18939261307824312,"44":-0.6546720161599774,"45":-0.003935869985339211,"46":0.2411966321719028,"47":0.14800089181331524,"48":0.24310314076731349,"49":0.04007841589509535,"50":0.5363434578435965,"51":-0.22099174523700085,"52":-0.07983558920805892,"53":-0.10633064694681625,"54":0.3888355516093228,"55":0.5199646451260389,"56":0.10052536862792447,"57":0.0021530793505749432,"58":0.4588360285103535,"59":0.1033374932169277,"60":0.23052473961959688,"61":0.2703461440691987,"62":0.2236663370695631,"63":0.03998400450724525,"64":0.03875486205600694,"65":0.01965856925198979,"66":0.13868042476691858,"67":0.553536332024452,"68":-0.09072308010767183,"69":0.08705319489756916,"70":-0.10314748993968184,"71":0.3500253095012433,"72":-0.16945160988604976,"73":-0.09415004590428575,"74":-0.1463385938551216,"75":0.06684760359290451,"76":-0.5001475910146927,"77":-0.38980565234907283,"78":-0.1578686852900674,"79":-0.22753020399623444,"80":-0.1429555032958336,"81":-0.49301259356956534,"82":0.03600734641497728,"83":-0.27825220342103124,"84":0.006863956172394891,"85":0.12594455478943103,"86":0.3277125383559485,"87":0.22035930867514394,"88":-0.10174934350144806,"89":-0.240459709508059,"90":0.1165039911181298,"91":0.3280765136981739,"92":-0.028516468194385476,"93":0.2264318579357055,"94":0.742570811376457,"95":-0.035163617337633124,"96":0.10921408262603165,"97":-0.09244409529835051,"98":0.13648781785169672,"99":0.05946498398675373,"100":0.034902773984968445,"101":0.07302906715637801,"102":-0.023400581476791266,"103":0.05658445605467031,"104":0.0333446332096345,"105":-0.3089346362097648,"106":0.37827473146139257,"107":0.001112458439484352,"108":-0.292118365363,"109":0.08073162219329277,"110":-0.01943083601020939,"111":0.4120729269546094,"112":-0.43756193305403884,"113":0.048936251242198255,"114":-0.18089966855979125,"115":-0.08342373774278412,"116":-0.2980146279346012,"117":-0.046896870075366234,"118":0.17110783340711502,"119":0.2690513161059543,"120":0.15990009603771968,"121":-0.09672893171355326,"122":0.3428815519301039,"123":-0.4639223272268744,"124":0.6733122609768846,"125":0.09209679029512902,"126":0.07767663809587039,"127":0.32226792845051166,"128":-0.14970168056370464,"129":0.4302384477837511,"130":0.2839177059975618,"131":-0.36115944780049564,"132":-0.09660962217814148,"133":0.08496224118987947,"134":0.4092998235662996,"135":-0.2462535855979678,"136":-0.087900636494784,"137":-0.5699965201351119,"138":0.34481405394989234,"139":-0.09041673931248634,"140":0.17900140041506826,"141":0.3169360544615537,"142":0.22109134700942343,"143":0.01499431675571098,"144":-0.5311706005460862,"145":0.38857867471449653,"146":0.14014866245692406,"147":0.021028723934718115,"148":0.13246312200019636,"149":-0.3416412328457628,"150":0.19121534045098154,"151":0.4700962989216046,"152":-0.07301661256112944,"153":0.38527539843456143,"154":0.252036184057369,"155":0.44732754681769543,"156":0.025495946010075515,"157":0.5500185453641956,"158":0.08659185569572737,"159":-0.049358136860797576,"160":-0.04847204197315476,"161":-0.01713908388085053,"162":0.15249405149464101,"163":0.23201923750579878,"164":0.20370610963708682,"165":-0.1960840417973719,"166":0.4105386795809255,"167":-0.08928455535928276,"168":0.007618694905944145,"169":-0.6000143355226216,"170":0.2583532421952913,"171":-0.013270466740757056,"172":-0.2765583848608946,"173":-0.06601696593165196,"174":0.1869103487892678,"175":0.11385976771295767,"176":0.015519408652731057,"177":0.1269896401757753,"178":0.1720058664657235,"179":0.41891660484390586,"180":-0.07854411372032512,"181":0.03235559909258352,"182":0.07362229780896175,"183":-0.40798757971605426,"184":0.02023307877696637,"185":-0.22765000972067934,"186":-0.030562905815365006,"187":0.21277240284498217,"188":0.1478349328903054,"189":-0.13662700066861383,"190":0.3780392673446289,"191":-0.2867012852491555,"192":-0.3352908687808482,"193":-0.01834313052780937,"194":-0.015607372513759056,"195":0.07207151855886164,"196":-0.026071141141912862,"197":-0.4618757501740097,"198":0.16267385782976712,"199":0.1914919056747772}},{"sx":5,"sy":5,"depth":8,"w":{"0":-0.06693052156045962,"1":0.084205260977859,"2":-0.039410068351046504,"3":0.046322058213206195,"4":-0.059120171735814665,"5":-0.041040428537061094,"6":-0.028633388435431898,"7":-0.058762188423765335,"8":-0.026953197526367302,"9":-0.017930828754148215,"10":-0.12905167024677153,"11":0.01281647669363392,"12":0.045369135987413885,"13":-0.05121117498036304,"14":0.012833573089759758,"15":-0.13087521049966974,"16":-0.2683811757243613,"17":0.004418994101599604,"18":0.3236101672161583,"19":-0.03621161302176226,"20":0.16785612058119478,"21":-0.2408825995931329,"22":0.2806756500323304,"23":0.02989732403802607,"24":0.22735483704196865,"25":0.03984687701802102,"26":0.23807395995092065,"27":-0.2153085227550474,"28":0.15713503663489253,"29":0.22817218758242708,"30":0.5615147187055467,"31":0.1431251282845259,"32":-0.1692750491023003,"33":0.36222177095052027,"34":0.31307831223169724,"35":-0.05721878983044739,"36":0.04442442756979297,"37":0.12751372564997118,"38":0.3199088203440937,"39":-0.24563492836877668,"40":-0.13965936662600908,"41":-0.06901298848422271,"42":0.058271708707866125,"43":-0.05781242860029053,"44":-0.06194834437667885,"45":-0.010535180255741914,"46":0.013454079929214081,"47":-0.14306142909575675,"48":-0.11236979201402623,"49":-0.055640970821380996,"50":-0.11828328811830165,"51":-0.10678205582522839,"52":-0.09626460363675918,"53":-0.07896471394572212,"54":-0.09513182754151343,"55":-0.015530820919556213,"56":0.10267747510854863,"57":-0.13767020542638847,"58":0.3723045961077543,"59":0.1073690333778541,"60":0.14023933207456016,"61":0.25082935898632247,"62":0.43097242324869844,"63":-0.5346361139464924,"64":0.010903408917377197,"65":0.08214026716983328,"66":0.3844631218274507,"67":-0.20534138108549316,"68":-0.1776433735446179,"69":-0.08674812221062371,"70":0.2843766242841852,"71":-0.10442226631536881,"72":-0.07637078763354319,"73":0.3340063854897365,"74":0.722939138647905,"75":0.22342868661181067,"76":0.1798100903586759,"77":0.3277533545419383,"78":0.3890280521113037,"79":0.12768343840235008,"80":-0.7698162312574073,"81":0.1781284258631923,"82":0.21979769722197068,"83":-0.43828056430577483,"84":-0.25735464343843745,"85":-0.8909799663639066,"86":-0.04944585857613038,"87":-0.005654170056237204,"88":-0.6341519314569825,"89":0.29739877382133384,"90":0.13763537717140542,"91":-0.17375910363861805,"92":0.1430612650645911,"93":-0.9609544001344662,"94":0.22377014533660386,"95":0.3928836299922341,"96":-0.03566388946715966,"97":-0.20708753939364985,"98":0.1198725384518797,"99":0.06044811651870444,"100":0.102568717283648,"101":0.015084541645137457,"102":0.03087769542850544,"103":0.0012108428191569022,"104":-0.13597631939005606,"105":-0.161825425832588,"106":0.320526512375601,"107":-0.10438114449978556,"108":0.195661812308196,"109":0.05348215197219735,"110":0.3146341513342134,"111":0.21650414514713365,"112":-0.21072621415607226,"113":0.14880784176133058,"114":0.04289978566578856,"115":0.213268036977662,"116":0.02145449424461137,"117":0.07142966462964646,"118":-0.2734908012865355,"119":0.016944574356561232,"120":0.24705640050266497,"121":0.0566120793721785,"122":0.5923458727534047,"123":-0.8174533473895841,"124":0.293399040117154,"125":0.23439089678699385,"126":0.0965023308367211,"127":0.07204223576980995,"128":-0.10713955584983546,"129":0.19194649499099173,"130":0.3741981852647971,"131":0.36453167761152433,"132":-0.19271511170553188,"133":-0.5037163168456846,"134":0.14901788271610183,"135":0.36379311993029395,"136":-0.33468801317853863,"137":-0.2614238631183617,"138":0.20522820391553107,"139":0.09045256610129922,"140":-0.04495708039622843,"141":-0.14021262917606198,"142":0.3903389482734126,"143":-0.31913397625190526,"144":0.04724211151399315,"145":0.14839155446769742,"146":0.406784975800176,"147":0.17493673756866573,"148":0.12188778634552848,"149":0.16496495616743798,"150":0.4275805150206992,"151":-0.013045098428244252,"152":-0.07435029432519766,"153":0.06214796658751701,"154":0.304418095612687,"155":-0.21505824338152446,"156":0.28508325346030655,"157":0.25603973527732343,"158":0.14471070775065978,"159":-0.2458480504735707,"160":0.270556431363412,"161":-0.3802334689965138,"162":0.28543341113761295,"163":0.243799697319461,"164":0.09780132208341319,"165":0.1885459019963109,"166":0.4834582503975588,"167":0.24866535317927754,"168":-0.10973672298395457,"169":0.0283041213040597,"170":0.009210738823994,"171":-0.41441657467792953,"172":-0.5056256420094544,"173":-0.4785778161737443,"174":-0.09632473740007505,"175":0.153356098526221,"176":-0.2694415892587971,"177":0.6493211812388273,"178":0.04906116651694813,"179":0.26359901150829074,"180":0.05123896204682953,"181":-0.020552603101001637,"182":0.3497220716160079,"183":-0.007744335591059419,"184":-0.03460233457992064,"185":0.10095923180642905,"186":0.24636217669170798,"187":-0.0028360115491159405,"188":0.5163451743972152,"189":-0.20157434767396065,"190":0.39448818430776855,"191":0.20637925199233934,"192":-0.08581928100966074,"193":0.19669136140686747,"194":0.37426900741538266,"195":-0.08862533353857946,"196":-0.06489663808662108,"197":0.13051185186722575,"198":-0.14219840157549604,"199":0.15224788679357246}},{"sx":5,"sy":5,"depth":8,"w":{"0":0.1276168521738294,"1":0.35981273471718317,"2":-0.004315808743552102,"3":-0.057694441885732646,"4":-0.15648669669790435,"5":0.17329915341688892,"6":-0.024105351182198597,"7":-0.3039836251802606,"8":-0.11063072491565949,"9":0.2213821250688396,"10":-0.023100862842976345,"11":0.3246679337956156,"12":-0.12559223973751454,"13":-0.0030563143695900557,"14":-0.21540008590811796,"15":0.4205066841732952,"16":-0.012680455063543374,"17":0.08102509534000378,"18":-0.1701193059984259,"19":0.1414926228739509,"20":0.0815515773732427,"21":-0.08274402600025038,"22":0.1533161213756639,"23":-0.669840487267952,"24":-0.10445247506638496,"25":-0.07232317171143443,"26":-0.07554816075313131,"27":-0.19454865231019833,"28":-0.017694255048033694,"29":-0.17566918164728032,"30":-0.12105794800978702,"31":-0.35056344994416394,"32":-0.12273947732713762,"33":0.42578474071420946,"34":0.017267130959249685,"35":0.44499233323588266,"36":0.21570842069044022,"37":-0.06487240277965195,"38":0.009833796462398289,"39":-0.042864046951221715,"40":-0.013184967754037005,"41":0.1424049500723187,"42":-0.18657573806898312,"43":0.06383948736510545,"44":-0.2051464792150379,"45":-0.16172470915323686,"46":-0.0623796353803398,"47":-0.3540860027756378,"48":0.16807687216115147,"49":-0.4741818752406405,"50":-0.2768804092509541,"51":0.23788372737789598,"52":0.19207797404146182,"53":0.0890343919193698,"54":-0.1570128164875705,"55":0.13753911659496293,"56":0.0788721340997938,"57":-0.2933068531071329,"58":-0.1289584623558559,"59":0.07333421594331921,"60":-0.04405067980086283,"61":0.02476427306525929,"62":-0.04086787676664137,"63":0.468936598631385,"64":0.02275478537635848,"65":-0.1355691755571839,"66":-0.16339934932100192,"67":-0.4068124099785562,"68":0.08667593383372911,"69":-0.0011425620320897228,"70":-0.33223879271377765,"71":-0.05313928936797854,"72":-0.004982537039042652,"73":0.4914733209694577,"74":-0.16098180419994013,"75":0.013944228588533511,"76":-0.03979126679965917,"77":0.01702648048919008,"78":-0.0013497247748635837,"79":0.08427207745264512,"80":0.038216532604543815,"81":-0.48894123925281374,"82":-0.12358300581379424,"83":-0.019107263982267194,"84":-0.20155981273034831,"85":-0.1103100041214398,"86":-0.14573394290619576,"87":0.2412525196404504,"88":0.05523160112732338,"89":-0.35854637102835035,"90":-0.14289332610323865,"91":0.08120944814324399,"92":-0.1774984679673982,"93":0.06199175828367514,"94":-0.0031226347946635355,"95":0.0013319417759232385,"96":0.19327142291125404,"97":-0.3214658013536431,"98":-0.07932020470984354,"99":-0.3050451751926042,"100":0.15904101840172175,"101":-0.1318583273586647,"102":-0.04955265308702224,"103":-0.15916061320904723,"104":-0.2608456234605291,"105":0.0941946775228844,"106":-0.1507593546840566,"107":0.09979039826239156,"108":0.012815213333554272,"109":-0.09753956805136774,"110":0.012767337006893047,"111":0.1624968304334121,"112":-0.10147173865318361,"113":-0.22629765310266992,"114":-0.0560127104258078,"115":-0.3657592846111492,"116":-0.11687614013046213,"117":-0.26238217700162764,"118":-0.28287318022094404,"119":-0.21254244909351258,"120":0.0004764754627192128,"121":0.2731922767979244,"122":0.01326780169758132,"123":-0.4708473191300001,"124":0.2147621109272016,"125":-0.07067758199543246,"126":-0.06786447574190284,"127":-0.30836333185905884,"128":-0.046497212506683316,"129":-0.56639210442842,"130":-0.07601203759011135,"131":0.10302855030783856,"132":-0.32442373399549546,"133":-0.08016702258528449,"134":-0.11785294482856731,"135":0.06630365813142018,"136":0.1479531241186843,"137":0.20202520001131488,"138":-0.10043417582714756,"139":0.1698859481805648,"140":0.4741493313468721,"141":0.17627265412962875,"142":0.1037130386502263,"143":0.023189313091045025,"144":-0.06687988076035101,"145":0.3636570239451463,"146":-0.08279186307467706,"147":-0.012436061721688915,"148":0.10589389616112223,"149":0.06776876569430047,"150":-0.18546534430510878,"151":-0.030931697006142428,"152":0.16584809141546522,"153":0.006992154570519908,"154":-0.003824932214367088,"155":0.40427970076608916,"156":0.1749480168419728,"157":0.2515099268670798,"158":0.011742833551341533,"159":-0.3131154912695447,"160":-0.12214265250943976,"161":0.03755486843703813,"162":0.10237331403091725,"163":0.7640756549018523,"164":0.23244235465541013,"165":-0.15628330137407884,"166":0.008548824722360371,"167":0.21532698368060965,"168":-0.014535340316022617,"169":-0.1258582252358012,"170":0.055957099268115325,"171":-0.0675839251340096,"172":0.042590561526123394,"173":0.11885002824866753,"174":-0.236321352510932,"175":-0.2052938106178886,"176":-0.10955531508406738,"177":-0.09047993921542906,"178":-0.10327854855584509,"179":0.15469392918208705,"180":-0.08378516071577197,"181":-0.2511339489442825,"182":-0.029647684034163617,"183":-0.14970409869225287,"184":-0.025387627004524606,"185":-0.20995763466585113,"186":-0.07322976189198527,"187":0.225128235448154,"188":0.03998663041096675,"189":0.12805004019800753,"190":-0.047567325582519415,"191":0.03409033841313018,"192":-0.08748911399992504,"193":0.05604225663639242,"194":0.053447558116334164,"195":0.15050241036500414,"196":0.1504427110513969,"197":0.17881539471231067,"198":0.2892949203480728,"199":-0.13261759453441713}},{"sx":5,"sy":5,"depth":8,"w":{"0":-0.48838109741442554,"1":0.10226132206355575,"2":-0.1774950302363995,"3":0.35266303315736564,"4":-0.3135763474087657,"5":-0.6335938115249595,"6":0.11175115197930355,"7":-0.2235098389459548,"8":-0.020571740585309924,"9":-0.2099013414341922,"10":-0.4045648933893872,"11":-0.3456878328967884,"12":0.12329810745119228,"13":-0.16741172074065114,"14":-0.42851708299103064,"15":0.22792768348450843,"16":0.027272072115141203,"17":0.2605101402936765,"18":-0.17170377146747717,"19":0.2527987028647933,"20":-0.045570932692726024,"21":0.0758742458276767,"22":0.0009651198063880195,"23":0.16735022083016518,"24":-0.04922602120684885,"25":0.2314770505482323,"26":-0.5133308444971217,"27":-0.40635759075214556,"28":-0.017178782867939883,"29":-0.00951957342751985,"30":-0.3391057194841526,"31":-0.585678534638446,"32":-0.012480740285526884,"33":0.2563416070779906,"34":-0.1272482349571282,"35":0.05850137445321703,"36":-0.355784612939868,"37":0.10282048074577174,"38":-0.1454514335971134,"39":0.1938397300259759,"40":-0.2202205230533435,"41":0.12831334836317243,"42":-0.30409371738789465,"43":-0.14709247823726374,"44":-0.05997761303971357,"45":-0.19758611129468576,"46":0.01002454415159656,"47":0.11812367784664232,"48":0.13184808901166375,"49":-0.4580418428829881,"50":-0.0018157831495254073,"51":-0.1586191675846775,"52":0.4019533093078711,"53":-0.019812158237763604,"54":0.24315687512442602,"55":0.3064217095036142,"56":0.27074631697052653,"57":-0.2306398969260119,"58":0.09791034508528114,"59":0.20388221281301874,"60":-0.06165918407296519,"61":0.32993783257463943,"62":-0.01708373908283494,"63":-0.053608419607262585,"64":0.04986889350673979,"65":0.13542656696085686,"66":0.010785379549340154,"67":0.01660637789239101,"68":0.16966231326382503,"69":0.11656949224103003,"70":-0.2695766759730766,"71":0.22220335279570902,"72":0.15940070257519898,"73":0.4489275274716959,"74":-0.041474401295176495,"75":-0.22031025858596295,"76":0.259436065425799,"77":0.29088079345566564,"78":-0.2054606911310157,"79":-0.4381025232674801,"80":-0.21894362025554415,"81":0.0759718886791835,"82":-0.3465600028399769,"83":-0.34730417625316384,"84":0.2001797480244538,"85":-0.05311719685569371,"86":-0.3452733236376663,"87":0.1753209508374426,"88":0.2716530911938206,"89":0.23720811515528517,"90":-0.12769648651216614,"91":-0.07087114416743899,"92":0.16536930265794283,"93":0.10444869177705676,"94":0.16969470994836058,"95":0.21939281813835618,"96":0.27274360492131494,"97":0.04332675825434828,"98":-0.2587978118512844,"99":-0.22789471750419918,"100":0.25295172726489085,"101":0.1133137438206041,"102":-0.5466039725718638,"103":0.03517213779377336,"104":0.20669497283537147,"105":0.2349214954039175,"106":0.14876393542454922,"107":0.10104926461481138,"108":0.014684400913949581,"109":0.45414142454539824,"110":0.08025936128505326,"111":-0.47126320717113324,"112":0.03925817973131519,"113":-0.35689387733390404,"114":0.14820621045938648,"115":0.043149601754174594,"116":-0.40606989227316304,"117":0.10010071344562328,"118":-0.3511913951108715,"119":0.22135477797768213,"120":0.05272484055855986,"121":-0.16501809421559163,"122":0.05112440906620671,"123":0.3597332676332101,"124":0.45442761707220297,"125":0.5567019585614785,"126":0.10422767994437585,"127":0.20132476239462557,"128":0.056051592462812286,"129":0.12577309958960323,"130":-0.022638705532845114,"131":0.09164993125838672,"132":-0.11342802110127022,"133":0.04410656717712097,"134":-0.3883179413501146,"135":0.15070925200180904,"136":0.009430474430172866,"137":0.3422237285497015,"138":-0.0602853065635449,"139":0.03962175337544745,"140":0.26513018408859995,"141":0.3629762698911472,"142":-0.12071633907755046,"143":0.09140472749353053,"144":-0.311989444239771,"145":0.15989769933325176,"146":-0.40367689145137287,"147":0.008166458139564995,"148":-0.41687487472465307,"149":-0.3154488844507624,"150":-0.11234718711957024,"151":0.20208184368431334,"152":-0.2821081530425548,"153":0.14697006758750844,"154":-0.3912108353448556,"155":-0.005415534440799373,"156":-0.5726356627148127,"157":-0.2939433717111911,"158":-0.2956783268879737,"159":0.4554125475302167,"160":0.170588890691292,"161":-0.23535466412898173,"162":-0.04297297563984766,"163":0.29644206033099046,"164":-0.21807454649992258,"165":0.19852279382468335,"166":0.20639161231973988,"167":-0.08661870197242093,"168":0.10094860774882486,"169":-0.2802823142614926,"170":0.08247854117597629,"171":0.13696769050036478,"172":0.08023980291003557,"173":0.20009241136455536,"174":-0.053936729537888625,"175":-0.14250146469336053,"176":-0.05608277308884868,"177":0.15545147491662187,"178":-0.13571177414270036,"179":0.292714825305511,"180":-0.17212636464680492,"181":0.4101558289086192,"182":-0.2833082902672098,"183":-0.4173347807575029,"184":-0.4023070951098966,"185":0.5869865802000088,"186":-0.23120910761558128,"187":0.28493541445328824,"188":-0.025162821481548008,"189":0.13643182096405504,"190":0.05468731347141324,"191":0.4306039882486411,"192":0.2140997375535246,"193":0.06931141736681454,"194":-0.26216683924092715,"195":0.4128785940044209,"196":0.4156481558771205,"197":0.4722382051757834,"198":-0.05043705075147215,"199":-0.2896477227406768}},{"sx":5,"sy":5,"depth":8,"w":{"0":0.002696947209467802,"1":-0.2106780339798476,"2":-0.029637527482429173,"3":-0.2090964424106329,"4":-0.1022060816603435,"5":-0.11935708422415761,"6":-0.08147977852107283,"7":-0.1431273068190295,"8":0.1931048087780818,"9":-0.20821464175734739,"10":0.11755336130133628,"11":0.26517120393571325,"12":0.14625555557218806,"13":0.28510267223567165,"14":0.0511099723047686,"15":0.038316599098750535,"16":0.11633248759907107,"17":0.035933773533138015,"18":-0.03390160788445708,"19":-0.1049695543847262,"20":0.11007057873316602,"21":-0.038685703159480105,"22":-0.0631502739815068,"23":-0.08715631154823936,"24":0.011685522205197668,"25":-0.00510635456138049,"26":0.04399539651675185,"27":-0.10691059461666126,"28":-0.03258487023287266,"29":-0.05189951159835537,"30":-0.11013237538603549,"31":-0.01579914647665359,"32":-0.10157265727064789,"33":-0.036135728607741856,"34":-0.048237699286144714,"35":0.030648492438060726,"36":-0.03799996573985833,"37":-0.062466096038927804,"38":-0.03746338782268011,"39":-0.00842437856941142,"40":-0.08721160016281877,"41":0.8896355824696812,"42":0.12404693741593951,"43":-0.26225703010606144,"44":-0.10130164752872862,"45":-0.2719997066342362,"46":0.20007456923912975,"47":0.04365351464345537,"48":-0.07598012750331132,"49":-0.40268402505599965,"50":0.2245489517767541,"51":-0.20541037402195148,"52":-0.5032225407136727,"53":-0.08284040194510674,"54":0.12573052564214857,"55":-0.03416691188599637,"56":0.15000249543492072,"57":-0.43893523012528823,"58":0.2934954557147615,"59":-0.2726014560295494,"60":0.24177453330886356,"61":0.09590222966621907,"62":0.023859537311735925,"63":0.1935666780070928,"64":0.03990213097486097,"65":-0.014862312339931358,"66":-0.011648276922421846,"67":0.006233186005904119,"68":-0.06714089362753334,"69":-0.10680744333299101,"70":-0.13054388560677616,"71":-0.07119161297654555,"72":0.015236961366564274,"73":0.029995669533149458,"74":-0.007814839814326558,"75":0.04694364501911046,"76":-0.03515104989928073,"77":-0.029298885886353952,"78":0.06065143531799747,"79":-0.09345749075793248,"80":0.053823733196077854,"81":0.19104191628697914,"82":-0.024876542168095386,"83":-0.13666590153830352,"84":-0.302010162851949,"85":-0.29919053382359756,"86":-0.014574052446778772,"87":0.05078181157148815,"88":-0.0017774287016870257,"89":0.3951066924305639,"90":0.323032834871444,"91":0.025429100441289373,"92":0.29762848720024376,"93":-0.11899421767484476,"94":0.0639364776260981,"95":-0.21673234060199048,"96":-0.028314908942958943,"97":-0.2405679162911979,"98":0.2508596060301686,"99":0.002802291215157283,"100":-0.37207353324108244,"101":-0.11920682280908823,"102":0.10611756442372021,"103":-0.1144325539041534,"104":-0.028378171909320335,"105":-0.09382555303226452,"106":0.008614561867819153,"107":-0.056563082072074354,"108":-0.008486069990449657,"109":-0.04408244209629411,"110":0.04133795072135712,"111":-0.03033199158533606,"112":-0.023692224138124773,"113":-0.02984372227284674,"114":0.009436626326221864,"115":-0.03612591137776889,"116":0.02389335103472495,"117":0.01577169852632466,"118":-0.02016675103661107,"119":0.029311567684571823,"120":-0.12284950368404544,"121":-0.22954222907204802,"122":-0.15406111086817711,"123":0.6036815580657552,"124":0.4001309748433102,"125":-0.011439704680460648,"126":0.1334464348529214,"127":0.10730378236738007,"128":-0.00807843124761041,"129":-0.08542146706217159,"130":0.14757258626731629,"131":-0.22876482239269902,"132":0.35970132977701114,"133":-0.1747053309948289,"134":0.0819857264675118,"135":-0.010646972398859396,"136":-0.19625317776834122,"137":0.11637819509398899,"138":0.045268009287831035,"139":0.12131117708315821,"140":0.14501765081903628,"141":0.03068442470827828,"142":0.2591348605295325,"143":-0.22771930873277405,"144":-0.008315177223330155,"145":-0.06655602170233382,"146":-0.07271745167697134,"147":-0.022886073864309082,"148":0.05711681756827413,"149":-0.05430053331055251,"150":0.024713701190307604,"151":-0.06355520361850477,"152":0.045110120407009326,"153":0.04291398508944218,"154":-0.055676763145834536,"155":-0.02878150766456419,"156":-0.06065808613545363,"157":-0.006302605359935181,"158":0.041747992396840336,"159":-0.06178910424919404,"160":0.0932844307406368,"161":0.03004483196362945,"162":0.1580158949027884,"163":0.20727767963382326,"164":0.04595525363864429,"165":0.025820081339028564,"166":0.600220815427701,"167":-0.33787757212972636,"168":0.2930004958336721,"169":-0.365232601654433,"170":0.44116447241216017,"171":0.08937507994427053,"172":0.34662857927792856,"173":0.18705388097617176,"174":0.36955044353881006,"175":-0.0682785624711319,"176":0.20062779249159673,"177":-0.20887343777790446,"178":0.4949833413141723,"179":-0.04130068516916877,"180":0.49404093821329714,"181":0.17672880336370028,"182":0.008645703935196631,"183":-0.06925590145519571,"184":-0.06222492559842972,"185":-0.07931210344815834,"186":-0.06886343858543037,"187":-0.03873340062585773,"188":-0.04626564071442456,"189":-0.04297902205168952,"190":0.00989115451065234,"191":-0.08310814807885315,"192":-0.022509429956228354,"193":0.0033065372349348125,"194":0.025108379200403468,"195":-0.0344152955182629,"196":-0.04948251669288368,"197":-0.08074032105911606,"198":-0.07428424748148858,"199":-0.08344371468004758}},{"sx":5,"sy":5,"depth":8,"w":{"0":-0.0028075059651815728,"1":0.06581427464921404,"2":0.06914719931381084,"3":0.39270801702361297,"4":-0.05303426539062772,"5":0.13113110342873943,"6":0.3519310194632937,"7":0.22402009040280368,"8":-0.1792069094807448,"9":0.07876809431030293,"10":0.2104164107676505,"11":0.03824760695699349,"12":0.16428142765894976,"13":-0.17013969666728507,"14":0.05224148128900353,"15":0.23288265058325966,"16":0.1404451681980693,"17":-0.38898374680114917,"18":0.09435172112323754,"19":0.5380270252044534,"20":-0.02483317577474586,"21":0.2606447914023089,"22":-0.24370409979895172,"23":-0.18599207920547375,"24":-0.0494953364524991,"25":-0.1928077247240566,"26":-0.03383856128124301,"27":0.08708944564155259,"28":0.19849487244033034,"29":0.2509331049388917,"30":-0.2107144278750046,"31":-0.3953820509660051,"32":-0.11287341865217013,"33":0.13557857513253546,"34":-0.16660216387317092,"35":-0.24051419358074877,"36":0.16825286280993368,"37":-0.26502187445565273,"38":-0.44094639203703845,"39":0.2152837634430909,"40":-0.00893381932895804,"41":-0.38261155790734597,"42":-0.10391487025124783,"43":0.2047974118869385,"44":-0.5619600659788362,"45":0.14416057317273667,"46":0.2673273992369948,"47":0.25715697263247306,"48":0.02126938830751807,"49":-0.23507645357012377,"50":0.05114862153000806,"51":-0.07789046411341394,"52":-0.07219571332457878,"53":-0.10295325510268272,"54":0.09707040161776744,"55":-0.22951120470130326,"56":-0.12647087219259093,"57":-0.48080138127338684,"58":0.04428596003482413,"59":-0.29267102639456694,"60":0.17379183973061005,"61":0.0799374936756065,"62":0.022557647206766663,"63":-0.2488675137212101,"64":-0.1468023185243956,"65":0.4036710461033873,"66":-0.09175470072285115,"67":0.4366891256968312,"68":0.09094736269451176,"69":-0.06626476053456946,"70":0.16679378062111502,"71":0.007333830354333837,"72":0.036563882846091245,"73":0.3696081968112674,"74":-0.012770834490516221,"75":0.39220017485210945,"76":-0.0176490139117416,"77":-0.018420957786083252,"78":-0.009057269062054821,"79":-0.06425303516811423,"80":-0.153020281890032,"81":-0.09101706933053448,"82":-0.026390777411752008,"83":-0.07346112138107935,"84":-0.03946337287744936,"85":0.04864184216899898,"86":0.46037258863701275,"87":-0.361254433246314,"88":0.020599769160801522,"89":-0.14972712339089456,"90":0.25530741631568804,"91":0.1108103257461072,"92":-0.17727943040320437,"93":0.13259487906632483,"94":0.6619159734499627,"95":0.17073510341908588,"96":0.07741975440926967,"97":-0.04665878681677268,"98":0.2641012298118954,"99":-0.23892394033746467,"100":-0.0010505022189924477,"101":-0.18125528476878786,"102":0.1365175182662215,"103":-0.09351762700019331,"104":-0.2803685045012945,"105":0.26313349329657304,"106":0.028868529250906515,"107":-0.41350919148289855,"108":-0.16441087264427576,"109":-0.4614564869742506,"110":0.07529216568530037,"111":-0.2780589044283405,"112":0.33864749375108033,"113":0.19023110399958082,"114":-0.017651523580477536,"115":-0.3640984769861628,"116":-0.33346994770246485,"117":-0.049308180703300106,"118":-0.0422964745006344,"119":0.062973346082712,"120":-0.3430461855141409,"121":-0.41473323367713544,"122":0.12261587675235051,"123":0.02247361528618273,"124":0.14389896919464296,"125":-0.09806997818600054,"126":0.04624873502632593,"127":-0.07023076531262276,"128":-0.08869641729678805,"129":0.05718284483870466,"130":0.21747989600323872,"131":-0.38997927136069704,"132":0.12071491488489478,"133":0.04297994136248023,"134":0.23114823122659223,"135":0.05218119219730895,"136":-0.0003984300193401233,"137":0.14849775553434613,"138":0.16809258210581893,"139":0.40073520565078297,"140":0.07728237262309941,"141":0.22412361182822968,"142":0.20025332840889926,"143":-0.12871368396398702,"144":-0.13146853107816384,"145":-0.24168497180614734,"146":0.2020950881288595,"147":0.49591347399233426,"148":-0.5019079532081704,"149":-0.35880790834385085,"150":0.5625608570431992,"151":0.10549423656938382,"152":0.4080108086671555,"153":-0.26224415474432494,"154":0.24579524348219167,"155":-0.42093898186899104,"156":-0.06421343705727317,"157":0.17311823122406236,"158":0.15335826818620593,"159":0.07751330844883292,"160":-0.0395433797274492,"161":0.12707753665010502,"162":0.10501958242710661,"163":0.5595782020022427,"164":0.340640464037826,"165":0.14941047498846413,"166":0.4322209722120012,"167":-0.8876003818701547,"168":0.016804033113300816,"169":-0.30044135064766425,"170":0.10763062253916574,"171":0.024859351689190377,"172":-0.6015738370960262,"173":0.08654679209426275,"174":-0.011800605437706349,"175":-0.2055077071233081,"176":0.12349751163831083,"177":0.11434256625645062,"178":0.26565948983317855,"179":-0.04040891296938092,"180":0.05439466543083458,"181":0.19700545934329255,"182":-0.11568639138171431,"183":0.4402925082852682,"184":0.06381569321321628,"185":-0.08292409344709568,"186":0.12574332287300777,"187":0.2761995724158175,"188":-0.32717084705132243,"189":-0.20566234783315726,"190":0.6982777719467874,"191":-0.14953768018894473,"192":-0.1561876801818414,"193":-0.024722893195814118,"194":-0.06950853955693752,"195":-0.6709166379733554,"196":-0.3909187265704047,"197":-0.2708747511300552,"198":0.1630575624459608,"199":0.07247859474994266}},{"sx":5,"sy":5,"depth":8,"w":{"0":0.09534022645952606,"1":-0.1589394950153176,"2":0.38484628245056235,"3":-0.2795025430578583,"4":-0.0811641085431322,"5":-0.13262713429032322,"6":0.22220722106690027,"7":-0.03972051648307756,"8":0.15025390917871367,"9":-0.09385864760285047,"10":0.2513365613555317,"11":-0.2603404907864558,"12":-0.24613219543460974,"13":-0.12367782352235276,"14":0.2919389699170351,"15":0.31948473668401267,"16":0.003315656998284108,"17":-0.06179594673658079,"18":0.2995832972756891,"19":0.018421199931085725,"20":-0.20768248861980984,"21":-0.09976385052314232,"22":0.5277757628300033,"23":0.12185786964077583,"24":0.03182357368756759,"25":0.0502704509489585,"26":-0.017745027976305575,"27":-0.08213331706818829,"28":-0.015592709551727793,"29":-0.037467306585302854,"30":0.1187489387971982,"31":-0.09052274524017966,"32":-0.03865973557829813,"33":-0.07214006844727114,"34":-0.05295386253541802,"35":0.059734449380387494,"36":-0.12339749113272933,"37":0.006454451352691496,"38":-0.09815356555669666,"39":-0.02316411887083333,"40":-0.046898150759247664,"41":-0.3007322378814288,"42":0.13252319010395433,"43":-0.5702486799275864,"44":-0.026873576655260117,"45":-0.0458375993390979,"46":0.5595545374265927,"47":-0.03715284194993076,"48":0.21259514232109888,"49":0.024337066093713697,"50":0.41031439418319887,"51":0.08486748040598095,"52":0.07404141459931554,"53":0.18652675962021006,"54":0.5433572292186605,"55":-0.2051165402432389,"56":-0.16170262223666362,"57":-0.09108039737004446,"58":0.43335604588511695,"59":0.5425078106493383,"60":0.1765029182668497,"61":-0.25848250924375543,"62":0.6623986810019951,"63":-0.031008341263791667,"64":-0.04765174133543864,"65":-0.09068872900724782,"66":-0.05300922487557949,"67":0.02901172513686696,"68":-0.03147473607591874,"69":-0.07116873119781264,"70":0.025838169942209048,"71":-0.01838094692662521,"72":-0.10113028405376424,"73":-0.025219620521420443,"74":-0.0868872915031233,"75":-0.010829578870635192,"76":0.011044988879689925,"77":-0.012224042960893735,"78":0.08856291647833994,"79":-0.09981677400693825,"80":-0.19829813459740955,"81":0.011988914691813929,"82":0.28346596613272745,"83":0.06340391655441849,"84":-0.005387264052139407,"85":-0.07553191505052223,"86":0.007050847781017311,"87":0.18924890685592,"88":0.015015405620156293,"89":0.2770460611878515,"90":-0.03751761586489864,"91":-0.2024614629633714,"92":-0.3917416073598375,"93":-0.08035917780350559,"94":0.09049855388097912,"95":-0.02671782436913451,"96":0.10668908433051104,"97":-0.1997082592941885,"98":0.03972093623676399,"99":-0.08398742557567458,"100":-0.012179274852349835,"101":-0.011202061265678628,"102":0.4120242873107597,"103":-0.017300313690933936,"104":-0.08521174888274206,"105":-0.028371671698873155,"106":0.02011885963171643,"107":0.021026017466764114,"108":0.012910880324673706,"109":-0.1039639344240232,"110":-0.07116684652224627,"111":-0.04454782992440127,"112":-0.1481011667219349,"113":0.013296850656892449,"114":-0.0780178116089487,"115":-0.03943487352162619,"116":-0.08616846812047087,"117":0.02108429823870943,"118":-0.07081481984129383,"119":-0.043846110234905845,"120":0.05373314704613783,"121":0.05521094327421104,"122":0.6336809082547062,"123":-0.23943404300642873,"124":0.17113985532010148,"125":-0.22527033942793087,"126":-0.10509415141583268,"127":-0.0005808976385460264,"128":-0.0911894691650709,"129":0.247321809194581,"130":0.4271787065844778,"131":-0.17776852454935496,"132":0.011175720325631721,"133":-0.08223562149855056,"134":0.10529650875200453,"135":-0.4043947496627488,"136":0.060770567012958424,"137":-0.8741677207102403,"138":0.33895362677104734,"139":-0.5662753578336134,"140":-0.26575155363447495,"141":-0.01850376808938893,"142":0.23181058264955767,"143":0.1376919320588062,"144":-0.056275459213155916,"145":0.050174424738321316,"146":-0.08781688411788316,"147":0.01285125146480667,"148":-0.005723257518607841,"149":-0.0791307665646855,"150":-0.032958140086703766,"151":-0.05511552965688856,"152":-0.09355969672933828,"153":-0.023465199400104816,"154":-0.09009194739509371,"155":0.029025648032821517,"156":0.0015190538659001216,"157":-0.005175013343369649,"158":-0.024354032230637684,"159":0.09052342534425004,"160":0.2325201410100617,"161":0.008858208638325437,"162":0.38794644171211123,"163":0.3170462372897062,"164":0.1472170515441485,"165":-0.1117187353125987,"166":0.4189614292179889,"167":0.04682353697384828,"168":-0.019229310935368938,"169":-0.08550574372203085,"170":0.3302619354921027,"171":-0.4048775874375704,"172":0.2516965925516129,"173":-0.24448878939479454,"174":-0.20915182690005873,"175":-0.2679046300826236,"176":0.045559204690948,"177":0.026833569777465243,"178":0.3171273325704928,"179":-0.4554710337960213,"180":0.3516639347626433,"181":0.049797047782829326,"182":0.31330985510871207,"183":0.131502083685437,"184":-0.02282992400086042,"185":-0.05725563460070046,"186":0.07680066700949152,"187":-0.016251925986439313,"188":-0.1100718142158077,"189":-0.04960908041403945,"190":-0.04546341385848176,"191":0.03183509647819032,"192":-0.06845570700368328,"193":-0.07203696855124905,"194":-0.032873780965843875,"195":0.00876478470807817,"196":-0.049188146171881955,"197":0.03141612080044861,"198":0.08523844376327865,"199":-0.18779457622999757}},{"sx":5,"sy":5,"depth":8,"w":{"0":-0.11652238313588682,"1":-0.431845365541132,"2":0.09213810300632595,"3":-0.4105166799261777,"4":-0.1567680584953535,"5":0.08727786306488103,"6":0.4083651498087917,"7":0.2176172005747598,"8":-0.24053067626397404,"9":-0.08214999846613984,"10":0.19866675797315506,"11":-0.1469881654027749,"12":0.052842688321680965,"13":-0.2992885223921226,"14":0.09533127400062366,"15":0.2934353390752875,"16":0.21466405452964624,"17":-0.2709054337677358,"18":0.1714925608418266,"19":-0.5439453343346682,"20":-0.05147028871127499,"21":0.0577938178349452,"22":0.3244854679889342,"23":0.2101819041117164,"24":-0.013814776147592855,"25":-0.06250420034515136,"26":-0.048665539891170714,"27":-0.03768031850451364,"28":-0.14817212083591136,"29":0.036661841346533545,"30":-0.06448014067794974,"31":0.1638955752124204,"32":-0.039676233673146225,"33":-0.09419323270777437,"34":-0.15356015334470602,"35":-0.02293541670020273,"36":0.11511798310666117,"37":-0.174051999376199,"38":-0.084384230660573,"39":0.0549638396398934,"40":0.4332515093016301,"41":0.02280038549154452,"42":0.5742661606172459,"43":-0.03440719209236842,"44":0.48254138628294324,"45":-0.02651573983610957,"46":0.3945143966664582,"47":0.09850585513091423,"48":0.24150864123507662,"49":-0.32125329798852564,"50":0.371223221490358,"51":-0.02164382753529243,"52":-0.148407692461918,"53":0.2406247569143755,"54":0.20464748580308267,"55":-0.04187713836207426,"56":0.013108819772396918,"57":-0.2923269473882834,"58":0.3840202697357957,"59":0.563573879303336,"60":-0.010405596377864373,"61":-0.19520089562083714,"62":0.8011411215546944,"63":0.13578326628844156,"64":-0.10314339382588919,"65":-0.09178178004928207,"66":-0.1601507237732619,"67":-0.1241484477752874,"68":-0.13961395678879945,"69":-0.031694044580942056,"70":-0.2017605057717075,"71":-0.12855632858699947,"72":-0.1509501813150861,"73":0.04154315727474478,"74":-0.08468976857273827,"75":-0.043265442603453684,"76":-0.05366890391603673,"77":-0.10356299303135015,"78":-0.10204888135195196,"79":-0.01894020011698513,"80":-0.262550780855612,"81":-0.14194237531787363,"82":0.07412215334597576,"83":-0.3440276018060863,"84":-0.0011587629024637906,"85":-0.3645014138261684,"86":-0.09231241507779452,"87":-0.017152982982398854,"88":0.12922970662474872,"89":0.32595781911237176,"90":0.11508761590108112,"91":0.249676328135501,"92":-0.01547197534655476,"93":-0.09571569705624056,"94":0.49077540041412365,"95":-0.13546057128997466,"96":-0.06791532775720355,"97":0.23578567617486546,"98":0.14161809166081593,"99":0.1329169318601465,"100":0.07145434514267486,"101":-0.17948791328859662,"102":0.3480935507506145,"103":-0.058463750695509215,"104":-0.041841751239536165,"105":0.29046908548306705,"106":-0.05501745829272328,"107":0.07511922918968023,"108":0.10398833912685007,"109":-0.0014536728286222596,"110":-0.0010507788768763327,"111":-0.03434966005298893,"112":0.003777061732569872,"113":0.04318760270098282,"114":-0.10217239427714525,"115":-0.21218606522520791,"116":-0.02477409605630149,"117":-0.08781389976116724,"118":0.15202998629006323,"119":-0.08262815398487446,"120":-0.24616337617196013,"121":0.21753022528086077,"122":0.5849787750120748,"123":0.34410149945426605,"124":-0.17978727817202658,"125":-0.5228037585512665,"126":0.30189760315246533,"127":0.1527694373174967,"128":-0.178076414892401,"129":-0.3261131636102743,"130":0.3722364670208839,"131":-0.5844859102158112,"132":-0.1394679792201401,"133":-0.1872017060311902,"134":0.5444877190540836,"135":0.047574835071385886,"136":-0.1714519098224782,"137":-0.185377431162981,"138":0.42025518865440326,"139":-0.5424058995682491,"140":-0.10659912878168103,"141":-0.3014744534473672,"142":0.14152993133887098,"143":-0.08268555785045878,"144":0.030871034961078264,"145":-0.07547601055555263,"146":0.175784680632853,"147":0.04139940469269148,"148":0.060592448912862355,"149":0.0019784842561231123,"150":0.12434256880017956,"151":-0.03251833856408985,"152":0.07644072259142068,"153":-0.02930965220781921,"154":-0.06512708568459068,"155":0.23042452681166853,"156":-0.028453283026418613,"157":0.16272388527282547,"158":0.21521963755071544,"159":0.1457134690948698,"160":0.19791843907545378,"161":-0.22944985291195574,"162":0.724057785770923,"163":0.23622120931801519,"164":0.09559157552549764,"165":0.006467061842100915,"166":0.663311682442867,"167":0.2779696028582619,"168":0.06830027607449908,"169":0.17942130854255117,"170":0.7454133687142765,"171":-0.5609253459637865,"172":0.09688508284830884,"173":0.06773976020263398,"174":0.31899411279297984,"175":0.1562775556021282,"176":0.15619369391391932,"177":-0.12247126700436259,"178":0.5413453522315322,"179":-0.4485449797153784,"180":-0.023849497480567333,"181":0.06395442189395638,"182":0.19755664622758395,"183":-0.08570718091304724,"184":0.18303940505834343,"185":-0.35907177762692494,"186":0.06414319542276975,"187":-0.09091040646418745,"188":0.02513212732737986,"189":0.0015230873968692601,"190":-0.04334022237116557,"191":-0.44358218914385705,"192":0.04493869470467021,"193":0.07362796414980337,"194":0.056806650347745714,"195":-0.22194804964358028,"196":-0.07901675383608409,"197":0.02488186450112429,"198":-0.02678707954178849,"199":-0.6476154842030144}},{"sx":5,"sy":5,"depth":8,"w":{"0":-0.628166178044541,"1":0.47417172320932044,"2":-0.040312285097918434,"3":-0.1852154437983969,"4":-0.02214158037241744,"5":-0.7101036924115937,"6":0.10357042433186553,"7":0.06846544483525768,"8":0.17357470259590144,"9":0.0704545809715183,"10":0.14792048319693907,"11":-0.03736411559514825,"12":0.5066736666582807,"13":0.00207974728874936,"14":0.26837835887852357,"15":-0.13205166300331317,"16":0.10028508809597998,"17":-0.8806460514139213,"18":0.015702349841727158,"19":-0.2796220276224672,"20":-0.22811215611765204,"21":0.13969781890270389,"22":0.14609823733820354,"23":-0.25954741489270106,"24":0.2789655106738305,"25":0.19924851804796612,"26":0.29150819423668267,"27":0.2339595490887429,"28":0.05478372029663729,"29":0.23855521703894325,"30":0.5205231582455183,"31":-0.11788655041513388,"32":-0.23745905607985457,"33":0.2782546128434856,"34":0.08471457562564694,"35":0.14842137131320848,"36":-0.09819195595080177,"37":-0.3341881681606472,"38":-0.37997890561680003,"39":0.03888157452576243,"40":-0.26582670923778884,"41":0.3036110947148444,"42":0.22290147631290372,"43":0.0569750364448315,"44":0.16182837333383146,"45":-0.08065374731394134,"46":0.7632754559800867,"47":-0.38874140430893683,"48":-0.14901232703502493,"49":0.23801428755488585,"50":0.22008139293825563,"51":0.2082890193481616,"52":0.25435217243554126,"53":-0.17785828160688713,"54":0.39708872457938466,"55":-0.07961901881028463,"56":0.26422819585932983,"57":0.2849143121487105,"58":-0.09888752337484928,"59":-0.01844686800388314,"60":0.1953881659139489,"61":0.24329978022991075,"62":0.10257873981740423,"63":-0.21530026656921095,"64":0.07352011651173047,"65":0.06937903051668465,"66":0.14497381552338814,"67":0.20962520173105148,"68":0.22662602235256976,"69":0.07655422337603646,"70":0.2741948835396989,"71":-0.09994777690366019,"72":0.024567595543249127,"73":-0.24688049359269498,"74":0.16703751521814936,"75":0.008759272121579547,"76":-0.2537864457784071,"77":0.23284977845324287,"78":-0.036504864288431346,"79":-0.15497252740325795,"80":0.009802264666737994,"81":0.09351749326317645,"82":0.20117455436390969,"83":-0.3344472245550309,"84":0.22475462923444472,"85":-0.09171033420603178,"86":0.1232915740087688,"87":-0.12468465845633354,"88":0.017328656087889135,"89":0.02322090096799549,"90":0.32844656334299305,"91":-0.47632249052550535,"92":0.5662105261392923,"93":0.03561784216225281,"94":0.2687894114125982,"95":0.17240996942177172,"96":0.2603060647454131,"97":-0.3516058823691732,"98":-0.09262033228376923,"99":0.24753580665001546,"100":0.4018661490386184,"101":0.41142064167891756,"102":0.18089855152087903,"103":-0.1680576371502182,"104":0.0639678630172315,"105":-0.24251948474889276,"106":0.087456970736136,"107":0.20511455986324034,"108":-0.26748574488892773,"109":0.4666016086002341,"110":0.052256907960533575,"111":-0.02107674400272849,"112":0.07560150836647767,"113":-0.17282060458628118,"114":0.05102033481367444,"115":-0.1357901688224219,"116":0.028181836214579824,"117":-0.029571595753803307,"118":-0.354332733637413,"119":-0.048017073744607765,"120":-0.3052187428229173,"121":0.6918151577765387,"122":0.047131812360105975,"123":-0.5457339288880632,"124":0.4258928838202904,"125":-0.44204879560344595,"126":-0.027604257533752147,"127":0.10948941373609591,"128":0.020362264249825124,"129":0.08121608303534546,"130":0.0028228466340129016,"131":0.0764222339561399,"132":-0.511239356223398,"133":-0.6899548174999082,"134":0.4409167819157985,"135":0.2683649243852441,"136":-0.37394089109346323,"137":-0.42764312603564325,"138":0.6268152762999532,"139":-0.32704866936445615,"140":0.12854695109098732,"141":-0.3139928114810609,"142":0.33476679533790077,"143":-0.022931583885462754,"144":0.25162424940960176,"145":-1.1546942812485708,"146":0.47312326343095934,"147":-0.5697041790100313,"148":0.04890359709271308,"149":0.4034130165681085,"150":0.28445916659896925,"151":0.18640947322520807,"152":-0.18480161590013922,"153":-0.22170336947920852,"154":0.35720518955604524,"155":-0.1729852292712773,"156":-0.5212625252608014,"157":0.05990638387694361,"158":-0.27353365175182465,"159":-0.35393643535591973,"160":-1.0631608547612867,"161":0.44472522043947144,"162":0.07016297166923324,"163":-0.020710563173223975,"164":0.33136119944043524,"165":-0.4055401796323853,"166":-0.151837789431669,"167":-0.3963922472871034,"168":0.2105607701337405,"169":-0.5789365860127104,"170":0.5145062562577258,"171":-0.7985447243330281,"172":-0.26725988457103417,"173":-0.4940305541274225,"174":0.24304806422455166,"175":0.42135705636070786,"176":0.05311628457223736,"177":0.6657652188267191,"178":0.2627313456445281,"179":0.4239263435853733,"180":0.24380240477601267,"181":0.17835186537967246,"182":0.7730651245309823,"183":-0.3110745983321137,"184":-0.06274592882163263,"185":-0.2995501279868263,"186":0.47846448717316886,"187":-0.7640397737364588,"188":0.8368337731052685,"189":-0.06353233107048614,"190":-0.1713998410452551,"191":0.26823417497122976,"192":-0.23249341001190296,"193":-0.32014631186179027,"194":0.39957039153992485,"195":-0.3575305260381617,"196":-0.06802335919820689,"197":0.2963207035338356,"198":0.27087697982333075,"199":-0.06566200933811567}},{"sx":5,"sy":5,"depth":8,"w":{"0":0.26087633800548465,"1":-0.15484731676378063,"2":0.05029104198115635,"3":0.19466693684367836,"4":0.04384451501085448,"5":0.22315442786731698,"6":-0.10870102809906215,"7":-0.45517860280779265,"8":-0.041543194498544746,"9":0.02920913475986274,"10":-0.02447513987430994,"11":0.3512287112622598,"12":0.26385324151455275,"13":0.03181600466803176,"14":-0.12056100829641798,"15":0.09898727664068413,"16":0.034620935726781224,"17":-0.28132780626517695,"18":-0.3894866664133573,"19":0.11477057235552389,"20":-0.2715614290411806,"21":0.1526960989818591,"22":-0.480191639056002,"23":0.3326537851742331,"24":0.35573713582861305,"25":-0.2601217110281243,"26":0.34195763786493377,"27":0.17220577612198446,"28":0.28848962615734647,"29":0.41385669403356146,"30":0.2957416400457259,"31":-0.135513560275535,"32":-0.21107413994523516,"33":0.11037112351075798,"34":0.2804314848576487,"35":0.12989644105209883,"36":-0.1949440845293063,"37":0.2773885046636752,"38":-0.017341310208136902,"39":0.2265180761122112,"40":0.0689531034923034,"41":0.03335431154804009,"42":0.06093756432200519,"43":0.08492121793025448,"44":-0.12722415736418285,"45":0.07344484436067053,"46":-0.2331984832448969,"47":-0.09533720399300524,"48":-0.15378508389636486,"49":-0.13688841999784188,"50":-0.1312194860767295,"51":0.3762367567374909,"52":-0.276284894302552,"53":-0.2596222170407534,"54":-0.11234342995344393,"55":-0.010484016871223663,"56":0.046306536493769444,"57":-0.2610185732490828,"58":0.07144046319090461,"59":-0.149632723895004,"60":-0.021472355596137038,"61":0.030621869014812064,"62":-0.29340846940864085,"63":0.18462505598512374,"64":-0.024102776086753548,"65":-0.11916999167702996,"66":0.32862105344335085,"67":-0.012229398143103707,"68":-0.49910986945256863,"69":0.12307162014315338,"70":0.20973817660741878,"71":0.24410454507925225,"72":0.07881074942253212,"73":0.5197779698125748,"74":0.14264403608024115,"75":-0.5032357485205824,"76":0.3079893906286624,"77":-0.16715528650370282,"78":-0.30184138804819133,"79":0.4272958232607503,"80":0.1535087419000409,"81":0.033881614207848174,"82":-0.04533659228617297,"83":0.04143906076714264,"84":-0.2583739436359771,"85":0.10908948752975732,"86":0.2457833134816409,"87":-0.2411336344535491,"88":-0.18189155998653628,"89":0.33326774898684663,"90":-0.023062005896910882,"91":-0.19964459312283647,"92":-0.017700417829126985,"93":-0.1380052525395672,"94":0.2924738231157806,"95":-0.10506652206692095,"96":-0.46239784252192095,"97":0.25834285204567475,"98":0.03720619477747761,"99":-0.5748049548221486,"100":-0.41314758714220223,"101":-0.4748755237247363,"102":-0.16069393280265554,"103":0.3283581429401184,"104":-0.09135334601112279,"105":-0.5963916600711787,"106":-0.16493575206884944,"107":-0.44147817568810305,"108":0.08056111555446659,"109":-0.13635988865439724,"110":-0.17128133276031227,"111":-0.010279407021549383,"112":0.23802195556066058,"113":-0.14411668296936386,"114":-0.1698229103221882,"115":-0.35534875456538,"116":-0.3890215989013499,"117":0.03351969204123998,"118":-0.09357548818525965,"119":-0.04930338245077305,"120":0.08220304117039748,"121":0.34937072061327556,"122":0.07998717709385672,"123":-0.1411860462764565,"124":0.17652448227078693,"125":0.029070863513473096,"126":-0.22383720538776652,"127":0.03345563744411886,"128":-0.08694074086428247,"129":0.32908143754025226,"130":0.12591624403201776,"131":0.22016992813774405,"132":0.06859987531789927,"133":0.012821170114806928,"134":0.25023119025133145,"135":-0.27338703637771367,"136":-0.34021111215013955,"137":-0.2566465889755562,"138":-0.020816159897549102,"139":0.1312766507345341,"140":-0.23813772221995524,"141":-0.08141569471316189,"142":0.02445337822693269,"143":0.19469587436504354,"144":0.19271677535875034,"145":-0.26252685460239933,"146":0.004626940567934521,"147":0.3417633661016018,"148":0.09371833466145546,"149":-0.09241088760492934,"150":-0.0707625753860113,"151":-0.00031980075428956404,"152":-0.04160550151314888,"153":-0.11181142219835587,"154":0.10095745602050435,"155":0.3890334300679216,"156":-0.10288120153025217,"157":0.40453517405376016,"158":0.03787392373377991,"159":-0.4641263309723933,"160":0.20219945150589086,"161":-0.6686701719298673,"162":-0.13542082745595257,"163":0.3336433851564187,"164":0.1707719796908751,"165":0.05899209959754144,"166":0.06877101609015338,"167":-0.24152538874793703,"168":0.2810759714365745,"169":-0.2903679093354713,"170":0.12777276385503628,"171":0.7501183075994464,"172":-0.24321404816616998,"173":0.6038786087631105,"174":0.39091295769041234,"175":-0.41047014213273575,"176":0.20122232295092676,"177":0.03682829348676668,"178":0.231894315606122,"179":0.1617641764572825,"180":-0.17939072128155192,"181":0.3300385205247346,"182":0.05092150719809988,"183":-0.20327284228754894,"184":-0.10449708323816113,"185":0.1270016747806557,"186":-0.2520433649488273,"187":-0.8684619854141227,"188":-0.15505429959519063,"189":-0.6486830312925497,"190":-0.07151312845172278,"191":0.3360387642259581,"192":-0.22434817920628536,"193":0.2506235614053703,"194":0.06439181889966396,"195":-0.08964356625394211,"196":-0.022982777965149623,"197":-0.0010807983887920617,"198":0.15647382147943895,"199":0.2555106647837064}},{"sx":5,"sy":5,"depth":8,"w":{"0":0.03493777860438236,"1":0.16320588886739815,"2":0.05060673546241266,"3":-0.059217614568725395,"4":-0.0015021047543394349,"5":0.043332467365516415,"6":0.031971029056061584,"7":-0.08277098575653104,"8":-0.01970190186385115,"9":-0.2427185511525503,"10":-0.023202172655133146,"11":-0.02279891841566425,"12":-0.16880319830441065,"13":-0.05237731761298293,"14":0.055505547328728505,"15":-0.21885800620793636,"16":-0.15210492139032605,"17":0.06163050061949221,"18":0.060605536503087885,"19":-0.17076735329935142,"20":0.12249618998262718,"21":0.11266747619582401,"22":0.29894202630248823,"23":0.046863050878984146,"24":-0.28136361209489863,"25":-0.20659844072185227,"26":0.04788460117893454,"27":-0.13033959682137394,"28":0.41280695081539265,"29":0.06910146430222379,"30":0.2737891250749374,"31":-0.20351537551496032,"32":0.09593244190336983,"33":-0.06794212356619854,"34":-0.0029290477335710916,"35":0.22579843591878632,"36":0.1499364592410625,"37":0.016842748268805628,"38":0.048294120136180375,"39":-0.2757585937491491,"40":-0.06589332176563377,"41":-0.20059489441344752,"42":0.00445619861637539,"43":0.1290741505193043,"44":0.07676992336547121,"45":0.041219378491819635,"46":-0.03673685009676315,"47":0.08292433348605394,"48":-0.07960078812736078,"49":0.05322601929435259,"50":-0.07954511167292007,"51":0.008816131266519013,"52":-0.016305139654400662,"53":-0.12883355040056343,"54":0.011731252687813285,"55":0.007828338394907422,"56":-0.0395524058687241,"57":0.20595385252142734,"58":-0.02181785799368984,"59":-0.009975730308015447,"60":-0.11421421367515905,"61":0.25727770693968627,"62":0.46042540696358913,"63":0.06603869762132705,"64":0.06532054894968242,"65":0.41564428905009176,"66":0.1916427049278733,"67":0.183707340321665,"68":-0.10867445631100901,"69":0.14207918962063376,"70":0.4659396155724712,"71":-0.05878477718081224,"72":-0.2166075942331364,"73":0.14315262197987588,"74":0.2960128894803054,"75":0.12309775974910964,"76":0.07267593165260292,"77":-0.13833217444200865,"78":0.037096178781996,"79":0.22818854809202246,"80":-0.08026747945280979,"81":-0.6392992899293056,"82":0.0685375799816506,"83":-0.06960822558594718,"84":-0.13308804744717428,"85":-0.014426184682994874,"86":0.043522605337053065,"87":-0.37938839278737313,"88":0.012353118935224307,"89":0.18972691823738744,"90":0.04499954378366624,"91":-0.18661226429734415,"92":0.08987553186907116,"93":-0.0074150266420193005,"94":0.06419495365521799,"95":0.0705416444911331,"96":-0.08609113055013068,"97":-0.03829932831345066,"98":-0.09123952827669887,"99":0.12920925412526332,"100":0.16733011910628642,"101":0.0084532808884412,"102":-0.015584949287923203,"103":-0.06842663629290095,"104":-0.10065046963830565,"105":-0.1159181917146582,"106":-0.08848253098199411,"107":0.012365502888264003,"108":-0.16559254971091825,"109":0.0742757861501059,"110":0.22234557237009703,"111":0.26664907108794456,"112":-0.021577423210423722,"113":0.15798968319517795,"114":-0.1688312591867221,"115":-0.13396251100585785,"116":-0.0312517338366374,"117":0.13715954109394507,"118":-0.6405620402381862,"119":-0.08800171054442422,"120":0.08669277828626444,"121":0.2573057958532031,"122":0.09116870150532991,"123":0.1789587114851538,"124":0.057781024456840635,"125":-0.07556499304903243,"126":0.05434783064493646,"127":-0.11813389810390733,"128":-0.20516891936541337,"129":0.11748086869080766,"130":0.09026304564631192,"131":-0.002803345164565498,"132":0.2160027357148121,"133":-0.4572885591079132,"134":-0.1011226164941364,"135":0.13318387622339517,"136":-0.033828806337146876,"137":-0.15713044346531957,"138":0.38400165180156465,"139":0.17437069704274075,"140":0.11415001077800682,"141":-0.03979639817276248,"142":-0.05543651650752917,"143":0.20109101066791277,"144":-0.15777479294986,"145":0.16295405659350481,"146":0.027919545896357895,"147":-0.13855085709875442,"148":0.22670096355730507,"149":-0.3797349034466699,"150":0.002270853651612572,"151":0.12035242016926825,"152":0.10636906097313799,"153":0.4622592154185542,"154":0.15030241617687876,"155":-0.13758570510868176,"156":0.08073461706805854,"157":0.33807189419581,"158":-0.002297479869025647,"159":-0.06623216881235046,"160":-0.067691883093204,"161":0.16608086847492456,"162":-0.01591199984571383,"163":0.2040822699542833,"164":0.023636815103013947,"165":-0.0038321194326986848,"166":0.20987994436286608,"167":0.08381315775792138,"168":-0.1695757187815166,"169":0.29986788273331966,"170":-0.01892235314890202,"171":0.09325415420450242,"172":0.020673159825413054,"173":-0.09011286831978785,"174":0.16767307557560174,"175":0.14645564135440597,"176":-0.0384198993432806,"177":0.14776321330635236,"178":0.1314487815985128,"179":0.005668496911437034,"180":-0.2573672937006715,"181":0.0018586264148351536,"182":0.26672013685666585,"183":0.0036637461075827607,"184":0.09139116403319908,"185":-0.2242355130852019,"186":0.24422925438974422,"187":-0.013130525170618006,"188":0.38681805335727903,"189":-0.0031556936977132693,"190":0.12541106806397542,"191":-0.3981105642540402,"192":0.049477188641526906,"193":0.08826640827391874,"194":0.40437408200239094,"195":-0.11830772960560068,"196":-0.13079015399483895,"197":0.19257633593376486,"198":-0.03275339570303277,"199":-0.16054402393718348}},{"sx":5,"sy":5,"depth":8,"w":{"0":-0.046069624946240596,"1":0.18555520947172802,"2":-0.14881773019454875,"3":-0.06546455083957842,"4":-0.1076000515742664,"5":-0.2259245197683088,"6":-0.25027121617447134,"7":0.1725190641685385,"8":-0.027891461163582335,"9":0.12829311903464377,"10":0.28213560656780134,"11":0.6185097118206279,"12":-0.0309542164563834,"13":0.31212985183603764,"14":0.04403035950859761,"15":-0.3126739985429755,"16":0.08839936968147159,"17":0.11244516773755008,"18":0.10925958133339919,"19":-0.1607448262540165,"20":-0.029021196354574473,"21":-0.2204791341349695,"22":-0.15875073325497857,"23":0.28782547771837397,"24":0.10610191596680955,"25":0.06753082185625123,"26":-0.016048369918588937,"27":-0.5285877762201957,"28":0.22714419199625402,"29":-0.10337934784483513,"30":-0.2891869057687442,"31":-0.5721575427387305,"32":-0.11791665028918978,"33":-0.0198590075704733,"34":0.07338317033297703,"35":-0.13876570803640323,"36":0.1651316835394205,"37":-0.04367410477302328,"38":-0.34806601228342304,"39":-0.353451083768748,"40":0.09483577282557745,"41":-0.15016494525409751,"42":-0.07781848331120893,"43":-0.023027612878598776,"44":0.11643577979005792,"45":-0.04703629419465733,"46":-0.16641240542974653,"47":0.03976988571509888,