{"layers":[{"out_depth":1,"out_sx":100,"out_sy":200,"layer_type":"input"},{"sx":10,"sy":10,"stride":5,"in_depth":1,"out_depth":8,"out_sx":19,"out_sy":39,"layer_type":"conv","l1_decay_mul":0,"l2_decay_mul":1,"pad":2,"filters":[{"sx":10,"sy":10,"depth":1,"w":{"0":-0.6997108683168118,"1":-0.5670532617112976,"2":-0.41090116447777764,"3":-0.1570881392162508,"4":-0.2282053231589735,"5":-0.16952207872355884,"6":-0.7105938610936732,"7":-0.41466110935268546,"8":-0.24734973534655727,"9":-0.5026121520073675,"10":-0.4955989686896768,"11":-0.8068950486935759,"12":-0.37371780717881325,"13":-0.23771156092200385,"14":-0.380169841664176,"15":-0.5526550736976663,"16":-0.41683376663977245,"17":-0.623272584294253,"18":-0.4135914337970684,"19":-0.4184894983639218,"20":-0.535203811013218,"21":-0.6259314414689624,"22":-0.24674015401347846,"23":-0.3233240953960429,"24":-0.21378829216466697,"25":-0.014972501696025863,"26":-0.5478903539282898,"27":-0.2810944559497293,"28":-0.5485744360931797,"29":-0.26769359256441844,"30":-0.36935558008682295,"31":-0.4440234083545493,"32":-0.38199370124874704,"33":-0.37330649689590767,"34":-0.26104141598683234,"35":-0.2912635735426174,"36":-0.18690867547507511,"37":-0.28223032414064797,"38":-0.48007118127834786,"39":-0.35747628718271485,"40":-0.2948056113039494,"41":-0.3307089318722545,"42":-0.3309826541808699,"43":-0.48992486996471263,"44":-0.36486518169663534,"45":-0.12668481023115288,"46":-0.27164817018218274,"47":0.024460560812507616,"48":-0.39456959002181036,"49":-0.32547331273899716,"50":-0.3822292927341647,"51":-0.40211993317283734,"52":-0.16889978310885878,"53":-0.11232447897881898,"54":-0.10819256525565717,"55":-0.2103962129175972,"56":-0.14580552218473974,"57":-0.33062645804907403,"58":-0.3451009148717659,"59":-0.2806765661363741,"60":-0.3877804842123066,"61":-0.34560285989569495,"62":-0.19574744697332067,"63":-0.1365932184311649,"64":-0.3477167488796669,"65":-0.24769419205674842,"66":-0.49272131504476446,"67":-0.43065012261029945,"68":-0.6774081052329373,"69":-0.33406898270061613,"70":-0.8143386551204466,"71":-0.8258375688122606,"72":-0.542712714297525,"73":-0.23951903767034596,"74":-0.24793315275773056,"75":-0.5027134709671321,"76":-0.6345274382875116,"77":-0.4548288244221391,"78":-0.7121034848594003,"79":-0.5846973785809915,"80":-0.8506259861721179,"81":-0.505016019009441,"82":-0.4160637611750564,"83":-0.239099461704362,"84":-0.4541726653564626,"85":-0.2768723911891825,"86":-0.35272499556647097,"87":-0.623188154314891,"88":-0.8795115076993171,"89":-0.6121242961970114,"90":-0.567636181637077,"91":-0.5034749958047751,"92":-0.6460587888883916,"93":-0.29142447796164245,"94":-0.29115089223304774,"95":-0.13992038008395596,"96":-0.5808440061951617,"97":-0.571815285267171,"98":-0.4265540953529534,"99":-0.7419425290609338}},{"sx":10,"sy":10,"depth":1,"w":{"0":-0.16040972044442806,"1":-0.45144285288137387,"2":-0.41318619300206944,"3":-0.21452384843012956,"4":-0.2065461468852864,"5":-0.5601225318753668,"6":-0.30507068074764443,"7":-0.18586051635616332,"8":0.18906454803771827,"9":0.30480029380020535,"10":0.09145843086290972,"11":-0.1317775548575918,"12":-0.03550232986056287,"13":-0.28520211815037416,"14":-0.41332860764701684,"15":-0.10140204246455933,"16":-0.06455104866503798,"17":0.018030710545674285,"18":-0.37908953728672673,"19":-0.2931195587419327,"20":0.46736143965800947,"21":0.2342485775139735,"22":0.0633609860023109,"23":-0.060340620321864956,"24":-0.26112582982394406,"25":-0.3748093666279928,"26":-0.14779190118685262,"27":-0.058358120610362135,"28":-0.40897730919319425,"29":-0.3194158779699961,"30":0.4037203606453921,"31":0.2089637525630051,"32":0.3210996873698848,"33":0.2838598820023417,"34":0.2297831804549596,"35":0.15564818037173914,"36":0.1587443229935335,"37":-0.0911748232328927,"38":-0.17993685610296614,"39":-0.21892810069869426,"40":0.031343222111543834,"41":0.3222175460877108,"42":0.041651933047476074,"43":0.4317063846468335,"44":0.45101201772158883,"45":0.23108557932173476,"46":0.2182974905563464,"47":0.43495666192137444,"48":0.190086845633881,"49":0.14487890324906033,"50":0.10686761701257853,"51":-0.05828025053844056,"52":-0.17760533294278186,"53":-0.09475357884957124,"54":0.11103283343097717,"55":0.31282251806903516,"56":0.0928750183146688,"57":-0.019522748986079683,"58":0.29695678539518405,"59":0.259310259395155,"60":0.03768652432317162,"61":-0.11541236817925216,"62":0.07100288871322769,"63":-0.0922379209472493,"64":0.058934566001199694,"65":-0.007495599096600588,"66":-0.0365996104517679,"67":0.25486501131289335,"68":0.4475022130044902,"69":0.06773574672857395,"70":-0.12237073866224293,"71":-0.002945112030066781,"72":0.06461130226406867,"73":0.24430813533805737,"74":-0.07893476216200418,"75":0.030675519788988675,"76":0.2774927711665733,"77":0.0712879721293049,"78":0.4138679252736498,"79":0.37313977875612764,"80":-0.029957288088144296,"81":-0.014222926074365374,"82":0.22086170259215035,"83":-0.07130393770205376,"84":-0.14503395478897096,"85":-0.4022898850254549,"86":-0.236993520793944,"87":-0.049279889836238044,"88":0.15848670756809824,"89":0.29667135679255474,"90":0.004506057123005091,"91":-0.02338950736780892,"92":-0.0018461029114907527,"93":0.11913894187234626,"94":0.05972014257995946,"95":0.012685013639482387,"96":-0.14780195581928524,"97":-0.02569896164160939,"98":0.21877301541279165,"99":0.21301057020648118}},{"sx":10,"sy":10,"depth":1,"w":{"0":-0.00291151280557996,"1":0.034964022941283444,"2":-0.004547667768867562,"3":0.1421977523160483,"4":-0.04250197836671575,"5":0.03531495598540339,"6":0.028301161634899808,"7":-0.05054949560304602,"8":-0.005414332973216412,"9":0.16108208851106928,"10":-0.01918083530485739,"11":0.1191724034512527,"12":-0.03771209693678605,"13":0.06532959902367728,"14":-0.02417816363018699,"15":0.15052513310287458,"16":0.0751891990856828,"17":0.12417367416050375,"18":0.05551611657303861,"19":-0.01443041523669781,"20":-0.1450874619349476,"21":-0.03554287725440141,"22":-0.007839579929978299,"23":-0.10334844527122715,"24":0.12764487925156645,"25":-0.1422190626536523,"26":0.0520995605058924,"27":-0.12013661990116702,"28":-0.21139858795740005,"29":-0.05485035454347834,"30":-0.028632067133548975,"31":-0.08893845426728147,"32":0.03711097269985893,"33":0.014703655266131129,"34":-0.049234681455804875,"35":-0.13428353458592054,"36":0.10389300641796667,"37":-0.13242719311803977,"38":-0.04469373133981837,"39":-0.0506409855128369,"40":-0.004885947993356034,"41":-0.06687510648435822,"42":-0.08570213568970864,"43":-0.036750419257363845,"44":0.0326174434675556,"45":0.050047740255350616,"46":-0.1542658834659818,"47":0.062240309267859416,"48":-0.22508198965543774,"49":-0.03481477230793274,"50":0.017614221216474248,"51":0.05165202846350856,"52":-0.07173228319501994,"53":0.07183047138548382,"54":-0.0944010465050306,"55":0.016989883282282812,"56":-0.11014774647320273,"57":0.2609581028117813,"58":-0.09414208417931721,"59":-0.07863871955460391,"60":-0.10823830816473932,"61":-0.01906615119746005,"62":-0.09183951730667209,"63":0.09234587705174852,"64":-0.03345232359449507,"65":0.03102296388867997,"66":0.10317050133470505,"67":-0.12774320680253237,"68":-0.04651033627518039,"69":-0.0744190887232452,"70":-0.042875529684096664,"71":-0.11402108801594785,"72":-0.05875991446733833,"73":0.14467024298344572,"74":0.07758982038082508,"75":-0.1376473061757439,"76":-0.018464614209740677,"77":-0.026483217199502005,"78":0.019387818216020578,"79":-0.09805334233398569,"80":-0.20877694074824402,"81":-0.15715079693075626,"82":0.11753098560954998,"83":0.0373427577382316,"84":-0.19025691922717455,"85":-0.0709134554203728,"86":0.05315154205434552,"87":-0.15112998873600075,"88":0.09423029116721905,"89":-0.061452227163868174,"90":-0.005873583445008561,"91":-0.03937522282487469,"92":0.13875823847386004,"93":0.06635589026653774,"94":0.04977350981044138,"95":-0.09542085689979049,"96":0.11160678141180863,"97":-0.036358177838447206,"98":0.17669433163907383,"99":0.007995501384741348}},{"sx":10,"sy":10,"depth":1,"w":{"0":0.379871598221003,"1":0.15169792801103152,"2":0.20658667229750793,"3":0.04593723063282263,"4":0.10546747413306495,"5":0.06338186300385827,"6":-0.08820267580815275,"7":0.06719046749285382,"8":0.11867319074926516,"9":0.037247423367049205,"10":0.4765562951979003,"11":0.2754070925399793,"12":0.3858832493268823,"13":0.3642812481689496,"14":0.1587893784394511,"15":0.18172865071386754,"16":0.06872487459615381,"17":0.1527224895078111,"18":0.21907579704415425,"19":0.22550312620680654,"20":0.12149896433696081,"21":0.3175122057089095,"22":0.3841828662744266,"23":0.261854086057496,"24":0.3911584398545879,"25":0.20428144719726832,"26":0.24837324575366543,"27":0.09768766457650728,"28":0.29039604940372543,"29":0.18695932921314506,"30":-0.05788526041335104,"31":0.3907485945669196,"32":0.30142852580795126,"33":0.2557274932018091,"34":0.3564844827737294,"35":0.554539689984865,"36":0.32210782045633185,"37":0.26852667948259107,"38":0.1460363475063548,"39":0.0838930228387034,"40":0.008735970197602524,"41":-0.00802824424528396,"42":-0.06620289509952502,"43":-0.09293155150187676,"44":-0.09593405706957447,"45":0.2809789379593569,"46":0.16598074342695932,"47":0.2782426576790407,"48":-0.2070267669013126,"49":-0.05725737450753652,"50":-0.11772367208303977,"51":-0.1653364648779596,"52":-0.09253509014906323,"53":-0.06522011886276222,"54":-0.05462458812270413,"55":-0.021242438623605513,"56":-0.15328403760247167,"57":-0.0027817227246343715,"58":0.10668681476788949,"59":-0.1494065479689375,"60":-0.22985919579786884,"61":-0.22454883952593113,"62":-0.23520472611075383,"63":-0.350318853759024,"64":-0.028227179071750083,"65":-0.2710612255935551,"66":-0.2943702174308708,"67":-0.3523523824079618,"68":-0.2778956867129892,"69":-0.15525959467275052,"70":-0.3765482485949962,"71":-0.23106773969665506,"72":-0.2652696920468409,"73":-0.3436719943666764,"74":-0.3593928664405144,"75":-0.24321172647713474,"76":-0.32942053090089607,"77":-0.41378558028042467,"78":-0.35743393372231674,"79":-0.41512675742172034,"80":-0.08721404942378704,"81":0.010178207199708132,"82":-0.3567375631787272,"83":-0.34265410675199903,"84":-0.28068786472169854,"85":-0.370286936576658,"86":-0.24926442313861674,"87":-0.37938800596999706,"88":-0.5278631585083774,"89":-0.42424712852883495,"90":-0.0354176948649954,"91":-0.08180748834923851,"92":-0.0893067968515822,"93":-0.11620036368291259,"94":-0.18032403081735007,"95":-0.34606713654575777,"96":-0.29260594797691075,"97":-0.3911226628049578,"98":-0.3434638772340205,"99":-0.340833963934786}},{"sx":10,"sy":10,"depth":1,"w":{"0":-0.15643434023764177,"1":-0.20045150461667977,"2":-0.07071033994301341,"3":-0.11373880882179381,"4":-0.07624295555213927,"5":0.057667162752809295,"6":0.029470239221184538,"7":0.12443368030090639,"8":-0.004896080398461246,"9":-0.05702089144982475,"10":-0.05795569724367256,"11":-0.3363228036992961,"12":-0.27828037557526336,"13":-0.2679312704567834,"14":-0.11591475747768058,"15":-0.04557848556533067,"16":-0.0356095297813576,"17":-0.06840485673524298,"18":0.0075860216169265395,"19":-0.270058939980764,"20":-0.15819128077251732,"21":-0.19856681078012825,"22":-0.06409039996175618,"23":-0.3271392549687523,"24":-0.377724198734397,"25":-0.36162524763491904,"26":-0.20916327632373247,"27":-0.20483457190823462,"28":-0.17380752998351637,"29":-0.14017816368783495,"30":-0.3024962980023739,"31":-0.24868611661054404,"32":-0.13088757303859153,"33":0.007179973839287677,"34":-0.29919762795296473,"35":-0.2434569281516139,"36":0.0664242950366877,"37":-0.26392316396955773,"38":-0.28200266363415133,"39":0.07191471577706955,"40":0.020903132339742024,"41":0.040310423934507504,"42":0.024022737610511,"43":-0.05796429472598516,"44":-0.17913964736816768,"45":-0.17593989728376475,"46":-0.27217701381528486,"47":-0.21665126314857905,"48":-0.10818287881900057,"49":-0.18988549320543258,"50":0.12355759436227869,"51":0.24779095493416636,"52":0.003521180532726311,"53":-0.008579099078677118,"54":-0.07683850803710697,"55":-0.21436484989347196,"56":-0.0840206610146089,"57":-0.05319919495775198,"58":-0.05870046208958254,"59":-0.2697182422257495,"60":0.37481171095450866,"61":0.25822671132134045,"62":-0.15629944311322452,"63":0.031212293394740503,"64":0.09742455131576612,"65":-0.11564335467834311,"66":-0.03608066888735647,"67":-0.16731387013557403,"68":-0.08647672587066543,"69":-0.2844698667465138,"70":0.2335575341378773,"71":0.1972486056527746,"72":0.15604253407776147,"73":0.05295771681229199,"74":0.16917017600143575,"75":0.04587376149346211,"76":-0.12128049042025538,"77":-0.15768771138215396,"78":-0.07312199334659371,"79":-0.02138755393369477,"80":0.5731088606118394,"81":0.23536635983404927,"82":0.45529944626466406,"83":0.20956670621475212,"84":0.047844508760654866,"85":-0.0053908789964263095,"86":-0.028458893076949616,"87":-0.09825000172447852,"88":0.02282799016235743,"89":0.160142486939995,"90":0.12471784084352183,"91":0.40420034903472113,"92":0.3366126668552455,"93":0.5304181146608563,"94":0.08596260311226901,"95":0.1892655847525596,"96":0.11986927686530775,"97":0.19843558980160136,"98":0.2578487083595865,"99":-0.011690517708634779}},{"sx":10,"sy":10,"depth":1,"w":{"0":-0.09629685561037471,"1":-0.08304267629208256,"2":-0.04133859459077378,"3":-0.13910012911056666,"4":0.39628771573639665,"5":0.14291189147938888,"6":0.16452114383682673,"7":0.14951609880736186,"8":0.06866394514570069,"9":0.0998901450661894,"10":-0.18087246860068038,"11":-0.24395014843896834,"12":-0.24028702070795926,"13":-0.35025586554955784,"14":0.02112713051253792,"15":-0.1362564253091228,"16":-0.11153580467662663,"17":-0.11097711297459723,"18":-0.0905269378029286,"19":-0.06113658236295066,"20":-0.2072514859714404,"21":-0.2793428105683747,"22":-0.25519891827016306,"23":-0.1852414392293625,"24":-0.03955568056105246,"25":0.11184020798691362,"26":0.057097729737240616,"27":0.08053390809081218,"28":-0.11257169138456535,"29":-0.004554705296638439,"30":-0.26828898330327733,"31":-0.2847388336631105,"32":-0.0588314743332279,"33":-0.27326049253527274,"34":-0.02254547404146276,"35":-0.09008909990056334,"36":-0.069597125072636,"37":-0.00813773631688736,"38":-0.0031013300402979714,"39":-0.19291848986658608,"40":-0.26944625725054233,"41":-0.23718500944351878,"42":-0.45317675266647667,"43":0.08365428255396934,"44":-0.31247822510073797,"45":-0.06669079351642263,"46":-0.0573051861170217,"47":0.20245731962556213,"48":0.04040341215546924,"49":-0.19696951002958288,"50":-0.25479352528738514,"51":-0.11478337928740574,"52":-0.37089400346295737,"53":-0.20617376288405176,"54":-0.3976703852144498,"55":-0.29064238742998993,"56":-0.3064299995135117,"57":-0.0581887475895997,"58":0.1532065506645574,"59":0.17350043762461664,"60":-0.46867252789692787,"61":-0.3056838080916292,"62":-0.13580642107399435,"63":-0.12814359687267193,"64":-0.12405355332962874,"65":-0.1399477357847435,"66":-0.2758991305194772,"67":-0.2261198661921572,"68":-0.0035309081868933377,"69":0.08906192410644362,"70":-0.4940652841619316,"71":-0.4704650089279491,"72":-0.5124847543105,"73":-0.2745216863281349,"74":-0.26669321962609044,"75":-0.4289947310644709,"76":-0.171063717566884,"77":-0.19074632673929345,"78":-0.330628366744628,"79":-0.03659909776318878,"80":-0.5733970244939437,"81":-0.548913651367792,"82":-0.439611590436687,"83":-0.4905359743946277,"84":-0.5459974339684401,"85":-0.32651171245072286,"86":-0.3642955163658313,"87":-0.2452809782304437,"88":-0.3924621185208403,"89":-0.36699955132120754,"90":-0.3254861282850633,"91":-0.42059670958517936,"92":-0.4334837904205805,"93":-0.2825122620281106,"94":-0.22780568517737687,"95":-0.14975371989818945,"96":-0.3312203402517248,"97":-0.2662988366776818,"98":-0.45603080156773834,"99":-0.32329510827693453}},{"sx":10,"sy":10,"depth":1,"w":{"0":0.21138306564201767,"1":-0.0014065442812322435,"2":0.08112546625475262,"3":0.05373703056241998,"4":0.05962234692505771,"5":-0.02202817417676362,"6":0.027478657587761784,"7":0.06515173271769696,"8":0.028407139684477042,"9":0.011130159311605586,"10":0.06370897705812421,"11":0.1170129871344315,"12":-0.01928280727622003,"13":0.06753129589982504,"14":0.11010694827484738,"15":0.05918865589878882,"16":-0.04888031119025756,"17":0.003977540712516301,"18":-0.01179758646716682,"19":0.03519984567717818,"20":0.10903309373881846,"21":0.14207628810546521,"22":-0.06150275458274234,"23":0.055607769711009745,"24":0.00907744109464088,"25":-0.12357592033140456,"26":0.04033262464955371,"27":-0.12560326551002315,"28":0.1011326718495671,"29":-0.06954717015675875,"30":0.1440369728883015,"31":0.08705444303073039,"32":-0.028138561387681928,"33":0.05463151414158514,"34":0.02982197728933297,"35":-0.07971867956993389,"36":0.05379359831275454,"37":0.10025812254447822,"38":-0.11975636993500365,"39":-0.07984697758386358,"40":-0.009248698997354317,"41":0.01683950027687139,"42":-0.1251763851459815,"43":-0.08810054056473804,"44":-0.21407676057068742,"45":-0.03880821699095808,"46":0.037502936763459734,"47":0.0623092290565795,"48":-0.10820533283557209,"49":-0.02643241937294756,"50":0.054801642763291074,"51":-0.02521761355932282,"52":-0.05029305432165657,"53":-0.07260501364410445,"54":0.10051453027707406,"55":-0.04218318923071866,"56":-0.1104182811648746,"57":-0.006507225164644612,"58":-0.056646727364319256,"59":0.032328803345375384,"60":-0.06758253407495933,"61":-0.07259036014164165,"62":0.032498290625507784,"63":0.07271459282663413,"64":0.02720372172549432,"65":-0.03998862590444185,"66":-0.07710912930763701,"67":-0.028556479962023675,"68":-0.06921299694997261,"69":-0.03751250332044833,"70":0.015217807179696369,"71":-0.021726211945034782,"72":0.1080535249547819,"73":-0.07978577459193265,"74":0.025719179590225863,"75":-0.07962234148914565,"76":0.016190048564614857,"77":-0.03808343480160031,"78":0.14074217213110995,"79":-0.13626863074567608,"80":-0.07872076559019589,"81":-0.04393946320293504,"82":-0.1769130927488506,"83":-0.07149802796935714,"84":0.04656865056339448,"85":-0.015758483337689297,"86":-0.10401665374129614,"87":-0.10458304663701136,"88":0.00813779371445781,"89":-0.1660393446534072,"90":0.003103184854011342,"91":-0.03382895556197789,"92":-0.02987231792938554,"93":-0.03274249117655585,"94":-0.03414883880736855,"95":-0.014845479711652024,"96":-0.020354165431059487,"97":-0.16521000299993727,"98":-0.07545366515227855,"99":0.024434745149577556}},{"sx":10,"sy":10,"depth":1,"w":{"0":0.6274534706215704,"1":0.516641023695731,"2":0.6707941316661719,"3":0.6884418253343706,"4":0.2109586765177994,"5":0.16687528265833235,"6":0.46816157665013514,"7":0.49731186557588436,"8":0.8375796945701435,"9":0.16484507986617747,"10":0.2771231831476052,"11":0.38602969500640666,"12":0.4860712831788752,"13":0.3283749699706391,"14":0.1816770788340447,"15":0.2836030529883415,"16":0.318368945035485,"17":0.4936041765415613,"18":0.1966539104791002,"19":0.46123111190568233,"20":-0.0006042811820792243,"21":0.372145089163593,"22":0.2376456184306622,"23":0.40457763056016627,"24":0.1902179986337557,"25":0.13351374220738893,"26":-0.003063567363744832,"27":0.3299039513526701,"28":0.5393813660382979,"29":0.3155400778792187,"30":0.07925176017869921,"31":0.19255143427959173,"32":0.16929773908634985,"33":0.03568691500824275,"34":0.041676733665044756,"35":-0.039821143996205656,"36":0.24185940648039245,"37":0.15568727514507083,"38":0.2317598325767865,"39":0.15786356225032808,"40":0.1471796382098203,"41":0.03129990754434191,"42":0.18717343892502705,"43":0.15714671893796792,"44":0.23494029174970626,"45":0.17537261555903796,"46":-0.12761439008434325,"47":-0.01363727786861668,"48":0.18302883462587033,"49":0.21155208973699105,"50":-0.08076532172112126,"51":-0.0472906925510283,"52":0.13737261801872094,"53":0.38860579012263674,"54":0.3343554503380432,"55":0.1816267676318367,"56":-0.12097169197493172,"57":-0.25047303447501335,"58":-0.04628949638572122,"59":0.16495360557407582,"60":0.5009729520400015,"61":0.3186409556458997,"62":0.17542875031432198,"63":0.29439173897848114,"64":0.5613693769171274,"65":0.25544464686922586,"66":0.08737211183626765,"67":-0.24725758225449526,"68":-0.08730207547486862,"69":0.04926561934713931,"70":0.714504421947273,"71":0.8780072956392871,"72":0.5485569726840497,"73":0.22636762445622896,"74":0.4712756193013979,"75":0.5524204330060345,"76":0.44261431612899194,"77":0.1671017971368132,"78":-0.044896626608719965,"79":-0.0989717811458384,"80":0.6849704156056781,"81":0.47388253099817956,"82":0.4048582996671957,"83":0.5146584507177822,"84":0.19084096470911158,"85":0.5116577795257201,"86":0.5743871771220503,"87":0.492629165786715,"88":0.07601306758623731,"89":0.14404586245011106,"90":0.45196661467928345,"91":0.5497784735935839,"92":0.1393432732715615,"93":0.2894564336338719,"94":0.27607213326596025,"95":0.28162602554373883,"96":0.2207084291236691,"97":0.44376522195872786,"98":0.43426346210703015,"99":0.20693914576351136}}],"biases":{"sx":1,"sy":1,"depth":8,"w":{"0":0.28987706682786635,"1":0.8875205044133289,"2":0.9015081861072815,"3":0.18910299932339125,"4":1.208517964492097,"5":0.32040365640951673,"6":0.9184817484039409,"7":1.0352208174712882}}},{"out_depth":8,"out_sx":19,"out_sy":39,"layer_type":"relu"},{"sx":5,"sy":5,"stride":5,"in_depth":8,"out_depth":8,"out_sx":3,"out_sy":7,"layer_type":"pool","pad":0},{"sx":5,"sy":5,"stride":2,"in_depth":8,"out_depth":20,"out_sx":2,"out_sy":4,"layer_type":"conv","l1_decay_mul":0,"l2_decay_mul":1,"pad":2,"filters":[{"sx":5,"sy":5,"depth":8,"w":{"0":0.19697599676809993,"1":0.082193444965913,"2":0.11075016171182918,"3":0.11879188280209002,"4":0.047022006368622235,"5":0.09285126954042519,"6":0.04873856534340267,"7":0.1116049682118042,"8":-0.07756234580765729,"9":-0.21525217452044096,"10":0.10577864481102207,"11":-0.3314911425002757,"12":-0.09806469760721004,"13":-0.03933182505085783,"14":0.09973232401542434,"15":-0.09429255284894754,"16":0.0383652746285828,"17":-0.07756914218856405,"18":-0.045527844889295246,"19":-0.06724396378622459,"20":0.08817485625509631,"21":0.03825641380713913,"22":0.1792958671139278,"23":0.0663618013744225,"24":-0.0317237296723816,"25":-0.052196704478821826,"26":-0.11083989223028409,"27":0.022207860148669226,"28":0.022696451557622205,"29":-0.08931449210809748,"30":0.07836120871810902,"31":-0.1288425962859134,"32":-0.09485949406636228,"33":0.14929075173186845,"34":0.04629092854206373,"35":-0.08234802313802271,"36":0.09928371938571874,"37":0.018258046101700773,"38":0.029749978002961162,"39":-0.007635997668024382,"40":0.212822162650022,"41":0.03328030611081894,"42":0.2161702057393453,"43":-0.1515749755306015,"44":0.12568832022432824,"45":0.025846353463466504,"46":0.11448250466881381,"47":-0.12790396986360109,"48":0.15722030249882,"49":-0.09528467879986428,"50":0.29836397711729495,"51":-0.017454430214541558,"52":0.05645607400841849,"53":0.004430952915462389,"54":0.21235369502846235,"55":0.35394143921755905,"56":-0.035420308661709435,"57":-0.41573100138382413,"58":0.07261855975150361,"59":-0.15921244239731777,"60":-0.04660914231658896,"61":-0.07615360391602317,"62":0.26575655717252533,"63":0.23758627954945433,"64":0.030493010278670015,"65":-0.06304243273793549,"66":0.023925399424854037,"67":-0.04187825694528039,"68":0.0003043780133417933,"69":0.01672536270851608,"70":0.07710947415480013,"71":-0.13129568601456373,"72":0.035873218422095204,"73":0.0964325219076393,"74":0.10946818217432704,"75":0.09144118573166166,"76":0.07457654115360933,"77":0.0823361895693427,"78":0.049701077177711266,"79":-0.012440756487122622,"80":-0.008987391013498831,"81":0.24736038036899582,"82":0.26534163215574574,"83":-0.20014426145861508,"84":0.28750696432067324,"85":0.03678098813571033,"86":0.1753206705399831,"87":0.5725501158928168,"88":-0.1621456314732765,"89":0.4196054187102127,"90":0.20035388593428927,"91":-0.37911521573184254,"92":0.34366628309430347,"93":-0.08523709357060327,"94":0.09888914598315134,"95":0.22460963065660564,"96":-0.09128721193038748,"97":0.23937999201938875,"98":0.08872672438494116,"99":-0.49266009713204306,"100":0.37135516503909916,"101":-0.18646818512269933,"102":-0.005088700723962688,"103":0.018349473771767336,"104":-0.051094382179025545,"105":-0.014635274000911625,"106":-0.02982600137336061,"107":0.06880546169797443,"108":0.03098854936598046,"109":-0.013711000763813814,"110":0.08415861384924919,"111":-0.04634956003587688,"112":-0.09179842331362671,"113":-0.03732942232990939,"114":-0.06030632658821854,"115":-0.07102541085650521,"116":-0.07996971165496682,"117":-0.0013601372468585744,"118":-0.031550162275047026,"119":-0.08363685586470719,"120":0.05033971702176653,"121":0.1792500880885668,"122":0.1962950007346762,"123":-0.16721031972334302,"124":0.15621448499856874,"125":0.02237675497646034,"126":0.2734130995152584,"127":-0.015763439404643396,"128":-0.09924271204328257,"129":-0.11823472049073615,"130":0.3121733142084404,"131":-0.15643129356908705,"132":0.07911504899615933,"133":0.058745154687319494,"134":0.26392181727557357,"135":-0.05676318155510794,"136":-0.3026033352084729,"137":-0.17297700842609096,"138":0.23498955125004445,"139":-0.22062992455404887,"140":-0.251289914973577,"141":-0.13721326161280809,"142":0.17255443160461026,"143":-0.023726293498367516,"144":0.09680445847403972,"145":0.04233607621502347,"146":0.000016492593262051085,"147":0.027769104616179416,"148":0.010550217724670812,"149":0.06229129451118111,"150":-0.04685210202123974,"151":0.009020659150133328,"152":-0.08196246164039044,"153":-0.018306941383036904,"154":-0.015531995221957825,"155":0.09251860874448523,"156":0.056454403210137026,"157":0.07516504941712882,"158":-0.032242850649936636,"159":-0.0812897338866742,"160":-0.16783129034811334,"161":-0.06438364793623663,"162":0.42156436264284447,"163":-0.1841816401502144,"164":0.1903632889685363,"165":-0.11051502441402833,"166":0.18370762670748836,"167":0.016807618533081235,"168":-0.08501351767946523,"169":0.02648855848167699,"170":0.45882376078895315,"171":-0.2526651027663174,"172":0.1358367632255629,"173":0.12602667786772032,"174":0.24576281003022485,"175":-0.015443678774729474,"176":-0.03698714962105841,"177":0.1048506692445894,"178":0.19575897847725993,"179":-0.04222428033863669,"180":0.09075414123790876,"181":-0.09929585017491728,"182":0.2825462637559914,"183":-0.1649562628753204,"184":0.07973934945666045,"185":-0.04715012116467073,"186":-0.04018279234106598,"187":-0.12112704708997883,"188":-0.003423814169038201,"189":-0.0403802147807977,"190":0.02993756997061631,"191":-0.06700095597848035,"192":-0.0181670169028804,"193":0.014583026143801393,"194":0.08599941556653187,"195":-0.03443789003374678,"196":0.040643786207764356,"197":-0.018970960185546764,"198":-0.009070462117210043,"199":-0.07276281144350256}},{"sx":5,"sy":5,"depth":8,"w":{"0":0.0773286972024703,"1":-0.1266442982932775,"2":-0.1120958025594441,"3":0.1214880970885177,"4":-0.2275448927535895,"5":0.1080983531038935,"6":-0.10465178088799093,"7":0.009777188211841564,"8":-0.1013392623680015,"9":-0.09091636171839666,"10":-0.17671383631398904,"11":0.14204749049254223,"12":-0.2767858904678992,"13":0.03737162676586178,"14":-0.2531276269037593,"15":-0.042546919686756036,"16":-0.10374907004076178,"17":-0.03760426525405611,"18":-0.11268315751772233,"19":-0.0361910523105209,"20":-0.2593631402375053,"21":-0.06580910996581,"22":-0.2598468108082434,"23":0.08506731751310861,"24":0.006305509192310242,"25":-0.20784694343660637,"26":-0.0954405579678721,"27":-0.12488125592600847,"28":-0.0744413238745226,"29":-0.051057343101433145,"30":-0.24925103580464755,"31":-0.14420848566165181,"32":-0.07402718674273993,"33":-0.07785429333471697,"34":-0.18344531055033106,"35":-0.06635570123090276,"36":-0.18584672104050487,"37":-0.10522983933551694,"38":-0.19625960997897043,"39":-0.14651278440198398,"40":-0.07349802855233245,"41":-0.04996968594357709,"42":-0.09365537756570112,"43":0.020972036027058473,"44":0.22209216176822738,"45":-0.06571991882254967,"46":-0.06232937483171208,"47":0.050157725824645366,"48":0.041920884847891735,"49":0.06374956466291834,"50":-0.02857533954076124,"51":-0.024993299359949185,"52":-0.12293538484952828,"53":0.044423866875682914,"54":-0.09666807947201758,"55":-0.001378928801563367,"56":-0.3050391771999392,"57":0.05965867442087029,"58":-0.08357586509325939,"59":-0.059024010264102575,"60":-0.016955786245032384,"61":-0.2666915686807818,"62":-0.14227538484079047,"63":0.06307361105179585,"64":-0.13903495969128568,"65":-0.16308790992094627,"66":-0.1529739072807566,"67":-0.09019503221600068,"68":-0.167865935585981,"69":-0.016473383631726807,"70":-0.07555474275147213,"71":-0.05554371151235285,"72":-0.14708253471752217,"73":-0.08418346402670854,"74":-0.1322908809791891,"75":-0.013840018653088284,"76":-0.023356815560812146,"77":-0.15124595347908185,"78":-0.23305666492068247,"79":-0.12157150197762752,"80":0.24945859144942947,"81":0.1444305606665477,"82":0.15823354333624953,"83":-0.01343848151752975,"84":0.04179861178184097,"85":0.17206576054480516,"86":0.1434937720050375,"87":0.21659462559128115,"88":-0.11044524748984386,"89":-0.23371670309749024,"90":0.17479202001197847,"91":-0.1789301338746626,"92":-0.28750257552558683,"93":-0.28850760106080725,"94":0.09107652423400858,"95":-0.01917793772724141,"96":0.06089934661219675,"97":-0.2851816836427189,"98":0.16295864925976136,"99":-0.06969989044489344,"100":-0.19864058033300885,"101":-0.02300564098193595,"102":0.0704493238902067,"103":0.21169609540009954,"104":0.07290738766761679,"105":0.09895881242615719,"106":-0.007573405113648421,"107":0.14027708251878757,"108":0.004210764359094804,"109":0.05343505493981743,"110":0.08923785676882298,"111":0.13269471910301586,"112":0.03506910221794947,"113":0.0639581594043835,"114":0.09858047813526857,"115":-0.12352440608856897,"116":0.010698446914864422,"117":0.03655013915175993,"118":0.18177094852981068,"119":-0.2266426777438799,"120":0.13981513886392719,"121":0.1677768948145306,"122":0.0686719036581057,"123":0.001959205681513406,"124":0.09736941099617184,"125":0.02104249524962072,"126":0.10596665367163859,"127":0.15657391341110186,"128":0.030537731420620905,"129":0.09932224452251853,"130":0.005663083641430597,"131":-0.0036154051154105365,"132":0.11938959826937226,"133":0.18148156633629714,"134":0.15501321847279087,"135":0.08760440870630111,"136":0.014846309027185799,"137":-0.18778798559165288,"138":0.11881708041183167,"139":-0.13474856782073824,"140":-0.23081633872157767,"141":0.07538382060522941,"142":0.06298421686465659,"143":0.1284100773677995,"144":-0.17321242277163756,"145":0.1523592754117615,"146":0.10807046132776564,"147":-0.0047629424515649235,"148":0.1073880050198444,"149":-0.038655861026483954,"150":-0.08492817447067265,"151":0.04730213818657225,"152":0.017586155629011446,"153":-0.004205213526627206,"154":-0.026550891356664285,"155":0.05804059433343023,"156":0.06455912199745854,"157":0.030472309200548827,"158":0.09137347224865262,"159":0.09300830647309602,"160":-0.05389990581906703,"161":-0.007309974063443587,"162":0.03253745763361445,"163":-0.19163335874201434,"164":0.06189729934087834,"165":-0.11143106349980143,"166":0.17920355483953448,"167":0.14301392994395967,"168":0.015701570109857454,"169":0.298626617809254,"170":0.0979091608334823,"171":0.07796244959227143,"172":0.1569978537024856,"173":-0.12096765842807959,"174":0.0739994361347942,"175":-0.006993716664435819,"176":0.09475731081200217,"177":0.08950421671310117,"178":0.1255095687477165,"179":-0.4405165596003442,"180":0.20067367085639576,"181":0.018440086535510554,"182":0.13994328008485205,"183":0.07764169643268291,"184":0.136674914686399,"185":-0.19037876380874263,"186":0.1398474880925366,"187":-0.0602631939339298,"188":-0.0684325576039497,"189":-0.006709598067537014,"190":0.08860298696242852,"191":-0.15103943484137444,"192":0.1518733389992129,"193":0.14040349766153096,"194":0.028385402445317606,"195":0.08856730477717266,"196":0.07251802012350775,"197":0.07602314183332667,"198":0.07841539343425444,"199":0.047131418179703864}},{"sx":5,"sy":5,"depth":8,"w":{"0":-0.07288965773338915,"1":-0.3635075131492487,"2":0.12361936183343224,"3":-0.43176456377857236,"4":-0.0959784442822075,"5":-0.031022550445149264,"6":0.16525377123881352,"7":-0.008880758874364519,"8":0.03453080237347679,"9":-0.1344795880430261,"10":0.2247749917828009,"11":-0.3167141277240195,"12":-0.060189422788011517,"13":-0.0953304854256549,"14":0.28168364920977773,"15":0.006654947468861967,"16":-0.05231945843495782,"17":-0.02067899302397046,"18":0.11883660529582143,"19":-0.19540514030216213,"20":0.05401204807088535,"21":0.02865816298440353,"22":0.15625761332473076,"23":0.12672379113139293,"24":-0.03131265335866118,"25":0.0013973775380529457,"26":0.01975294891656441,"27":0.06715979761865239,"28":0.06276933976820079,"29":0.0379849815730129,"30":0.0729436542472224,"31":-0.026773896211668122,"32":-0.04079678762604388,"33":0.006344655670643409,"34":0.052300810026143445,"35":0.04401889273519105,"36":-0.03991325209777743,"37":0.06393919923507942,"38":0.08146522782220658,"39":-0.038923501666441436,"40":0.04998435392850677,"41":0.20054559944210668,"42":0.13162365445420549,"43":0.0032466373372690167,"44":0.08441843754823489,"45":0.1333393920139011,"46":0.44319657685465974,"47":-0.03413751717181783,"48":-0.00445075014085083,"49":0.071015115858619,"50":0.2874043504887305,"51":-0.11673326721906435,"52":0.12862470102410886,"53":-0.15884560873429673,"54":0.14972490319780474,"55":-0.06546007266471426,"56":-0.20341315434800958,"57":-0.061950153432451235,"58":0.19065088337791455,"59":0.02706491710846998,"60":-0.03088289241270553,"61":-0.14515492833137145,"62":0.1925023903590845,"63":0.004038589404352772,"64":-0.14334957897742476,"65":-0.07413459725416875,"66":-0.012405716045474654,"67":-0.03491902407585302,"68":0.05474933793169715,"69":-0.024132393783333754,"70":-0.1113286347555634,"71":-0.055872381914855884,"72":0.11324738555242575,"73":-0.055068772491605245,"74":0.04307307057604185,"75":-0.07665887753941382,"76":-0.043667000298384474,"77":0.06544249501489541,"78":-0.024829668868005656,"79":-0.01770592606398996,"80":-0.04614233067579206,"81":-0.013598068207758744,"82":0.34798385102413065,"83":0.004315284715146788,"84":0.30509405998729183,"85":0.03757545496492609,"86":0.2977155057464092,"87":0.20849356838922736,"88":0.00779610077414844,"89":0.06941543638156839,"90":0.23579978996362,"91":0.01742596554115515,"92":0.2182570642098861,"93":-0.28829385382172745,"94":0.20621254166578507,"95":0.02934953903551897,"96":-0.11367315808617946,"97":0.07065686439992122,"98":0.35320903126683884,"99":-0.04628027939139229,"100":-0.1777350328911245,"101":-0.09462643684931003,"102":0.2706392859192851,"103":-0.22372006492887775,"104":0.0051847940804117,"105":0.16543021574744443,"106":0.019575631332126177,"107":0.022600397987070642,"108":0.10026667896208466,"109":-0.03644967167974121,"110":0.041316467479925054,"111":0.03673633972094285,"112":-0.10195882061881507,"113":-0.03196177251023338,"114":0.09218506337125525,"115":0.08974363977938578,"116":-0.004384899309121037,"117":0.06978128150411757,"118":-0.09256697778133002,"119":0.04220601478516972,"120":-0.2955042791821458,"121":0.02271863754344611,"122":0.12028513003632685,"123":0.0551211608990513,"124":0.12832835037881785,"125":-0.26187446764301003,"126":0.3703899743657871,"127":-0.15280099989504972,"128":-0.09812020763638926,"129":-0.03145587563083482,"130":0.25621327489398593,"131":-0.08272410272059233,"132":0.11685837205868413,"133":-0.025084903698817874,"134":0.20651925412452654,"135":0.008846109172356651,"136":0.055386447176472876,"137":0.09423544975794439,"138":0.21735296360739023,"139":-0.06644614562912161,"140":0.04029887641007154,"141":-0.07669068860305574,"142":0.1602296409825208,"143":-0.255314861537416,"144":0.03836660881453713,"145":0.0007458711776562804,"146":-0.1083300258060278,"147":-0.0021986139093734753,"148":-0.03744704042628567,"149":-0.012072234147976438,"150":-0.07456656728272548,"151":0.05421498005873052,"152":0.0831368786585208,"153":-0.05940041750759538,"154":0.07011401617459308,"155":-0.05445131109409303,"156":0.004927255963568252,"157":0.08567149929595741,"158":0.016836349771132884,"159":-0.17809448289296678,"160":0.07353430381696792,"161":0.10733595093875686,"162":0.3192189981273164,"163":-0.07719462842004808,"164":0.12416956989049326,"165":0.13996158486166438,"166":0.33636692656731093,"167":0.025339474170754068,"168":0.13660235222934447,"169":-0.20222778954141465,"170":0.3933710081347216,"171":-0.131183392408845,"172":0.1329674221043047,"173":0.04933695443950187,"174":0.3440835246805505,"175":-0.08421858364385,"176":-0.007973876428521126,"177":-0.03608101067425499,"178":0.30845243092086627,"179":-0.08924953027718674,"180":0.13291076785673622,"181":0.02095770615538689,"182":0.2541011548393422,"183":-0.09457941300044923,"184":-0.13450564499458673,"185":-0.03430323734723958,"186":-0.03621317431444116,"187":-0.1171769623110224,"188":-0.0987833377839652,"189":0.006841932831763169,"190":-0.032152551261496846,"191":0.06815609417656585,"192":0.11780065517847378,"193":0.05713563976747918,"194":-0.04500058787213604,"195":-0.29738735166321456,"196":0.06966143107383632,"197":0.0038785545971231836,"198":0.09115954790972909,"199":-0.04357147005912086}},{"sx":5,"sy":5,"depth":8,"w":{"0":0.13319621019687616,"1":-0.01319927874147937,"2":-0.02931398134427885,"3":0.04912583576699084,"4":-0.04166412520520362,"5":0.08118063024283897,"6":0.061448545851534364,"7":0.07973558858894303,"8":-0.05441569507941111,"9":-0.05233743137648799,"10":-0.09781595634398677,"11":0.018765262455309246,"12":-0.0052707773716914996,"13":0.049168669894138546,"14":-0.027462586346832286,"15":0.12268438399606219,"16":-0.008824422671955176,"17":-0.0813894188374675,"18":0.10393809712257937,"19":0.020992820279321048,"20":-0.1043905518645389,"21":-0.1401386629606608,"22":0.16364010831687342,"23":0.07627288600807923,"24":-0.14096742901837264,"25":0.2466707376923524,"26":0.07855289717581408,"27":0.061484908620942885,"28":0.5694736610567701,"29":-0.22113749763410764,"30":0.2526138549548212,"31":0.20771423762502841,"32":0.0036444214950504157,"33":0.254043835839681,"34":0.17016634657695506,"35":0.2972241597821294,"36":0.2055450519906758,"37":0.2117107779829333,"38":0.22141609685755873,"39":-0.26575900133399083,"40":0.024910912308819658,"41":0.021195563997177404,"42":-0.0527679140721977,"43":-0.05988885689706874,"44":-0.09294744769853526,"45":-0.09491424306741426,"46":0.022179715183423803,"47":0.03338530061225105,"48":-0.026360175783343077,"49":0.041286704372439274,"50":0.013037873859888326,"51":-0.07020328967173785,"52":-0.1726298298053696,"53":0.08128464800370214,"54":0.09878160111378025,"55":0.00134231869602907,"56":0.14184271441420335,"57":-0.03848808865343951,"58":0.10078073391304308,"59":0.26902239767026465,"60":0.14527844387825797,"61":0.1787971940268135,"62":0.12663565005840266,"63":-0.23517027089007547,"64":-0.08902891903666585,"65":0.001037441189630847,"66":0.2509998424661636,"67":0.020475595518959964,"68":0.15561113229902354,"69":0.020936171224978116,"70":0.2144286689808762,"71":-0.11718443628902551,"72":-0.026311748700292598,"73":0.8846859358267665,"74":0.3495296164895708,"75":0.2916057920781837,"76":0.6471934832215592,"77":0.05234561474549526,"78":0.255069023111556,"79":0.22616434681533604,"80":-0.04324056239645336,"81":0.016988009384075374,"82":0.0000024271294600048007,"83":-0.046488026534424874,"84":-0.004032257299959895,"85":0.005707955866894671,"86":0.07638797164248536,"87":0.012281566980644063,"88":0.09134757031594347,"89":-0.11055675041720037,"90":-0.02336934571514147,"91":-0.08195241005617175,"92":0.05263815929867959,"93":-0.0469036331069786,"94":0.09076650876295994,"95":-0.029057931162679226,"96":-0.024788471581362093,"97":0.1945258123546641,"98":0.03238670293094114,"99":0.0194793240027333,"100":0.07567977534155053,"101":0.010489975496824505,"102":0.09238027712566875,"103":0.20372054934714212,"104":0.08849411686591725,"105":0.07729905328450193,"106":0.290850579459911,"107":0.030594290395091935,"108":0.5511913988560998,"109":0.25410928444422903,"110":0.4195287926422638,"111":-0.18338907879199431,"112":-0.021301215365431843,"113":-0.15768499227121316,"114":0.28208143803284164,"115":0.3261543847982667,"116":-0.11827532189167159,"117":0.2980713675697566,"118":0.23202188934489376,"119":0.29396016100561523,"120":0.021357532787452994,"121":-0.19551549039255126,"122":-0.08772217985234644,"123":-0.008828514571824004,"124":-0.08247451402950455,"125":0.04617225714458257,"126":-0.06945343445586882,"127":0.017850029202964968,"128":-0.05194849049921439,"129":0.06369729109629108,"130":0.04433518988539018,"131":0.057659287376111215,"132":-0.01505662115245511,"133":0.01587596989075876,"134":0.03758213809635368,"135":-0.000947513852334365,"136":-0.18553313082355713,"137":0.28937982437654114,"138":0.27888311347887496,"139":-0.006019183212662256,"140":0.041483805259918585,"141":-0.13898584575755155,"142":-0.03285225659115772,"143":0.10922185906336195,"144":-0.31355447322649577,"145":0.25480008252114417,"146":0.08836513339003951,"147":-0.13487123087824482,"148":-0.06203861166219922,"149":-0.2494316069525651,"150":-0.08104518405766835,"151":0.011210601998629333,"152":0.1425860658063551,"153":0.194058881673393,"154":0.027335194557014886,"155":-0.15046616223378115,"156":0.19860851117249054,"157":0.09186524583631826,"158":0.15139566871033108,"159":0.07620007990276866,"160":0.0403483855820513,"161":-0.05025903039563263,"162":0.04388955726513848,"163":-0.12246885974495149,"164":0.023897350020925086,"165":-0.05470434140798755,"166":0.06663143529738058,"167":-0.07812621308616172,"168":-0.0025347140768896812,"169":-0.048507104972026066,"170":-0.07728472616800683,"171":-0.05867896188332516,"172":-0.10653062410069472,"173":0.026890252922646855,"174":0.03964234286864046,"175":0.015273978916058015,"176":-0.032937739149641286,"177":0.13711286452102167,"178":0.12581662264567683,"179":0.05721590417763154,"180":0.048390205284458615,"181":-0.16574902871824498,"182":-0.0038397411767497067,"183":-0.04007052119508336,"184":-0.10067367395472576,"185":0.2089915105885555,"186":0.15229599322789145,"187":0.024457707820870735,"188":0.22572425882321628,"189":-0.024667598319563156,"190":0.10107991574011548,"191":-0.05427057516692266,"192":-0.09043130653543077,"193":0.2931372139860029,"194":0.20456343128728424,"195":0.031848316038867695,"196":-0.002913029015279202,"197":0.11019014794178864,"198":-0.02984078529608715,"199":0.12247770264228491}},{"sx":5,"sy":5,"depth":8,"w":{"0":-0.011216675615700222,"1":0.21138992568409565,"2":0.18326833534213263,"3":0.054745535858624295,"4":0.21397234887883648,"5":0.008384919562469671,"6":0.09078948112454097,"7":0.03405006113519776,"8":-0.09568279688871024,"9":0.21011224747874802,"10":0.10034971925979871,"11":-0.3286042202699477,"12":0.24508977129794934,"13":0.1747026178478759,"14":0.33060921209014427,"15":-0.13540212258420817,"16":-0.19951124396152134,"17":-0.05009982220979872,"18":0.081108064884288,"19":-0.05567695777062557,"20":-0.037076202251841675,"21":-0.10798595503302462,"22":-0.02327359808390045,"23":-0.24072449512430416,"24":0.019669772375975426,"25":0.0487732242521204,"26":-0.06222611264980391,"27":0.008825534708050364,"28":-0.04673537629212339,"29":-0.08548312580468367,"30":-0.017443404611114526,"31":0.04727705419695625,"32":-0.04446745719082431,"33":0.12442146093505686,"34":0.00766173593799198,"35":-0.019806221390336044,"36":-0.009528840455250195,"37":0.0314819290116117,"38":-0.15500572602265747,"39":-0.01173002535467418,"40":0.08899310065569502,"41":0.0835948565037573,"42":0.22250748218918692,"43":-0.2208375504185381,"44":-0.312740519956507,"45":0.029143135137902284,"46":-0.013940466524708157,"47":0.0206142211243321,"48":0.26208190372470247,"49":0.12797422492403365,"50":0.21268244434430467,"51":0.10354900965732686,"52":-0.21983179692761187,"53":0.0605647643350804,"54":0.32808657661315566,"55":0.45749707594655714,"56":-0.0072842601930157005,"57":-0.09553791561149351,"58":0.09994585314336703,"59":0.020671807237347947,"60":0.1633181676820311,"61":0.16337994849450058,"62":0.13597747937948876,"63":0.09781821127464248,"64":0.05249312554601317,"65":-0.023104518519967362,"66":0.1097047300495406,"67":-0.002761441125523173,"68":0.015018133109644777,"69":-0.012362291320493166,"70":-0.07060195887462367,"71":-0.028354677304447424,"72":-0.10360865597863969,"73":-0.06412085019541253,"74":-0.0008738214555130005,"75":0.07970632435904229,"76":-0.044815171958205224,"77":0.040969119067543046,"78":-0.102033634336627,"79":-0.14883661306552737,"80":-0.06287551105640837,"81":-0.2338905820453608,"82":0.08991782630668135,"83":-0.06354641453601863,"84":-0.11795037223633563,"85":0.06928078704175913,"86":0.12075457550823161,"87":0.06517329479497413,"88":-0.03770413477442092,"89":-0.13064610152637562,"90":-0.13292325144834838,"91":0.231901808334704,"92":-0.1731440590883385,"93":0.14873488236903268,"94":0.17940317740814749,"95":0.12440117819716474,"96":0.22256706416906163,"97":0.015192998143639079,"98":0.08736341899475736,"99":0.022757697769383967,"100":-0.007969523539372334,"101":0.09047798489431187,"102":-0.027261104796290413,"103":0.1980466108372813,"104":-0.09977709784528886,"105":0.03300214115788859,"106":0.010587961058680696,"107":0.003259549147470357,"108":0.0008936850541336082,"109":0.03023007668773098,"110":-0.1362230596935544,"111":0.07310574978067222,"112":-0.10383683343517486,"113":0.06326237627210081,"114":-0.13076079273016464,"115":-0.14104793058171522,"116":-0.1439036784183398,"117":-0.22309437271968768,"118":-0.0040261607497440715,"119":0.2752958876773399,"120":-0.004479560334770975,"121":0.3316878554455951,"122":0.10375482975793648,"123":-0.3483130965187101,"124":0.3826090824743051,"125":0.001331325071210839,"126":0.010742170330939846,"127":0.1909093951182484,"128":-0.14279948417368715,"129":-0.015067653915227807,"130":0.10660811971462944,"131":-0.06552511404825485,"132":0.03163089413419532,"133":0.00627704361293179,"134":0.195663952511368,"135":-0.28671086701576454,"136":0.03511128918148561,"137":-0.44340073092466825,"138":0.1591883298214226,"139":-0.21448239049526865,"140":-0.09419960120619508,"141":0.20961842355813862,"142":-0.06289283876894326,"143":-0.012040577077469436,"144":-0.11197405014125947,"145":-0.13068522676136138,"146":0.04731884369119647,"147":0.07684445426651322,"148":-0.03364600601181896,"149":-0.07541099549815342,"150":0.012317953924458235,"151":0.25351194611034494,"152":-0.0839065897198755,"153":-0.059459897171084325,"154":0.061954981183930266,"155":0.031002193484347604,"156":-0.09511482406327805,"157":-0.0240129730725333,"158":-0.05601158128889439,"159":0.08184674520747941,"160":0.09554519525540894,"161":0.08340253518590988,"162":0.1756392108703914,"163":0.299407726594249,"164":-0.0798581583673892,"165":-0.007001223174745477,"166":0.19255152117270793,"167":-0.155916519802344,"168":0.04754438030356287,"169":-0.1133865293559819,"170":0.13899379589546237,"171":0.19789032181761815,"172":-0.09855448474998989,"173":-0.0664179747027216,"174":0.14983496316051242,"175":-0.0485188692564174,"176":0.014888114610037558,"177":-0.1130974432992954,"178":-0.009176171882556679,"179":0.20692157268056777,"180":-0.13515894446372942,"181":0.02076845681890326,"182":0.14492650308741747,"183":-0.29945384556675275,"184":0.149273775379699,"185":-0.013765698910892892,"186":0.12774518638651908,"187":0.001582873542129617,"188":-0.017308416167324512,"189":-0.08760620317842631,"190":-0.0930840433624621,"191":0.0569274057070117,"192":-0.0670376210426825,"193":-0.006442815985630995,"194":-0.07500448444323853,"195":-0.05627373306327205,"196":0.0009358334366867533,"197":-0.07285828469437086,"198":-0.024040885027438157,"199":0.06569117990663785}},{"sx":5,"sy":5,"depth":8,"w":{"0":-0.018863403813941314,"1":0.08712380591358472,"2":0.0055253887338562015,"3":0.09206233275752419,"4":0.0018288747202289011,"5":0.01326429336728963,"6":0.012152319825111925,"7":-0.0388610873215289,"8":0.01556820936478175,"9":-0.007867993088423807,"10":-0.09666782675417014,"11":0.08149429550405712,"12":0.08134634666999177,"13":-0.010752733013504124,"14":0.07118471612958285,"15":-0.05873008775656386,"16":-0.23985971324782657,"17":-0.04484234937892527,"18":0.09404092264895057,"19":-0.16598938026098392,"20":0.09989387578898012,"21":-0.3151849011196739,"22":0.0070307342947535665,"23":0.052550842248932736,"24":0.1899115048410226,"25":0.25782315740006456,"26":0.03592306282262293,"27":-0.15464900437099036,"28":0.5146867735998253,"29":0.19071706575756345,"30":0.2996449020737693,"31":0.18304907968185993,"32":-0.1929698832930625,"33":0.2826909906103942,"34":0.15534955466635703,"35":0.08335479156836709,"36":0.17102869315033345,"37":0.08216507427596943,"38":0.2955449489454061,"39":-0.1556700910094911,"40":-0.10088141014259672,"41":0.004831778008827406,"42":0.11944456008422909,"43":-0.033781177487236656,"44":0.04235607580199127,"45":0.00409083496019721,"46":0.048722886798259465,"47":-0.084103316090589,"48":-0.07594217131027066,"49":0.03844858203546806,"50":-0.08127231937259531,"51":-0.0335479124114454,"52":-0.03290912624361853,"53":-0.027619125387578387,"54":-0.04739853578672235,"55":0.07604877365890982,"56":0.08139122064736931,"57":-0.14656049757472475,"58":0.12256434615904045,"59":0.11446974254642643,"60":0.003432068282741259,"61":0.17236403935188518,"62":0.2013379839314131,"63":-0.21795791680114437,"64":0.07846415190914031,"65":-0.09427120052785648,"66":0.14307659054731853,"67":0.031115122880210563,"68":-0.15315460757224889,"69":-0.03315738834575268,"70":0.16321019497918254,"71":0.09326957931253992,"72":-0.03905308635077594,"73":0.26775746718438437,"74":0.46175707398499183,"75":0.38873930660391764,"76":0.3724860683650733,"77":0.3530269506260811,"78":0.3001697973694306,"79":0.021396039099325005,"80":-0.04418333557495534,"81":0.0757786545211709,"82":-0.00498069598242978,"83":0.057781515801604066,"84":-0.017725866125209443,"85":-0.04718464027691144,"86":0.06022556616273825,"87":-0.05657456574641748,"88":0.05058705167882855,"89":0.0049968891537412125,"90":-0.0029562025203359564,"91":0.03245914178520956,"92":-0.023015669236491423,"93":-0.07657209408753404,"94":0.1446061609945878,"95":0.14294542666163576,"96":-0.05999570778954865,"97":-0.033471648919243646,"98":0.014597552932938242,"99":0.13140486196351264,"100":0.08011622341138255,"101":0.0010353828267635492,"102":-0.02283378093221831,"103":-0.04180815886595768,"104":-0.10889343743809604,"105":0.003631814526815211,"106":0.19607165513241423,"107":0.07902440104163151,"108":0.1008805448413847,"109":0.001143200548374807,"110":0.15265634337806153,"111":0.07914585080511309,"112":-0.10653002109728353,"113":-0.0472664193224613,"114":0.005686839134112135,"115":0.32566549781379434,"116":-0.029428829531061566,"117":0.031048499047020013,"118":0.019174397326090886,"119":0.007725078394241225,"120":-0.03428968485521218,"121":0.04837716046524248,"122":0.011262150423144136,"123":-0.00014993819095920945,"124":0.038706977071726975,"125":0.005973189946279457,"126":-0.04828033965819048,"127":-0.0023945723190694278,"128":0.020457021362129516,"129":0.014654464780730531,"130":-0.017751000987245108,"131":0.14051544244882752,"132":-0.04181826636231765,"133":-0.03755555779970144,"134":0.08937088445111595,"135":0.1591112529753035,"136":-0.21635002416036242,"137":0.0877390572295122,"138":0.0013043774696038157,"139":-0.05153228764323369,"140":0.19575279625616734,"141":-0.060051282985452974,"142":0.18626375534154668,"143":-0.07870256988920196,"144":-0.1489791743007886,"145":0.038406940157780935,"146":0.14099404432816412,"147":-0.0005018130309300997,"148":-0.007216262015769262,"149":-0.0034804793178756714,"150":0.14542191010099897,"151":-0.04624876512694904,"152":0.017942795764737722,"153":0.034878265164913894,"154":0.15978158304216178,"155":-0.15837053319855826,"156":0.30536478791002425,"157":0.19401330223133761,"158":0.09336212226544234,"159":0.10196829196543829,"160":0.009570374904753199,"161":-0.07002776934782026,"162":-0.00604295192860787,"163":0.05014593614188305,"164":0.06781010221178163,"165":0.03627151665842546,"166":0.07269043791164699,"167":0.17548190573260655,"168":-0.027629291508550594,"169":0.05706495557446782,"170":-0.03558560545975986,"171":-0.006103158284711633,"172":-0.02281125798654881,"173":-0.07695420320518943,"174":-0.007473241459350856,"175":0.04997403330148956,"176":-0.21684095861048724,"177":0.3276904383064984,"178":-0.011230203672087467,"179":0.2603144116780885,"180":-0.010596458988127165,"181":-0.0734523426049142,"182":0.055881485412254746,"183":0.1603044515735629,"184":-0.06376927254713556,"185":0.2539630358604262,"186":0.17786621693339094,"187":0.03725256276320859,"188":0.47445424174966666,"189":-0.1408051625545317,"190":0.06637647893335537,"191":0.10192486098764456,"192":-0.05693242203349586,"193":0.0687030856999328,"194":0.2884239052636695,"195":0.08053014162286691,"196":0.056274287258497965,"197":0.15682490348700348,"198":-0.042483764913556696,"199":0.2032301952287408}},{"sx":5,"sy":5,"depth":8,"w":{"0":0.027444782209718004,"1":0.10314184787773403,"2":0.02516385488991533,"3":-0.04240095216673833,"4":-0.07656034913082499,"5":0.13420426537191119,"6":0.1195226559175447,"7":0.03657203580698309,"8":-0.014299129489795349,"9":0.11751168245971062,"10":0.04595678469239872,"11":-0.019685220710068948,"12":0.07119811974322439,"13":0.037419890775952605,"14":-0.08742064716871815,"15":0.304835126501268,"16":0.07877503971479646,"17":-0.18737501174947951,"18":0.0017101811089873659,"19":0.008563144654787002,"20":0.21583339500991272,"21":0.051154991011673305,"22":0.1139217266331325,"23":-0.5005386519693802,"24":0.05389762158288696,"25":0.08613721537297479,"26":0.06286966886026787,"27":-0.1400280332896001,"28":-0.053773645423380485,"29":-0.07787203276011058,"30":0.05995129213267488,"31":-0.06642740239546906,"32":0.028623699081226493,"33":-0.09726979890604198,"34":0.04413851032667526,"35":0.1965531864311014,"36":0.027327687287288308,"37":-0.04394097863603312,"38":-0.010449183599752313,"39":-0.014052276560531918,"40":-0.016371965745729165,"41":-0.1841396367750301,"42":0.06399806889610701,"43":0.09113958362395312,"44":-0.0825500338294723,"45":-0.05505344386477546,"46":0.12860309751650914,"47":-0.2598664862508487,"48":0.06922904384455517,"49":-0.06802016577060344,"50":-0.10625890303194882,"51":0.008546364425271801,"52":-0.223618609622198,"53":0.09580879168834683,"54":0.10619166118527361,"55":0.2642077200505894,"56":-0.10381851589446996,"57":0.026012471961206485,"58":-0.06889360881660862,"59":0.18461715433193068,"60":0.03286226647463649,"61":-0.009724644158036703,"62":0.008886468673145699,"63":0.3425937974782306,"64":-0.028261148563603317,"65":-0.07377750651878863,"66":-0.08445557874117776,"67":-0.0362883398418253,"68":0.0746042279244535,"69":-0.062896516896869,"70":0.0285206831083178,"71":-0.16634140317798685,"72":-0.014010634436293315,"73":0.054108158566199056,"74":-0.050869317613839775,"75":0.015837173989352655,"76":-0.1389270987707133,"77":0.047997360761878924,"78":-0.03214733216702305,"79":-0.10228309339763861,"80":0.05803452812867182,"81":-0.055904616374433176,"82":-0.023378451270409262,"83":-0.20613113638167205,"84":-0.08404463459408613,"85":-0.07376170795862938,"86":-0.11995368102274932,"87":-0.10262169968543979,"88":-0.02922477499924858,"89":-0.12576724842544126,"90":-0.08159552638279398,"91":-0.16568216316230533,"92":-0.04642131397909478,"93":0.021441696912249043,"94":-0.13857264233822347,"95":-0.2324419218926646,"96":0.10007954101592742,"97":0.09277237192872538,"98":0.053245215718076215,"99":-0.16018453659991852,"100":0.0764019014430036,"101":-0.14324463879707108,"102":-0.10087427691396311,"103":-0.24731536181893884,"104":-0.170220063612088,"105":-0.08399062844118699,"106":-0.045542038155314185,"107":0.0462503663911424,"108":0.03473947187801712,"109":-0.060558481510973164,"110":-0.06386719382422208,"111":0.10401790261759214,"112":-0.05800395846118083,"113":-0.016351475657382823,"114":-0.05378864613924858,"115":0.021770621120471612,"116":-0.025965124981243648,"117":-0.10543366595810434,"118":-0.013698107325017481,"119":-0.09333079568807844,"120":-0.052044378208005115,"121":-0.0266592006673783,"122":0.07291106793503808,"123":-0.08333387005517719,"124":0.16721289797703054,"125":-0.047465357921392004,"126":0.14578786357504792,"127":-0.14130002116208445,"128":0.04567768101198941,"129":-0.2536499563920991,"130":0.0022646816704940923,"131":-0.09603187657751851,"132":-0.09418617842469963,"133":0.03649919850564846,"134":-0.03718324459967152,"135":-0.12021612810339648,"136":0.06356042230612209,"137":-0.11179632755447512,"138":-0.0348138268923272,"139":-0.06225510771233951,"140":0.18932686195604922,"141":0.147297705062395,"142":0.10899570528018675,"143":0.005650574639123265,"144":-0.060534803739590776,"145":-0.009281672225884732,"146":0.02222471094058057,"147":0.029954364621878407,"148":-0.05671589319184236,"149":0.02539113948780376,"150":0.04862243083608017,"151":0.055500111998754126,"152":-0.016357910403276135,"153":-0.09366699779814604,"154":-0.047204037474579956,"155":0.016883471927716373,"156":0.05677226629982318,"157":0.08106163157133972,"158":-0.03515020589075269,"159":0.009142220489627484,"160":-0.06996550062691995,"161":0.28033589975584744,"162":-0.05941683182454651,"163":0.08590992785051069,"164":0.1675290193013879,"165":-0.17820950871328176,"166":0.035351570115187796,"167":0.06852474836953944,"168":-0.03724418287207475,"169":0.42030076300704644,"170":-0.023828491829375905,"171":-0.057351654229658725,"172":0.3177755520807225,"173":-0.08526677813007974,"174":0.022504166006727336,"175":-0.04708110657534608,"176":-0.0770635698360618,"177":-0.26548529221403316,"178":0.02679097096560306,"179":-0.07615494244732803,"180":0.08781546549163455,"181":-0.24480625224442076,"182":0.077392521254806,"183":-0.15193306628344364,"184":0.029910146176659103,"185":-0.16418631828311384,"186":-0.047731076540806855,"187":0.0034253927146752385,"188":-0.023802309835429653,"189":-0.030537643312302274,"190":-0.14041710108872102,"191":0.02088127733631918,"192":-0.04878123969159575,"193":0.11311769603514585,"194":0.01891975463279499,"195":0.05249787723401099,"196":0.0015929799179383935,"197":0.1416010530296319,"198":0.028430095109901795,"199":-0.1304192034760705}},{"sx":5,"sy":5,"depth":8,"w":{"0":-0.22848677257790934,"1":-0.0033971659994511145,"2":-0.37671116191108234,"3":0.19849891089623442,"4":-0.09353244566410189,"5":-0.3398312756798085,"6":-0.15894324184151645,"7":-0.09536718147677495,"8":-0.08099630258607637,"9":-0.1540654042754231,"10":-0.40932044195709505,"11":-0.05286035315304984,"12":0.07621515863950844,"13":-0.09868991868124483,"14":-0.41895793437541523,"15":0.020917400448506603,"16":-0.03447123549617696,"17":-0.016751919310052103,"18":-0.3425272643589646,"19":0.20489215596936844,"20":-0.003996209688941769,"21":-0.014826097263532617,"22":-0.14547861624250644,"23":-0.0021198686205889236,"24":0.15993015932819218,"25":-0.10780841441660717,"26":-0.23392624909716278,"27":-0.10232794495313186,"28":0.011098396752984971,"29":0.13806372445947274,"30":0.04132634393009452,"31":-0.45616851492516286,"32":0.0737698208145471,"33":-0.047295161203015634,"34":-0.019005246145277512,"35":0.03629049725861536,"36":-0.06380892939730953,"37":0.045999172081066124,"38":-0.04900452635546754,"39":-0.17353099493700583,"40":-0.18530773988958685,"41":0.02607973022788987,"42":-0.22524332788215162,"43":-0.1139007893509394,"44":-0.15257712370020218,"45":-0.11226668382325217,"46":-0.21001306399985195,"47":-0.011985564844211547,"48":0.15640689209684994,"49":-0.2300449065890037,"50":-0.13940059962781665,"51":0.03713876155522545,"52":-0.10046093909864652,"53":0.09809609610507633,"54":-0.12547678606437693,"55":0.2168013654542416,"56":0.20592396247826697,"57":0.022777849045103417,"58":-0.02397023991482268,"59":0.4331700783592073,"60":0.12302401531706483,"61":0.24642683410373484,"62":-0.07507657463183828,"63":-0.007734040251700921,"64":0.022915732994480145,"65":0.16475093432748095,"66":-0.003608943688311597,"67":0.0359922654059922,"68":-0.020091710106640168,"69":0.09959149308288003,"70":-0.10123073965739876,"71":0.117193722435456,"72":0.04559615912468409,"73":0.05348255607682658,"74":-0.041722658117490354,"75":-0.03702925581731182,"76":0.2068745227308312,"77":0.20834585602204062,"78":-0.06828762050141404,"79":-0.05419240228344328,"80":-0.18205785581413328,"81":-0.014646273427013322,"82":-0.30182535267441635,"83":-0.22117989919193065,"84":0.10903866402319212,"85":-0.20764792851317396,"86":-0.2662562604885899,"87":0.1577971175068143,"88":0.25358537537405224,"89":0.24488199433298677,"90":-0.07743306019093535,"91":0.19684604785924567,"92":0.18175203721867594,"93":0.06299328910426676,"94":0.1197053403714554,"95":0.04704183370530256,"96":0.16459738341616903,"97":0.2904496689848268,"98":-0.13877365066727726,"99":0.24340298918716274,"100":0.2469860595569545,"101":0.10567480516344757,"102":-0.2065172355567845,"103":0.013774086957515893,"104":-0.14408013277634363,"105":-0.1981115990640079,"106":-0.11590537732979012,"107":0.10491471248979502,"108":-0.18622691656568208,"109":0.055836902167096934,"110":-0.0705213728564386,"111":-0.1119049655329727,"112":0.001461722456997937,"113":-0.21203714846356705,"114":-0.039177754445160924,"115":0.0788730896618639,"116":-0.23972220725807766,"117":0.04659662063724879,"118":-0.14886305949019268,"119":0.017786041206948888,"120":0.15836340386660713,"121":-0.2153743746181797,"122":0.05172321032644036,"123":0.23863247901272686,"124":-0.06388101478543504,"125":0.2952194686235836,"126":-0.06636914429932413,"127":0.01979578325506745,"128":-0.05207664453630419,"129":-0.0011702801096661504,"130":-0.12942036427785333,"131":0.06483753433543536,"132":-0.2529861316756121,"133":-0.05996107503817909,"134":-0.20134923451363435,"135":0.04752712138481336,"136":0.032780961632589,"137":0.3621830095889041,"138":-0.07840923746323156,"139":0.14669649616546643,"140":0.3016640491150411,"141":0.23043955632165297,"142":-0.06009683422216644,"143":0.1807257870096184,"144":-0.22888533556197724,"145":0.02578965965283538,"146":-0.3187862947263661,"147":0.17908933205581656,"148":-0.0800618071655577,"149":-0.31627181697527745,"150":-0.0642483683180672,"151":-0.0044986858460796236,"152":-0.21508704974238693,"153":-0.15753362838402332,"154":-0.17927619021479813,"155":0.005763673838984329,"156":-0.2542599569614727,"157":-0.26515119934263803,"158":-0.24099080870603132,"159":-0.10190641081759672,"160":0.1587467109224228,"161":-0.014324553350544162,"162":-0.08477227372960672,"163":0.29081352778244907,"164":-0.06018360953760691,"165":0.14365600105404588,"166":-0.04166546597428572,"167":0.006947531015647131,"168":0.04781885411914853,"169":0.08672463922027719,"170":0.0392427957080683,"171":0.30777033909541274,"172":0.032379311308003714,"173":0.2060202965804503,"174":-0.09388383715430555,"175":-0.18711740909885324,"176":-0.12140800988422999,"177":-0.0471136602874758,"178":-0.15523777318985407,"179":0.4175293329220789,"180":-0.23388838391506173,"181":0.14536711702715688,"182":-0.15415003472618782,"183":-0.136907590437061,"184":-0.15818063861340925,"185":0.15464776692502963,"186":-0.15401026553241323,"187":0.10451118932416059,"188":0.19052426618567722,"189":0.0021094615288891946,"190":-0.1214657039155557,"191":0.19604667331244388,"192":-0.016235652666726573,"193":-0.0807623427622699,"194":-0.26685845484324217,"195":0.1836583972053642,"196":0.1198392671118596,"197":0.1415080623125941,"198":-0.028496595657472167,"199":-0.18180618710961496}},{"sx":5,"sy":5,"depth":8,"w":{"0":0.022076385875671387,"1":0.05335019149816171,"2":0.04144818812586337,"3":-0.10659355284612416,"4":-0.02885607293566515,"5":-0.1734011062238237,"6":0.07988017126089891,"7":-0.20506080620450506,"8":0.18945912196945963,"9":0.08255632591913817,"10":0.1884536094645307,"11":0.018809366935895796,"12":0.11907256082578097,"13":0.02473520953817071,"14":0.1772947141345346,"15":-0.019445797293947773,"16":-0.03183581969954074,"17":-0.06979225119018997,"18":0.1167303916571642,"19":-0.18356410356702266,"20":0.08030371000491787,"21":-0.0742516548287403,"22":0.15663066549031773,"23":-0.18451885601006277,"24":0.02153238030278341,"25":0.01896705352227021,"26":0.08147405128728338,"27":-0.10891735630645767,"28":-0.01575206973549074,"29":-0.04005313689257472,"30":-0.11377287448133382,"31":0.005587735876664483,"32":-0.10237276981182114,"33":-0.02019012306444759,"34":-0.03579418495449627,"35":0.06396025232426333,"36":-0.02257652754964943,"37":-0.05324648030314808,"38":-0.02190825269303934,"39":0.014812818378278638,"40":-0.07077000867546976,"41":0.21407599237298475,"42":0.2421682040979416,"43":-0.12982996821750478,"44":0.07845631664462191,"45":-0.050278311181139554,"46":0.2613404038441515,"47":0.17583107125750014,"48":-0.07662181610852604,"49":-0.146614672533776,"50":0.2601183577629154,"51":-0.23202761332511945,"52":-0.0997825298475149,"53":-0.13517480611492236,"54":0.19624310077339066,"55":-0.1441956191289824,"56":0.03263588123323307,"57":-0.1424556983172237,"58":0.34252539508085783,"59":-0.001310788706795659,"60":0.0677258392142441,"61":-0.014594892809921755,"62":0.28410460707418106,"63":-0.019580910705779966,"64":0.07529233041581584,"65":0.006674000632202008,"66":0.0107080256429402,"67":0.03325617492899279,"68":-0.05910516970750219,"69":-0.10905943862760106,"70":-0.13970200538864702,"71":-0.06388912227375794,"72":0.04438033412469663,"73":0.06324988427320233,"74":0.015577783192822306,"75":0.08485162430022292,"76":-0.018820351067142967,"77":-0.01156796025733064,"78":0.10240165694029366,"79":-0.0918179966482191,"80":-0.02153585530995157,"81":0.2610015678909593,"82":0.15776664393339454,"83":-0.03644351618379539,"84":-0.12861169700239564,"85":-0.30108911385215,"86":0.060320965361027955,"87":-0.003304073179210392,"88":0.08333215367315894,"89":0.15502796468461158,"90":0.22092828783707413,"91":-0.10421981896756669,"92":0.16791083349707842,"93":-0.02283800821542393,"94":0.15360990568882224,"95":-0.04733591466604029,"96":-0.027544077525544605,"97":-0.09223290884189433,"98":0.19278781661908914,"99":-0.20377308727452553,"100":-0.17941524619793364,"101":-0.18881662658877915,"102":0.2138826521293859,"103":-0.13083326597068035,"104":-0.010393454227636675,"105":-0.10040498009500294,"106":0.03645457362984483,"107":-0.04634975734257319,"108":0.014713478862789325,"109":-0.03034240773446739,"110":0.07801279986594513,"111":-0.01899755235055591,"112":-0.004549029993663501,"113":-0.012212260254168142,"114":0.03749354294655965,"115":-0.020254568541261116,"116":0.05541328444533164,"117":0.04537887143525821,"118":-0.0001023054259395767,"119":0.06196434295068316,"120":-0.1131537373109674,"121":0.2851046628537711,"122":0.04377096065681613,"123":0.20101558822039167,"124":0.22858582581711223,"125":-0.05354265261342498,"126":0.24229872510794667,"127":0.043506911372320156,"128":-0.10309720784544019,"129":-0.15474159256298436,"130":0.28192524310078576,"131":-0.18093546225507687,"132":0.03809879457584422,"133":-0.1547616282198317,"134":-0.013502744045154783,"135":-0.09502784112328147,"136":-0.14210543056508604,"137":0.05546876465119516,"138":0.07333365185654286,"139":-0.011195237959204053,"140":0.04650800249304418,"141":0.03682386063419603,"142":0.2844081709871854,"143":-0.15233438337313518,"144":0.01487948565548553,"145":-0.06575991948531773,"146":-0.06692008537856779,"147":-0.00358454505106584,"148":0.09762776084126194,"149":-0.04347350862313113,"150":0.056873798440751,"151":-0.06119594645253014,"152":0.0818414385079951,"153":0.07462448789665559,"154":-0.04518326188154571,"155":-0.010881314569621877,"156":-0.05088681437298524,"157":0.01744731822383785,"158":0.0782914660719344,"159":-0.058934967315686385,"160":0.06626229622252193,"161":0.11160267445040871,"162":0.33774760600808,"163":0.26658123981702603,"164":0.1489487093466781,"165":0.14133421043500247,"166":0.5000323570857521,"167":-0.19173273517611744,"168":0.17872342145162143,"169":0.06614561775534,"170":0.430638574592162,"171":0.08981064867115628,"172":0.2748215496043413,"173":0.08536135114315076,"174":0.19252041503052025,"175":-0.12307250362534548,"176":0.08770992410011441,"177":-0.008486722994760863,"178":0.4148126605847215,"179":-0.01903091957844068,"180":0.14049157211368296,"181":0.12501678599724203,"182":0.21713547481938425,"183":-0.11791717393278443,"184":-0.07621253496980057,"185":-0.07458662072124128,"186":-0.06202474062302674,"187":-0.023432870206667032,"188":-0.032880878317510395,"189":-0.028751899617628574,"190":0.03800730361843987,"191":-0.07885251696362622,"192":-0.0029738285317204467,"193":0.02380454649119327,"194":0.05746871050433602,"195":-0.018280790821767055,"196":-0.036630649902191205,"197":-0.10081656190719472,"198":-0.06872458256360922,"199":-0.08588251187627187}},{"sx":5,"sy":5,"depth":8,"w":{"0":-0.010699744762974073,"1":0.08967434528855396,"2":0.06342537114602285,"3":0.35924430298799853,"4":-0.06351498947768133,"5":0.08312495272349962,"6":0.10528360229832685,"7":0.13143534274459992,"8":-0.20482860876477343,"9":0.0612588204741559,"10":0.07974635812465551,"11":0.12316225364554083,"12":0.20751567449058447,"13":-0.11758227320282709,"14":0.00787776873310401,"15":-0.04393945544095772,"16":0.11573158345939905,"17":-0.11771581741725963,"18":-0.0028935923299299076,"19":0.1814160340777762,"20":0.023188359348294652,"21":0.09686814689820777,"22":-0.10208664763079331,"23":-0.16012038042036303,"24":-0.02552797267606806,"25":-0.06514823446789345,"26":-0.011171005057813363,"27":0.0640321527799424,"28":-0.035184592681947464,"29":0.12295527708339422,"30":-0.11721952347355578,"31":-0.06259439257481117,"32":-0.13565256248078017,"33":-0.08401325957728091,"34":-0.030399511144405054,"35":-0.02330118019796336,"36":0.0006695553962972497,"37":-0.15393340607842404,"38":-0.038320049376660385,"39":0.01933776518061524,"40":0.006850822198668047,"41":-0.1078627169177469,"42":-0.02400547450956211,"43":0.1747863954175915,"44":-0.07524129302827959,"45":0.15141870249405306,"46":0.19845313195293418,"47":0.11190902357404785,"48":-0.003988053746059092,"49":-0.111538157471473,"50":0.03777759808612562,"51":0.04374110722520145,"52":-0.022784047485272418,"53":-0.009584157292139631,"54":0.0003395227248710473,"55":-0.11701167299369031,"56":-0.05347674231339886,"57":-0.1654155299845886,"58":0.006463563420769532,"59":-0.19731646390433308,"60":0.08923293224634947,"61":0.06088765368451299,"62":0.16377197430645293,"63":-0.3304572913118083,"64":0.09172455089916945,"65":-0.020081821110943733,"66":0.016106945236835153,"67":0.05451426171410772,"68":0.027718486871903893,"69":-0.055932138237695966,"70":-0.012935401495469588,"71":0.04305985000854338,"72":-0.1765847914490191,"73":0.06940353029379641,"74":-0.05872637196861806,"75":0.08128224441351892,"76":0.05711622391288212,"77":0.06397932714901954,"78":-0.1130652163548391,"79":0.014163536858829328,"80":-0.03245062257159411,"81":-0.015518949061298363,"82":-0.1159408864990127,"83":-0.048269176781690466,"84":-0.004458944082972452,"85":0.04850971407278406,"86":0.1992590222687963,"87":-0.2058880106722934,"88":-0.03450119157032076,"89":0.07099816792484828,"90":0.07255190260178035,"91":0.06043216084234467,"92":0.05944769375882311,"93":-0.023968584735393057,"94":0.16743730209020646,"95":0.09337392505998572,"96":0.017285518291722646,"97":-0.06761513099636739,"98":0.03841871294641336,"99":-0.2311093036021833,"100":-0.10867194711164667,"101":-0.16000776766143962,"102":-0.0461731112311964,"103":-0.0743391401854115,"104":-0.09730008946641357,"105":0.06232957585302933,"106":0.015613323333558604,"107":-0.3110974447571444,"108":-0.07239582146593965,"109":-0.16759636020042662,"110":-0.04334267995990537,"111":-0.012806905915299524,"112":0.0011339554078867197,"113":0.04737413458219139,"114":0.021177353851974997,"115":-0.06696590901727971,"116":0.014899755235921713,"117":-0.11580150364937362,"118":0.08221842648836193,"119":0.19351161304591172,"120":-0.14423915682841465,"121":0.2433340438211175,"122":-0.0702260527059923,"123":0.06448088468144877,"124":0.1337288786398539,"125":-0.039578449673784,"126":-0.10941575738258641,"127":0.030275095239401133,"128":-0.08321276949705551,"129":0.15074000026216444,"130":0.04715569268381629,"131":-0.007660261081866532,"132":0.24638952035762404,"133":0.024415910793360706,"134":0.09205395932618203,"135":-0.29591887949434126,"136":-0.08642253988082091,"137":0.17887595503898523,"138":-0.07168399452223342,"139":0.06287944982599174,"140":-0.036889987245997125,"141":0.013446398166196248,"142":0.028106749525928426,"143":-0.10975303008839099,"144":-0.050961886863405824,"145":-0.018130733939226106,"146":0.03742477443693397,"147":0.1514661692398181,"148":-0.09774593450508644,"149":-0.09998679209232189,"150":0.023292018863463947,"151":0.12897950605112535,"152":0.11672990248688613,"153":-0.07137027097706819,"154":-0.0013378050553899106,"155":0.030985101898941842,"156":-0.21673883470622868,"157":0.1619076025965733,"158":0.14479945902381058,"159":0.08543695742885987,"160":0.022604414560988897,"161":-0.3599694518442002,"162":-0.0581206604858153,"163":0.4530324574917366,"164":0.005055003798857898,"165":0.09831383303775117,"166":0.09551282782665624,"167":-0.7717755927917977,"168":0.20486751056622157,"169":-0.058508716407191054,"170":0.04858109146659446,"171":0.3440299118978496,"172":-0.09437849828842139,"173":0.14752487741397763,"174":0.02272717029195768,"175":-0.327708638100659,"176":0.0457225173392108,"177":-0.08664393833158235,"178":-0.03582247757565821,"179":0.16242198399683638,"180":-0.16360156554332309,"181":0.13981554301753152,"182":0.059342476225183266,"183":0.1926595709508539,"184":0.10326737622911569,"185":-0.15292649491199453,"186":0.11455477867863975,"187":-0.13430945795741608,"188":-0.026916433473525087,"189":-0.060699975256398864,"190":0.13989797099386833,"191":-0.08914247989478438,"192":-0.06351436079416233,"193":0.0639217982063129,"194":0.00694505552121231,"195":-0.05877690519360619,"196":-0.030699502936266696,"197":-0.09849368430037121,"198":0.16720771971301668,"199":-0.036335307813761326}},{"sx":5,"sy":5,"depth":8,"w":{"0":0.008913904031646063,"1":-0.04088072438579535,"2":0.2794563628894025,"3":-0.22859187753913818,"4":0.03784997955092348,"5":-0.11875605672961227,"6":0.10277278213209437,"7":-0.12921753962879456,"8":0.0018316010226285908,"9":0.016969981078185963,"10":0.1424640140476076,"11":-0.311403657269101,"12":-0.07173607498435222,"13":-0.12187689655358426,"14":0.0996989727254115,"15":0.17802009321891904,"16":-0.03287291988537506,"17":0.08572747301853924,"18":0.2619116137928348,"19":-0.14573437614156065,"20":-0.09685705643686429,"21":-0.0294620114751192,"22":0.19373289678490527,"23":0.0977355402411785,"24":0.059053372769957854,"25":0.08601487398513617,"26":-0.002913953904661943,"27":-0.09153625113422781,"28":-0.0035538235846393406,"29":-0.032469359590573205,"30":0.17584264751375223,"31":-0.09765823672151858,"32":-0.034003592480097614,"33":-0.07392612268262458,"34":-0.04905975929969483,"35":0.0959718961015487,"36":-0.1410879954653733,"37":0.02555657988694478,"38":-0.1082064019052672,"39":-0.009893100979015974,"40":0.09603748712319075,"41":-0.07312594716005034,"42":0.1136844778343081,"43":-0.40773490335319995,"44":-0.11957613099753166,"45":0.04923695657732944,"46":0.44188442912858905,"47":-0.22490004312308412,"48":0.17445952008829851,"49":0.04917854060913483,"50":0.346832880556756,"51":-0.0156439447078118,"52":-0.009127680845753886,"53":0.07713384696002934,"54":0.44572322076986515,"55":0.0941322504232238,"56":-0.07862227189317807,"57":-0.0826739693788049,"58":0.4108986925454232,"59":0.28586876771407893,"60":0.14437927114739132,"61":0.00972540657605155,"62":0.3625532332351928,"63":0.025450390136415115,"64":-0.0641064456589124,"65":-0.09803428721374037,"66":-0.04909233417717309,"67":0.058227845890083646,"68":-0.020783495914323227,"69":-0.07714546703542477,"70":0.05410891237483963,"71":-0.003607383767790808,"72":-0.11652812122037988,"73":-0.012634804019722874,"74":-0.09344254106916955,"75":0.006142297001771347,"76":0.03478810074227773,"77":0.0008806342374234611,"78":0.13619178696614265,"79":-0.10974971485451204,"80":-0.07031587354747604,"81":-0.07157848482132262,"82":0.253515173061536,"83":-0.05469823661658466,"84":0.04558229404660147,"85":-0.027810020284582206,"86":0.36141630244990886,"87":-0.013638528445366921,"88":0.0677184156455159,"89":-0.21946088696075108,"90":0.11970948442614024,"91":-0.23443835673476462,"92":-0.07725153644543714,"93":-0.09700808531936861,"94":0.2643016132966543,"95":0.0373940579029382,"96":0.022327758892023295,"97":0.059198909513002745,"98":0.10353057807383628,"99":-0.05948580265336461,"100":0.07474761270881994,"101":-0.05721722331222396,"102":0.21168973717720782,"103":-0.05848183772478122,"104":-0.08027567519515034,"105":-0.008810432310880849,"106":0.04800726270678165,"107":0.05549654181181047,"108":0.04308972516993024,"109":-0.10708479067739292,"110":-0.06675067353038242,"111":-0.030849259542612428,"112":-0.17049908288135088,"113":0.04502193020871626,"114":-0.07421393790015149,"115":-0.021058687094692545,"116":-0.07770545703159337,"117":0.05759977256253929,"118":-0.06513464740554852,"119":-0.028320709915263583,"120":-0.01564689335614597,"121":0.04510493854777422,"122":0.4086710287698823,"123":-0.05362716140538803,"124":0.2026470058186265,"125":-0.029088799151345573,"126":0.20334297759879036,"127":-0.060521534643706125,"128":-0.130914691501566,"129":-0.1656309079846595,"130":0.3183738742327587,"131":-0.11357255115909742,"132":0.1397260169847043,"133":-0.005505237614373941,"134":0.28484588747555667,"135":-0.13534877697151715,"136":-0.07926428387308147,"137":-0.2597544179083426,"138":0.2710574383955984,"139":-0.01352470751070524,"140":-0.04633130690214951,"141":-0.08211741471362322,"142":0.3090736801309479,"143":-0.0235179777428798,"144":-0.077399938699645,"145":0.07829969822705483,"146":-0.09537569453477762,"147":0.024246540785447107,"148":0.00568238169234537,"149":-0.10636494841140687,"150":-0.025653375730287437,"151":-0.0537643648105767,"152":-0.1258669556280515,"153":-0.006621612169277563,"154":-0.09556504602494875,"155":0.0647755503008733,"156":0.02324894582538911,"157":0.01019825920296661,"158":-0.008847388625508922,"159":0.13489982636528142,"160":0.08023334729064248,"161":0.12604719694107688,"162":0.3585972275258192,"163":0.05799310976786513,"164":0.11654130342961244,"165":-0.14968361514138478,"166":0.37241416103686786,"167":-0.02336637903619802,"168":-0.06484050919165835,"169":0.20340609450903935,"170":0.2809813443118035,"171":-0.12046435842994631,"172":0.22251275175455323,"173":-0.07751345464929098,"174":0.1465585537060568,"175":-0.13606123991210056,"176":0.06055521166997569,"177":0.0971913107404382,"178":0.3022836165063257,"179":-0.26722604734327776,"180":0.20831231729542152,"181":0.004738904604895667,"182":0.2711405904453842,"183":-0.0943783065954984,"184":-0.030713364117922897,"185":-0.051992449549362635,"186":0.11413299808609566,"187":-0.01716396457704039,"188":-0.11580440552739854,"189":-0.08838715201083684,"190":-0.04349801288156761,"191":0.059684745600376767,"192":-0.09209426429232025,"193":-0.07205471794359207,"194":-0.023718167664096353,"195":0.026479607526436213,"196":-0.04427402974774837,"197":0.01719451706352261,"198":0.12406178732971242,"199":-0.21836331029113565}},{"sx":5,"sy":5,"depth":8,"w":{"0":-0.018855314725672787,"1":-0.11188634547358724,"2":0.06234241531189124,"3":-0.452239777630397,"4":-0.07834036675613977,"5":-0.04146392788176088,"6":0.39264312444765737,"7":0.09433588951104256,"8":-0.13191430526986317,"9":-0.0008724424030260619,"10":0.17155522404744306,"11":-0.4776825620066299,"12":-0.16427675748912426,"13":-0.2940092907966265,"14":0.18075975487183912,"15":0.3660092154399544,"16":0.0717321724536936,"17":-0.007548275911113452,"18":0.1982169290598484,"19":-0.3528138953276843,"20":0.018117798437604846,"21":0.02450068355464771,"22":0.2811748585340746,"23":0.1042649696248444,"24":-0.0189347927145115,"25":-0.14002493720427,"26":0.027342865677230606,"27":-0.028393841421204314,"28":-0.07239056738370715,"29":0.030706473731948604,"30":-0.009330225828353456,"31":0.08470293988966705,"32":-0.040371653509366466,"33":-0.0917863418299154,"34":-0.042020109425857724,"35":0.10994772325629118,"36":0.1370844257403898,"37":-0.14864521486417384,"38":0.01763993553684447,"39":-0.04212311014977971,"40":0.28523729377968327,"41":0.2774369470752102,"42":0.5557858116433293,"43":-0.01790748096762003,"44":0.5722003854418156,"45":0.12545501974048912,"46":0.38343314405478607,"47":-0.12870800519585893,"48":0.15336537765511768,"49":-0.22784126986177486,"50":0.3998854215019362,"51":-0.015131216564549882,"52":0.05700053494910323,"53":0.1950428194468251,"54":0.3745776476724701,"55":-0.2033419930477743,"56":0.042192811163685756,"57":-0.2636612310992081,"58":0.38438216066190817,"59":0.26746671553714835,"60":0.13682914533372179,"61":0.0028426234108705588,"62":0.5502257912297805,"63":-0.09358382409983888,"64":-0.08879653954051017,"65":-0.03473477516071027,"66":-0.08830800435686473,"67":-0.05308427289998558,"68":-0.021895605543057712,"69":-0.007597344972832297,"70":-0.15670545184486254,"71":-0.08023822987864347,"72":-0.10631243015186638,"73":0.0099555994898935,"74":0.008977202260571982,"75":-0.003822314738825045,"76":0.026286906547682266,"77":-0.05550447067084641,"78":-0.032313414765511354,"79":-0.10501124339018991,"80":-0.1802538176093004,"81":-0.1111948561810591,"82":0.155631723582806,"83":-0.15819286506508753,"84":0.07465204503290365,"85":-0.19540284421050283,"86":0.2135683465183385,"87":-0.12787280286787775,"88":0.0015100978027036988,"89":-0.07734412673037468,"90":0.060505393810374036,"91":-0.22388635316937447,"92":-0.09452747385444987,"93":-0.0382383242041575,"94":0.16943548027205935,"95":-0.14045563514897208,"96":-0.08230861131980051,"97":0.06024468244809054,"98":0.2258714715733163,"99":0.11429763829415915,"100":0.16720570785261799,"101":-0.16371571524679582,"102":0.18750032666772545,"103":-0.206042463018099,"104":-0.035763299367495394,"105":0.09158892107302832,"106":-0.07114149129036922,"107":0.008332367926612657,"108":0.031977143096385,"109":0.0174058700002918,"110":-0.04347068033722666,"111":-0.06319548648111514,"112":0.0007891815495840472,"113":0.011927740156811419,"114":-0.13078857638190827,"115":-0.17057612954168577,"116":-0.083405836590872,"117":-0.04497464236846193,"118":0.09569308989470258,"119":-0.0209692854868154,"120":-0.2819423905238171,"121":0.1814180621174021,"122":0.3214494763254718,"123":0.011280276526806665,"124":0.11956753440198283,"125":-0.25301655185324007,"126":0.3133362462261852,"127":0.02847128370989777,"128":-0.23945697095357904,"129":-0.2484974359028751,"130":0.263786866567627,"131":-0.21974212020532094,"132":-0.007750155523519658,"133":-0.0895516025408633,"134":0.275755549455086,"135":-0.04511010936873146,"136":-0.04210718253403016,"137":-0.10537445013897978,"138":0.28909918802023826,"139":-0.06474324115479926,"140":0.0055424301913040335,"141":-0.20201988016223593,"142":0.2908115368089331,"143":0.0565106418492958,"144":0.04236713822363531,"145":-0.12683776630400848,"146":0.11778995198586122,"147":-0.09713832498463225,"148":0.03716445645820719,"149":-0.0371168431918479,"150":-0.04633042452889888,"151":-0.005611043099617217,"152":-0.06505646374014888,"153":-0.12956547522714046,"154":-0.14191096007477383,"155":0.046083154080559255,"156":-0.011822468750973553,"157":0.07881947027302841,"158":0.04718016133259393,"159":0.007267403829148837,"160":0.1887371884450558,"161":0.2961883069074001,"162":0.40621154462212944,"163":0.08042601319992407,"164":0.2578090925636282,"165":0.13725938328481788,"166":0.305934237694554,"167":0.2210772101405225,"168":-0.03504212969080623,"169":0.07048355036504157,"170":0.39859209285397385,"171":-0.1494756033745743,"172":0.290672308316834,"173":0.0600101955041131,"174":0.2675982856454483,"175":-0.1618145440010247,"176":0.08017594665612326,"177":-0.1157331651124064,"178":0.26566360210481066,"179":-0.27396558157949663,"180":0.10570369657880249,"181":-0.01505832934881352,"182":0.168294973575339,"183":-0.024480525077033854,"184":0.08918835597766438,"185":0.06457877185688592,"186":-0.03588965346748147,"187":-0.0802831743313824,"188":-0.020928740961262626,"189":-0.08905936888047496,"190":-0.03540097126997864,"191":0.07528155897441413,"192":0.021746868343533284,"193":0.055036086794942485,"194":0.024550841506077586,"195":-0.060810844822619864,"196":-0.06113932326906438,"197":0.012051194018867933,"198":0.011277100807803048,"199":-0.06352006183026612}},{"sx":5,"sy":5,"depth":8,"w":{"0":-0.3056002461826846,"1":0.184876852205104,"2":-0.08543596196388194,"3":-0.0305152788690514,"4":0.06499558711168274,"5":-0.32215856136175847,"6":-0.028487551503968717,"7":0.25403468937806406,"8":0.06407005399127254,"9":-0.030876299108245547,"10":-0.026705293325079288,"11":-0.09186466406974002,"12":0.08071974942723882,"13":-0.091153300627174,"14":0.02422423667823023,"15":-0.11959689452963963,"16":0.16014790116596822,"17":-0.21703199940336323,"18":-0.03225103822128304,"19":0.03006194363689686,"20":-0.1388520420269021,"21":0.13150822729381534,"22":-0.03165370401027564,"23":-0.5453612510499066,"24":0.1698603317753232,"25":0.20455837550584258,"26":0.10344930637389328,"27":0.2484600349209401,"28":0.11428942047077535,"29":0.07722240718672996,"30":0.0909761649230787,"31":-0.014015604596991488,"32":-0.12549267582668955,"33":-0.025805996401765934,"34":-0.035005521769879554,"35":0.08626545732548659,"36":-0.25972432804689627,"37":-0.16558118369126715,"38":-0.10434513738614297,"39":-0.049244750103786754,"40":-0.3288364064786952,"41":0.19314857138057256,"42":-0.0232847750773032,"43":-0.177625773587197,"44":0.012923881915948024,"45":-0.23004530043439084,"46":0.18861679237806178,"47":-0.04194283498293281,"48":-0.004579093877722083,"49":0.23713810033282773,"50":0.07759750828385836,"51":0.13733091735459388,"52":0.11502984615590096,"53":-0.07083333728968282,"54":0.20520641100165077,"55":0.13643293905055534,"56":0.23389857314606857,"57":0.45511519450441407,"58":-0.19531676827183808,"59":0.10830565821388043,"60":0.1468576652846487,"61":0.15641131874146133,"62":0.06573591859919296,"63":-0.1513451613566316,"64":0.09801786740035134,"65":0.15660753954492046,"66":0.05403811621930015,"67":0.2498091921593965,"68":0.1730759071169495,"69":0.02490519442488634,"70":-0.00663973387513326,"71":-0.47582871910259145,"72":-0.04200847987950517,"73":0.08427457437534835,"74":-0.004886267405141752,"75":0.0669328700382353,"76":-0.10624127236011878,"77":0.13103179532477666,"78":-0.05272618454193783,"79":-0.2473368914772583,"80":0.043613222018764476,"81":0.35570514415725535,"82":0.16484413153912425,"83":-0.16261927005486995,"84":0.2507600037659594,"85":-0.0009415343148932518,"86":0.13808168072822263,"87":0.21826974218431078,"88":0.0450969744896742,"89":0.22111385181667398,"90":0.2105710091137028,"91":-0.23501589710982218,"92":0.4534691028460708,"93":-0.063375343279854,"94":0.09935768420622029,"95":0.27654254499535424,"96":0.29500201795372916,"97":-0.2609130508201635,"98":-0.13721103105470153,"99":0.3445810654601333,"100":0.07901273650193262,"101":0.29645999532810213,"102":0.08397387545416768,"103":-0.1283452456724756,"104":0.1387171723277613,"105":-0.35570190187415673,"106":0.03133588015743547,"107":0.28433093614882315,"108":-0.2553352164165007,"109":0.4386884911356106,"110":0.11066348319043948,"111":-0.279762975728551,"112":0.14194851275772236,"113":-0.4419531490067635,"114":-0.022712927269668563,"115":0.23540735072381433,"116":-0.4840787573761474,"117":0.13580364293360483,"118":0.04041679709748132,"119":-0.17002753176027452,"120":-0.3104881780803598,"121":0.20362676099218383,"122":-0.08419448305833034,"123":-0.5861855631145809,"124":-0.04587836397334976,"125":-0.32752689414445174,"126":-0.2935633759404213,"127":0.3171668567198292,"128":-0.041726519743284764,"129":0.033379356318945466,"130":0.011730081926948292,"131":-0.0785117271313119,"132":-0.11089361250959064,"133":-0.09245880446127984,"134":-0.08176779739868083,"135":0.39239806061906146,"136":-0.24456213743402044,"137":-0.10228160160140438,"138":0.09640071591184605,"139":-0.14774088829369372,"140":-0.20534875121714777,"141":-0.14345608006741015,"142":-0.01982380786439485,"143":0.14174523335911543,"144":0.01243153380168151,"145":-0.5678584147129105,"146":0.07456659212141764,"147":-0.14825973431217085,"148":-0.1545928658859893,"149":0.10872153071013935,"150":0.09966304352007625,"151":-0.15825388407739124,"152":-0.0006003251260632153,"153":-0.1305087544433993,"154":0.3026138062064565,"155":-0.12025855295264169,"156":-0.10857050327378744,"157":0.024312216818818504,"158":-0.10715294660253574,"159":-0.4537040751929466,"160":-0.8218414940899671,"161":0.04814700594812494,"162":-0.16009248033158593,"163":-0.5431343876364283,"164":-0.200948214952084,"165":-0.879875209777524,"166":-0.26518815703311904,"167":0.12986748671958612,"168":-0.09761228211706183,"169":-0.0316677059083768,"170":0.11004777229168339,"171":-0.1754965411892767,"172":-0.004660705324062778,"173":-0.33754266955847545,"174":0.17481070449958375,"175":0.2699927179596762,"176":0.17022544742416604,"177":0.18097087071662585,"178":0.24144667994100447,"179":0.1856919000651137,"180":0.0740219704092267,"181":0.1574922081422173,"182":0.2565542722751948,"183":-0.30827485576178526,"184":0.13830348024713907,"185":-0.21626300921217573,"186":0.2999472362337464,"187":-0.16145263417536582,"188":0.06114121017193454,"189":0.011386301818725365,"190":-0.017689277383191968,"191":-0.011736694580938576,"192":-0.1256890748464235,"193":-0.23536770209040433,"194":0.183585907761859,"195":-0.26609199729370486,"196":-0.0406684223962408,"197":-0.052350347614608383,"198":0.1405898258047683,"199":0.016845244074819275}},{"sx":5,"sy":5,"depth":8,"w":{"0":0.12116558007724174,"1":0.07675711506462693,"2":0.0012744261584719196,"3":0.304224761825938,"4":0.03824304123240982,"5":0.037451044289349394,"6":-0.07753335943446643,"7":-0.42598310648127025,"8":0.008992679725141757,"9":-0.13144245133859941,"10":0.024561114746538736,"11":0.17566368439652696,"12":0.012450697686671269,"13":0.06755265284906993,"14":0.028956636589402857,"15":-0.19004134278576126,"16":0.06315610960853536,"17":-0.24247661117059746,"18":-0.29155706672684933,"19":0.3954003319836857,"20":-0.15042780520156776,"21":0.08463903261647002,"22":-0.14543754169966122,"23":-0.11081440683581971,"24":0.10591367850002359,"25":-0.007252090505937212,"26":0.10197250665189236,"27":0.03755149680024459,"28":0.10918979636856241,"29":0.18079822912533433,"30":0.0967163339135678,"31":0.05139363614364154,"32":-0.14008093754248355,"33":0.06184489001107322,"34":0.044189626965793344,"35":0.004586411201322939,"36":0.06798919440151928,"37":0.02336459781848657,"38":0.1114015616043594,"39":0.15561239789795622,"40":0.05041557274142241,"41":-0.027269392624404292,"42":0.055496713264975586,"43":0.07388016860429102,"44":-0.08723858768520348,"45":0.13480843893417974,"46":0.014391971340212731,"47":0.009817404104753558,"48":-0.17110399360108947,"49":-0.01250174446514287,"50":-0.14268391691301177,"51":0.11719364236955893,"52":-0.18890918443283886,"53":-0.07783804764912386,"54":-0.16643773396510728,"55":0.01381620555895715,"56":-0.049833009562388016,"57":-0.0951257058753659,"58":-0.062523272269173,"59":-0.2601720602955406,"60":0.021407518467095685,"61":0.005973861984589254,"62":-0.13332554268980643,"63":-0.14120045454152394,"64":0.060128001839687056,"65":0.16911560281635526,"66":0.22285870863677626,"67":0.1492463452266726,"68":0.0018785230395641553,"69":0.24890497303223444,"70":0.10746734590105497,"71":0.23528056385194002,"72":-0.11106747135714626,"73":0.17370132374131422,"74":-0.007886368301573481,"75":-0.07983045743170357,"76":0.12062531012915927,"77":-0.07815161192269629,"78":0.03714295449537701,"79":0.20393327449046209,"80":0.16365821708413936,"81":0.014610126757554607,"82":-0.047372619737417625,"83":-0.11843790774237872,"84":-0.07668641384199015,"85":0.10538643157930283,"86":-0.006584574248188467,"87":-0.2421919109357179,"88":-0.1873413927779961,"89":0.5237686272339978,"90":-0.1216634386783181,"91":0.01995833287009448,"92":-0.09982121168124042,"93":-0.14258621021076187,"94":0.023102733878012593,"95":0.1191273111756911,"96":-0.46689671062439353,"97":0.013446326000141125,"98":-0.029070522471709544,"99":-0.3893606299960442,"100":-0.3718185545679725,"101":-0.42758365179528,"102":-0.23855726702433303,"103":0.1388644171017659,"104":-0.07207704776914989,"105":-0.13692288772781788,"106":-0.0951649393526595,"107":-0.23161398751128648,"108":-0.14811650122121817,"109":-0.14228851080881483,"110":-0.05832239385517574,"111":0.033209286562858646,"112":0.0709042402806908,"113":0.012318898814137029,"114":-0.1663968306586839,"115":-0.11472597376859346,"116":-0.015063548855852642,"117":0.08619720770423772,"118":0.04562184725782824,"119":0.1392380269486454,"120":0.1620996828300982,"121":0.29857091527601864,"122":0.015820105152354956,"123":-0.08743151476534111,"124":0.17606769963070723,"125":0.15047585454701853,"126":-0.17934527295357905,"127":0.02099413384512639,"128":0.03238421331851772,"129":-0.04800316644772355,"130":0.11226934898721523,"131":0.24324717223797165,"132":0.08835546748901002,"133":0.11308755325809978,"134":0.009493797157900465,"135":-0.5916956710977844,"136":-0.16739376689928664,"137":-0.02740002476124208,"138":-0.09793886032515413,"139":0.15042789852498903,"140":-0.14403958388038937,"141":-0.045947856819579976,"142":-0.04261827216186377,"143":0.3658173877282714,"144":-0.12475075936019558,"145":-0.01145268455038627,"146":-0.05660124957714639,"147":0.14245602342279245,"148":-0.053752711163987166,"149":-0.09144841333401095,"150":-0.02765874501014675,"151":-0.04169177408507673,"152":-0.06540014897059289,"153":-0.18273065556655665,"154":-0.1305853859663683,"155":0.07484537300484906,"156":-0.025192596235940386,"157":0.13231475560716896,"158":-0.238564507835888,"159":-0.2150921190986974,"160":0.2598152326941088,"161":-0.35278635675041553,"162":-0.13479623960523043,"163":0.4439116952926848,"164":0.0196986373764874,"165":0.10011225984822616,"166":0.007409972627318899,"167":-0.5426747350244833,"168":0.27501370917387685,"169":-0.4242413528201818,"170":0.05632280789787294,"171":0.5719894907755245,"172":-0.2313844000182014,"173":0.5630934458465764,"174":0.34027321130625326,"175":-0.7939318901822319,"176":0.26927579996952516,"177":-0.2307726323580133,"178":0.15847403977606556,"179":0.24660743210655858,"180":-0.3625700708076062,"181":0.36710218730831523,"182":0.17064050954191776,"183":-0.15011699915492505,"184":-0.02341123084008417,"185":0.0120995277258344,"186":-0.2610913864937755,"187":0.014054187366128394,"188":0.004790078273786842,"189":-0.1829553399729179,"190":-0.004766972683496357,"191":0.09202720167417788,"192":-0.055795450126345666,"193":0.11777176855453554,"194":-0.12722245075339178,"195":-0.12021256712765478,"196":0.01775251083802753,"197":-0.14390110987511193,"198":0.021055854365148372,"199":-0.05201662533574872}},{"sx":5,"sy":5,"depth":8,"w":{"0":-0.011464468111837186,"1":0.010442914694660636,"2":0.06173245915282007,"3":-0.12664146137336724,"4":-0.09977665429000203,"5":-0.011781314966049655,"6":0.003375808578081466,"7":0.026020471448787146,"8":0.060600825062925884,"9":0.14426458265218614,"10":0.01590306576621838,"11":0.053865536387125476,"12":-0.004358124177671218,"13":0.014092101663149866,"14":0.09256103758089082,"15":0.003781719991310905,"16":-0.20258386027792538,"17":0.021283396682940856,"18":-0.09147291226192289,"19":-0.25256363041067614,"20":-0.015222646803387632,"21":-0.10393378125201942,"22":0.01316515858173255,"23":0.08992358568812825,"24":-0.050408426556500824,"25":0.3130550429303791,"26":0.023039341774298464,"27":0.08993381594097326,"28":0.505675432483638,"29":0.19648678170174866,"30":0.2170209539173279,"31":0.0518496101252308,"32":0.0677338150939934,"33":0.20411649015081995,"34":-0.08160855962521261,"35":0.23847293432407532,"36":0.12700894962638412,"37":-0.005363909251620919,"38":0.07133941117745252,"39":-0.12806460007070034,"40":-0.07526120232462812,"41":-0.12720828167814285,"42":0.02923029803501719,"43":0.07000521324362778,"44":0.05438104729334713,"45":0.01181259554920049,"46":-0.042861766245678584,"47":-0.011010317859955814,"48":0.011111952476534143,"49":-0.06625978762452592,"50":-0.0016239836591582962,"51":-0.0011515368158600233,"52":-0.012961125202194276,"53":-0.0377909599996946,"54":0.04836212545931492,"55":-0.09625740973024997,"56":0.04280426792035128,"57":-0.15589353719728366,"58":-0.01056707460798075,"59":0.011817306989965741,"60":-0.14848526662522857,"61":0.14975579456242388,"62":0.15109085842923412,"63":0.08457489865008049,"64":-0.06811147183792199,"65":0.0628022164668347,"66":0.060817597311562104,"67":-0.0018256760560494357,"68":-0.1492246239391586,"69":0.013307769578215549,"70":0.05743992097227539,"71":0.09330805456112462,"72":0.047418007181872814,"73":0.3130533126388873,"74":0.30951635592004634,"75":0.15905684022491362,"76":0.38432319526422776,"77":0.1231332628917278,"78":0.08341925567286403,"79":0.048531054135591334,"80":-0.03353595611838994,"81":-0.12771316367018024,"82":0.07291483547581006,"83":0.017459075985137178,"84":-0.03885050593819876,"85":0.04576875819731506,"86":0.027443605397599574,"87":-0.05128902756438039,"88":0.08891583087937813,"89":0.17320524765534645,"90":-0.015696658049555744,"91":-0.11452625754087503,"92":0.03339121330619052,"93":0.05755281621398017,"94":0.051082810632208354,"95":-0.019450750863925143,"96":0.01938419138581008,"97":0.02226845037870321,"98":-0.0969655036168577,"99":0.138959115942423,"100":0.13207827795541197,"101":-0.06750935448704291,"102":0.016887549176091025,"103":-0.05364161117469163,"104":-0.2289982744120638,"105":-0.16087425524731647,"106":-0.14888427558313722,"107":0.07140810590145888,"108":0.007934235274707399,"109":0.00556846808535781,"110":0.05429245298321817,"111":0.15935711347992207,"112":-0.09339584479457519,"113":-0.06809241320318704,"114":-0.09498947949640996,"115":0.3191816752959572,"116":-0.09762970291710368,"117":0.02985449490240696,"118":-0.06873601263040723,"119":0.06560766407445262,"120":0.05555730597326959,"121":-0.0027633372166077706,"122":-0.006695168107484507,"123":0.04340151749104259,"124":0.023279326180926214,"125":-0.055718835895466,"126":0.039304481063367765,"127":-0.07288624250934003,"128":-0.03822913229106066,"129":0.0823237675103616,"130":0.07024454746160222,"131":0.09806062019041943,"132":0.08308506872699857,"133":-0.14953552764042355,"134":-0.03370650553993179,"135":0.10953916045091018,"136":-0.06020467951051545,"137":0.28511298385448075,"138":0.253314257149161,"139":0.12832570607292643,"140":0.23993806367676532,"141":-0.013691838070052169,"142":0.08355794223996467,"143":0.10297898869151755,"144":-0.19343490377017267,"145":0.2523106713746029,"146":-0.0492302154669765,"147":-0.08043635805241682,"148":0.20915115639682985,"149":-0.29588512996096944,"150":0.14163412820374555,"151":-0.013656460902709782,"152":0.0633771905928536,"153":0.2694460552884257,"154":0.06734492824542816,"155":-0.039218033416395015,"156":0.26471726059576517,"157":0.1861542519199211,"158":0.13961861862689628,"159":-0.07314790652546774,"160":0.024893184356733968,"161":0.009019616328807946,"162":-0.03501253986449746,"163":0.022553877244716383,"164":-0.026674283048210554,"165":0.028138973960203012,"166":-0.07083229597427643,"167":0.003350326461010333,"168":-0.027221470772971303,"169":0.14790095508060158,"170":-0.08954957628862391,"171":-0.07095502681686355,"172":-0.0428109158806167,"173":-0.01672164860286955,"174":-0.03472112707506229,"175":0.027643970613285156,"176":0.015772561506330492,"177":-0.0048853168119878925,"178":0.13464190128065928,"179":0.18222372144742438,"180":-0.11488504620165785,"181":0.048857547440715916,"182":0.12874243316735684,"183":-0.15194784460306657,"184":0.04089418816680849,"185":0.1401499891828503,"186":0.22345076438402975,"187":0.40046343369281856,"188":0.33286758948347656,"189":0.008613491707301876,"190":0.11726809389861458,"191":-0.14740170246138853,"192":0.027825621977209707,"193":0.14455554689687844,"194":0.3172138850547353,"195":0.15235973930926436,"196":0.0350513330937043,"197":0.17559709436560195,"198":0.04732606078075035,"199":0.19091269222403978}},{"sx":5,"sy":5,"depth":8,"w":{"0":0.015220925262595008,"1":0.08619200937414834,"2":0.07204796571921396,"3":0.18173999707854918,"4":0.06696759279527409,"5":-0.010911118558216474,"6":0.11916235271637442,"7":-0.026218848972765666,"8":-0.08627528978469222,"9":-0.016452184438494392,"10":0.2320446310141111,"11":0.14882155259473856,"12":0.035761457226103084,"13":0.03159320356303174,"14":0.07065624663258666,"15":-0.08293687293198852,