{"layers":[{"out_depth":1,"out_sx":100,"out_sy":200,"layer_type":"input"},{"sx":10,"sy":10,"stride":5,"in_depth":1,"out_depth":8,"out_sx":19,"out_sy":39,"layer_type":"conv","l1_decay_mul":0,"l2_decay_mul":1,"pad":2,"filters":[{"sx":10,"sy":10,"depth":1,"w":{"0":-0.8277228168326212,"1":-0.6915999936801837,"2":-0.5137577754797972,"3":-0.22291608306617178,"4":-0.32337135099656367,"5":-0.2887348477161214,"6":-0.878894114398492,"7":-0.5608869334293171,"8":-0.34224581025453726,"9":-0.6584548022560526,"10":-0.5256322009280991,"11":-0.9090495483381974,"12":-0.4529341224642189,"13":-0.28185124784961324,"14":-0.42155082649975517,"15":-0.6558223286698729,"16":-0.5453599250178636,"17":-0.7871171061546568,"18":-0.5469171023405556,"19":-0.507929754496961,"20":-0.6023195603445511,"21":-0.6746823693769881,"22":-0.3048589395246963,"23":-0.3792669951184821,"24":-0.2559156048947655,"25":-0.05900127183413114,"26":-0.6605869142733333,"27":-0.3725501822549567,"28":-0.6297854907372566,"29":-0.3009605806782261,"30":-0.4102718625416725,"31":-0.515202223200152,"32":-0.43992846341829306,"33":-0.4170443552322042,"34":-0.27980143150938896,"35":-0.2901360842012273,"36":-0.20795475972426056,"37":-0.357954695427569,"38":-0.5401507474574339,"39":-0.4207579690791466,"40":-0.33919286748002025,"41":-0.39113743790745825,"42":-0.38584691906307395,"43":-0.538772992116307,"44":-0.3932111478527172,"45":-0.1253500897376481,"46":-0.2598037785837782,"47":0.018211550502897453,"48":-0.453107052981349,"49":-0.40391649094370374,"50":-0.44928903093233225,"51":-0.507306193745201,"52":-0.22511282586411835,"53":-0.14121476623060505,"54":-0.13383563165974846,"55":-0.2411815872789138,"56":-0.17077418113569742,"57":-0.35913134890677234,"58":-0.39571555111190987,"59":-0.37911540876420285,"60":-0.4813100288529409,"61":-0.4487168726406543,"62":-0.2692378162083511,"63":-0.17831824173767333,"64":-0.3771963601025211,"65":-0.27411166401035786,"66":-0.5384764856175032,"67":-0.497897526241248,"68":-0.7692579944224931,"69":-0.44002920491957953,"70":-0.9284105259624719,"71":-0.9372423526990132,"72":-0.6518645177959028,"73":-0.31987906153266393,"74":-0.29655678567885974,"75":-0.5687556125414976,"76":-0.6893070234035232,"77":-0.49842259745385975,"78":-0.7789292778829657,"79":-0.7034377513947577,"80":-0.944625508224926,"81":-0.6374965884067433,"82":-0.5213564607957176,"83":-0.3053702364608963,"84":-0.5019094563806662,"85":-0.31828558219043007,"86":-0.414930577898624,"87":-0.6946062788163293,"88":-0.9697837398861905,"89":-0.6877836312332747,"90":-0.7921658089149997,"91":-0.642326358524319,"92":-0.7851467237710288,"93":-0.38653129409743797,"94":-0.3358357329676453,"95":-0.17497239252720048,"96":-0.6562409201449124,"97":-0.6462673143565711,"98":-0.48903051415814575,"99":-0.7926571880039163}},{"sx":10,"sy":10,"depth":1,"w":{"0":-0.27120537513349696,"1":-0.5975386227378365,"2":-0.5212072698330774,"3":-0.3410770295965127,"4":-0.31004205683013913,"5":-0.6529022341430792,"6":-0.40849614319947286,"7":-0.27232332004995785,"8":0.1709425932721524,"9":0.34415894362658245,"10":0.08044871843120116,"11":-0.19264026898446215,"12":-0.13698102845052554,"13":-0.4221492174908323,"14":-0.5637078181148543,"15":-0.1876206421737375,"16":-0.123540991500343,"17":-0.06455166502055117,"18":-0.5018562106458775,"19":-0.358755572345932,"20":0.5649794903692174,"21":0.32063115682249926,"22":0.07510226225271151,"23":-0.1268274537691315,"24":-0.32710488564207174,"25":-0.47495433021581335,"26":-0.21157690489448028,"27":-0.07430743495747649,"28":-0.4384239741917234,"29":-0.39031822738679417,"30":0.5267172746642105,"31":0.300931173747383,"32":0.4930969535263339,"33":0.404750780818064,"34":0.301528164532045,"35":0.2039714412350836,"36":0.21232098898525759,"37":-0.07790470595198792,"38":-0.16948947811532034,"39":-0.23734952431342635,"40":0.16439561578349243,"41":0.4206701817603338,"42":0.053436262059347955,"43":0.5584595457857809,"44":0.5791036315989813,"45":0.3474939924907729,"46":0.31522168653337107,"47":0.5278382401996783,"48":0.2955483899241732,"49":0.22908727865471065,"50":0.1341181290306141,"51":-0.05728287062747428,"52":-0.260051981002913,"53":-0.15368972889266258,"54":0.16994548115977065,"55":0.41229613523006686,"56":0.23380333405198878,"57":0.07382360172920086,"58":0.3832903005308815,"59":0.33056237346326456,"60":0.08298411781409044,"61":-0.1037476519517827,"62":0.007400630001541114,"63":-0.15254074736768208,"64":-0.004805642702769206,"65":-0.007630364047092508,"66":-0.0054987151929840475,"67":0.42951312590637464,"68":0.6024657407928055,"69":0.13017228782603396,"70":-0.11414053098960909,"71":0.07914754958628165,"72":0.08894678121388107,"73":0.21284835132373348,"74":-0.12034210964008452,"75":0.007512446602070169,"76":0.3171729728309779,"77":0.10406493530752353,"78":0.5979588493448049,"79":0.5603859506302735,"80":-0.05705122462332834,"81":-0.0015968070207863477,"82":0.247137868773835,"83":-0.0968605069115362,"84":-0.21799700517662532,"85":-0.5195094654091581,"86":-0.32443384723640545,"87":-0.06528067181000939,"88":0.20361112279464003,"89":0.42786993933798234,"90":-0.0015548959089084417,"91":-0.0098212877499071,"92":-0.010122375691065333,"93":0.13728154285836128,"94":0.04933791102858419,"95":-0.04409440677749217,"96":-0.2664022070550868,"97":-0.05373150455115184,"98":0.2536179399730063,"99":0.24499819325801395}},{"sx":10,"sy":10,"depth":1,"w":{"0":-0.003082324179720372,"1":0.018744143848897003,"2":0.00010175832307811393,"3":0.14843369834349956,"4":-0.031964841278899044,"5":0.023182811483756262,"6":0.0206172301843896,"7":-0.05227922836391346,"8":-0.0004429809449550063,"9":0.2182441827874945,"10":-0.020275930464539065,"11":0.11967214319378143,"12":-0.03999526184342887,"13":0.06299369410368746,"14":-0.030847083549134166,"15":0.16360180790351322,"16":0.06460576181388199,"17":0.11738324249569712,"18":0.03347328940833653,"19":-0.018871593977021296,"20":-0.131750787826264,"21":-0.027710677419623155,"22":0.009152863761540845,"23":-0.09073332262769546,"24":0.1276185227932561,"25":-0.14873962598319004,"26":0.051288352418478726,"27":-0.12451969699365097,"28":-0.20851393119706524,"29":-0.04357189759973487,"30":-0.0255712576780697,"31":-0.08271970869107952,"32":0.03735697992644209,"33":0.01906066371760252,"34":-0.0429387006112556,"35":-0.1312121709058058,"36":0.1015218345919053,"37":-0.13732952724584177,"38":-0.061135957810469384,"39":-0.06301765637816395,"40":-0.013479675496664918,"41":-0.06982374189645017,"42":-0.07937878472559474,"43":-0.033844361101745754,"44":0.031896287232404175,"45":0.04608409735899813,"46":-0.15531738326271144,"47":0.04630553695716515,"48":-0.2329551471316435,"49":-0.059258120875357305,"50":0.007068946186316694,"51":0.03743567788075007,"52":-0.07355850550577496,"53":0.07050647554658687,"54":-0.10197697484874904,"55":0.010417658637027923,"56":-0.11606044806161289,"57":0.24866766099260135,"58":-0.112307270402632,"59":-0.08505748381402825,"60":-0.1136930253370355,"61":-0.022420712600994215,"62":-0.09404486572485657,"63":0.08874004508065605,"64":-0.03350960104846789,"65":0.021161414746498478,"66":0.10506902695185344,"67":-0.1256091152303144,"68":-0.0531680624938538,"69":-0.08302166738430855,"70":-0.04590880859630855,"71":-0.10621501682563983,"72":-0.04510195711290179,"73":0.1522387861513829,"74":0.07228095923490936,"75":-0.1474236247517241,"76":-0.02511733547415324,"77":-0.018907506296141137,"78":0.029842778541003822,"79":-0.09915352364197366,"80":-0.21938396344535058,"81":-0.17354715661134051,"82":0.12386039263365539,"83":0.04625667171263744,"84":-0.17935334413420367,"85":-0.06830108854456407,"86":0.05576644902297798,"87":-0.14189356252699387,"88":0.1002704098192178,"89":-0.0622532929996468,"90":-0.01794589447202184,"91":-0.05774020344753784,"92":0.12482665840699393,"93":0.06592037650093538,"94":0.051044774091484266,"95":-0.0903020460180937,"96":0.11098083248655238,"97":-0.028838250051925522,"98":0.1802079224551394,"99":0.019240917811957393}},{"sx":10,"sy":10,"depth":1,"w":{"0":0.40940835223143063,"1":0.14923715640379723,"2":0.22049927294720179,"3":0.08004464116692185,"4":0.0774107961291939,"5":-0.03902296832778677,"6":-0.19817160224545483,"7":0.061352689688666674,"8":0.11700955383439815,"9":0.008327138046999888,"10":0.5033801980025437,"11":0.28567518111075285,"12":0.45802316166760604,"13":0.38691551721245276,"14":0.20424161259104537,"15":0.1974175950062148,"16":0.07109163639930371,"17":0.13565931311942897,"18":0.2772681745309505,"19":0.2903676172302052,"20":0.11770344538258327,"21":0.30486654662293433,"22":0.3924937713310738,"23":0.27589329714815053,"24":0.38132837953543985,"25":0.21012049077873848,"26":0.2589204016869357,"27":0.13162524129295833,"28":0.3046150787652471,"29":0.21026138932583255,"30":-0.0690690228858929,"31":0.39415954139103937,"32":0.303255027269765,"33":0.27364452437241227,"34":0.36509444461036367,"35":0.5661661556668931,"36":0.326340971246647,"37":0.2830195022767082,"38":0.17768683085610476,"39":0.11825411404506568,"40":-0.0032694903094178645,"41":-0.018664652112620334,"42":-0.0711565067489542,"43":-0.1030577896700882,"44":-0.12006931995698694,"45":0.28174376987016375,"46":0.15175200010463935,"47":0.2954788340668889,"48":-0.20219606778083812,"49":0.0024109505018219254,"50":-0.12321082202765374,"51":-0.1821929172499866,"52":-0.12226077261003679,"53":-0.08142948936822,"54":-0.08135479632127135,"55":-0.04149003412044527,"56":-0.17015776221380113,"57":0.005776754700416771,"58":0.1338060691550622,"59":-0.15206311361964137,"60":-0.2176271199248999,"61":-0.22402574996795357,"62":-0.25351939723796385,"63":-0.3769516325980453,"64":-0.04651583025572249,"65":-0.3149927546871326,"66":-0.33928536266063025,"67":-0.41343171491728603,"68":-0.3185799004566376,"69":-0.15601804688747276,"70":-0.3851124217023291,"71":-0.229875118256151,"72":-0.2885382054364866,"73":-0.37794300701194095,"74":-0.401215526941011,"75":-0.27541983375530943,"76":-0.37689516655378313,"77":-0.44675367814822137,"78":-0.40312926152720063,"79":-0.47799134161892903,"80":-0.10137474071224739,"81":0.002156646516836591,"82":-0.37331834175605116,"83":-0.37259527214227567,"84":-0.3109702243743901,"85":-0.3913750329890306,"86":-0.2732169666904483,"87":-0.4123950255866074,"88":-0.5536792932931424,"89":-0.4503680571129461,"90":-0.041718949572373105,"91":-0.08734884567472948,"92":-0.09174029171290188,"93":-0.12724980789888907,"94":-0.2122404451959946,"95":-0.36509868278366114,"96":-0.2976840562295985,"97":-0.3967210190153391,"98":-0.37491874757658816,"99":-0.37058772160595127}},{"sx":10,"sy":10,"depth":1,"w":{"0":-0.2576093848336955,"1":-0.3243232054811649,"2":-0.11026815386733638,"3":-0.10815315667935475,"4":-0.09942794436858002,"5":0.07235383609175067,"6":0.08925580572026769,"7":0.17979454959883645,"8":0.0056164391596039785,"9":-0.10553708768410432,"10":-0.16474822308995843,"11":-0.45523085301240424,"12":-0.351939461070328,"13":-0.32029365950746097,"14":-0.1342590911649541,"15":-0.07518464432420897,"16":-0.035225577548109774,"17":-0.04493548748652776,"18":0.029414029484634552,"19":-0.22473084472762883,"20":-0.27137483005952506,"21":-0.2835348174204226,"22":-0.10038415200003332,"23":-0.3717718434507344,"24":-0.3966735173946354,"25":-0.38209537982272823,"26":-0.2479588115992903,"27":-0.22730005845280737,"28":-0.18385144190067862,"29":-0.1061629657960234,"30":-0.3782842740993453,"31":-0.3459200697718955,"32":-0.1774916972377808,"33":-0.02631390509210187,"34":-0.3332763055663829,"35":-0.27505995539173883,"36":0.08330519702643452,"37":-0.26693999693202225,"38":-0.257093320269038,"39":0.13486377658927642,"40":0.046063873572443806,"41":0.05474495498776771,"42":-0.001287106601643894,"43":-0.08163995152392661,"44":-0.22217050522296097,"45":-0.19587240045019252,"46":-0.2972293741552009,"47":-0.18663123463486284,"48":-0.10133578752937082,"49":-0.1723911377324884,"50":0.17741430921109252,"51":0.2565589738426084,"52":0.0015928179400434236,"53":-0.01566179608078292,"54":-0.1377195032339687,"55":-0.2936604251813872,"56":-0.1392264921624911,"57":-0.1231792470855495,"58":-0.08305146297560369,"59":-0.3100688339428084,"60":0.4430299675472664,"61":0.25777101119802787,"62":-0.11361677055099142,"63":0.0611409633068055,"64":0.09944923204657219,"65":-0.20801323819429354,"66":-0.14601093308719673,"67":-0.2741430254508591,"68":-0.21498897019818944,"69":-0.38554309929652597,"70":0.2704472075983561,"71":0.32580085365808487,"72":0.237092219961082,"73":0.1333645542424878,"74":0.23415030923258265,"75":0.09768964540869866,"76":-0.1580977941363985,"77":-0.2161405421826234,"78":-0.1275296785178068,"79":-0.11643829965771486,"80":0.6597963129166209,"81":0.3044154259339096,"82":0.6167777290422638,"83":0.33418768111902986,"84":0.13046918564857005,"85":-0.0035909422009425544,"86":-0.022846263861340654,"87":-0.10828846383450773,"88":-0.012112831874417224,"89":0.1460360671584959,"90":0.1771929101519941,"91":0.5109634897366192,"92":0.4648193449627599,"93":0.6989193504353909,"94":0.19091957758197536,"95":0.29221918036499145,"96":0.13562936509193863,"97":0.23056845465418283,"98":0.301458317353175,"99":-0.0021598781554403096}},{"sx":10,"sy":10,"depth":1,"w":{"0":-0.08568291847394678,"1":-0.07771494215109989,"2":-0.03411546453359387,"3":-0.11457456967178238,"4":0.40177151181742504,"5":0.11923016269153044,"6":0.1363717996028331,"7":0.13237846105487247,"8":0.03911733129296208,"9":0.056723819668177175,"10":-0.18630967437861282,"11":-0.2359991665062824,"12":-0.2278841217569951,"13":-0.3412946508701795,"14":0.06718380690441542,"15":-0.12003022763426383,"16":-0.11746708441534545,"17":-0.14534500782712964,"18":-0.11135885464440563,"19":-0.10182534079043164,"20":-0.23935019671571564,"21":-0.29691923423371713,"22":-0.24972476046193412,"23":-0.18601217818449967,"24":-0.03350077624726344,"25":0.14042335112404078,"26":0.06968233049791106,"27":0.07201343961535431,"28":-0.13420053276400498,"29":-0.0264049744370847,"30":-0.312618694705472,"31":-0.31985886848605016,"32":-0.06958570575858519,"33":-0.2760090832091263,"34":-0.02021511444709222,"35":-0.07518426232945616,"36":-0.021718014729324383,"37":0.023147113672316828,"38":0.010966087271535353,"39":-0.20108468210935673,"40":-0.3068966263899142,"41":-0.28478602248086765,"42":-0.4946234716700888,"43":0.06963256123240479,"44":-0.31615944705383847,"45":-0.07475546194360969,"46":-0.052001492814458754,"47":0.2554416553840017,"48":0.07544398006390957,"49":-0.17971949701453516,"50":-0.2774318031657549,"51":-0.15041653972067537,"52":-0.4065618874994276,"53":-0.22991725898129356,"54":-0.40848131047865593,"55":-0.31178217117497686,"56":-0.33049062705795357,"57":-0.057502226045622974,"58":0.1953946053008841,"59":0.20167955123920375,"60":-0.520243595743544,"61":-0.3462424759255131,"62":-0.16098331304165478,"63":-0.15642806075910998,"64":-0.15076229308297406,"65":-0.16196596825998238,"66":-0.31258223793089945,"67":-0.2549709742583801,"68":-0.010435939321547402,"69":0.11844179744403706,"70":-0.5661787769572325,"71":-0.5546170176980257,"72":-0.566070440244167,"73":-0.3204460600996198,"74":-0.3075095756765468,"75":-0.4713091852330585,"76":-0.20449952952106526,"77":-0.2299796449808653,"78":-0.35427418283832285,"79":-0.047109176731708266,"80":-0.6343773356440053,"81":-0.6191562227766739,"82":-0.5081351539399835,"83":-0.5411426261399249,"84":-0.587419550788668,"85":-0.36034404491263583,"86":-0.39436652206044764,"87":-0.2726537859272205,"88":-0.4332753631072097,"89":-0.3748558742574831,"90":-0.3385148074196666,"91":-0.45317387795167,"92":-0.486181320672694,"93":-0.319515476584296,"94":-0.2612783528151874,"95":-0.17133474352820197,"96":-0.3461993105316463,"97":-0.2704926666909861,"98":-0.47325396153335336,"99":-0.3440252168149402}},{"sx":10,"sy":10,"depth":1,"w":{"0":0.26930634834875167,"1":0.012473388156063966,"2":0.07998083320199834,"3":0.06573647825048343,"4":0.09511655607230418,"5":-0.0066340618388872055,"6":0.0630392951490373,"7":0.09207590709999194,"8":0.0499674621080201,"9":0.09313639813374579,"10":0.1613652727850292,"11":0.1835385817810136,"12":-0.027348622469374015,"13":0.08017628054172872,"14":0.13206491901714826,"15":0.08432253893861656,"16":-0.06801630539709119,"17":0.021242832524490208,"18":-0.004376215476947972,"19":0.03111671351067321,"20":0.17259139490462272,"21":0.18713038915455515,"22":-0.04787600777538917,"23":0.07094227242840187,"24":0.02825722328807703,"25":-0.10748825431120079,"26":0.05587153040247242,"27":-0.13374781457359416,"28":0.1027818531124761,"29":-0.060592713849695085,"30":0.17801822949279378,"31":0.11344790212721712,"32":-0.033452723449554155,"33":0.031971327103395696,"34":0.03148595843662258,"35":-0.07280715111284775,"36":0.048692809077435506,"37":0.09433484747781358,"38":-0.12926296640427487,"39":-0.0874419429918493,"40":0.004039005532648472,"41":0.02150454646809783,"42":-0.13665934089829418,"43":-0.096592330773977,"44":-0.24419067283013948,"45":-0.051292657174076224,"46":0.0317916152950904,"47":0.054928792742427145,"48":-0.11466429320113164,"49":-0.06251329806388942,"50":0.0651997471182278,"51":-0.016808464519090162,"52":-0.06269553217345744,"53":-0.09168050234684834,"54":0.08456538064420166,"55":-0.0792435501933976,"56":-0.13216752169757937,"57":-0.027486125843036505,"58":-0.0653747021740368,"59":0.017254566283554894,"60":-0.07788801859752895,"61":-0.08476535206394477,"62":0.01223036877466703,"63":0.04945856833700897,"64":0.01008481583942158,"65":-0.04647080016776348,"66":-0.09892586929770249,"67":-0.04453662272879796,"68":-0.07288959309087709,"69":-0.046008668724154864,"70":-0.027102014760319704,"71":-0.03900218726065464,"72":0.08610242301632588,"73":-0.08988679113059404,"74":0.016244764439030442,"75":-0.08523767080310256,"76":0.012971036597345546,"77":-0.05486240000537457,"78":0.1285681893375042,"79":-0.1415188789118624,"80":-0.08911569593390195,"81":-0.06280356516640173,"82":-0.18743164847232016,"83":-0.06638946616965151,"84":0.04055607414534383,"85":-0.02423634740745127,"86":-0.11159175338355592,"87":-0.10688583830241422,"88":-0.007552809075687561,"89":-0.17999891219349823,"90":-0.00542536461305708,"91":-0.04807355275923839,"92":-0.05738514935257636,"93":-0.03568749688516987,"94":-0.02255730084065873,"95":-0.013429238755595731,"96":-0.024579207399514198,"97":-0.1806580164462665,"98":-0.08511841559563325,"99":-0.00535593953375744}},{"sx":10,"sy":10,"depth":1,"w":{"0":0.8015549994130963,"1":0.7769146035753663,"2":0.9256504658875785,"3":0.8589416185272124,"4":0.3200481826647968,"5":0.28349560366366444,"6":0.6402937434081619,"7":0.6786789969577183,"8":1.084623950581266,"9":0.11556475630516928,"10":0.4307204916229856,"11":0.5367042529672341,"12":0.6829965276941792,"13":0.49630177814453647,"14":0.2392030939261894,"15":0.33309623665775456,"16":0.4646098112317356,"17":0.642496248036821,"18":0.2731983908054245,"19":0.6519056170803158,"20":-0.0143669775811305,"21":0.39521129443565906,"22":0.22685319409387505,"23":0.5091077595299598,"24":0.2642084556103715,"25":0.14843893031925673,"26":-0.06833377437241929,"27":0.3882363789558702,"28":0.6358402307330883,"29":0.3291133806343298,"30":0.11722968753149218,"31":0.2108771451475799,"32":0.17567826620277396,"33":-0.02455771606472005,"34":0.02788654941348402,"35":-0.03505347517592487,"36":0.258971478338872,"37":0.1339856816666311,"38":0.29538237413329466,"39":0.27116301449247304,"40":0.20915162921455394,"41":0.09847317216910738,"42":0.19752366368568117,"43":0.16169407772813224,"44":0.2655889289650808,"45":0.17226018626609274,"46":-0.13391198153412467,"47":0.004394099764881825,"48":0.17641059997563951,"49":0.27879992680305576,"50":-0.047290054981331306,"51":-0.016386429898443678,"52":0.20428323520015432,"53":0.5084277291969057,"54":0.43227133720615935,"55":0.24265636642682537,"56":-0.12901184435853208,"57":-0.261176974634331,"58":-0.03326091717000981,"59":0.19788104136742576,"60":0.6384412158325065,"61":0.3963407535844,"62":0.2470367095602978,"63":0.39837119896626394,"64":0.6864437004778281,"65":0.34916553932653793,"66":0.1175142288240324,"67":-0.31668975958931095,"68":-0.1119701282723936,"69":0.07403886689336314,"70":0.8267648284015401,"71":1.0676524684419018,"72":0.7278517587627124,"73":0.3954754302578128,"74":0.6688429524805309,"75":0.7487585491966484,"76":0.5960700446336129,"77":0.17843780724157543,"78":-0.1172109897667949,"79":-0.1038795463944473,"80":0.7177088407959882,"81":0.5375914613518573,"82":0.5369066219631602,"83":0.6869604586728583,"84":0.32968226663976224,"85":0.7245057561674191,"86":0.7790517800941297,"87":0.6513777088880902,"88":0.040662727317424215,"89":0.10504892668178167,"90":0.4344362068275889,"91":0.5003546027745168,"92":0.12564986861386163,"93":0.3886279100690359,"94":0.44340195986592523,"95":0.45873179278258164,"96":0.4173751731411551,"97":0.6137924516462856,"98":0.5838784954053923,"99":0.2857497587494497}}],"biases":{"sx":1,"sy":1,"depth":8,"w":{"0":0.26992818588333006,"1":0.8868813106525659,"2":0.940109628923529,"3":0.18163897528744763,"4":1.275740063472912,"5":0.3038564524139394,"6":0.9576272192589531,"7":1.095888660071661}}},{"out_depth":8,"out_sx":19,"out_sy":39,"layer_type":"relu"},{"sx":5,"sy":5,"stride":5,"in_depth":8,"out_depth":8,"out_sx":3,"out_sy":7,"layer_type":"pool","pad":0},{"sx":5,"sy":5,"stride":2,"in_depth":8,"out_depth":20,"out_sx":2,"out_sy":4,"layer_type":"conv","l1_decay_mul":0,"l2_decay_mul":1,"pad":2,"filters":[{"sx":5,"sy":5,"depth":8,"w":{"0":0.19232723923677733,"1":0.10697037673753529,"2":0.09847490390107605,"3":0.15963595860483973,"4":0.07660211384496984,"5":0.09243307864320678,"6":0.0363013775080955,"7":0.07286412002372933,"8":-0.07273371455815485,"9":-0.2721746418552974,"10":0.09807308477575734,"11":-0.28845523870865863,"12":-0.1714279377165965,"13":-0.039653737661492036,"14":0.07994348384414354,"15":-0.12326655858275319,"16":0.043440042495068616,"17":-0.07584872401680372,"18":-0.055409454021692756,"19":-0.06491674325052757,"20":0.09695333662306983,"21":0.0352707705563896,"22":0.18556637735650106,"23":0.11262118543068818,"24":-0.0312116034236746,"25":-0.05135407649381741,"26":-0.10905056865077861,"27":0.021849351605272047,"28":0.0223300555278586,"29":-0.08787265989192798,"30":0.07709619883245532,"31":-0.12676264934731601,"32":-0.09332814712391964,"33":0.1468807037423491,"34":0.045543639374001674,"35":-0.08101865284158852,"36":0.09768095077016936,"37":0.017963300661550614,"38":0.02926971465457548,"39":-0.007512727331112636,"40":0.20878374536652902,"41":0.039707684252631235,"42":0.19945230381942022,"43":-0.13800134300207131,"44":0.12285031888010342,"45":0.00893069056861225,"46":0.09967267406838749,"47":-0.1458552729425075,"48":0.15795918136858156,"49":-0.10543925778395269,"50":0.28520419017311965,"51":-0.006589460434618918,"52":0.048842095390269805,"53":0.0028335417339313395,"54":0.19710501769711963,"55":0.37723970977804705,"56":-0.009673357760597742,"57":-0.5056664480496198,"58":0.0643798974395524,"59":-0.1389991816985109,"60":-0.06321961982517244,"61":-0.06925260447696757,"62":0.2818972093880221,"63":0.30355437994424667,"64":0.030000751924171787,"65":-0.06202471871695674,"66":0.02353916409916971,"67":-0.041202202936619234,"68":0.000299464342347285,"69":0.016455359863413493,"70":0.07586467141758728,"71":-0.12917613807107636,"72":0.035294105658123645,"73":0.09487578107762176,"74":0.10770100254529777,"75":0.0899650216254039,"76":0.07337262835799727,"77":0.08100701030596423,"78":0.048898736896953704,"79":-0.012239921401765119,"80":-0.011526213165720112,"81":0.18167118135956029,"82":0.2670237869734047,"83":-0.16760011826945717,"84":0.23678170927787232,"85":0.040730842640893127,"86":0.17810279310976104,"87":0.5504993891421447,"88":-0.15946553021906532,"89":0.4153338164162861,"90":0.20046641160235978,"91":-0.3138348240638993,"92":0.3202591436012085,"93":-0.08360265094249544,"94":0.10061108479144845,"95":0.1882290220592918,"96":-0.09991125633574635,"97":0.18758890854232918,"98":0.07977863223167572,"99":-0.5044393853470737,"100":0.35674550483644996,"101":-0.21232959781815386,"102":0.0069314730271237395,"103":-0.045109704741702596,"104":-0.05026954933305053,"105":-0.014399012121976976,"106":-0.029344510755551178,"107":0.06769471327041433,"108":0.03048829136654769,"109":-0.01348965972145118,"110":0.0828000146122433,"111":-0.04560132436098495,"112":-0.0903164922077156,"113":-0.036726801603602435,"114":-0.0593327823977563,"115":-0.0698788250847843,"116":-0.0786787351957742,"117":-0.0013381801190586633,"118":-0.03104083797998225,"119":-0.08228667953245959,"120":0.07281652402055121,"121":0.1780987682830386,"122":0.191092915412837,"123":-0.14499023526748875,"124":0.15357855707191595,"125":0.055392866818444596,"126":0.27385290713916094,"127":0.0271650173493282,"128":-0.13744028802060124,"129":-0.16517038831826747,"130":0.2982948752167347,"131":-0.1924412589041072,"132":0.05696215122017262,"133":0.052248351034074006,"134":0.2732732382024692,"135":-0.060200103885135324,"136":-0.29296364058871793,"137":-0.19429868798817151,"138":0.22570723750495428,"139":-0.20106382249384178,"140":-0.3055902906152229,"141":-0.15127424993375538,"142":0.1944457872269985,"143":0.030340573951497293,"144":0.09524171335401566,"145":0.04165263148444725,"146":0.000016226348088011597,"147":0.027320819136273027,"148":0.01037990220731737,"149":0.061285706353141275,"150":-0.046095753651436575,"151":0.008875035782903669,"152":-0.08063931558560213,"153":-0.018011406610823122,"154":-0.015281257287402494,"155":0.0910250514566189,"156":0.05554304184215203,"157":0.07395163614577273,"158":-0.031722344066350376,"159":-0.07997744788956178,"160":-0.16267628286337193,"161":-0.12269731048008142,"162":0.42375645504701365,"163":-0.1851543215961256,"164":0.23117149642828128,"165":-0.1055985615500623,"166":0.18122845770842264,"167":-0.01293851513005075,"168":-0.04871062998311231,"169":-0.012393584660056812,"170":0.4724749898186837,"171":-0.21432045834007474,"172":0.10486784556595365,"173":0.15388009977335107,"174":0.24139893576958737,"175":0.0034148005490427296,"176":-0.04477242519017832,"177":0.09723007128721488,"178":0.17473662712491472,"179":-0.07285273595489256,"180":0.09619635649470643,"181":-0.1293420580655513,"182":0.2905430678805681,"183":-0.09111788829886691,"184":0.07845209180756377,"185":-0.046388961777164936,"186":-0.03953410875614766,"187":-0.11917165470767316,"188":-0.003368542448889717,"189":-0.03972834414271435,"190":0.02945427826549248,"191":-0.06591933825975604,"192":-0.017873740976012478,"193":0.01434760771862668,"194":0.08461109968312182,"195":-0.033881948231974594,"196":0.03998766065240017,"197":-0.018664705946804323,"198":-0.008924034764856691,"199":-0.07158817826245864}},{"sx":5,"sy":5,"depth":8,"w":{"0":0.1202320930904699,"1":-0.1304117670701565,"2":-0.08914359067081652,"3":0.1794839793278192,"4":-0.23024509342338884,"5":0.1277277458828819,"6":-0.07909606549512518,"7":-0.018224922230197248,"8":-0.09386917817444304,"9":-0.16281667151920826,"10":-0.14788201039923277,"11":0.2373534895503495,"12":-0.28058505986439736,"13":0.05299496809070843,"14":-0.20476920592763015,"15":0.023552664194242328,"16":-0.16315244183521177,"17":0.009045944068556829,"18":-0.1363258184287498,"19":-0.06992707254395203,"20":-0.31706007541549514,"21":-0.11912633676592126,"22":-0.29932301984421755,"23":0.1280106301857681,"24":-0.0006306769162357887,"25":-0.23444910091855747,"26":-0.1162252165737758,"27":-0.15841086242169344,"28":-0.09531904464621598,"29":-0.06894675982411819,"30":-0.2758757790647516,"31":-0.1825358998975942,"32":-0.09447441955357887,"33":-0.11205714867786848,"34":-0.20749912856141353,"35":-0.09608821644592383,"36":-0.21146557036766395,"37":-0.12863518030407015,"38":-0.22355926576436003,"39":-0.1889065094204396,"40":-0.12392365141309947,"41":-0.029844499546929817,"42":-0.07845163415079157,"43":0.01253802656412748,"44":0.29453696170864496,"45":-0.0769477549654857,"46":-0.04712015739393456,"47":0.0009155473656300022,"48":0.03744108262273095,"49":0.023043686365794132,"50":0.010622194372657927,"51":-0.08906986467811358,"52":-0.15544800284643437,"53":0.0364040774430613,"54":-0.10030187313467381,"55":-0.03774692188031153,"56":-0.4109453900481018,"57":0.09647971573061884,"58":-0.0787858135458927,"59":-0.049047819594999986,"60":0.015618848294723998,"61":-0.3133165744676918,"62":-0.11607402018440131,"63":0.0686841105859075,"64":-0.21656130228818374,"65":-0.19973670740992364,"66":-0.17992598470646917,"67":-0.13648914758261227,"68":-0.20150852311029038,"69":-0.06055407910911609,"70":-0.10799429204139117,"71":-0.09089634361810163,"72":-0.2348432940658843,"73":-0.1083850219535659,"74":-0.1681284479961191,"75":-0.061760457327310024,"76":-0.06120499453799815,"77":-0.22268746450353993,"78":-0.26971697593795935,"79":-0.15291488316180404,"80":0.2290855057881566,"81":0.2131349367230485,"82":0.14657449894625066,"83":-0.01786508952735115,"84":0.04698148891223629,"85":0.09956013711649148,"86":0.14030522925470157,"87":0.22005443116700307,"88":-0.11262280223619292,"89":-0.2773963493070467,"90":0.20239107061176254,"91":-0.23028173268046445,"92":-0.3367677337092926,"93":-0.3195228759502272,"94":0.1338398815242642,"95":-0.06414438493338011,"96":0.03780858421719881,"97":-0.3207233726012401,"98":0.16691176405279898,"99":-0.029211021316917874,"100":-0.246517578198493,"101":-0.030308103026137262,"102":0.0996018830420235,"103":0.26658446306265765,"104":0.0990637599358317,"105":0.2126947001224592,"106":-0.0063588747301740285,"107":0.24701099583925207,"108":0.04722345790149774,"109":0.058799617977867744,"110":0.0875371974960506,"111":0.26848097430437967,"112":0.03436412597744459,"113":0.06748580693721577,"114":0.11116948873974046,"115":-0.18867181793131887,"116":0.03312377380910915,"117":0.014267910864352154,"118":0.18909892018215352,"119":-0.15656648902968623,"120":0.1909150477430042,"121":0.21483619895187198,"122":0.09159199360213886,"123":-0.021093987289488934,"124":0.14672112483169147,"125":0.06810968984517053,"126":0.12018352209321786,"127":0.07762506137950573,"128":0.06875627943530804,"129":0.16920921802105182,"130":0.029917698960343055,"131":0.06943046110907129,"132":0.16429251534280115,"133":0.22026713416892435,"134":0.1871562277218091,"135":0.054401036347192344,"136":0.01620420519383703,"137":-0.12221932104651445,"138":0.12553046777448534,"139":-0.12063247403893282,"140":-0.2498327443353668,"141":0.07991861105616582,"142":0.06861711260159278,"143":0.24144119278235096,"144":-0.24948846829395663,"145":0.16380900551637018,"146":0.08315869263994764,"147":0.04391978668817214,"148":0.12263522212163845,"149":-0.09564925613139101,"150":-0.07223940938766184,"151":0.09009308752447685,"152":0.05235872193319817,"153":-0.009752462097849638,"154":-0.027755917349236624,"155":0.2439400728101142,"156":0.07456856188760301,"157":0.04794267076657319,"158":0.15590282552697007,"159":0.20943725052596654,"160":-0.050565894980365046,"161":0.062010660272908406,"162":0.03945418931388179,"163":-0.19237888443465317,"164":0.17864890811108536,"165":-0.1151532371283786,"166":0.17941015709547373,"167":0.13156463024969225,"168":0.02143607079335763,"169":0.46230285499432167,"170":0.10152780871985734,"171":0.08773919956389804,"172":0.2815522650165708,"173":-0.10364989570703934,"174":0.07584834925089994,"175":-0.08100773872203089,"176":0.05048414653719849,"177":0.18703506784626178,"178":0.12255223367778716,"179":-0.5728174563478742,"180":0.2489622403716066,"181":-0.04015290736181962,"182":0.127526961033189,"183":0.06224621301845684,"184":0.18874191194989853,"185":-0.2203224926483668,"186":0.13674100897243036,"187":-0.016863949386133482,"188":-0.13542391833499834,"189":0.012563022077009824,"190":0.09581894557435239,"191":-0.07665704226308657,"192":0.21399158004236626,"193":0.1593831528152647,"194":0.0673241837940064,"195":0.1786283274396108,"196":0.1275771385417162,"197":0.13539260161721675,"198":0.15985366517089286,"199":0.07867905023757607}},{"sx":5,"sy":5,"depth":8,"w":{"0":-0.10980229577083019,"1":-0.42498129146039865,"2":0.11074960363397265,"3":-0.4676019420139426,"4":-0.12254728747655459,"5":-0.05227949578231075,"6":0.17148449818282807,"7":-0.033757566849716376,"8":0.0513270480810719,"9":-0.14514105973911043,"10":0.23236810511993986,"11":-0.3241675742249967,"12":-0.048665386546474544,"13":-0.07421273373376268,"14":0.30113809495108984,"15":-0.0026674099448108393,"16":-0.03583077170574058,"17":-0.0260075366296198,"18":0.14499746224976895,"19":-0.15170264113853607,"20":0.05885565219927581,"21":0.04789214848658504,"22":0.22047519776286226,"23":0.1182911594249282,"24":-0.029190830126810473,"25":0.011627273705172721,"26":0.020389075705417932,"27":0.08233677739075979,"28":0.08052716030638654,"29":0.04812619766167248,"30":0.07624703950794565,"31":-0.07598298368540468,"32":-0.03892597298212666,"33":-0.047707595814876325,"34":0.057793460454654416,"35":-0.023478762302879718,"36":-0.047554237474650075,"37":0.062444309493723336,"38":0.0740657920600559,"39":-0.10210649891650844,"40":0.059381619115627615,"41":0.21988808063531554,"42":0.14281455214915673,"43":0.07785530646594267,"44":0.0361904247228687,"45":0.1370471242942904,"46":0.4441659551677044,"47":-0.06471585117067002,"48":-0.0014161464534171273,"49":0.14056629467480994,"50":0.2565885743610288,"51":-0.15354384615655736,"52":0.13319724099742647,"53":-0.16080965685151496,"54":0.1683889796511382,"55":-0.04882442805377669,"56":-0.20785942669418767,"57":-0.097937882438961,"58":0.17173081430761744,"59":0.00794878552596132,"60":-0.037519321851653985,"61":-0.17033869108118144,"62":0.19407160239553492,"63":0.05419258526864798,"64":-0.14904685040481605,"65":-0.06759366473020345,"66":-0.007530533435360351,"67":-0.043473406500558344,"68":0.04162861920111782,"69":-0.035553607313865455,"70":-0.1100263242121799,"71":-0.0398188860744644,"72":0.11506335080306729,"73":-0.048226664027192875,"74":0.04342078166291673,"75":-0.03255916450346301,"76":-0.009429174993311999,"77":0.07467299282326577,"78":-0.02176608858864385,"79":-0.028395509101431647,"80":-0.05605954509768856,"81":-0.0009218296252781826,"82":0.38414973059704943,"83":0.008387381806306307,"84":0.3416453902263983,"85":0.0344441022848707,"86":0.3239199977176928,"87":0.13868268278015677,"88":0.009287874290050254,"89":0.09899022472461944,"90":0.2849166727586006,"91":0.09665009524312634,"92":0.23534177083033547,"93":-0.30476519701610316,"94":0.2269087193763759,"95":0.04361737896799735,"96":-0.10889412972171358,"97":0.09915380591998246,"98":0.36557521731100456,"99":-0.05435165641933415,"100":-0.19092360659562854,"101":-0.10668806561719392,"102":0.29931935503082446,"103":-0.26442313703933923,"104":-0.007697798965089325,"105":0.19718463857625484,"106":0.006022251889186863,"107":0.01833679879174105,"108":0.10331291688168466,"109":-0.04859790583569272,"110":0.01702238194792398,"111":0.034385670704628765,"112":-0.0974163781160418,"113":-0.02154479572965397,"114":0.07989472145386191,"115":0.13120705423362466,"116":0.008105480998318659,"117":0.06344553193525157,"118":-0.08069075330890631,"119":0.04709880374503294,"120":-0.2860882474502773,"121":0.02525139925909729,"122":0.14730754917362474,"123":0.08448264561058563,"124":0.10515274398853497,"125":-0.2628165578044052,"126":0.3949614733682571,"127":-0.1815365658395457,"128":-0.10237074050416585,"129":-0.010605021898189812,"130":0.27643615618290357,"131":-0.07263075874216217,"132":0.15214426973286743,"133":-0.018670768619566146,"134":0.22177113403211274,"135":0.06566517535943565,"136":0.07499864611923714,"137":-0.04138819501745515,"138":0.23326972979280078,"139":-0.11582979952464106,"140":0.027540394923712873,"141":-0.07998187303217158,"142":0.1988447970842428,"143":-0.2554973608366251,"144":0.04670233996124,"145":-0.008310048670488662,"146":-0.09794254167248072,"147":-0.02668462918244696,"148":-0.027921487504379366,"149":-0.0038651929330662436,"150":-0.07251166711394523,"151":0.09164795804699032,"152":0.09601007063006835,"153":-0.0586181430912139,"154":0.08537118371323385,"155":-0.035856213105986925,"156":-0.01572298699199454,"157":0.09545583309379724,"158":0.04074857680881925,"159":-0.21208044744470292,"160":0.07391643946336139,"161":0.046229634231297535,"162":0.3368589523508969,"163":-0.097852769446213,"164":0.14854702080424725,"165":0.14586913427453269,"166":0.36054451843331664,"167":0.06822891609733782,"168":0.1490834117945963,"169":-0.3502328564513742,"170":0.41695757772181635,"171":-0.1525224784588763,"172":0.10701071867321846,"173":0.05586647274035885,"174":0.3587707504729488,"175":-0.05214966098334644,"176":0.002470897445413301,"177":-0.14032531910926033,"178":0.33072988678201304,"179":-0.06047405368041329,"180":0.13863096730849223,"181":0.023285051556933948,"182":0.29494290955619645,"183":-0.10808040006139287,"184":-0.10949375817585082,"185":-0.0505741294183878,"186":-0.029304209883168612,"187":-0.14332473965594833,"188":-0.1094859176197401,"189":0.026015896520734803,"190":-0.04570316019948947,"191":0.08540853105889805,"192":0.14018077404881707,"193":0.0235017556985262,"194":-0.03804159084259642,"195":-0.36070100946463124,"196":0.04593954857141564,"197":0.016782025548576135,"198":0.08244401295972123,"199":-0.06555519573220331}},{"sx":5,"sy":5,"depth":8,"w":{"0":0.12543635117929225,"1":-0.02077032228858598,"2":-0.03685347644855204,"3":0.041449754887854996,"4":-0.04920074994396449,"5":0.07347049638152309,"6":0.053743226905456735,"7":0.07191451825792858,"8":-0.06194738778476852,"9":-0.05149253159247433,"10":-0.10522966567958945,"11":0.011139536629886754,"12":-0.012858695982219726,"13":0.04150335927640094,"14":-0.035005352877875755,"15":0.12070385103038557,"16":0.017679928172401608,"17":-0.08958577590322798,"18":0.10813379850194904,"19":-0.03217559447391169,"20":-0.09124083056277325,"21":-0.1127358421733297,"22":0.16623535240990261,"23":0.09320832769555412,"24":-0.16717844223515108,"25":0.1879929934011848,"26":0.08902633212647178,"27":-0.018106856917223777,"28":0.5510361731082714,"29":-0.22375414031701402,"30":0.2517973458430954,"31":0.18163007216312793,"32":-0.010425978153301804,"33":0.25240921533344834,"34":0.16055323478643324,"35":0.3267594965603745,"36":0.19409713500469636,"37":0.22019236101482295,"38":0.20153829016151822,"39":-0.2426385458491172,"40":0.01728252142922872,"41":0.013568532110752669,"42":-0.06026189860959733,"43":-0.06738897653553248,"44":-0.10038619456270513,"45":-0.10237896616421,"46":0.014545206200328864,"47":0.025744974709048137,"48":-0.03392598311444655,"49":0.033625899212789016,"50":0.005420120115092959,"51":-0.07766360861962915,"52":-0.17997415855527618,"53":0.0735743684924218,"54":0.09099342853716998,"55":-0.006256693771642525,"56":0.14214503946062254,"57":-0.060122594775859683,"58":0.11525270215368595,"59":0.27925276784027014,"60":0.12375739146493414,"61":0.1928028037640662,"62":0.13477464579361315,"63":-0.23742401492749154,"64":-0.0951016258794449,"65":-0.03807634628926381,"66":0.2576767153198649,"67":0.008462892327067246,"68":0.16338868213636662,"69":0.010041970831926959,"70":0.21863434258020864,"71":-0.10254786454937671,"72":-0.05479823614324977,"73":0.9765329568225746,"74":0.35408442092334075,"75":0.2815396745288674,"76":0.6254054993992256,"77":0.03861687308462691,"78":0.22727679537352768,"79":0.20391361865413454,"80":-0.05078584347904967,"81":0.00936265001091023,"82":-0.0075905976716361045,"83":-0.05401119463484793,"84":-0.011619960319779528,"85":-0.0018965180671771124,"86":0.0686510898019086,"87":0.004667492561103277,"88":0.08363857489466321,"89":-0.11797527221419785,"90":-0.03091798491317194,"91":-0.08942086282385399,"92":0.04495313020855276,"93":-0.054434434711667624,"94":0.08299759277722736,"95":-0.03661767997585294,"96":-0.041754376684773734,"97":0.14305246052467108,"98":0.03283315155509058,"99":0.0351391608689341,"100":-0.005616781859282338,"101":0.0011054593397847898,"102":0.10294143172117262,"103":0.2168155508659628,"104":0.04666601596733714,"105":0.04021323696045933,"106":0.2888566364279581,"107":-0.08614407215790036,"108":0.5262143784248678,"109":0.23353949827768639,"110":0.39016659555018446,"111":-0.18421557886475365,"112":-0.008373537459080775,"113":-0.22250616177796448,"114":0.28567803757963106,"115":0.24642668597726292,"116":-0.1641447728684383,"117":0.33643013062832816,"118":0.15303161779534408,"119":0.31736766829376506,"120":0.013733697186981645,"121":-0.20268224660616888,"122":-0.09514763697215599,"123":-0.016407239387524305,"124":-0.08993364777297445,"125":0.038511139768861516,"126":-0.0769156788466776,"127":0.017561870509263774,"128":-0.059482638351737116,"129":0.05598795184654906,"130":0.036657670797620154,"131":0.04997474021341113,"132":-0.02262849853463468,"133":0.008257142742364772,"134":0.029916010111253895,"135":-0.008542569555552486,"136":-0.202517468094791,"137":0.25240886986755284,"138":0.3061994790234751,"139":-0.049871218174648776,"140":0.029567044434002827,"141":-0.1379380209363921,"142":-0.02657273608968972,"143":0.04867007971098413,"144":-0.3017913809379202,"145":0.25130241803653797,"146":0.11054346340308911,"147":-0.17760957420364254,"148":-0.12080260909596803,"149":-0.23374314043352828,"150":-0.0755167609081236,"151":0.0011783169698612861,"152":0.1329806327705822,"153":0.17825298269207407,"154":0.04838094374427137,"155":-0.21813097593351793,"156":0.24651980977261867,"157":0.09978299349241643,"158":0.14953096126774806,"159":0.0598315774307693,"160":0.03270142239082901,"161":-0.057775465437105926,"162":0.03621287015235307,"163":-0.1298656438917908,"164":0.016266496978472704,"165":-0.0622241955795354,"166":0.05890767153163373,"167":-0.08561196178477098,"168":-0.010129485337049991,"169":-0.056004268967149426,"170":-0.08473039713253169,"171":-0.06617645959863791,"172":-0.11395107711358618,"173":0.019256135080198297,"174":0.031972312779612905,"175":0.007655203408061511,"176":-0.031162267400949312,"177":0.12829006619765249,"178":0.14192696528655638,"179":0.034497368146929115,"180":0.04956887963429494,"181":-0.18053025314117047,"182":0.024606888987676396,"183":-0.004151675998775753,"184":-0.11337211133995,"185":0.19603331369553598,"186":0.16203544016504703,"187":-0.048954468013819724,"188":0.2671944450923439,"189":-0.04538260969964825,"190":0.12651988283197438,"191":-0.05755455351175062,"192":-0.07500228248586667,"193":0.3070942694130242,"194":0.23122491630662487,"195":0.05040327093079527,"196":0.006446108817547302,"197":0.13773570653256048,"198":-0.028921941120269166,"199":0.12215639141912683}},{"sx":5,"sy":5,"depth":8,"w":{"0":0.00020519244697811477,"1":0.22113903370322385,"2":0.21292441718811767,"3":0.07435879065618559,"4":0.21145498448029934,"5":0.017757546977680533,"6":0.10774928265798393,"7":0.0828161217915518,"8":-0.1499767060263244,"9":0.2446459769714668,"10":0.12338056020177965,"11":-0.4553492595965941,"12":0.29189933388563144,"13":0.1434699241517219,"14":0.3289406581233383,"15":-0.1727359630384065,"16":-0.20884967090326287,"17":-0.03979326582565958,"18":0.10174025640776418,"19":-0.026971298985830693,"20":-0.01283656517147398,"21":-0.11425145820707132,"22":-0.0003016737745124763,"23":-0.26197431158797935,"24":0.03015739500717956,"25":0.07569967389794692,"26":-0.04503758444401394,"27":0.03476829949867464,"28":-0.024290648157917063,"29":-0.07194519002175526,"30":0.0006234003238471693,"31":0.06545692047005612,"32":-0.0539114865421537,"33":0.15044810117003227,"34":0.020446349781017347,"35":0.002880342280153707,"36":0.010590708095409657,"37":0.02247056276341895,"38":-0.1391648890053006,"39":0.016795574340199015,"40":0.09914199857754066,"41":0.10434469155106055,"42":0.27102720053083607,"43":-0.2512494576184491,"44":-0.3666304586973239,"45":0.03829066844200737,"46":0.013618616053642436,"47":0.052858673342269784,"48":0.27765137660482947,"49":0.14604344024583982,"50":0.25549563324472124,"51":0.13459347918117723,"52":-0.24431606361312402,"53":0.07992056981167392,"54":0.37211409626936875,"55":0.5291678317437349,"56":0.006728182848205681,"57":-0.12367972658634778,"58":0.15493645426003852,"59":0.006627291413307682,"60":0.14941459893778605,"61":0.18689487246739128,"62":0.15632074118914024,"63":0.048157990979331544,"64":0.07255360880952276,"65":-0.00014311868917500048,"66":0.13385477293524517,"67":0.03248655821462072,"68":0.04316131420149638,"69":0.01192515663693599,"70":-0.04346394969938621,"71":-0.044124233849788,"72":-0.09365939564534849,"73":-0.04454203638568424,"74":0.016762526564139246,"75":0.0968386073392065,"76":-0.038243557026882084,"77":0.04663029897559159,"78":-0.07995206303004398,"79":-0.13530674599422088,"80":-0.08166524161516074,"81":-0.25392091557203034,"82":0.09148318150948376,"83":-0.09044757801397502,"84":-0.13183382896805973,"85":0.06777702038633633,"86":0.14628746594805084,"87":0.09576898039248001,"88":-0.06394099567014727,"89":-0.11135552761071023,"90":-0.11134767619866946,"91":0.2730816526317989,"92":-0.09478399860176337,"93":0.1599765253838801,"94":0.2489299407917336,"95":0.11061847221478946,"96":0.2266478596762194,"97":0.0066045334578067275,"98":0.11186156915186395,"99":0.03510105537780816,"100":0.026668785880633553,"101":0.10869328775835198,"102":-0.007974610292808099,"103":0.1196330711293886,"104":-0.07812906367488183,"105":0.05664612208272787,"106":0.032898691454263614,"107":-0.0587733540849278,"108":0.03810862143196104,"109":0.024745866126502706,"110":-0.12113117301989595,"111":0.13011437110590798,"112":-0.19043694511402376,"113":0.08137111662151947,"114":-0.12354338637378892,"115":-0.2039257065804368,"116":-0.13584588529632324,"117":-0.29090301622210585,"118":-0.011495775629257587,"119":0.30971640504711867,"120":0.003339533150638461,"121":0.3014106805921856,"122":0.11685708519052983,"123":-0.38238933217430326,"124":0.4438873378212437,"125":0.008603184955952125,"126":0.017125464188420893,"127":0.18263795119824622,"128":-0.1228146459099848,"129":0.01228375447607991,"130":0.14158155529113092,"131":-0.05774487791466541,"132":0.011104691017030302,"133":0.03390192884003802,"134":0.242337560803189,"135":-0.32408288859688805,"136":0.032371923133126895,"137":-0.4577602720524454,"138":0.18177614969395248,"139":-0.251680682441688,"140":-0.043319989211210726,"141":0.22200672993293774,"142":-0.05654404900316435,"143":0.006106973642749784,"144":-0.18955126471899428,"145":-0.08576812763225981,"146":0.0715771251211759,"147":0.07828343171067578,"148":-0.04618967235453794,"149":-0.1371727140442832,"150":0.052589809421896734,"151":0.28693118806899437,"152":-0.02564267131417184,"153":-0.048710836239866696,"154":0.09030677701357488,"155":0.05543816340687541,"156":-0.15078461720280886,"157":0.008039884350713261,"158":-0.01899273836349322,"159":0.11794610489077788,"160":0.06965188119482692,"161":0.14627014195812083,"162":0.16622500437985432,"163":0.31213871201901966,"164":-0.042951568713089944,"165":-0.03838357091339903,"166":0.19584872028993305,"167":-0.061351881985746266,"168":0.04219403055059656,"169":-0.1748822294000434,"170":0.15131835801703725,"171":0.1828542236385899,"172":-0.13483403625637663,"173":-0.07834596342927462,"174":0.15479956956346244,"175":0.00594563580508794,"176":0.01477606846253992,"177":-0.11080145355217161,"178":0.007509230656097079,"179":0.23752384906542728,"180":-0.1459916075807499,"181":0.03418338772186471,"182":0.15565079494305248,"183":-0.27974647512588197,"184":0.20410606046029495,"185":0.017722305625099678,"186":0.16162875788301562,"187":0.03255251906298295,"188":0.008624972369318442,"189":-0.04996261942503541,"190":-0.05530504558854853,"191":0.05050028719174403,"192":-0.05879724291335887,"193":0.015288926783139629,"194":-0.046312699951362266,"195":-0.06766156037507996,"196":0.0072217619603791045,"197":-0.08669858781419326,"198":0.002365582120913828,"199":0.09802549901848462}},{"sx":5,"sy":5,"depth":8,"w":{"0":-0.01855888589188287,"1":0.08571733863992867,"2":0.005436190627672493,"3":0.09057614127770977,"4":0.0017993506144412203,"5":0.013050163664379364,"6":0.011956141064446308,"7":-0.03823374044064536,"8":0.015316886813811178,"9":-0.0077409775757178115,"10":-0.09510728732335275,"11":0.08017870720381963,"12":0.08003314675474761,"13":-0.010579148227489002,"14":0.07003555864225601,"15":-0.057781989290169464,"16":-0.23509750822388828,"17":-0.06122593032422392,"18":0.11694998404759978,"19":-0.17501420321226913,"20":0.1069792265919089,"21":-0.29789185240506844,"22":0.02633475006184113,"23":0.02518077286780004,"24":0.1772993042206338,"25":0.26192303951225604,"26":0.04365584613084806,"27":-0.19864658378916397,"28":0.5143556503490156,"29":0.19961285752844685,"30":0.32351419265240317,"31":0.16721986133437755,"32":-0.20139435834401773,"33":0.3253422712931765,"34":0.1606648781317096,"35":0.08685016216029533,"36":0.18273934610501769,"37":0.08972508633577818,"38":0.3017167488338313,"39":-0.1379879828459478,"40":-0.09925284949827125,"41":0.00475377708099222,"42":0.11751632862306034,"43":-0.03323583720475341,"44":0.04167230821172899,"45":0.004024795311451908,"46":0.04793633775552422,"47":-0.08274560954285277,"48":-0.0747162127134695,"49":0.03782789435847098,"50":-0.07996031450351183,"51":-0.03300633780119385,"52":-0.032377863761431216,"53":-0.027173261070013742,"54":-0.046633366163060255,"55":0.07482109414654996,"56":0.10830864854600136,"57":-0.11773736055187271,"58":0.15758931476970464,"59":0.14075369992264872,"60":0.008510555990664201,"61":0.2065389778130619,"62":0.23225510828324886,"63":-0.2679882145350538,"64":0.09143509950787305,"65":-0.10674672130540093,"66":0.16880045155827003,"67":0.004008485488386588,"68":-0.17941989691006874,"69":-0.031041693830163548,"70":0.17487617770765085,"71":0.10220658028040785,"72":-0.07482125732641542,"73":0.34542750365674224,"74":0.47668620049709964,"75":0.33060711368870144,"76":0.36291967283139304,"77":0.33796743436843063,"78":0.28298514626001303,"79":0.013433320276434265,"80":-0.06632848742443133,"81":0.05963027145076512,"82":-0.011471857916781092,"83":0.053502264680986504,"84":-0.03433140403705432,"85":-0.062012664321747415,"86":0.05396091264896872,"87":-0.07203771716005776,"88":0.025701271131421233,"89":0.0021043023951214175,"90":-0.012556900996243034,"91":0.00652829054052745,"92":-0.03938011571220675,"93":-0.10136868833787048,"94":0.13390493690257657,"95":0.14411997569546076,"96":-0.029682329409184704,"97":-0.09237388554649431,"98":0.03601330720394884,"99":0.1454305842618266,"100":0.024361815982448666,"101":0.018320515716695483,"102":-0.00699212814238828,"103":-0.03161467706410247,"104":-0.1443364449346269,"105":-0.04809619582052791,"106":0.20841108271804992,"107":0.005120381459507639,"108":0.13092032195224804,"109":-0.01085650816885265,"110":0.1504826089814619,"111":0.09147355624720045,"112":-0.1355620779410838,"113":-0.10317864448015215,"114":0.0032016366298670816,"115":0.32197831514774233,"116":-0.06772678053099619,"117":0.025226653166414675,"118":-0.0221985112766075,"119":-0.01327534895241475,"120":-0.026196890915127634,"121":0.04705951299839745,"122":0.01035844586081577,"123":-0.014633715786985215,"124":0.04789805896038824,"125":0.013889686971451156,"126":-0.05193457498047824,"127":-0.009138466646619664,"128":0.02442422795576845,"129":0.0207701072069524,"130":-0.019079665615284562,"131":0.131536374150951,"132":-0.041972541435434566,"133":-0.037759890956839445,"134":0.08523385094340122,"135":0.1488716655432155,"136":-0.2447475715058183,"137":-0.01654838011635778,"138":0.023712898904370824,"139":-0.13628932623537268,"140":0.20776980538164438,"141":-0.06859533272824397,"142":0.1986370013242887,"143":-0.10167019417890355,"144":-0.12900076788103554,"145":0.033239498874529656,"146":0.17918482252770032,"147":0.021956900095487054,"148":-0.0354810051548002,"149":0.03631779798139923,"150":0.17629457093592563,"151":-0.05190972294363757,"152":0.005572691347655073,"153":-0.0006407869723834696,"154":0.18625284904560943,"155":-0.20128968521246485,"156":0.3452101199365957,"157":0.20255405149663658,"158":0.10354720153238274,"159":0.034804969644178334,"160":0.012642222105736149,"161":-0.07140149256939174,"162":-0.007774842637762889,"163":0.0576993161477284,"164":0.05679803098573694,"165":0.04202065666805217,"166":0.07572059766867303,"167":0.1826967723441116,"168":-0.06521306996430846,"169":0.05691363800019558,"170":-0.049386705895872816,"171":-0.03854220749959065,"172":-0.04236337764198345,"173":-0.10292306194662276,"174":-0.020468917145877827,"175":0.06095086926412596,"176":-0.2305144583457536,"177":0.33651743499658315,"178":-0.008462915009057497,"179":0.26751940068574764,"180":-0.02596993568396831,"181":-0.09166118415473912,"182":0.0808218382112416,"183":0.23178430489256008,"184":-0.06646876071383834,"185":0.2613061008040299,"186":0.1900402088393888,"187":-0.03077480634217769,"188":0.49839600947589446,"189":-0.15944393223675002,"190":0.10104685070735062,"191":0.11824401046711146,"192":-0.025629968706415193,"193":0.10657969133665661,"194":0.3203157079611574,"195":0.08980571560657231,"196":0.09618847954641219,"197":0.19374562384507243,"198":-0.04136731828853844,"199":0.16783943568103168}},{"sx":5,"sy":5,"depth":8,"w":{"0":0.05132300132323613,"1":0.1810959052819256,"2":0.03562619711322112,"3":-0.021075357302297495,"4":-0.08173334047119128,"5":0.171732223474181,"6":0.1363447915612099,"7":-0.05154386335059559,"8":-0.03863029443561983,"9":0.19303634713088688,"10":0.043694303155870196,"11":0.03618422936827581,"12":0.08644896632924472,"13":0.016713879163969533,"14":-0.10311657517528884,"15":0.35800225538466557,"16":0.07330688410157168,"17":-0.18679826796176202,"18":-0.010552058878933627,"19":0.05634951964741504,"20":0.23044060293778287,"21":0.041715438919771544,"22":0.1429117432823593,"23":-0.5736076436008172,"24":0.050054821831231874,"25":0.08202662435192913,"26":0.058905939329253684,"27":-0.14278402325883147,"28":-0.05704132681238771,"29":-0.08103160845543017,"30":0.05600550164157969,"31":-0.06535504373436657,"32":0.024906204927138756,"33":-0.10025449837136108,"34":0.040290498172759336,"35":0.19183015293962863,"36":0.023597744598292406,"37":-0.04728053485271939,"38":-0.013957448573834085,"39":-0.015677467113798388,"40":-0.054017069811168654,"41":-0.1731568774817704,"42":0.01305415047341753,"43":0.08006815751013231,"44":-0.13815936318847935,"45":-0.11071539062101282,"46":0.09085737926419918,"47":-0.2899496430303681,"48":0.0742636193898854,"49":-0.10658112323527472,"50":-0.11819998866182971,"51":0.05970750940633021,"52":-0.21331288287872002,"53":0.10340707530047816,"54":0.10390014058199024,"55":0.28361040337971455,"56":-0.07281741108630795,"57":-0.10953479482234395,"58":-0.06659785899942869,"59":0.23612385072697795,"60":0.011308490316971653,"61":-0.006404401520362739,"62":0.06205888183042934,"63":0.35373127717515074,"64":-0.03169245740744378,"65":-0.0769328364035991,"66":-0.0874908356196671,"67":-0.03964751345570569,"68":0.07060562272829803,"69":-0.06612561733131511,"70":0.024764156198173574,"71":-0.16647297270706848,"72":-0.017513442590386223,"73":0.051343094841810405,"74":-0.05412062867309399,"75":0.012172532926189536,"76":-0.14170784275575923,"77":0.04416196044721539,"78":-0.035516302626196344,"79":-0.10277820041097434,"80":0.041525744707563476,"81":-0.07693248935197998,"82":-0.036506466147708624,"83":-0.1835768465840288,"84":-0.11025752110856958,"85":-0.0953056570007217,"86":-0.12223114258559457,"87":-0.043851752475254815,"88":-0.01872991874419216,"89":-0.17033786402111012,"90":-0.07736199580251779,"91":-0.15621730950586585,"92":-0.08264850857226343,"93":0.0223434653888702,"94":-0.13370826061295596,"95":-0.19803919152634739,"96":0.13323383943326061,"97":0.01729416715053628,"98":0.06308462786220995,"99":-0.18941000454165113,"100":0.09781739314288938,"101":-0.12661728890929988,"102":-0.09452630565813376,"103":-0.29834651619234615,"104":-0.17281611164135302,"105":-0.08488478238092434,"106":-0.04881877704435993,"107":0.04237296144997328,"108":0.030958372159177554,"109":-0.06377557107750448,"110":-0.06702048401184056,"111":0.10118056400154009,"112":-0.06126650216494854,"113":-0.01795270623941317,"114":-0.057012105658004145,"115":0.018063259646049837,"116":-0.02938630053935097,"117":-0.10840216443890882,"118":-0.017182686430128824,"119":-0.0941204480980605,"120":-0.04456807188107075,"121":0.03156746485244132,"122":0.06318141333240475,"123":-0.09892607294157557,"124":0.19449979818894744,"125":-0.04377146119936847,"126":0.11794709371164613,"127":-0.19204156494519958,"128":0.04369969279865838,"129":-0.2838950091217735,"130":-0.018836982224019347,"131":-0.12451399438485719,"132":-0.125678200536727,"133":0.02311005572780183,"134":-0.06828331084232933,"135":-0.10312814537861313,"136":0.06591462187076555,"137":-0.061378005083234946,"138":-0.04971942379203094,"139":0.006467229958489486,"140":0.22935307054263654,"141":0.14742931542480192,"142":0.10012602200703519,"143":0.05004814767278303,"144":-0.06174379764984671,"145":-0.010962707484100645,"146":0.020209495726440898,"147":0.02787790110872081,"148":-0.05789910362099661,"149":0.02336314539347831,"150":0.046327663703140655,"151":0.05315701442957449,"152":-0.017982658216112498,"153":-0.09447485912899646,"154":-0.04847337013466005,"155":0.014936921785523144,"156":0.05440961124264178,"157":0.07848841431584136,"158":-0.03655022968718123,"159":0.007270408056803599,"160":-0.10262117125253833,"161":0.3874483602663061,"162":-0.06543244098424736,"163":0.19375839641269607,"164":0.21441920632763609,"165":-0.1903153807396754,"166":0.033412874547869044,"167":0.0640989369992057,"168":-0.04644922228307517,"169":0.4618266168250264,"170":-0.019374399961031304,"171":-0.05914563735390523,"172":0.38428498405680855,"173":-0.09432486457086099,"174":0.005803019948899491,"175":-0.07263360869826131,"176":-0.0830994594456475,"177":-0.28459492259207014,"178":0.0007936314673064983,"179":-0.02737474648367243,"180":0.07920902235375044,"181":-0.2654373879655033,"182":0.05894015364453708,"183":-0.2023641365069276,"184":0.02785058430657757,"185":-0.1640406013995416,"186":-0.048991861564210086,"187":0.00161231472928897,"188":-0.025332992916012827,"189":-0.03201371907077255,"190":-0.14067011933580897,"191":0.020544184240790984,"192":-0.050103455730844744,"193":0.11002496014902524,"194":0.016939988657019664,"195":0.050160915679601896,"196":-0.00020037060463144965,"197":0.13843379340365475,"198":0.02634597971975627,"199":-0.12831380486795632}},{"sx":5,"sy":5,"depth":8,"w":{"0":-0.26561349489075603,"1":0.021069784071165436,"2":-0.3489583812001887,"3":0.2725756592519071,"4":-0.1228509322753129,"5":-0.3549011561854183,"6":-0.12586581728672797,"7":-0.14289845088581352,"8":-0.09124174488103727,"9":-0.13224555635737223,"10":-0.4223028321028399,"11":-0.1250780884409447,"12":0.13682361983678631,"13":-0.124003134113756,"14":-0.43719977376465735,"15":0.06759592335746302,"16":-0.020619214251736125,"17":-0.01704326719153141,"18":-0.332220953180874,"19":0.1866804751096831,"20":-0.02241879049743138,"21":0.013079948366496135,"22":-0.14427190107948076,"23":-0.012867744705379727,"24":0.11822887256630286,"25":-0.021251065157843203,"26":-0.24098247821329138,"27":-0.0867569386563728,"28":0.018463790468355723,"29":0.103793811655132,"30":0.04886146452506379,"31":-0.49747981958307846,"32":0.03370508336373396,"33":0.03443392676693244,"34":-0.025886948276517382,"35":0.1054647913707605,"36":-0.0262280070981857,"37":0.01763998670403554,"38":-0.03003207645580421,"39":-0.14435756334532604,"40":-0.18404601369188178,"41":0.04055819433646718,"42":-0.2049278325722895,"43":-0.15004335686945858,"44":-0.10131778848132483,"45":-0.11467435804743147,"46":-0.1964641768704336,"47":-0.029585383285026846,"48":0.1778361310122124,"49":-0.24858368876201353,"50":-0.10853854948075131,"51":0.009195411871259744,"52":-0.04736866553447926,"53":0.11669722348781585,"54":-0.10509993686039316,"55":0.2706423334282844,"56":0.23785128009160822,"57":-0.019433889864993625,"58":0.014341296095181366,"59":0.3938034527521883,"60":0.15585791965915313,"61":0.2774122796795737,"62":-0.054761384763498816,"63":-0.07929859682387705,"64":0.043868975056640065,"65":0.18939352984732252,"66":0.018863597169410416,"67":0.054677323477589156,"68":-0.005578452914377616,"69":0.13141977747609687,"70":-0.09682700657830445,"71":0.05652339707148355,"72":0.023415738267238896,"73":0.19495523364957615,"74":-0.03746922177486949,"75":-0.03051553509460681,"76":0.2596479921467665,"77":0.19185855987253414,"78":-0.07662286390508476,"79":-0.15174447500003233,"80":-0.18935418547373703,"81":-0.00005121285001055448,"82":-0.32131602646428453,"83":-0.2881170149813425,"84":0.14339188677153433,"85":-0.20561799875901737,"86":-0.2989800602126414,"87":0.18388872576845514,"88":0.2242067430424244,"89":0.22111340744079902,"90":-0.09276531032129044,"91":0.1253820176673469,"92":0.1642105713365883,"93":0.056706369583219875,"94":0.11415019671225106,"95":0.01671146184718433,"96":0.15605323093627063,"97":0.3013931677123162,"98":-0.14634614836270313,"99":0.19616853572121,"100":0.2600078984096597,"101":0.10545292457590655,"102":-0.24978559981555667,"103":0.012625581113171046,"104":-0.13324026948595794,"105":-0.21627080554905126,"106":-0.10048198362574329,"107":0.03314542257560275,"108":-0.1571961802335158,"109":0.07865759347278789,"110":-0.07158253744188818,"111":-0.12991447051065805,"112":0.003993406369133667,"113":-0.18045870162930008,"114":-0.026522520990640064,"115":0.09038470340477725,"116":-0.26243179867530697,"117":0.049616512661994794,"118":-0.1548385180823713,"119":0.1280522481405809,"120":0.13221441192563957,"121":-0.1939831281896214,"122":0.047407373212730176,"123":0.2551946546483304,"124":-0.020281568286101014,"125":0.30404619903025715,"126":-0.05227360703690906,"127":0.05974686747655747,"128":-0.04880237180110646,"129":-0.01837913340010394,"130":-0.13141504210838176,"131":0.002370464281103795,"132":-0.2816276868342105,"133":-0.0629368353081044,"134":-0.23777207430921357,"135":0.036052794504900953,"136":0.043495221833301,"137":0.4296272421294895,"138":-0.05337875025036891,"139":0.12959239930517083,"140":0.3234121223846441,"141":0.2702236558768809,"142":-0.07006792923721812,"143":0.14251132908807787,"144":-0.24367007419741396,"145":0.04252806637329186,"146":-0.30389073683204476,"147":0.2304329596162569,"148":-0.08820164589652699,"149":-0.3380827501041282,"150":-0.03081060367432288,"151":-0.009314554355111445,"152":-0.3063345140835625,"153":-0.12930374918034182,"154":-0.16907246339392376,"155":0.09414445416693852,"156":-0.25184754092623524,"157":-0.3028398440978174,"158":-0.18558908555269713,"159":-0.057024751713434664,"160":0.1876291655460358,"161":-0.08539360047528625,"162":-0.07191145773430238,"163":0.303778157885182,"164":-0.09275391326275893,"165":0.16085570501561763,"166":-0.017446684981638032,"167":0.018808608190535103,"168":0.0546819223610292,"169":0.029986558060879492,"170":0.050066045781358245,"171":0.30979786344099475,"172":0.061442258549961846,"173":0.22190045754675686,"174":-0.07348506213858906,"175":-0.2344023162606237,"176":-0.08608389665798982,"177":-0.01882612030901539,"178":-0.1361130625113801,"179":0.42692825891941505,"180":-0.2696936988327196,"181":0.20582618183230908,"182":-0.16389591579970397,"183":-0.20904236303698695,"184":-0.16333507411192405,"185":0.19914880840733604,"186":-0.14200864660145804,"187":0.09298120396445297,"188":0.23223819263871728,"189":-0.007291511088794343,"190":-0.09533727359774286,"191":0.2634782876799207,"192":0.020794273951891273,"193":-0.03037724650958468,"194":-0.2460819605597461,"195":0.2046111157769988,"196":0.17754845820764584,"197":0.18273620257183362,"198":-0.010448024970225619,"199":-0.14948551234875568}},{"sx":5,"sy":5,"depth":8,"w":{"0":0.015018823399874022,"1":0.0594166503815683,"2":0.039630567002115494,"3":-0.11114062702811366,"4":-0.009833204816968932,"5":-0.1722691943369686,"6":0.07890641670632856,"7":-0.25133829805926655,"8":0.21141465075667665,"9":0.06696087947557698,"10":0.19982965368516337,"11":0.058041526967792675,"12":0.12877857176934884,"13":0.05659767625734491,"14":0.18372532227037522,"15":-0.00004916356305808074,"16":-0.01913230685432281,"17":-0.07796985962695227,"18":0.11576503046354329,"19":-0.19627905663004508,"20":0.08391037545647792,"21":-0.08114646416711338,"22":0.1615052750414528,"23":-0.2207098675405677,"24":0.021184776245175507,"25":0.018660862350034377,"26":0.08015878979586373,"27":-0.10715906883411551,"28":-0.015497779068131044,"29":-0.03940654637675224,"30":-0.11193620283921756,"31":0.005497531280741842,"32":-0.10072013367522692,"33":-0.019864187491950003,"34":-0.03521634805290208,"35":0.0629277216502291,"36":-0.022212067491252895,"37":-0.052386905453564774,"38":-0.021554580807999976,"39":0.014573690344042066,"40":-0.07141968356999397,"41":0.2603756103682827,"42":0.23304781576037076,"43":-0.15674681590315084,"44":0.05085568161536841,"45":-0.07274463205983306,"46":0.25366536040799337,"47":0.19027612592802798,"48":-0.08661052573189246,"49":-0.2557724971416755,"50":0.25063427372644126,"51":-0.2738077682262153,"52":-0.1547322114245285,"53":-0.1553831878354494,"54":0.19433188408493923,"55":-0.15092560617147036,"56":0.060831202674784375,"57":-0.18938944497981774,"58":0.34749890444164083,"59":0.000071044277507858,"60":0.05257769024228347,"61":-0.0032528577418281554,"62":0.2817274887141944,"63":0.04391150325616095,"64":0.07407686240688789,"65":0.006566260119140043,"66":0.010535162582214918,"67":0.03271930992961179,"68":-0.058151016174047464,"69":-0.10729885747528538,"70":-0.13744675156811698,"71":-0.06285773987471782,"72":0.04366388828925943,"73":0.06222882129620858,"74":0.015326306088503432,"75":0.08348183757553698,"76":-0.018516528159256487,"77":-0.01138121499886105,"78":0.10074855446962032,"79":-0.09033574956375535,"80":-0.046631182564819094,"81":0.27964317319162496,"82":0.13218161811364512,"83":-0.040933507314236846,"84":-0.11567703502437232,"85":-0.32581652886990486,"86":0.0454567365375962,"87":0.023518670798067614,"88":0.06871429646329594,"89":0.130104622064206,"90":0.23354825069359955,"91":-0.06222794593165467,"92":0.19295957625288987,"93":-0.04431339526191131,"94":0.14044897608186685,"95":-0.03981095783051326,"96":-0.03212378882710448,"97":-0.18551044080980159,"98":0.17989780364052868,"99":-0.19341443995540375,"100":-0.23865701845766826,"101":-0.22460187344539276,"102":0.17974833094174533,"103":-0.13889952389749113,"104":-0.010225669393231232,"105":-0.098784110612087,"106":0.03586607586405094,"107":-0.045601518482496606,"108":0.014475954497918234,"109":-0.029852580604691415,"110":0.0767534144549994,"111":-0.01869086882604374,"112":-0.0044755935568883244,"113":-0.012015113856108922,"114":0.03688827276899581,"115":-0.019927592604953255,"116":0.05451873018824509,"117":0.04464630589480556,"118":-0.00010065387693805357,"119":0.060964032875517674,"120":-0.0895646741786489,"121":0.2850969811897248,"122":0.03503882287717087,"123":0.29106768719105325,"124":0.2387488422134074,"125":-0.032858245927397105,"126":0.23745168982899315,"127":0.06785852767548654,"128":-0.09698836233507903,"129":-0.19424837936307993,"130":0.2716740018897613,"131":-0.22282632033659777,"132":0.056585099567282644,"133":-0.14190052497307432,"134":-0.023241768992689982,"135":-0.042195960720670556,"136":-0.10669516772303471,"137":0.011819900574771563,"138":0.06374756114247929,"139":-0.03461377355092293,"140":0.06391570513401305,"141":0.06259561071467841,"142":0.28544859910191084,"143":-0.18115670751842888,"144":0.014639281390208227,"145":-0.064698336212796,"146":-0.06583977317961753,"147":-0.003526678601211876,"148":0.09605172488989697,"149":-0.04277170195984611,"150":0.055955666642352284,"151":-0.060208040846064764,"152":0.08052024616804973,"153":0.07341980108154733,"154":-0.044453854128258675,"155":-0.010705654050686563,"156":-0.05006533236003631,"157":0.01716566062143943,"158":0.07702758206395856,"159":-0.05798356141349877,"160":0.08688404226046732,"161":0.11502368709372626,"162":0.33719821671670047,"163":0.3030604675053638,"164":0.12370613800143458,"165":0.1534746578548207,"166":0.5115994450472331,"167":-0.20243428601675623,"168":0.18587235084734433,"169":-0.002762396345904638,"170":0.43650601748775947,"171":0.09512513251816286,"172":0.25402586470078586,"173":0.08498351250669636,"174":0.18740996349280434,"175":-0.08854914778669098,"176":0.11203560022625245,"177":-0.0041008960455322,"178":0.4123898202931242,"179":-0.023941138594513914,"180":0.17746923577662804,"181":0.13938533417524504,"182":0.19222914232549468,"183":-0.08899922592312559,"184":-0.07498221180660827,"185":-0.07338254520796857,"186":-0.06102345552905551,"187":-0.023054585936653448,"188":-0.03235007185056908,"189":-0.028287748565742142,"190":0.037393739639125116,"191":-0.07757957573299357,"192":-0.002925821072711208,"193":0.02342026213281811,"194":0.05654097485154438,"195":-0.017985678206373406,"196":-0.036039309681191324,"197":-0.09918904812850692,"198":-0.067615139793597,"199":-0.08449608320623839}},{"sx":5,"sy":5,"depth":8,"w":{"0":-0.020315196293396513,"1":0.10848903538737392,"2":0.0753096491670243,"3":0.4136732775059988,"4":-0.06115228298204278,"5":0.0796579472872986,"6":0.13193720449262686,"7":0.19067175850565887,"8":-0.22865574496194283,"9":0.07857381681614423,"10":0.10518846497362205,"11":0.11001490605961588,"12":0.24160119964725726,"13":-0.12768237405987662,"14":0.02883988000773841,"15":0.020296354748219534,"16":0.13862691278791178,"17":-0.16430497272266087,"18":0.0015942532529024315,"19":0.2002417533011393,"20":0.02749322625977018,"21":0.1498497687345911,"22":-0.13542310054424267,"23":-0.14629486674831682,"24":-0.02221601338170178,"25":-0.08535772758503743,"26":-0.03300647851576031,"27":0.07019161021742332,"28":-0.04726678151597535,"29":0.12889802668689668,"30":-0.1401017197753363,"31":-0.0859279344719685,"32":-0.16719578882212177,"33":-0.08290872416926871,"34":-0.056138949095778067,"35":-0.03169346241880712,"36":0.007172000384231626,"37":-0.18140823022995842,"38":-0.07058416231902957,"39":0.027772987510558865,"40":-0.010046088237978184,"41":-0.23101232123327645,"42":-0.002596341158306612,"43":0.16738907714468423,"44":-0.14302068990586442,"45":0.16338484585137034,"46":0.21764014133027743,"47":0.14588073678876468,"48":-0.0012067241918382132,"49":-0.17681545771082768,"50":0.07418316090815301,"51":0.07473287956386204,"52":-0.10610121942624354,"53":-0.0023519800784101963,"54":0.02499845788085093,"55":-0.14429157963574368,"56":-0.05536101350799807,"57":-0.21710637423559243,"58":0.028087256499172885,"59":-0.24417511198702999,"60":0.10182416360542271,"61":0.0747668401329998,"62":0.16719342795373274,"63":-0.3266939852150401,"64":0.08138348274244793,"65":-0.035151995020434715,"66":-0.004610370871620252,"67":0.049784982076281174,"68":0.016986935324813785,"69":-0.06266443313543717,"70":-0.025958097415877304,"71":0.040897203218423654,"72":-0.1915118576075136,"73":0.09622209279908052,"74":-0.08429713722725089,"75":0.11722626306081736,"76":0.054064846593821665,"77":0.04962183077027366,"78":-0.13001531358863405,"79":0.03216443237441417,"80":-0.052109897044843284,"81":-0.000056357703868490066,"82":-0.1027466181749766,"83":-0.14249050249736117,"84":0.0210678209129576,"85":0.05301250719007316,"86":0.21547008263226772,"87":-0.1777851300841635,"88":-0.04207605981647147,"89":0.08505105850777606,"90":0.09378771483518228,"91":0.04910226372498847,"92":0.08180151274561501,"93":-0.005605225114512515,"94":0.20807955827349786,"95":0.1584296712574685,"96":0.027090787808193593,"97":-0.022935619268880273,"98":0.0612111712554784,"99":-0.27282363815798055,"100":-0.08555141791513188,"101":-0.15184092506919847,"102":-0.059008776570652476,"103":-0.09660482565742713,"104":-0.12722823017044418,"105":0.07277367750461443,"106":0.006938899384287979,"107":-0.4107354595671278,"108":-0.1383739321028714,"109":-0.22947257812268698,"110":-0.06360675372224651,"111":-0.0320484256511066,"112":0.059937041892609386,"113":0.016883425174078627,"114":0.06782290141808411,"115":-0.03804124669234711,"116":-0.02142614462342809,"117":-0.09403725127296815,"118":0.15193541461469412,"119":0.2225733571159346,"120":-0.18554970060155948,"121":0.2177386028676298,"122":-0.08168624624874851,"123":0.07337718154753728,"124":0.13474270946978428,"125":-0.0794068661978305,"126":-0.11561257406301947,"127":0.06081638480528617,"128":-0.08578326327116695,"129":0.23048087174535406,"130":0.043243096341555355,"131":-0.014527320819107431,"132":0.262310387590156,"133":0.020452608899355167,"134":0.11431999194350853,"135":-0.2599392542463642,"136":-0.07716779216716262,"137":0.29460779677340126,"138":-0.06715196324509728,"139":0.11425111679776177,"140":-0.010016441035875435,"141":0.023563020012405025,"142":0.013005591423772124,"143":-0.15134039609947,"144":-0.041464445040896525,"145":-0.007061154970385264,"146":0.04601728100239171,"147":0.2511001949086362,"148":-0.12445102023775391,"149":-0.11498111431150278,"150":0.09484409408274376,"151":0.15755030231943204,"152":0.1607859994335239,"153":-0.1426942011390625,"154":0.01594059406296916,"155":0.029128884770797406,"156":-0.27311022411747254,"157":0.17898501173187492,"158":0.19129127075572283,"159":0.06828061711902257,"160":0.007152859700819085,"161":-0.3353811109858551,"162":-0.07433547343101,"163":0.46592019623565684,"164":0.0227063470079479,"165":0.09010478524829033,"166":0.09167476272999378,"167":-0.8213460173059903,"168":0.19384330963810342,"169":0.005527536105472179,"170":0.04505413706097219,"171":0.36740874678975316,"172":-0.13433459451529295,"173":0.14099944966035163,"174":0.020206311804626603,"175":-0.28857468878764947,"176":0.04950627886944165,"177":-0.03375098192122298,"178":-0.039329796529438216,"179":0.14788860745061663,"180":-0.15446313086263083,"181":0.14354353770857872,"182":0.06714202168928614,"183":0.23787851979277988,"184":0.07255991749145757,"185":-0.18129258222241204,"186":0.12128831171161844,"187":-0.1440028769422887,"188":-0.06804268131630334,"189":-0.11672902015914732,"190":0.17349592173597445,"191":-0.09189730423214142,"192":-0.05531331875214898,"193":0.05016258665572684,"194":-0.0010724822951483923,"195":-0.13440213243381943,"196":-0.05299296887850428,"197":-0.11324430571243976,"198":0.18336329204389162,"199":-0.0066947363165325855}},{"sx":5,"sy":5,"depth":8,"w":{"0":0.004584493766757229,"1":-0.08202098020872599,"2":0.2901253353640849,"3":-0.27345706794332336,"4":0.0035273880296008064,"5":-0.12717611521371278,"6":0.1011750106147164,"7":-0.15020984876985716,"8":0.026355228447523697,"9":-0.006287726029728326,"10":0.15490193139252817,"11":-0.2517729527634796,"12":-0.13613670865293717,"13":-0.11328785045030647,"14":0.11217484213569733,"15":0.21697916773667406,"16":-0.014765545819972073,"17":0.08404912512351241,"18":0.2729511765666951,"19":-0.11488661303684942,"20":-0.09593892505290899,"21":-0.03404087605236658,"22":0.2571762387850038,"23":0.14268512204102407,"24":0.04330206287421926,"25":0.07021289393489816,"26":-0.01855233170440028,"27":-0.10698638285862641,"28":-0.019193958980836374,"29":-0.04804944186005356,"30":0.1598714657366162,"31":-0.11314214164669895,"32":-0.04959149646650378,"33":-0.08943283907708749,"34":-0.06461240533151243,"35":0.08013727361421419,"36":-0.1564841745968582,"37":0.009865139124261138,"38":-0.1236498426055426,"39":-0.025517447008027373,"40":0.10210318055321292,"41":-0.12951288145303283,"42":0.11786118746383563,"43":-0.39952977800354605,"44":-0.14991497802298337,"45":0.044829550794560684,"46":0.4597194268817808,"47":-0.22379843653403841,"48":0.17867910797698092,"49":0.033134434232773284,"50":0.34946515434321584,"51":-0.004045326769029472,"52":0.0016611726965901838,"53":0.08164275568494847,"54":0.46030388285146373,"55":0.05531147756803783,"56":-0.08712404059336772,"57":-0.13155627117311822,"58":0.4162852212767129,"59":0.35240392888189576,"60":0.142372763052452,"61":-0.022063761298507463,"62":0.4305396430513673,"63":0.06750709311117269,"64":-0.06307155493945082,"65":-0.11353061386543668,"66":-0.06464391830383931,"67":0.04247812051229811,"68":-0.03639842388085896,"69":-0.09259307519246451,"70":0.03836531296792759,"71":-0.01925526425107634,"72":-0.13195925476612588,"73":-0.028256720306907665,"74":-0.10891156796560711,"75":-0.009510557692749924,"76":0.019081467852237233,"77":-0.014763633725198807,"78":0.1202937052110711,"79":-0.12521854307603875,"80":-0.0748226553929422,"81":-0.07785389113650068,"82":0.2628279152884048,"83":0.0037129081986025485,"84":0.04209908130159734,"85":-0.018495666030522665,"86":0.36742489188830524,"87":-0.013112860265003086,"88":0.07514253046556076,"89":-0.24339889400100162,"90":0.13378779156431173,"91":-0.2247100006012856,"92":-0.1079110512145033,"93":-0.09639551776114323,"94":0.26723170006072505,"95":0.034698949047385144,"96":0.0337993906103027,"97":0.022898509645404973,"98":0.1080271237226864,"99":-0.02126761773274079,"100":0.07126485629377334,"101":-0.054999444992687184,"102":0.24852470377407235,"103":-0.09210458878910877,"104":-0.09578357864204912,"105":-0.024444895028716815,"106":0.03227405329783876,"107":0.039758670585813914,"108":0.02737149607323144,"109":-0.12254932077595732,"110":-0.0822732430265652,"111":-0.046459710726410995,"112":-0.1852892099316714,"113":0.02929912943740197,"114":-0.08971810935486504,"115":-0.036649601383629264,"116":-0.09322693350549725,"117":0.04183477251688367,"118":-0.08065721375705685,"119":-0.04393357374612977,"120":0.002561346628883003,"121":0.03829787137705162,"122":0.4348628074350165,"123":-0.08872070116205087,"124":0.21511532429471023,"125":-0.03503841986314101,"126":0.20339260460460798,"127":-0.07000051037235852,"128":-0.13823405195859564,"129":-0.17917162335843645,"130":0.33439192713895416,"131":-0.126495011037817,"132":0.13189641471761443,"133":-0.008851939554948908,"134":0.29973858561228456,"135":-0.16286888181092304,"136":-0.07745492978642464,"137":-0.3251167763511781,"138":0.2846384321010878,"139":-0.07144139177118992,"140":-0.06881925105205294,"141":-0.08866424090038402,"142":0.3161863015322124,"143":-0.01958678917349557,"144":-0.0929108514770614,"145":0.062524212892364,"146":-0.11084476374023063,"147":0.008559526075745765,"148":-0.00997492397806739,"149":-0.12182950402840233,"150":-0.041250031059072406,"151":-0.06933755758380862,"152":-0.12383504539970132,"153":-0.0222588121854823,"154":-0.11103211466752011,"155":0.04902042628735887,"156":0.007562643674521531,"157":-0.0054655397935572305,"158":-0.024477002426099494,"159":0.11905991409120695,"160":0.09714888389325593,"161":0.05603515552691857,"162":0.379802689755889,"163":0.0884277936975184,"164":0.12316454301377326,"165":-0.14286358630622628,"166":0.3912163591692736,"167":-0.033799985078148166,"168":-0.0549694628572881,"169":0.14219359223565126,"170":0.30127596675315393,"171":-0.1116065967835741,"172":0.19018786953903224,"173":-0.07596498544717065,"174":0.15349089872765095,"175":-0.18217269795922758,"176":0.0678531888687547,"177":0.058765853769142354,"178":0.3312314548838054,"179":-0.24769442944750722,"180":0.21927504239116644,"181":0.014805358424383464,"182":0.30474314326251456,"183":-0.11632783501584404,"184":-0.030217548521384287,"185":-0.06754441713706835,"186":0.09827188302400701,"187":-0.03031896147677908,"188":-0.1312336108686378,"189":-0.08696029014016975,"190":-0.05905938205930447,"191":0.043943652127752496,"192":-0.09060755733160611,"193":-0.0875752253280077,"194":-0.039316523576875866,"195":0.010790049982072515,"196":-0.059839091705996994,"197":0.016916940510586363,"198":0.10818501759018373,"199":-0.23367676457030476}},{"sx":5,"sy":5,"depth":8,"w":{"0":-0.017501907793960585,"1":-0.16349094927663801,"2":0.06835703634417654,"3":-0.4844872470922582,"4":-0.0854129613286487,"5":-0.030024616510862433,"6":0.40489417264114913,"7":0.09716902923497081,"8":-0.1354665221764581,"9":-0.0018010527612630821,"10":0.17699326028886356,"11":-0.4654547635976419,"12":-0.15994694163993003,"13":-0.3016745994520934,"14":0.1772619707397821,"15":0.3294718865296214,"16":0.08226479820926041,"17":-0.0485158532162431,"18":0.20035884263220385,"19":-0.4210323961398266,"20":0.032107834843885345,"21":0.024688342292457414,"22":0.30177067258224904,"23":0.1117484255588959,"24":-0.018629122338746598,"25":-0.13776447019314486,"26":0.026901461107948995,"27":-0.027935470616551255,"28":-0.07122194345671091,"29":0.03021076936910004,"30":-0.009179605027864624,"31":0.08333555342461448,"32":-0.0397199210786077,"33":-0.09030460575922969,"34":-0.04134176544753804,"35":0.10817280224348516,"36":0.13487142833734644,"37":-0.14624558798070764,"38":0.01735516845195552,"39":-0.041443103398051344,"40":0.2923265259074729,"41":0.28834586032812715,"42":0.556940570738256,"43":0.008149573766603488,"44":0.5507205870084909,"45":0.10869193309526932,"46":0.3843886342845841,"47":-0.07587526763593361,"48":0.1501645229737994,"49":-0.23538202108472978,"50":0.40402561726181174,"51":-0.015962172205680216,"52":0.034433446083179754,"53":0.1887115965775534,"54":0.3936714645932621,"55":-0.18274565699002698,"56":0.02397257748327755,"57":-0.2848904300110863,"58":0.3838086020100171,"59":0.3071018771396534,"60":0.14851685094262898,"61":-0.03350704238063585,"62":0.5992210920944595,"63":-0.034308555668353766,"64":-0.08736306879702252,"65":-0.03417404064800803,"66":-0.08688242019189531,"67":-0.052227316616034004,"68":-0.021542137824979365,"69":-0.007474698618661921,"70":-0.15417570600413846,"71":-0.07894291864452535,"72":-0.10459619482867312,"73":0.009794883083658392,"74":0.008832280431720034,"75":-0.0037606098973433895,"76":0.0258625486621521,"77":-0.054608444365558784,"78":-0.031791769042987195,"79":-0.10331601353763115,"80":-0.19918783146004007,"81":-0.122367605466076,"82":0.15563841084307065,"83":-0.1249490076894032,"84":0.053128740661475604,"85":-0.21187343650594792,"86":0.20476321678763387,"87":-0.11544084811132538,"88":0.022467566435934616,"89":-0.08389070500070081,"90":0.08041551618937152,"91":-0.19509378212718836,"92":-0.11311197902421799,"93":-0.03573469450390431,"94":0.17275240137498707,"95":-0.1356210621938075,"96":-0.08101942623783889,"97":0.0773003191552442,"98":0.22759280552752553,"99":0.1619684242777407,"100":0.18141041287995366,"101":-0.1754723184428304,"102":0.20572663916963854,"103":-0.1927937136039925,"104":-0.036670525892905134,"105":0.08905397913734212,"106":-0.07156886126458582,"107":0.006897265616924339,"108":0.030251842996726706,"109":0.015863271330930843,"110":-0.044248751095194716,"111":-0.062175301664954455,"112":-0.000551429133140522,"113":0.01044115252096001,"114":-0.13045488797753677,"115":-0.16975713869413717,"116":-0.08369210660716724,"117":-0.04575784744600591,"118":0.09314460735168154,"119":-0.021090832245191003,"120":-0.2918884085915946,"121":0.20745430078399954,"122":0.359936677994844,"123":0.036905723444251234,"124":0.1131356397455099,"125":-0.2534922752743784,"126":0.3278724196123083,"127":0.059566481242249406,"128":-0.2278818645965336,"129":-0.30554516617435296,"130":0.29339988282086105,"131":-0.2766638091816273,"132":-0.003787010973853368,"133":-0.08355387996061205,"134":0.27591434604837,"135":-0.019214489479245977,"136":-0.029664539180957128,"137":-0.18038756319664623,"138":0.3095246350605117,"139":-0.0953700907128436,"140":-0.033418314699229464,"141":-0.19917677776264478,"142":0.32326900951275045,"143":0.09882856948616266,"144":0.04053448751133548,"145":-0.12660050424555178,"146":0.11495709898916592,"147":-0.09723904910195194,"148":0.035381264269251304,"149":-0.037997176975195085,"150":-0.047069013432687816,"151":-0.00687548851507248,"152":-0.06561861736216136,"153":-0.12921321017883922,"154":-0.14143264981127446,"155":0.044170737730334995,"156":-0.013008447483404732,"157":0.07653276376299348,"158":0.04524711894151537,"159":0.006715828893361735,"160":0.21664525200692528,"161":0.22210671070701962,"162":0.4466552367822303,"163":0.13112910968070388,"164":0.25406510236204227,"165":0.14955603603392897,"166":0.35859184529046345,"167":0.25481903174148923,"168":-0.03597801455954211,"169":-0.029304246508644285,"170":0.4175610250077001,"171":-0.19575439075441894,"172":0.22814860843864482,"173":0.04185564421753028,"174":0.26816889267605665,"175":-0.12867725997725013,"176":0.08849489544236044,"177":-0.19973782700702955,"178":0.2902058850241565,"179":-0.3041453034802562,"180":0.090164719803404,"181":-0.018824021027010543,"182":0.15678573616403083,"183":-0.052658095479452986,"184":0.08677514350498126,"185":0.0624482819336106,"186":-0.03675974918153999,"187":-0.08060138431356022,"188":-0.02199210344554865,"189":-0.08928804413514706,"190":-0.03627807386602093,"191":0.07305601838372595,"192":0.020158385154576245,"193":0.05302076091606861,"194":0.02290758459334756,"195":-0.06139154618000062,"196":-0.06172116501480472,"197":0.01057423388959746,"198":0.009803405135567007,"199":-0.06408907108384285}},{"sx":5,"sy":5,"depth":8,"w":{"0":-0.3715716493479509,"1":0.2572705824875685,"2":-0.08531618528074293,"3":0.02971131942709272,"4":0.059763115351576794,"5":-0.41278452286134193,"6":0.02157781407605609,"7":0.24980450629297543,"8":0.08861420246304219,"9":-0.11709722985308085,"10":-0.007973540560894797,"11":-0.14186023534948308,"12":0.08016829979284772,"13":-0.07414572864128734,"14":0.062492616038071304,"15":-0.20938099870844376,"16":0.17044792637900094,"17":-0.31753619908266323,"18":-0.015488503799762566,"19":-0.037825985100792055,"20":-0.19973747669344843,"21":0.15380940375520472,"22":-0.01182199284893591,"23":-0.6335299053440862,"24":0.18174140060646415,"25":0.23452527818125898,"26":0.132031018013618,"27":0.24114015193894342,"28":0.14514651516240393,"29":0.1006825820210636,"30":0.15060645210162035,"31":0.0027825577979742958,"32":-0.13429276644618346,"33":0.013222614314508288,"34":-0.01657687351647475,"35":0.11244819712086257,"36":-0.23697961213784763,"37":-0.17523323856023104,"38":-0.11927522056404542,"39":-0.034784468624776604,"40":-0.28800411135938947,"41":0.26405042698448017,"42":0.037240501318836744,"43":-0.1480075346007851,"44":0.06973719633231183,"45":-0.1822844121865064,"46":0.2796277298902047,"47":-0.0625169587804183,"48":-0.017468664134741557,"49":0.308754805945431,"50":0.13822178202180824,"51":0.22348288464100544,"52":0.1535668765708495,"53":-0.07629357074511761,"54":0.2621920257645779,"55":0.09794375516222664,"56":0.24832201347545324,"57":0.507766119493054,"58":-0.16743896460367488,"59":0.11451390028399724,"60":0.18626025760346937,"61":0.17380036911138858,"62":0.09471476946364106,"63":-0.1736185258625138,"64":0.09221926155925232,"65":0.18943466082686108,"66":0.06560459835913736,"67":0.26370907360491685,"68":0.20041362504354246,"69":0.02560443006985984,"70":0.029995318052235657,"71":-0.4506503545628971,"72":-0.03868983120842465,"73":0.13963880585849736,"74":0.02738917241158793,"75":0.1070253580949848,"76":-0.11957292504582476,"77":0.14249483783694222,"78":-0.05781772108326311,"79":-0.259495829370992,"80":0.05071050387714711,"81":0.3433566036401757,"82":0.14956809442463948,"83":-0.260366225727009,"84":0.28502358981409365,"85":-0.01963171140214629,"86":0.08730759767902412,"87":0.11949024842106719,"88":0.03549808604343166,"89":0.2155832100633841,"90":0.23375978262867805,"91":-0.2627766344948874,"92":0.5425861129829729,"93":-0.016007190700268018,"94":0.07059306631789404,"95":0.17631077692677347,"96":0.29430517027686637,"97":-0.1820158465811053,"98":-0.1348065353892623,"99":0.35213443449455184,"100":0.14685933238799714,"101":0.3102335098138855,"102":0.08686841337181492,"103":-0.11972246812662257,"104":0.12934173464430432,"105":-0.27357560725624086,"106":0.03906201647823227,"107":0.29302057940337645,"108":-0.21395414352322573,"109":0.43605651834226816,"110":0.11562013938887451,"111":-0.20457143416590837,"112":0.11105136207014234,"113":-0.3493268610277279,"114":-0.024844589576398533,"115":0.1779291872098224,"116":-0.4486081825650637,"117":0.10202110326148589,"118":0.03212724762659847,"119":-0.13355685016614469,"120":-0.22611758335326687,"121":0.2394020729376213,"122":-0.11927211280287901,"123":-0.5980329696360854,"124":-0.0037674755860905348,"125":-0.24799222575204297,"126":-0.3329058918236338,"127":0.26810760327658245,"128":-0.07292572030468913,"129":-0.023045474358785883,"130":-0.04080818444648129,"131":-0.10463359281561392,"132":-0.18452338337020296,"133":-0.10682285729343884,"134":-0.12713964249666593,"135":0.3604986586846513,"136":-0.2722255289519774,"137":-0.13171411272789327,"138":0.08791368165839879,"139":-0.1959275632717481,"140":-0.2267949807938793,"141":-0.1736741295703486,"142":-0.025557392368500922,"143":0.1286335119465564,"144":0.04071360266808502,"145":-0.6082028860301862,"146":0.12068086092588295,"147":-0.12278394591208586,"148":-0.14200913498977683,"149":0.1481590891220298,"150":0.14986871327166518,"151":-0.06825651839816452,"152":-0.007393846424694918,"153":-0.11380144802958636,"154":0.32699187597965107,"155":-0.0761091399914962,"156":-0.13610001239637612,"157":0.0343900170577884,"158":-0.06871777949904222,"159":-0.4474503155497408,"160":-0.9756092305516079,"161":0.031965114140137835,"162":-0.22392637145126568,"163":-0.5382953649641441,"164":-0.14035954610761558,"165":-0.9834118714387061,"166":-0.31625101950542683,"167":0.07716476033841743,"168":-0.08003864482589176,"169":-0.06434755194446028,"170":0.09487884320855426,"171":-0.18234987077509873,"172":0.03270938027997072,"173":-0.3297262048240162,"174":0.14477721913462036,"175":0.25776761116555147,"176":0.14081929685640202,"177":0.2589829628980733,"178":0.24728089292625324,"179":0.21771712821327635,"180":0.09234762307756107,"181":0.1480432201222788,"182":0.26455229096209043,"183":-0.2696177937447031,"184":0.137037342719076,"185":-0.19969695418206218,"186":0.3297911346189677,"187":-0.1999485040394764,"188":0.09962014086403653,"189":0.011282992318559866,"190":-0.006871682172565183,"191":0.08135733488015379,"192":-0.1307179462166777,"193":-0.317602872742511,"194":0.20182716938048684,"195":-0.3263445809787265,"196":-0.06108449923577933,"197":-0.04216390287231548,"198":0.14633575668952464,"199":0.08857669365286287}},{"sx":5,"sy":5,"depth":8,"w":{"0":0.15284086490415277,"1":0.08448675705085147,"2":0.020326290443516637,"3":0.3285107408658791,"4":0.03044906507331449,"5":0.07944684304451842,"6":-0.070738348336314,"7":-0.3722104313864278,"8":-0.0269936943070511,"9":-0.0891782621124904,"10":0.018532328055990803,"11":0.17570374858995697,"12":0.07428244055092148,"13":0.04590195934057172,"14":0.017387434968083367,"15":-0.13253802459196065,"16":0.07509583481879589,"17":-0.25533813820863954,"18":-0.3088794776234268,"19":0.37372967151407854,"20":-0.17366229797594476,"21":0.10024555864928474,"22":-0.18147252439598427,"23":-0.10008206206790866,"24":0.13415442548511175,"25":-0.1192345338868566,"26":0.11951086103636556,"27":0.012008184917804737,"28":0.09003746048693548,"29":0.17267633960808226,"30":0.11247001830173352,"31":0.007987616553889465,"32":-0.16415169197112553,"33":0.02344956147034483,"34":0.05392753830116579,"35":0.05809446899456656,"36":0.06029145808648359,"37":0.009235570598467295,"38":0.12860392274152996,"39":0.1585586761701298,"40":0.05302638846609269,"41":-0.07958011270225666,"42":0.06798767420942159,"43":0.04797911562326281,"44":-0.10936017182003875,"45":0.1575048733438933,"46":0.013090763726795745,"47":-0.0039242835520280715,"48":-0.18800401259902277,"49":-0.05944797704865512,"50":-0.14541005995939751,"51":0.1282194286392427,"52":-0.242710101871022,"53":-0.1010407523105973,"54":-0.17994303719629862,"55":0.0381089082754405,"56":-0.04310605264498395,"57":-0.0726102705377723,"58":-0.04085672794740732,"59":-0.24838823374013425,"60":0.07681668947694986,"61":0.026707097233559223,"62":-0.12228901722618205,"63":-0.10935921868721113,"64":0.08311495139866454,"65":0.1303078165718061,"66":0.2383899536935998,"67":0.15785386919550165,"68":-0.014738283437542033,"69":0.29163831609625274,"70":0.12930763643562523,"71":0.22068686021004483,"72":-0.14267625200352183,"73":0.2700199238429198,"74":-0.030687829654760593,"75":-0.16438567100068868,"76":0.12957179079069997,"77":-0.10154222243470529,"78":-0.01540018243733607,"79":0.24578710729236802,"80":0.1367006520025888,"81":-0.005197479744620731,"82":-0.07122715066813892,"83":-0.20971699962490747,"84":-0.08644080316389693,"85":0.08926507875548474,"86":-0.02355571752425473,"87":-0.17637815606933602,"88":-0.18570181912190412,"89":0.5401452478099148,"90":-0.12803905074388994,"91":-0.02940128170281457,"92":-0.08225093061714005,"93":-0.13667023172932397,"94":0.03742931300127138,"95":0.12072775538798493,"96":-0.4887021492903922,"97":0.07184894381442213,"98":-0.033999161004505375,"99":-0.4557800176417088,"100":-0.357728246986005,"101":-0.46373824786575013,"102":-0.29644591184271163,"103":0.11306830984442717,"104":-0.06614630170672131,"105":-0.14658422225120651,"106":-0.09882168942263864,"107":-0.3140349885374668,"108":-0.10687977974100989,"109":-0.1316219059751942,"110":-0.07989102889636589,"111":0.020008420286750095,"112":0.06888959112677492,"113":-0.028907472282244467,"114":-0.14603337809385272,"115":-0.14315380338410919,"116":-0.01502997755601787,"117":0.10853888139665333,"118":0.0497914966256394,"119":0.16318847490306476,"120":0.13635244474368452,"121":0.2896986045128217,"122":0.010461585679276202,"123":-0.08338570049375071,"124":0.15181851381966224,"125":0.11600245931996557,"126":-0.17388147477976684,"127":0.08458974295667608,"128":0.02634039585913213,"129":0.006236929125965317,"130":0.10877139901909261,"131":0.29270279361275287,"132":0.09459828523073519,"133":0.1071895009860217,"134":0.052905282847417696,"135":-0.5387945840462118,"136":-0.2097274033984525,"137":-0.0292009258090486,"138":-0.10951358585635382,"139":0.1414889786015489,"140":-0.16406225827308546,"141":-0.06760769230822905,"142":-0.09096919456944665,"143":0.3047767741363744,"144":-0.1422388436246105,"145":-0.058924437193888506,"146":-0.07363754260096075,"147":0.20528702311006253,"148":-0.07654768397014919,"149":-0.12019775874673753,"150":-0.023893264936601454,"151":-0.07047044035521649,"152":-0.033838518248725774,"153":-0.2344935674385539,"154":-0.15392367961659753,"155":0.1542532590433765,"156":-0.03843090206356768,"157":0.16179475743024657,"158":-0.23289264276967997,"159":-0.31498474395372295,"160":0.2508619492424901,"161":-0.27083750789718564,"162":-0.1451853203349071,"163":0.4549945814277857,"164":0.06548034140334195,"165":0.1021503762388318,"166":0.010009126383213206,"167":-0.5134829812811285,"168":0.2632509030112041,"169":-0.33503325141986123,"170":0.05867069988483505,"171":0.6446156308056533,"172":-0.1880651271266567,"173":0.5607559224767075,"174":0.36405440648524057,"175":-0.6646226322613272,"176":0.2725656793102072,"177":-0.14180245714316841,"178":0.15584676671475733,"179":0.22247721124258002,"180":-0.3617428567939218,"181":0.37482651770245223,"182":0.17263105903697817,"183":-0.10128868515996389,"184":-0.0018638431712409147,"185":0.06672470864018962,"186":-0.26747198034315506,"187":0.01636224699924986,"188":0.07506967741096018,"189":-0.19445222680344038,"190":-0.008689288024501661,"191":0.12662501054985842,"192":-0.05176960686544252,"193":0.132619001755754,"194":-0.15415818284316168,"195":-0.13376171036843307,"196":0.032337800862906656,"197":-0.14977748646872582,"198":0.00003828643815434674,"199":0.03148787623491477}},{"sx":5,"sy":5,"depth":8,"w":{"0":-0.007248462054183776,"1":0.01543574216615967,"2":0.06583721931987392,"3":-0.11931074777027265,"4":-0.09400051271234579,"5":-0.006962713295511164,"6":0.0086189625843866,"7":0.047269912005019704,"8":0.05770535665107705,"9":0.16261085367407446,"10":0.017603516135188454,"11":0.0514258128040385,"12":0.001014742566140603,"13":0.012947971676212687,"14":0.09378762195049978,"15":0.01290833771983994,"16":-0.18095272123847306,"17":0.021830998727732528,"18":-0.06801226778049532,"19":-0.24300738480780876,"20":-0.00023750072656163418,"21":-0.07427417239363214,"22":0.026500893820791478,"23":0.061531155136367845,"24":-0.07797094528491896,"25":0.29848687409031677,"26":0.02986316559215932,"27":0.036719235819717734,"28":0.528111733393449,"29":0.19446673695129263,"30":0.22249909776119112,"31":0.022003077078513303,"32":0.052850903156302934,"33":0.2273039043181201,"34":-0.07937616078325194,"35":0.24856474688140553,"36":0.14272325863249652,"37":-0.006088992286769174,"38":0.059579770992582284,"39":-0.1496699049874522,"40":-0.06946276956210926,"41":-0.12264598064126032,"42":0.0353358013198316,"43":0.07343627969280657,"44":0.05851429160872967,"45":0.016155593397268034,"46":-0.036771820499323954,"47":-0.017860205656350683,"48":0.01612719099043684,"49":-0.07061090413525144,"50":0.004751436411146752,"51":0.011712957928762752,"52":-0.010813047343778305,"53":-0.03211145449410759,"54":0.05491330934423508,"55":-0.10220351322204432,"56":0.04348046452541215,"57":-0.15412683990749892,"58":0.012450002507842124,"59":-0.0016060511961639903,"60":-0.1486333298439341,"61":0.16280958895488645,"62":0.17309551804351542,"63":0.08796349390640179,"64":-0.03268741023735435,"65":0.05306691635851657,"66":0.09176429608457011,"67":-0.01577139609118379,"68":-0.16807433929255763,"69":0.043009177075351644,"70":0.06798449378066873,"71":0.09885782912443336,"72":0.005392513087008498,"73":0.3448501653434248,"74":0.32207868124266514,"75":0.11007307500873252,"76":0.4037593292403449,"77":0.10052968253311652,"78":0.07536241316719793,"79":0.009827922372703355,"80":-0.030687623412084235,"81":-0.11473387672723975,"82":0.07824933318561858,"83":0.017256770703964596,"84":-0.02995447963211845,"85":0.0482415236420383,"86":0.0328359254149542,"87":-0.0424366601200967,"88":0.09478214604624972,"89":0.17348145233076676,"90":-0.0076808639833585825,"91":-0.11240351159507544,"92":0.04165594466811778,"93":0.06400440273304411,"94":0.0562502111965269,"95":-0.009600816299446863,"96":0.022175970450875732,"97":-0.01727525964959335,"98":-0.09817489753919127,"99":0.14552450271353418,"100":0.09885669659318046,"101":-0.06403290948813088,"102":0.02624196318760569,"103":0.010666214371652763,"104":-0.253731738524227,"105":-0.20969003406738862,"106":-0.1479532297638087,"107":0.009507340249279668,"108":-0.0015831137227315549,"109":-0.00125845094321171,"110":0.06827416992693332,"111":0.19409609912135667,"112":-0.134847126813646,"113":-0.10422270700140762,"114":-0.12073952464206097,"115":0.31578576456724705,"116":-0.14346343249451068,"117":0.013855972807371027,"118":-0.11167477086685919,"119":0.06621524718858077,"120":0.05614265865986243,"121":0.006371705802305305,"122":-0.00044528060548826683,"123":0.043635307016529686,"124":0.027439333757503268,"125":-0.054605294077218494,"126":0.04338292712249098,"127":-0.07072010770202188,"128":-0.033453377267293784,"129":0.08654565398310138,"130":0.07797263864857353,"131":0.09439514512438484,"132":0.08844688569928046,"133":-0.1453681207118798,"134":-0.028180598823096523,"135":0.11399083427473387,"136":-0.07760209808763162,"137":0.2732090906028123,"138":0.2701281741765444,"139":0.1047428235373447,"140":0.2515384102983908,"141":-0.013449798836548076,"142":0.09304166105983593,"143":0.08440053598628336,"144":-0.19467066258724106,"145":0.2679054142864261,"146":-0.02715875238900604,"147":-0.06762425959784178,"148":0.19881798395570696,"149":-0.2919589940301174,"150":0.15288129530388558,"151":0.017230578908723357,"152":0.0758589765504894,"153":0.2661843777952163,"154":0.09839249841615705,"155":-0.05094822602158441,"156":0.28395541210483455,"157":0.23550855587742156,"158":0.1494510634100752,"159":-0.12424505269965491,"160":0.022960157946998367,"161":0.01843850354192669,"162":-0.029933410357199753,"163":0.029163985523045978,"164":-0.021949725085975282,"165":0.027408359115364395,"166":-0.063997605224266,"167":0.03157724173688158,"168":-0.03022661609052264,"169":0.16295156932200408,"170":-0.08489231251439987,"171":-0.07019801699702487,"172":-0.03828780243467494,"173":-0.01827966983370794,"174":-0.029621597220862238,"175":0.046848220842134095,"176":-0.0006743080267582945,"177":-0.009569351140002137,"178":0.13585590072815135,"179":0.1593978059730659,"180":-0.14019087881294576,"181":0.025095021995813767,"182":0.14088674227988368,"183":-0.12131812147401637,"184":0.02029999756031766,"185":0.13433873805203422,"186":0.22339845495475158,"187":0.31500362821260824,"188":0.3568860207865367,"189":-0.010720395089274309,"190":0.12696087000233056,"191":-0.18932229883734716,"192":0.05499948975212954,"193":0.13721886866807928,"194":0.34538965730728544,"195":0.13018166845647466,"196":0.03565733955672282,"197":0.21483319857123756,"198":0.039552324298058265,"199":0.1016085676308753}},{"sx":5,"sy":5,"depth":8,"w":{"0":-0.0031831932439196713,"1":0.04440106081983333,"2":0.03015767772898134,"3":0.11187046794253949,"4":0.03107771723758747,"5":-0.062276087683408865,"6":0.08141356690728861,"7":-0.014210837272229191,"8":-0.07643037130296018,"9":0.011618288401171854,"10":0.2585560813994662,"11":0.2088986629097748,"12":0.029052339963649167,"13":0.053634934047826724,"14":0.07933229820286909,"15":-0.07737559132573092,"16":0.0525579006524872,"17":0.027475292682041488,