{"layers":[{"out_depth":1,"out_sx":100,"out_sy":200,"layer_type":"input"},{"sx":10,"sy":10,"stride":5,"in_depth":1,"out_depth":8,"out_sx":19,"out_sy":39,"layer_type":"conv","l1_decay_mul":0,"l2_decay_mul":1,"pad":2,"filters":[{"sx":10,"sy":10,"depth":1,"w":{"0":-1.7973440297964636,"1":-1.270718884105418,"2":-1.1845487959914645,"3":-0.28623229583274773,"4":-0.8217990808352411,"5":-1.4061216920778785,"6":-1.9701194223634864,"7":-1.6062337536652351,"8":-1.3105199262400586,"9":-1.657940411346042,"10":-0.6794051306148667,"11":-1.5005204465458755,"12":-0.7551539332918871,"13":-0.4657019669940032,"14":-0.29403370429157677,"15":-1.0967741929125032,"16":-1.5833231937528587,"17":-1.5439587251010265,"18":-1.0783980202568235,"19":-0.7120202537467978,"20":-0.5852774687719322,"21":-0.8077357577312776,"22":-0.7984955013705899,"23":-0.5962999665748716,"24":-0.45479521394525757,"25":-0.07057025228946244,"26":-0.9804802491941714,"27":-1.214989339143966,"28":-1.2341901401741013,"29":-0.5789547867451157,"30":-0.262497832396355,"31":-0.4885804504607004,"32":-0.7503738820367933,"33":-0.9608717928042354,"34":-0.37735873047606333,"35":-0.2940066753884192,"36":-0.044813850692190134,"37":-0.07849460522302092,"38":-0.4912912773541504,"39":-0.8950194683724468,"40":-0.17997956371167528,"41":-0.17936719360449,"42":-0.7358348712488751,"43":-1.0525993316713855,"44":-1.0124670811353644,"45":-0.164617082353044,"46":-0.2058139101715136,"47":0.5014350457963406,"48":-0.038154697773879656,"49":-0.40168202547911985,"50":-1.1850323514940937,"51":-1.0235087572964863,"52":-0.3310046709171935,"53":-0.6632646375590525,"54":-1.0527782461055752,"55":-1.2225824588776995,"56":-0.6280683785508497,"57":-0.5343167321120815,"58":-0.31046226090266676,"59":-0.41974925252274325,"60":-1.0436693384442035,"61":-0.8990070777821121,"62":-0.6547800591953331,"63":-0.2704896279359935,"64":-0.7303255385656543,"65":-0.9427996524395934,"66":-1.2639897502273887,"67":-1.105472421239277,"68":-1.1165914440406484,"69":-0.40754915451667856,"70":-1.8398815865127047,"71":-1.7174990742577922,"72":-0.8972968018447173,"73":-0.38551101016955186,"74":-0.521957576161267,"75":-1.1725907327582052,"76":-1.4599254950470146,"77":-0.9305153601682469,"78":-1.0443188672399664,"79":-1.0983336066318925,"80":-2.1730015271106433,"81":-1.7982658453585356,"82":-1.366868506630612,"83":-0.4689448964080267,"84":-0.20014998211922175,"85":-0.5816774230372923,"86":-1.102147643718823,"87":-1.5408834374938873,"88":-1.3292303433029498,"89":-0.7424351737299808,"90":-2.674904293872951,"91":-2.191133164036919,"92":-1.730766785411504,"93":-1.2353391535448623,"94":-0.8710828760932949,"95":-0.25490899428471503,"96":-1.0314087949376438,"97":-1.1819345319899675,"98":-1.112372671610857,"99":-1.191192547349662}},{"sx":10,"sy":10,"depth":1,"w":{"0":-1.4439030622557194,"1":-1.3312645107440804,"2":-1.5624054233624214,"3":-1.881598897587536,"4":-1.3051482945380182,"5":-0.9378781909868613,"6":-0.7660267814577414,"7":-0.6880177439482162,"8":0.00823375081478487,"9":0.9666185541682453,"10":0.0015051185913078692,"11":-0.7400179994789107,"12":-0.28815672548554344,"13":-1.4789069862674513,"14":-2.210447634463596,"15":-1.1029576506825036,"16":-0.9142044746442609,"17":-0.47291759330143474,"18":-1.2530196183917257,"19":-0.6632860822454576,"20":1.2038877598731723,"21":1.3235967034687501,"22":-0.33602836475837133,"23":-0.28723385907401233,"24":0.026478184954728094,"25":-1.2867471595813833,"26":0.7016347824831817,"27":-0.4048164408928164,"28":-1.024394404527767,"29":-1.0186576363722406,"30":1.5356591367304713,"31":-0.12733605727958924,"32":0.9967869556814064,"33":1.2678139901603345,"34":0.7527316652076346,"35":1.296104814863765,"36":-0.5963716557437606,"37":0.697854056486534,"38":-0.3755424595473742,"39":-0.7791795873799752,"40":-0.11392968035477442,"41":0.783469668601947,"42":-0.419215942289777,"43":1.9281934722218628,"44":2.405063839700674,"45":1.514700158236475,"46":1.263574887710698,"47":0.2565251519428153,"48":1.3357530563953852,"49":0.3262592753314822,"50":0.8580264938815608,"51":-0.9856591628430701,"52":-0.5208872288888752,"53":-0.722789374174894,"54":1.1066767446326258,"55":1.5615620922900326,"56":1.6572482366195356,"57":0.9740970043707328,"58":0.9545961969275711,"59":1.3577156032071447,"60":0.01912662861414514,"61":0.5434622405352609,"62":0.2784229431239783,"63":-0.4862931139902356,"64":0.5160743968486997,"65":0.1393794885444947,"66":0.03209565691125534,"67":2.044724762608631,"68":2.5518596712863433,"69":1.5176770767273389,"70":-0.20469530500459462,"71":-0.6889254652609804,"72":0.11454556494194101,"73":0.03279684870438624,"74":-0.43685694023248445,"75":-0.25979708836595117,"76":-0.4988221179888805,"77":-0.5514545680164915,"78":1.797118050927829,"79":2.4319423113361656,"80":-0.11610058850403328,"81":0.25131419173654596,"82":-0.12056717258870732,"83":-0.7407120743439408,"84":-1.2851100501832886,"85":-1.215703528734889,"86":-0.6506479508574317,"87":0.24303318650696726,"88":-0.13157256568984946,"89":1.3277952287450285,"90":-0.535027638350933,"91":0.06317091421130751,"92":0.8701831041711438,"93":0.6374191555185721,"94":-0.579211084851034,"95":-0.21480822873660665,"96":-0.6094839899025193,"97":0.14617844656739362,"98":0.8398446617286559,"99":1.087171151546437}},{"sx":10,"sy":10,"depth":1,"w":{"0":-0.024143897577818395,"1":-0.13401298583458887,"2":-0.24590449458835134,"3":-0.20191412246177298,"4":-0.3786139444062505,"5":0.1859872101563188,"6":-0.13059160900442973,"7":0.1472076851509298,"8":1.4988159836589596,"9":1.3655698361113764,"10":-0.28243496054878364,"11":0.10329582570659732,"12":-0.0056396656703287815,"13":0.01726438273568486,"14":-0.25541960067816705,"15":0.016484849549893994,"16":0.24788772169541187,"17":0.3886370969330207,"18":-0.8851683529199212,"19":1.0669147565610209,"20":-0.6629738575453208,"21":-0.39102430927062565,"22":-0.0925465974712695,"23":-0.22794696234741632,"24":-0.09489147208710604,"25":-0.43615344280902474,"26":-0.15229882674704695,"27":0.04833652310801306,"28":-0.34435218275804874,"29":-0.7689375785209858,"30":-0.37822118922660486,"31":-0.3321885074872173,"32":-0.07481002035583664,"33":-0.022446991573220568,"34":-0.2167048841959796,"35":-0.49303636538010687,"36":-0.17889659862949792,"37":-0.2499483854361597,"38":-0.025539157347539383,"39":-0.2785962272835617,"40":-0.19132731459823313,"41":-0.19259758898247584,"42":-0.0011377265611096888,"43":0.19208009218635627,"44":0.018548407703685498,"45":-0.06665965430598265,"46":-0.26638456416584655,"47":-0.1720928668005914,"48":-0.3400344354072621,"49":-0.0973554865679649,"50":0.047970318938306555,"51":0.009629828064120518,"52":-0.20446300441213855,"53":0.15623158957890082,"54":-0.0239210763004411,"55":-0.04343614850982842,"56":-0.14196938817623042,"57":0.29183043209399656,"58":-0.2946894976810996,"59":-0.1759293982553002,"60":-0.2692665653623105,"61":0.021169033277603708,"62":-0.09173333663057386,"63":-0.02084565393027711,"64":-0.13614590204795576,"65":-0.009941668719364595,"66":-0.10370278739675738,"67":-0.18862593837226319,"68":-0.2539044455985709,"69":-0.4757607618386004,"70":-0.44893468734102115,"71":-0.12595070195446478,"72":-0.06259004262381977,"73":0.13393008015137756,"74":0.025417401378986047,"75":-0.0656420749007916,"76":0.17997704067387518,"77":0.14675980189823,"78":0.10004225474725963,"79":-0.3142461554453516,"80":-0.5097048658532101,"81":-0.5516589526444314,"82":0.1758914333898497,"83":-0.018316561125323764,"84":-0.41019522529015484,"85":-0.2756409228123816,"86":0.19039613788269633,"87":0.24349777192768737,"88":0.36845077214156674,"89":-0.06535901090742662,"90":-0.3855008620362492,"91":-0.4804567541991655,"92":-0.1968277658820401,"93":0.057618052201079274,"94":-0.010635134999912076,"95":-0.14855710459404098,"96":-0.0037146762783814816,"97":-0.01787291768314737,"98":0.3572833620140228,"99":0.1296917280237623}},{"sx":10,"sy":10,"depth":1,"w":{"0":2.190138255412917,"1":1.6762376612104872,"2":1.1104596973805165,"3":1.0074478488614327,"4":1.1541205925993379,"5":-0.00714525686039434,"6":-1.409707702463915,"7":-1.0243369634967903,"8":0.14396473120937456,"9":-0.47473256916121453,"10":0.9868170667103325,"11":1.2637214735490714,"12":2.4636587409918747,"13":1.430371835271851,"14":0.8220004973264218,"15":0.7504773896283101,"16":0.26496930493591125,"17":0.8997276425671454,"18":1.1462010940478569,"19":1.9746519110725906,"20":-0.8273059087032489,"21":-0.7197524921933128,"22":0.5877134721526794,"23":1.1577481962599419,"24":0.5972278751162143,"25":-0.10319605745332452,"26":0.7848969243900716,"27":0.1523452356325106,"28":0.5630942813021943,"29":0.17830740082155738,"30":0.17695370751970668,"31":0.7701571246406135,"32":0.6931157314011069,"33":0.5501076296244964,"34":2.1043401507551636,"35":0.809679242267293,"36":0.2913550933316221,"37":1.3332178123581304,"38":0.6018522182134729,"39":0.04722666730200177,"40":-0.36115807460336946,"41":-0.1803548773373551,"42":0.5740933324845128,"43":0.22219900285416905,"44":-0.40248792705552927,"45":0.4535363271806424,"46":-0.3416023268691335,"47":-0.4608809071616087,"48":-0.21055909533297174,"49":0.05141564345189371,"50":-0.24818694686605627,"51":-0.18280834818736338,"52":0.23685394404595894,"53":0.585323009767728,"54":0.4451452021076457,"55":-0.2273516454544547,"56":-0.6645800831985341,"57":-0.43887578251347675,"58":-0.29686987531403003,"59":-0.04226237514040266,"60":-0.5226233949243397,"61":-0.8481116532912063,"62":-0.8159614672168826,"63":-0.8595306109942885,"64":-0.31299561236625667,"65":-0.8308635834797852,"66":-0.8499786337401536,"67":-1.1886494762989714,"68":-1.273488345740315,"69":-1.1614338628895693,"70":-0.3602463590973777,"71":-0.8108550888923024,"72":-1.0638448936929032,"73":-1.1158556935816495,"74":-1.3123999667269715,"75":-0.8082625190432736,"76":-0.9020772461971766,"77":-0.8576621591406742,"78":-1.2025650083369543,"79":-1.634666903573771,"80":-0.3707110781694985,"81":-0.1685235087772436,"82":-0.7707178783235297,"83":-1.1435379902116993,"84":-0.8677760154898424,"85":-0.8656842053387942,"86":-0.6724416754330179,"87":-0.8470267202594691,"88":-0.8713172522093667,"89":-0.9099744457798253,"90":-0.330325455367191,"91":-0.5430838682159089,"92":-0.028105710533327038,"93":-0.35142004671313964,"94":-0.7324196654864344,"95":-0.6980111294679431,"96":-0.4976583841928912,"97":-0.4284429260249682,"98":-0.7472299836843694,"99":-0.535396396935441}},{"sx":10,"sy":10,"depth":1,"w":{"0":-1.257563907349038,"1":-1.4443150803791325,"2":-0.8747893221585638,"3":-0.9130563904116229,"4":-0.37835893447883945,"5":0.0024279347974199878,"6":0.10446301699769257,"7":0.3136289515855639,"8":0.38139846287969353,"9":0.725729361550041,"10":0.28778148577440876,"11":-1.7913306581158845,"12":-1.3246768256149621,"13":-1.3799299356775694,"14":-1.0840862037026215,"15":0.017203269919515596,"16":0.7655881950237299,"17":0.646177487806725,"18":0.8469957333755525,"19":0.76227193858656,"20":-1.4900868033583579,"21":-1.3562290192603372,"22":-0.6180366091041766,"23":-1.7408091540166994,"24":-1.5223870461117366,"25":-2.284860786347118,"26":-1.1763201764328692,"27":-0.2580278130128334,"28":-0.6511833129618899,"29":0.032428371739579014,"30":-0.022015526763496964,"31":-1.1726978286868057,"32":0.5254875515643508,"33":-0.9088217631403412,"34":-1.977311922557255,"35":-1.2921803917464412,"36":-1.1047287272854491,"37":-1.0210749499224177,"38":0.22750481979000312,"39":0.36254877082999076,"40":0.18671085509257773,"41":0.12357209054014286,"42":0.9512616653397987,"43":1.4479991368492378,"44":-1.3731616658400188,"45":-1.860608336565719,"46":-1.0649595243044827,"47":-1.206487441909367,"48":-1.2134827073360843,"49":0.6958629953231765,"50":-0.07728697033906713,"51":-0.4804027138327508,"52":0.2167526624709758,"53":0.08327939028098157,"54":0.30104863888743155,"55":-0.8817552719098466,"56":-0.9271882568008909,"57":-1.215947366778572,"58":-1.4237761166300746,"59":-1.3054234991095686,"60":2.3550723050498963,"61":0.5152048600568488,"62":0.03030936196844108,"63":0.13664627419415715,"64":0.8577414326758909,"65":-0.00006576538658630849,"66":-0.44047444667462765,"67":-1.0447082353015076,"68":-1.5279022701122293,"69":-1.5374550567974388,"70":0.6280953776483005,"71":1.2414068900640673,"72":1.0477587657513694,"73":0.9742563114284754,"74":1.1359070507456794,"75":0.6657634711636283,"76":-0.6332451009050487,"77":-1.1018660802798848,"78":-1.4675888346916772,"79":-0.8891736281592887,"80":0.6675503340491147,"81":0.9910346494560708,"82":1.7470962356253577,"83":0.3252522135519455,"84":1.3628296843009,"85":0.4079788562107773,"86":0.2073159278131073,"87":0.10515963602122537,"88":-0.32246453028715566,"89":-0.8175978536372729,"90":0.3790027866080388,"91":2.3415307821806715,"92":2.343186071178629,"93":3.623312992929411,"94":1.420877314486989,"95":1.797156275608191,"96":0.8590646422165519,"97":1.1822185688268216,"98":1.3149552113927,"99":-0.058332797723661185}},{"sx":10,"sy":10,"depth":1,"w":{"0":-0.23065804489356662,"1":-0.06909349993521725,"2":-0.11771473818958351,"3":0.31174955676633986,"4":0.8845804363291461,"5":0.14519127909559534,"6":0.15843662209561094,"7":0.35168013872753123,"8":0.1381465426553612,"9":0.0526499354386784,"10":-0.29012595593767804,"11":-0.34954717760554666,"12":-0.27199342104773133,"13":-0.6007998409156308,"14":0.5105809961249069,"15":0.2197340684071865,"16":-0.31223212138137435,"17":-0.5132301642055994,"18":-0.09271858732415604,"19":-0.1464003284695014,"20":-0.5454442984663189,"21":-0.41467840418816876,"22":-0.18772021331388705,"23":-0.20194965863821532,"24":-0.32069954311490495,"25":0.44416234122430037,"26":0.47603794962708534,"27":0.11003644683948233,"28":-0.14318475500053493,"29":0.048491744724027334,"30":-0.726968725363645,"31":-0.6690275777588269,"32":-0.2346719370508313,"33":-0.2917280601054015,"34":-0.005276372649660482,"35":-0.16939237803443014,"36":0.40276770619562197,"37":0.42540978534690255,"38":0.18238860058240688,"39":0.11297133746935822,"40":-0.6495890109834381,"41":-0.7962353076372616,"42":-0.934075738000448,"43":-0.270107406404084,"44":-0.4169869203568668,"45":-0.05816431304790392,"46":-0.14951383579554534,"47":0.5331368371838617,"48":0.1623968224314218,"49":-0.24466835171641318,"50":-0.4131766781461744,"51":-0.4230584942242893,"52":-0.693457731816556,"53":-0.5411916348844688,"54":-0.6376498379259881,"55":-0.5417874292494,"56":-0.3336957092186521,"57":0.07079816024137245,"58":0.5208955090331322,"59":0.2739130119103395,"60":-0.7508695388234452,"61":-0.6073554715266777,"62":-0.4233666893848217,"63":-0.4820781528763613,"64":-0.4779746371022651,"65":-0.4930963307598697,"66":-0.6962384685787151,"67":-0.42541835549026846,"68":0.17771534180241058,"69":0.3310845929094303,"70":-0.9243350569468761,"71":-1.00407371558861,"72":-1.042081401843131,"73":-0.7930806280897155,"74":-0.8050814168797028,"75":-0.8590956947451439,"76":-0.49164335325861697,"77":-0.6241049251486139,"78":-0.592940805225309,"79":0.04924080538570859,"80":-0.87677351183285,"81":-1.006005334307133,"82":-0.9100183298803496,"83":-0.9879440162919828,"84":-0.997978273137718,"85":-0.7530610240076706,"86":-0.7454027089867543,"87":-0.5736340809336758,"88":-0.7776736316909104,"89":-0.4671222411725075,"90":-0.4826436415105407,"91":-0.6279997280094299,"92":-0.6403924517746811,"93":-0.573230090807222,"94":-0.665690346961754,"95":-0.5598042294081513,"96":-0.7139577098492939,"97":-0.5817176115868014,"98":-0.8542150405106493,"99":-0.736075479281484}},{"sx":10,"sy":10,"depth":1,"w":{"0":1.209311290548858,"1":1.241658209324664,"2":0.9528770983880359,"3":0.1762501223292746,"4":-0.07011628865280402,"5":0.5020662645618112,"6":0.07257719212553092,"7":0.7186803253191169,"8":0.7130734855343893,"9":0.8537182328795412,"10":1.172128564221258,"11":1.2193758468627893,"12":0.4619452034982791,"13":0.5733633041712006,"14":0.6858386685962813,"15":0.8299638201504125,"16":0.8038428191919526,"17":0.6375662907884122,"18":-0.3690435364286451,"19":0.48020268230947477,"20":1.445882796491442,"21":0.8845388831502567,"22":0.1243919987686833,"23":-0.2962617459557834,"24":0.16740064540730482,"25":-0.11665817635540973,"26":-0.05738471806516784,"27":-0.19634531781840073,"28":0.026826709069811286,"29":-0.47506379061838694,"30":0.7574050196927268,"31":0.1043396333067885,"32":-0.5621668736231187,"33":-0.6085028530756884,"34":-0.3937643809607688,"35":0.06328409387546219,"36":-0.05579047984826318,"37":-0.11125895533702809,"38":-0.6734587368472612,"39":-0.4342928185463944,"40":0.8067687672230516,"41":0.2771994514350956,"42":-0.23697923657139475,"43":0.02186592303409946,"44":-0.4673312091312849,"45":0.08084146040151596,"46":-0.03942195088192664,"47":0.04095924398202672,"48":-0.1973894579472293,"49":-0.6293227354407223,"50":0.2562029548994088,"51":0.27778135126227205,"52":-0.4572540973978776,"53":-0.41163993336739685,"54":-0.17808489649413461,"55":-0.7085064886528509,"56":-0.2837851401210515,"57":-0.2971233940367283,"58":-0.4985346089887497,"59":-0.6037349972930744,"60":-0.14514719385978272,"61":-0.13384674383633746,"62":-0.35323186033287846,"63":-0.3814144840930474,"64":-0.3903845865963374,"65":-0.13156220209341365,"66":-0.3301972474054576,"67":-0.2361014329260867,"68":-0.33919601974785024,"69":-0.5863589324617691,"70":-0.5147816389803934,"71":-0.19919789191118673,"72":-0.2852937153757786,"73":-0.26184615211343165,"74":0.033098290168919665,"75":-0.13470093204214806,"76":-0.1385874552624503,"77":-0.23029950723049655,"78":-0.11874577465715068,"79":-0.18142063987913962,"80":-0.40118832109228963,"81":-0.2806486794412322,"82":-0.5060792030957015,"83":-0.06983695681615201,"84":-0.15798806693786693,"85":-0.4106553962810419,"86":-0.5854251274143935,"87":-0.389167680089522,"88":-0.12539426152856217,"89":-0.40044268134490274,"90":0.2641382993019199,"91":-0.18287470273997614,"92":-0.5975592348672502,"93":-0.47908979593775947,"94":-0.04468449105165106,"95":-0.14950967922577732,"96":-0.41340645100659074,"97":-0.8209034367981887,"98":-0.4507843665571033,"99":-0.386433486989452}},{"sx":10,"sy":10,"depth":1,"w":{"0":2.4555199645820647,"1":2.296948140262951,"2":1.7400457882264555,"3":1.2330190846227165,"4":0.9322122957527487,"5":0.7637784818989017,"6":2.2969285749528265,"7":2.3538823991838886,"8":1.7571563822449454,"9":-2.4745877173687902,"10":2.1219421244886036,"11":2.9915163199778245,"12":3.1214822701042984,"13":1.1396791032804532,"14":0.25408068776949555,"15":0.5580733208891573,"16":1.219309357483168,"17":2.5450888311887754,"18":1.5063549634327011,"19":0.7815503333859256,"20":0.16927835787783319,"21":0.3265751312845365,"22":1.552687186035982,"23":2.3047305192118546,"24":0.7574768157088569,"25":-0.3778141439102874,"26":-0.7116846669920943,"27":0.9953869074876324,"28":1.6512883316761906,"29":0.47009693097814836,"30":0.7623372769208463,"31":0.10145437248736168,"32":-0.12123630528441556,"33":0.44208504215211836,"34":1.135051817799617,"35":-0.2094945512066739,"36":-0.1743526100524608,"37":-0.6984063466164505,"38":0.5656241092662001,"39":1.2579828334503336,"40":0.8740058799999452,"41":1.447485940067228,"42":0.04161752629544181,"43":-0.12634652508396602,"44":1.7357205429537188,"45":0.3193633892809254,"46":-0.5109570749358148,"47":0.0797640982878939,"48":-0.03202115319021095,"49":0.9866621712372223,"50":0.8152205740600514,"51":0.43704691960693615,"52":0.527918974302269,"53":1.3389388469024441,"54":0.7433211585679304,"55":0.5611500961355492,"56":-1.0841842425351185,"57":-0.16250716444217328,"58":1.1321473439569685,"59":0.8980805782250593,"60":2.0543870498657437,"61":2.0841406967964855,"62":1.5620587469098317,"63":0.34730926797408196,"64":1.3595772116691704,"65":0.14033948550347602,"66":0.5025455655630418,"67":0.18692685376051044,"68":0.8130047065689603,"69":1.9386519080751197,"70":1.3269087810036162,"71":2.8275997371840766,"72":2.4582266941288236,"73":1.6829036752760627,"74":2.2913754252230203,"75":2.8057059023921087,"76":1.787906416115434,"77":0.12556492594588428,"78":-0.8210665065659077,"79":0.3909938519341539,"80":1.1793663612113234,"81":1.090726026429728,"82":1.0494691454794323,"83":2.1242363024421054,"84":0.2157168809534408,"85":2.2915045460521637,"86":2.4793832965503886,"87":2.331239451854869,"88":-0.8134221318676705,"89":-0.8118269767428075,"90":1.1065063983002152,"91":1.3863236939601724,"92":0.14963472565145158,"93":0.6038641652995326,"94":1.7623957813318372,"95":0.26954646060929094,"96":1.024731616756898,"97":1.908596639713524,"98":1.0334699124279545,"99":-0.20199987374993947}}],"biases":{"sx":1,"sy":1,"depth":8,"w":{"0":-0.5226840366862576,"1":0.7779819881374016,"2":1.8220258568510619,"3":-0.35552255987379333,"4":0.9971934647880829,"5":0.3254685471318373,"6":1.604876218447069,"7":2.500767459605719}}},{"out_depth":8,"out_sx":19,"out_sy":39,"layer_type":"relu"},{"sx":5,"sy":5,"stride":5,"in_depth":8,"out_depth":8,"out_sx":3,"out_sy":7,"layer_type":"pool","pad":0},{"sx":5,"sy":5,"stride":2,"in_depth":8,"out_depth":20,"out_sx":2,"out_sy":4,"layer_type":"conv","l1_decay_mul":0,"l2_decay_mul":1,"pad":2,"filters":[{"sx":5,"sy":5,"depth":8,"w":{"0":0.26985160126988633,"1":0.18986858522191716,"2":0.15906237212849178,"3":0.09370264127264795,"4":-0.0992225554139758,"5":0.07298321973780304,"6":0.05115591415093365,"7":-0.009345469491076924,"8":-0.008340200339935589,"9":-0.7534164563942382,"10":0.07855932970055894,"11":-0.049675251447469274,"12":-0.18983471275039204,"13":-0.07819029845427038,"14":0.04541736588639251,"15":-0.13804873457315628,"16":0.1260373809551887,"17":-0.3768267872927464,"18":0.023825566981095253,"19":-0.02730466616747256,"20":0.052193607320748514,"21":-0.03478280969173854,"22":0.29027245621841,"23":-0.12241861007686568,"24":0.010478423813052515,"25":0.45458148586064223,"26":-0.08676207027600251,"27":0.4090108818811874,"28":0.4200949072495312,"29":0.0019055178639153525,"30":0.33861698652014594,"31":0.07813344362836554,"32":-0.059078075657401675,"33":0.3272284008843175,"34":-0.07015373774413373,"35":-0.09890797251041789,"36":-0.2098567919395135,"37":-0.09678921764564964,"38":0.07437380301349333,"39":-0.17016305223903758,"40":0.2386377768644384,"41":0.3001667178435598,"42":0.16715945364463985,"43":-0.03716565810672911,"44":0.26876140698670603,"45":-0.004318461577807681,"46":-0.024357248362968226,"47":-0.11070877325970234,"48":0.19949093290541664,"49":-0.24051254113864323,"50":0.09667792901154391,"51":0.15233272879603144,"52":0.09569839305721274,"53":0.03063364073582631,"54":-0.24074299149591186,"55":0.6835604946566365,"56":0.08433271325564193,"57":-0.6347076910986647,"58":0.11758203965076225,"59":-0.13526786524518308,"60":-0.1451100246921488,"61":0.06341237344561053,"62":0.26126159824844436,"63":0.54156012870198,"64":-0.043731020245753496,"65":0.43084066527741327,"66":-0.12397512426151672,"67":-0.04627554159158754,"68":0.22377624851618472,"69":-0.0870405320807745,"70":-0.10742845490585316,"71":-0.901485995494832,"72":0.01417113552790126,"73":0.03623896186435455,"74":0.1222523700506466,"75":0.6640991664202932,"76":0.30230479015489914,"77":0.05104130351596283,"78":0.2822213293714397,"79":-0.6843335737591668,"80":-0.12947292219240814,"81":0.05950373353222227,"82":0.5107345789411412,"83":0.06895271935036085,"84":0.02643293599543026,"85":0.11340303104229453,"86":0.13218532728192747,"87":0.2501126239505644,"88":-0.4065660655050727,"89":0.6951201608105847,"90":0.2826881414814146,"91":-0.21769934942754693,"92":0.2224526215412959,"93":-0.1869917194993869,"94":0.007898004806645586,"95":0.14069323716546894,"96":-0.1748205078444092,"97":0.19448301682605826,"98":0.1545726598587247,"99":-0.966790653133263,"100":0.4759084118460268,"101":-0.42597796017500034,"102":-0.09324886700987717,"103":-0.07602688876110705,"104":-0.1606891196586133,"105":0.042937715911834706,"106":-0.054789867323588926,"107":-0.04073462580600476,"108":-0.07932484488486162,"109":0.004212381272472614,"110":-0.08730867062782825,"111":-0.10328081871708795,"112":-0.07276320221584165,"113":-0.10800230913906947,"114":0.036237542366706794,"115":-0.1335454889496358,"116":0.39798361735719445,"117":-0.013532533264674141,"118":0.04161154622563101,"119":-0.3954670473765407,"120":0.015048792213319047,"121":0.11463053396349766,"122":0.24064007760018555,"123":0.06859524007142176,"124":-0.03675385376940159,"125":0.15615473489189277,"126":0.0383361766014903,"127":0.5437681552265402,"128":-0.1500530647566528,"129":-0.2573057703969601,"130":0.25008826449580435,"131":-0.46761678320576,"132":0.18600151572564097,"133":0.2545096099689374,"134":0.4193571732557231,"135":-0.23948137854997878,"136":-0.35563679199998494,"137":-0.022117561733552143,"138":0.11548593807624881,"139":-0.42642549547935993,"140":-0.09033210436739912,"141":-0.24642548754215626,"142":-0.04126710653866598,"143":-0.26359254154627276,"144":-0.010145750252136283,"145":0.13315460673384444,"146":0.18662377635631086,"147":-0.23825387749484211,"148":0.02200353676789262,"149":0.04188713615776761,"150":-0.21037467099185087,"151":-0.23299751331057372,"152":-0.05876579682078569,"153":-0.5226213895767147,"154":0.031389554719695366,"155":0.20938609910214914,"156":0.25876312136565305,"157":0.2514216519712789,"158":0.12008829831304024,"159":-0.05898197329297317,"160":-0.30393210850680474,"161":-0.4962287925852299,"162":0.3033461303416299,"163":-0.4875326188058289,"164":0.4700366228106448,"165":-0.23250489025561583,"166":0.017925846310316677,"167":-0.5194617111685552,"168":0.09960658796358683,"169":0.006953921718822038,"170":0.4990155533921125,"171":0.2678787965369935,"172":-0.09852038087026992,"173":0.2581895750730327,"174":0.026169741851838724,"175":0.003655746820597388,"176":-0.14571155017120904,"177":-0.04471948755281848,"178":0.05101828834129794,"179":-0.30041998755044813,"180":0.34757223575501245,"181":-0.17926862012001263,"182":0.2742962628093092,"183":0.29037917573148014,"184":0.17325899003242584,"185":0.18907997169235766,"186":0.19753853654027143,"187":-0.1178363874684706,"188":0.17461916556856588,"189":0.19317339173451634,"190":0.15669014744172474,"191":0.031067436821480096,"192":-0.06672041558319212,"193":0.17384595532709915,"194":0.22898099545461262,"195":0.11731384305461316,"196":0.06127657470458935,"197":0.1605905675885375,"198":0.2985601000049273,"199":0.11767945841102971}},{"sx":5,"sy":5,"depth":8,"w":{"0":0.2490240010097105,"1":-0.10197278433905205,"2":-0.06969153721044571,"3":0.4886755149877112,"4":-0.1421296085833785,"5":0.26298492379707955,"6":0.5411596499266029,"7":-0.10666441553295826,"8":-0.05023917105394737,"9":-0.29905836079574616,"10":0.040084318821391594,"11":0.1826344733256614,"12":-0.06072266162240789,"13":0.3008151942123332,"14":-0.37377790161534075,"15":0.019914243089107792,"16":-0.4156349726097781,"17":0.11577929369870275,"18":-0.2820294551536961,"19":-0.5482600891035525,"20":-0.5823579230023966,"21":-0.4214566337178962,"22":-0.39059278658557567,"23":0.0886369673430248,"24":-0.2320751949160843,"25":-0.45367783032234793,"26":-0.08716795641407828,"27":-0.04286217566120627,"28":-0.24334610574281276,"29":-0.32427982199794997,"30":-0.12738882591642747,"31":-0.10884636562689148,"32":-0.061751754323749526,"33":-0.3068026592413989,"34":-0.13052805977235446,"35":0.18740965359434603,"36":-0.27759065912897246,"37":-0.2572450431047066,"38":0.00704464157930211,"39":-0.47390317869003173,"40":-0.5709760611904415,"41":0.1485769606446493,"42":-0.18616891006758543,"43":-0.3328296355083047,"44":1.0671771383072708,"45":-0.11110009686457743,"46":0.19502682367381455,"47":-0.17254174615840887,"48":-0.06816161231459886,"49":0.22606949553895833,"50":0.2556064907631325,"51":-0.6781936835632235,"52":-0.48646870574336043,"53":0.16824732572082554,"54":-0.12808464735376404,"55":0.22353102940253813,"56":-0.6024859468351162,"57":0.303008961841478,"58":0.1493181172466961,"59":-0.057254707153511025,"60":0.10372229975057581,"61":-0.5609416961573549,"62":0.08778170507251129,"63":0.042495396431657534,"64":-0.31868027496053314,"65":-0.4068340565552543,"66":-0.08479201515746586,"67":-0.26509134136024787,"68":-0.1917193204126792,"69":0.2023374450295942,"70":-0.21412499940496027,"71":-0.5195773322669888,"72":-0.8491217662972685,"73":0.08756749076895816,"74":-0.20514959845803526,"75":-0.12344090666218878,"76":0.0452184540846453,"77":-0.5144161038080398,"78":-0.41324036122136903,"79":-0.43910592881945193,"80":0.24540910809293026,"81":0.250323931582336,"82":0.2492965939235945,"83":-0.12504867255838972,"84":-0.3171735792442381,"85":-0.43799812056666104,"86":0.24303387077914032,"87":0.4860198266259412,"88":0.17026372729355851,"89":-0.7792763693876511,"90":0.40417179423354177,"91":-0.606508768357554,"92":-0.026404012244126703,"93":-0.5170569245928189,"94":0.8359798563775711,"95":-0.09088181244393495,"96":-0.08340911610895371,"97":-0.5645064059307875,"98":-0.24549692462558095,"99":0.45088100382759727,"100":-0.6170481487161216,"101":0.029975432921241957,"102":0.35515881606092725,"103":0.17335831470365531,"104":0.261555115606521,"105":0.38097370527997293,"106":-0.09747637505361247,"107":0.4262310552253887,"108":0.4110076675110536,"109":0.018021857370882938,"110":-0.06358632697970644,"111":0.48819628244564706,"112":0.13863425702018722,"113":0.22327361341813928,"114":0.32295400186399836,"115":0.09811018196587204,"116":0.34232838878050054,"117":0.00998318833230455,"118":0.16461840988988755,"119":-0.25425651302296,"120":0.4903973516922726,"121":0.44912484974311373,"122":-0.0945753278880432,"123":0.03932583598191584,"124":0.6634591008772215,"125":0.10980505425605991,"126":-0.04111909792526527,"127":-0.46403015435014155,"128":0.2458054189494058,"129":0.4684831626564321,"130":0.06435855269598081,"131":0.06999933211877037,"132":0.47414720544566813,"133":0.3990982274690781,"134":-0.18791257359655983,"135":0.24021517409402574,"136":-0.051916160685650595,"137":-0.07441045675563275,"138":-0.040956737761013697,"139":-0.3756935596068684,"140":-0.4151455200646221,"141":0.050558681197758026,"142":-0.2680543832030419,"143":0.3067783241729212,"144":-0.4102603671255861,"145":-0.3576006990557837,"146":-0.015597158160722747,"147":0.416217495778132,"148":0.3531599917658227,"149":-0.1744585312675301,"150":0.07316923789463668,"151":0.2678973584380961,"152":-0.0045057907940887565,"153":-0.040119130961791705,"154":-0.04652065697441456,"155":1.100409238159499,"156":0.24091189860511827,"157":0.14321174079882573,"158":0.38594279163541656,"159":0.4524566728767328,"160":-0.03409395568477375,"161":-0.08578417938181714,"162":0.27313625252956153,"163":-0.31460204694705995,"164":0.18659601511751572,"165":-0.41457788850997124,"166":0.24696947012777917,"167":0.12247947826795966,"168":-0.07241943924913975,"169":1.3828147296327893,"170":-0.2827747183973637,"171":0.4922806855307594,"172":0.44580073920952334,"173":-0.077157276125695,"174":-0.013373896952472096,"175":0.08333450537800768,"176":0.13007805677982787,"177":0.09156798478742698,"178":-0.024805914638674802,"179":-0.8252434179895413,"180":-0.1473677000384254,"181":-0.0715473297896367,"182":0.1446044902300081,"183":-0.17925530599292344,"184":0.2307693508968965,"185":-0.47132872521480285,"186":-0.07270383529549834,"187":-0.029385475880427128,"188":-0.2590120375111541,"189":-0.030296979850151645,"190":-0.12117655619204756,"191":-0.0078164122405164,"192":0.4835703039513733,"193":-0.7000406887359778,"194":0.338076613679617,"195":0.35523556989274363,"196":0.22318067718338017,"197":0.30769991720085343,"198":0.3363478419534634,"199":-0.08422364941279027}},{"sx":5,"sy":5,"depth":8,"w":{"0":-0.17553659162217303,"1":-0.7058040993139754,"2":0.2973192288592093,"3":-0.1847059727510779,"4":-0.50798529850355,"5":-0.1484880913312836,"6":0.1595453617932764,"7":-0.013616757033473948,"8":0.06986741409716735,"9":0.1017080108597456,"10":0.4077924282355706,"11":-0.5907982695246463,"12":0.2838454426201899,"13":-0.13820849194162327,"14":0.6595941629610343,"15":0.08555639974047818,"16":-0.1591419370463406,"17":-0.25896751292978926,"18":0.1611662244339045,"19":-0.24499969724977358,"20":-0.09660081030183307,"21":-0.19293675872348132,"22":0.4091836481497586,"23":0.025514922748666374,"24":-0.09586695395531687,"25":0.09225108019512786,"26":0.11447556034413446,"27":-0.02613635359269763,"28":0.4559942113052843,"29":0.21411966431843532,"30":-0.3750978619405416,"31":-0.2246112911040687,"32":0.09422482582330029,"33":-0.5661798038071768,"34":0.16206244577550435,"35":-0.3386911550242857,"36":0.1393637611434177,"37":0.003586447808016773,"38":0.05706878114504716,"39":-0.21114086209835484,"40":0.014143036559024335,"41":0.659253279862459,"42":0.4346829610051451,"43":0.4009085309868908,"44":0.029526725332945817,"45":0.30789052302057074,"46":0.43773995767337276,"47":-0.3745884060076283,"48":-0.03650651948004264,"49":0.1842143039743613,"50":0.15619897448012546,"51":-0.4077062211384097,"52":-0.19174976574488542,"53":0.046297602899070915,"54":0.27143929435762537,"55":0.022699670206144704,"56":-0.3057578785960837,"57":0.13283780391542216,"58":0.02467659482340949,"59":-0.25983106479032636,"60":-0.058944697572086265,"61":-0.18247059157222564,"62":0.13085303013523297,"63":0.27366496477964725,"64":-0.47294289557913355,"65":-0.23023333505032623,"66":0.0006665479865943135,"67":-0.06669844343855227,"68":-0.1443709837712895,"69":-0.3262647924878605,"70":0.024999371295660027,"71":0.050582055597930775,"72":0.3275258008652069,"73":-0.1090835045957467,"74":-0.07536876805067877,"75":-0.11981649568855146,"76":0.09557815782293282,"77":0.22665186760179856,"78":-0.08871179979418735,"79":-0.4476832501428372,"80":-0.25497375529245153,"81":0.17592701727682236,"82":0.5853923712134201,"83":-0.18147910964762848,"84":0.28485107421974853,"85":-0.2938418052871132,"86":0.2721148918824965,"87":0.1492515907642521,"88":-0.06971080132603313,"89":0.245784927811414,"90":0.4275586621803708,"91":0.2237868205860185,"92":0.3005804946109284,"93":-0.3974501432081934,"94":0.3626114750630159,"95":0.02905695172863287,"96":-0.1702070327314239,"97":0.25074988498590817,"98":0.5405601286789357,"99":-0.38624803213739206,"100":-0.3013013602602443,"101":-0.25561582933221355,"102":0.24964413436039465,"103":-0.37019644045011724,"104":-0.08880704225977955,"105":0.4493043754239288,"106":-0.2961342897423721,"107":-0.22134511906242205,"108":0.1601187496800322,"109":-0.04368593665030507,"110":-0.43913854583060313,"111":0.06887668230778196,"112":0.3239328465219672,"113":0.239313826462261,"114":-0.08844677593605364,"115":0.2544716672665909,"116":0.11321190112696253,"117":0.2437747213457082,"118":-0.2318223313967406,"119":0.2594343639895134,"120":-0.0429166006320529,"121":-0.09029852323706707,"122":0.46934609633998303,"123":0.029491829101897172,"124":-0.06775518904133311,"125":-0.348971995868021,"126":0.3096955242866875,"127":-0.2974538489814567,"128":-0.06400712453376821,"129":0.08313129578683125,"130":0.3693912270976472,"131":0.03353174587526752,"132":0.031445185584127795,"133":-0.018565503268902276,"134":0.15498366514544243,"135":0.1177924450135144,"136":0.1884273147621047,"137":-0.09535219422337357,"138":0.217899510068465,"139":-0.4780013384895002,"140":-0.1703674829844875,"141":-0.19428317915837487,"142":0.2500988181844953,"143":-0.39820129014267475,"144":0.17974362272343766,"145":0.28348778750868187,"146":-0.03452024911289733,"147":-0.1866074082780152,"148":0.03265022888563002,"149":0.07423580186764606,"150":-0.04269556359949295,"151":-0.46715644319658656,"152":0.18476462037841482,"153":-0.1826315724329424,"154":0.21128333535381286,"155":0.3630503956990691,"156":-0.3317176523519753,"157":0.13186342256277683,"158":0.3215364489564861,"159":-0.8860373686634723,"160":0.06765376609169328,"161":-0.04643643310817875,"162":0.3997872005807593,"163":-0.04211408630046006,"164":0.1974267624816966,"165":0.16257484890931906,"166":0.3280053577224802,"167":0.35573113914264587,"168":0.1101429685648733,"169":-0.3342877014892347,"170":0.545255910463282,"171":-0.19020663598662763,"172":0.20288309525040973,"173":0.11920048112888534,"174":0.40112061528921666,"175":-0.33806467399305645,"176":-0.04041655175323687,"177":-0.06273213995470031,"178":0.313955488906249,"179":-0.08808499262904605,"180":0.3469097809563274,"181":-0.013434837322834013,"182":0.41679644435628227,"183":-0.014394397315457845,"184":-0.15345002666644827,"185":0.06356729469407146,"186":-0.07413650288891316,"187":0.2013526900523002,"188":-0.2296954669291179,"189":0.05565513892955293,"190":0.11163565188696506,"191":0.13687715793736716,"192":0.2581849366272482,"193":-0.37503846780813666,"194":-0.07170219463330618,"195":-0.5608287811706828,"196":-0.5553540000538201,"197":0.09923340572161975,"198":0.038298137968389864,"199":-0.18834355096833272}},{"sx":5,"sy":5,"depth":8,"w":{"0":0.048711790410730336,"1":-0.008065920095817452,"2":-0.01431163138267233,"3":0.016096544207714218,"4":-0.01910655560404207,"5":0.028531437550579,"6":0.020870575232907782,"7":0.02792719101815149,"8":-0.024056568459262816,"9":-0.01999654312567128,"10":-0.040864752289310656,"11":0.0043259132483383575,"12":-0.004993529367877909,"13":0.01611736086663948,"14":-0.013593933465309323,"15":0.046873977421392675,"16":-0.2898382374503404,"17":0.03395870501597469,"18":-0.0016524485486897602,"19":-0.48743733060558636,"20":0.07843120028803445,"21":-0.2367262565520736,"22":0.2233172929272497,"23":0.22260432259406265,"24":-0.27510776387432634,"25":-0.11239500517908058,"26":0.2821983033769857,"27":-0.3966898272184782,"28":0.33858875741581695,"29":-0.04375196214468223,"30":0.6600587166623313,"31":-0.0821634693160145,"32":0.22791528039957828,"33":0.3834936661731886,"34":0.3161821418698228,"35":0.4880444523334903,"36":0.28888969245760837,"37":0.27523159708166767,"38":-0.16491825732144963,"39":-0.030138934616903465,"40":0.006711472020758161,"41":0.005269186212020171,"42":-0.023402027772612934,"43":-0.026169747997865048,"44":-0.03898384497834392,"45":-0.03975771532542177,"46":0.00564846656485961,"47":0.009997770183241569,"48":-0.01317477240727027,"49":0.013058238212983419,"50":0.0021048424357712225,"51":-0.03015978533491503,"52":-0.06989093202953882,"53":0.028571775111805336,"54":0.035336270365107704,"55":-0.002429716367633715,"56":0.03297181035296566,"57":0.07138922318527026,"58":0.04429561421428372,"59":0.20196474065398454,"60":0.16899933428691702,"61":0.4843832717268881,"62":0.06602169977024078,"63":-0.47378100299792203,"64":-0.017489642264091165,"65":0.33392536374772214,"66":0.06863573663435449,"67":0.24528826516622784,"68":-0.04741555677339748,"69":0.09806640725899557,"70":0.4513350532316464,"71":-0.18761782119468615,"72":0.24885524142434604,"73":1.076254750926462,"74":0.171507169845462,"75":0.309759548433677,"76":0.3009952404693889,"77":0.3737936574375871,"78":-0.3709798167087829,"79":-0.047642424902393954,"80":-0.01972210877759807,"81":0.0036358793967294877,"82":-0.0029477228830495383,"83":-0.020974637474404405,"84":-0.0045124803627512354,"85":-0.0007364913734813628,"86":0.02665987543162406,"87":0.0018125680248114902,"88":0.032480096011925134,"89":-0.045814364651666925,"90":-0.012006650275880833,"91":-0.034725582229414576,"92":0.017457040449092385,"93":-0.021138997978503386,"94":0.032231177845286,"95":-0.014220062485405846,"96":-0.08459655660122808,"97":0.19496728343364006,"98":0.1953493651218106,"99":-0.17882647569462978,"100":-0.4870783030734941,"101":0.028828101635899966,"102":0.21309074128905514,"103":0.1510190974739377,"104":0.0693284688110137,"105":0.3048571946066041,"106":0.6701940517809524,"107":-0.11572848759574328,"108":0.47590469028893145,"109":0.24812780721829447,"110":0.05658909765794152,"111":-0.048105701964193344,"112":0.008968080484076732,"113":-0.39220199859496757,"114":0.4728539894489361,"115":-0.12562813465964745,"116":-0.12824960780184116,"117":0.3771047741423825,"118":-0.20237650495943968,"119":0.16889408318647067,"120":0.005333326204119187,"121":-0.07870936159799764,"122":-0.03694951029718196,"123":-0.00637156612465952,"124":-0.03492471647349625,"125":0.014955366212725427,"126":-0.029869335254045965,"127":0.006819954081225262,"128":-0.0230994108518,"129":0.02174228881366163,"130":0.01423559246941356,"131":0.019407125984345984,"132":-0.008787521856092068,"133":0.0032065681337889963,"134":0.011617544677111536,"135":-0.0033174104132864188,"136":-0.31223481333939934,"137":0.4697447739472112,"138":0.6371902256103593,"139":0.40186282530369033,"140":0.06345635117028071,"141":-0.3010209757024792,"142":0.08528844124191345,"143":-0.16341570473275335,"144":-0.19520029985701237,"145":-0.4570204335852587,"146":0.3741264860621064,"147":-0.6427254128321527,"148":-0.19455023647951195,"149":-0.3294382983062123,"150":-0.09627822208679114,"151":0.08874984871430344,"152":0.2268430121653517,"153":0.33476982076279643,"154":-0.04734692935427911,"155":-0.2727922353812983,"156":0.26342085649253605,"157":0.2846932804537328,"158":-0.30327235855799717,"159":-0.2968113246210964,"160":0.012699228079521969,"161":-0.02243644952982147,"162":0.014062859162065004,"163":-0.05043185621635712,"164":0.006316910399546484,"165":-0.02416406364032206,"166":0.022876128980418575,"167":-0.03324643852507496,"168":-0.003933671235552902,"169":-0.021748625383173063,"170":-0.03290409284795813,"171":-0.02569888073856507,"172":-0.0442516139292294,"173":0.007477902593561477,"174":0.012416086596023406,"175":0.002972811791179889,"176":-0.33563026774460347,"177":-0.12133214843294764,"178":0.11051177361515262,"179":0.29515459094875596,"180":0.3235714349084091,"181":-0.6115592997741419,"182":-0.047008629825725984,"183":-0.3830082580804792,"184":-0.09098318983014651,"185":-0.37692374649258187,"186":0.9070747643679844,"187":0.19576003898617433,"188":0.3059282097876338,"189":-0.04661809354296155,"190":0.43939118632707685,"191":0.2834864908935116,"192":-0.09557956305654154,"193":0.4972229059894281,"194":0.48105423390908975,"195":-0.05970847191028123,"196":0.16117209680245612,"197":0.7058345332166958,"198":-0.5601711813320913,"199":0.22066669271451578}},{"sx":5,"sy":5,"depth":8,"w":{"0":0.013538261028654174,"1":0.23992069380297634,"2":0.5299483919993762,"3":0.5073829306957358,"4":-0.04717745905053461,"5":0.2360774587840208,"6":0.11096805750819592,"7":0.03551991905412707,"8":-0.30334648525391394,"9":0.1560795160927703,"10":0.09747582667135932,"11":-0.9818695143829983,"12":0.2718186738802101,"13":0.1077408867057515,"14":0.21111665573005053,"15":-0.2628507116392736,"16":-0.13185772921580666,"17":0.033314726010129865,"18":-0.12500648765691022,"19":-0.31313220223159166,"20":0.07913277385488827,"21":0.057836951431150786,"22":0.027502499740469467,"23":-0.0880279856978485,"24":-0.02851659324201113,"25":-0.8808252747188768,"26":-0.4795786452004782,"27":0.6553883962748618,"28":-0.5635443130807605,"29":0.4476886043407399,"30":-0.3313688050781969,"31":-0.14668892405127998,"32":0.2776494024974924,"33":-0.3451461958911578,"34":-0.15773987640059883,"35":-0.16467468675510513,"36":0.785654674897196,"37":0.024668065115978882,"38":-0.02272019117487171,"39":-0.36035433731721506,"40":0.14930516267543784,"41":0.1663664093887439,"42":0.64468175822093,"43":-0.20276099791074637,"44":-0.5801791871179424,"45":-0.21539482785027766,"46":0.3376043524694615,"47":0.22482841060229644,"48":0.19207475933316515,"49":-0.06326045431816193,"50":0.7516183208939448,"51":-0.250190217544351,"52":0.08402808528066871,"53":-0.3110608705950699,"54":0.47444770407235454,"55":0.6821615837455257,"56":0.01811073326848377,"57":0.18557913711193189,"58":0.5570109348235401,"59":0.22441588706307888,"60":0.3389453348709441,"61":0.035383622107790606,"62":0.1715144814026704,"63":-0.041716218196823404,"64":-0.07993584536795736,"65":-0.21642663079266466,"66":-0.09250039951268757,"67":1.2868472522076382,"68":0.02671672174550596,"69":0.5530198797242948,"70":-0.620773867517067,"71":0.6959002172863233,"72":-0.24528372799306764,"73":0.5510050965960059,"74":-0.527204129386246,"75":-0.1066334990940137,"76":-0.7553402353704614,"77":-1.2479539613116981,"78":-0.7498357331572633,"79":0.11422949025837083,"80":-0.1568050977838018,"81":-0.5828591948138803,"82":-0.26915986385760954,"83":-0.2555827745237262,"84":-0.10892222252593844,"85":0.13863020049839947,"86":0.010035987552417873,"87":0.10474075716091362,"88":-0.027345158073997046,"89":0.04883312208156929,"90":-0.09515099835462927,"91":0.1507963326099086,"92":-0.1901202254502417,"93":0.30441083844634564,"94":1.0196254966753784,"95":-0.018103890907283236,"96":0.03555912515294495,"97":-0.05449104240014042,"98":0.13856597570859439,"99":0.08172734815097281,"100":0.0424858970536319,"101":0.19274219965944048,"102":-0.28977596427796437,"103":-0.045270529111476346,"104":-0.16531463774842628,"105":-0.6451491850045595,"106":0.45172960144489044,"107":-0.8100008964876454,"108":-0.5560190096472744,"109":-0.021608562882918268,"110":-0.044247401197233846,"111":0.8089503253564518,"112":-0.47361267072315516,"113":0.05899473141956418,"114":0.0148954476885795,"115":-0.33364984761704364,"116":-0.17386574933440138,"117":0.03760041650474856,"118":0.23694678006800185,"119":-0.01563493609386455,"120":0.13723133680218913,"121":-0.1690118554401777,"122":0.41431473843955996,"123":-0.3320656354426208,"124":0.5419118713335287,"125":0.10707052215202373,"126":-0.12197695975823988,"127":0.4614323526256554,"128":-0.1868491872327024,"129":0.4307615579865862,"130":0.2841117649038417,"131":-0.3009121618597208,"132":0.008942990133344642,"133":-0.025395425155402142,"134":0.4821065151471089,"135":-0.4100601742017663,"136":-0.08503635524901217,"137":-0.3385092345215997,"138":0.21522765275057607,"139":-0.5029720231757926,"140":0.237746181632885,"141":0.22299966152081752,"142":0.19638922203541956,"143":0.05443239876929076,"144":-0.3694435053988875,"145":0.5680045943560624,"146":-0.07680531892816228,"147":-0.12720648519676936,"148":0.21688802795524725,"149":-0.5311071721347634,"150":0.7472655454744495,"151":0.7840836331509582,"152":0.21208592697419984,"153":0.3272211441561188,"154":0.0897023996623524,"155":0.5249192648679928,"156":-0.4024916918634254,"157":1.105242682863706,"158":-0.2701531916939993,"159":-0.13041367021478323,"160":0.009254220754722845,"161":0.06717220389133083,"162":-0.02021072820885595,"163":0.2950078341104132,"164":0.24564584147912866,"165":-0.32581778592651267,"166":0.5746037363003443,"167":-0.10253920715755914,"168":-0.11825542666909829,"169":-0.5968638299541815,"170":0.3311606321899221,"171":-0.03099622121340966,"172":-0.10140635446900877,"173":-0.046834028729977856,"174":0.16970165965773612,"175":0.008252287339099407,"176":0.07601749412262873,"177":0.22000168934351005,"178":0.10088972698294994,"179":0.5260087811965983,"180":-0.040917293628520285,"181":-0.28048983916305936,"182":0.32433507121587024,"183":-0.44345384719021497,"184":0.06268633734639519,"185":0.20878594890244875,"186":0.09190197058901306,"187":0.4235319206487246,"188":0.06326972733271058,"189":0.031999500575546916,"190":0.3887806278015891,"191":-0.6370167781256487,"192":-0.9514970805892792,"193":-0.061970804831797274,"194":-0.15189222794281015,"195":-0.12786689267757007,"196":-0.1489372633527583,"197":-0.4243645065745365,"198":0.1911487880942142,"199":0.3220137658758155}},{"sx":5,"sy":5,"depth":8,"w":{"0":-0.13810892490460847,"1":-0.0059250020510434,"2":-0.11555782321100616,"3":-0.05480174514423419,"4":-0.1322705933700904,"5":-0.1181324949941559,"6":-0.10848258063684696,"7":-0.09884817369421163,"8":-0.09703667789616212,"9":-0.0712787472706419,"10":-0.16512284679750303,"11":-0.06751807434560392,"12":-0.04457474065809886,"13":-0.11291050439589399,"14":-0.07854439137152266,"15":-0.1473679349285357,"16":-0.20079734646308023,"17":0.0143366798405083,"18":0.14086093470898173,"19":-0.30236368772068406,"20":0.013128651694482728,"21":-0.27605959416340436,"22":0.008794770030316488,"23":0.25727320652138863,"24":0.06682244371797694,"25":0.16576520890359764,"26":0.38888117154701196,"27":-0.2820937103443185,"28":0.11459804178801361,"29":0.12061479639472371,"30":0.6417419625325543,"31":0.17617818709395683,"32":0.009337865723173187,"33":0.2786316250863064,"34":-0.09575780239807737,"35":-0.11238034733810245,"36":-0.10704304144049603,"37":0.27179031408133136,"38":0.3580343738980892,"39":-0.32243767124175265,"40":-0.1414613931673413,"41":-0.13935324953812409,"42":-0.045254759828953564,"43":-0.09686309717312482,"44":-0.1341810026234023,"45":-0.03689295538062591,"46":-0.07687753590744284,"47":-0.19764495521892014,"48":-0.1729369867829366,"49":-0.12928892231123335,"50":-0.17111802119330385,"51":-0.16394209707041962,"52":-0.16087923230633372,"53":-0.14540388554950154,"54":-0.15437289974580415,"55":-0.10173828014661952,"56":0.12349870389063478,"57":-0.2083096403332756,"58":0.5918299554302606,"59":-0.054260583506560996,"60":0.0886919885196938,"61":0.12233694648384828,"62":0.37030552260235416,"63":-0.41657399408080265,"64":-0.006086490439328621,"65":0.2645343587798143,"66":0.4168936012856812,"67":0.026795150212711526,"68":-0.14164954332979232,"69":0.03988714009791016,"70":0.22389986697835712,"71":-0.38355923781169127,"72":-0.06340689767504204,"73":0.17534402271543714,"74":0.8882279390231611,"75":0.1304059089114247,"76":0.18137482842333874,"77":0.07126356049328894,"78":0.4850882871459022,"79":0.12796273662033592,"80":-0.8831013752179441,"81":0.5548505151026378,"82":0.4817888545368392,"83":-0.7467527615007034,"84":-0.5391523857765289,"85":-1.6347763671398436,"86":-0.3696136475114482,"87":0.03163586598817073,"88":-1.164020014762882,"89":-0.4948253698623409,"90":0.7947311425295582,"91":-0.4562630257792069,"92":0.7059245587183275,"93":-1.7988548386913092,"94":0.10119914752058902,"95":0.08503365067736444,"96":-0.044385929990285816,"97":-0.4172161525085003,"98":0.01166730701936463,"99":0.16762382554393807,"100":0.12165129972832864,"101":0.048877674180942784,"102":-0.21509729393367555,"103":0.09354039594245109,"104":0.1293995118184853,"105":-0.08434241872412113,"106":0.026827619217576693,"107":-0.41052745923825934,"108":0.30549081668787453,"109":0.19819043967119332,"110":0.3183526620646905,"111":0.1288770963053686,"112":-0.2871390349886445,"113":0.3038382715412496,"114":0.13068179085389917,"115":0.1771681934303635,"116":0.054584804386062814,"117":0.01673919265607179,"118":-0.5928369967136558,"119":-0.06271117865524768,"120":0.5994513291271684,"121":-0.029162903155476844,"122":1.031842219895637,"123":-1.4667265397228106,"124":0.5119242982006103,"125":0.48191649914810075,"126":0.18441845808106683,"127":0.5364279848102442,"128":-0.3299806678724468,"129":0.6033203406983623,"130":0.42223236862265445,"131":0.45367045280654644,"132":-0.0705598205274114,"133":-1.0933513197041083,"134":0.2237351674934619,"135":0.5691723592593081,"136":-0.3173275174615786,"137":0.16630048320491056,"138":0.7523208988868887,"139":-0.1011070768219028,"140":-0.2502349942731585,"141":0.1943575180469955,"142":0.46836439823700404,"143":-0.48934256635356804,"144":-0.10679676245185392,"145":-0.20110855738313282,"146":0.3147754377229242,"147":0.02616616309767496,"148":0.30316200305657576,"149":-0.032964519351726736,"150":0.5214811297167427,"151":-0.04435698975358646,"152":0.08940791324863231,"153":0.21637771235922626,"154":0.5041312967482345,"155":-0.5165252655882243,"156":0.32585181966919785,"157":0.2674486244660616,"158":-0.16752563045292634,"159":-0.24764133185733514,"160":0.4356150733841559,"161":-0.8239853388006543,"162":0.1509519525512502,"163":-0.10082215492412833,"164":0.2844594139077445,"165":-0.043315348779236595,"166":0.8777421638363766,"167":0.11048134090126292,"168":-0.3008453577177113,"169":0.4381753588853662,"170":-0.1378199444658441,"171":-0.35759066555315383,"172":-0.5656367808422161,"173":-0.1967515209643278,"174":0.19523464549229927,"175":-0.5031631367008749,"176":-0.31633869667798253,"177":0.703650090971472,"178":-0.025288140261088533,"179":0.47294037136559647,"180":-0.16321975769447264,"181":-0.0567529905354114,"182":0.5552587558579024,"183":-0.05940856253076617,"184":0.05798495673350732,"185":0.09872779559575282,"186":-0.29007168331791994,"187":0.08779001927282004,"188":0.2111690741490096,"189":-0.25967028105016654,"190":0.3397187854510291,"191":0.28186917271718037,"192":-0.17206096732364537,"193":0.2433997216628648,"194":0.2639125315851974,"195":-0.23121177273903298,"196":0.05245523645987142,"197":-0.17756276989852762,"198":0.2580384666081568,"199":0.08394497837547236}},{"sx":5,"sy":5,"depth":8,"w":{"0":0.23863958234188576,"1":0.5712410480569388,"2":-0.0449722037779984,"3":-0.012387927133062682,"4":-0.09427106781368182,"5":0.111030198811997,"6":-0.10389688193610637,"7":-0.16343264314746908,"8":-0.12532788875129813,"9":0.24532750129983305,"10":-0.12191031052215406,"11":0.35834320347124765,"12":-0.1568664561549092,"13":-0.004542109637166928,"14":-0.4675898924428344,"15":0.20066542788646222,"16":-0.08784069722324145,"17":-0.06695982823486872,"18":-0.19678373208538838,"19":0.09153928039329891,"20":0.13801786522552534,"21":-0.13346356290997602,"22":0.2066864438633666,"23":-0.6809042531784804,"24":-0.13136068245882676,"25":0.21783792224581106,"26":-0.017858716006491113,"27":-0.18741342623202875,"28":-0.0723789932614306,"29":-0.08280020146305275,"30":-0.2625707612075256,"31":-0.1714128354477737,"32":-0.24858484355376734,"33":0.6810845590334278,"34":-0.09987805237428954,"35":0.461933761969036,"36":-0.01331372459106831,"37":-0.2091316734116554,"38":0.28495212885367105,"39":-0.05352754562869267,"40":0.06753730435396445,"41":0.146906252437619,"42":-0.40916453290259824,"43":-0.09967007679241648,"44":-0.13639287897674995,"45":-0.07077858694204126,"46":-0.046240165486116924,"47":-0.4780641697986672,"48":0.14759270694104168,"49":-0.22036829094599125,"50":-0.3865991844462309,"51":0.30159053572297956,"52":0.25932740428887247,"53":0.06842376366081442,"54":-0.26026256309168017,"55":0.1867239222693147,"56":0.12589567490026676,"57":-0.35619165417948806,"58":-0.047903209428731254,"59":0.13489471210914777,"60":-0.17224652777649815,"61":0.12370115720432047,"62":-0.027889957139201706,"63":0.5219278119928096,"64":0.11644700897075766,"65":0.28899464911167533,"66":-0.0723686635562297,"67":-0.5448898173538955,"68":0.1609639798052618,"69":0.1982303098041164,"70":-0.6449403205131269,"71":-0.24823867473006941,"72":0.09248387217299056,"73":0.3895759905263431,"74":-0.21936600015418029,"75":-0.06089584770891503,"76":0.07665386480475866,"77":0.045231227429772036,"78":0.22628074261532238,"79":0.08279640197283124,"80":-0.18088735443745957,"81":-0.5452270151142421,"82":-0.17518641492827383,"83":0.10862449333078592,"84":0.11781268268053108,"85":-0.1607816899450229,"86":-0.0999871537543541,"87":0.074931683335593,"88":0.23218733331879046,"89":-0.5568782288751083,"90":0.03697457738400419,"91":0.19735872526347276,"92":-0.32374562106986127,"93":0.2962857365605706,"94":0.013893054316547816,"95":0.08551141981245092,"96":0.17563054431360803,"97":-0.35848416157499724,"98":-0.07404618270126721,"99":-0.3061239500692872,"100":0.2647432756431901,"101":-0.16137305633937582,"102":-0.19701030210216428,"103":-0.15594698649904154,"104":-0.18292303427613862,"105":0.6177724467140692,"106":-0.1751689670502133,"107":0.04401699139570827,"108":-0.12010079339717152,"109":-0.16439185645991256,"110":-0.19163749284320056,"111":0.19770137639206764,"112":-0.036794565227579366,"113":-0.31974712825655216,"114":-0.32952656408491837,"115":-0.5317770129606306,"116":-0.4175651445889017,"117":-0.05422580817524929,"118":-0.26796351968347953,"119":-0.18459726585231023,"120":0.06054477294389488,"121":0.45894064460725376,"122":-0.026511212958393576,"123":-0.47030709294939443,"124":0.18506531828644485,"125":0.044188802160987084,"126":-0.42870431587896185,"127":-0.26321332059940306,"128":-0.061852664282034245,"129":-0.8652751774256776,"130":-0.22256474328461207,"131":0.6902449385601581,"132":-0.40880704871349244,"133":-0.005930185489148573,"134":-0.08930900917507593,"135":0.2018001557369077,"136":0.27390953207218627,"137":0.32765445050032993,"138":-0.23704372211733604,"139":0.10762645005421674,"140":0.44150598722435974,"141":0.20945660988869216,"142":0.054751442632436614,"143":-0.022837841823899856,"144":-0.1063439341584741,"145":0.3580093109605872,"146":-0.2687453861097617,"147":-0.025674329913426542,"148":0.14842010880671816,"149":0.15006458063258604,"150":-0.11615741121225402,"151":0.01692881132466261,"152":0.18918957039849163,"153":-0.032167759653867596,"154":-0.310492409312798,"155":0.5318030157625699,"156":0.08011915127734034,"157":0.2588618021717362,"158":0.44080442053588864,"159":-0.38170259432294007,"160":-0.2035686193371091,"161":-0.16883234205748882,"162":0.13045111040071106,"163":0.6304217720052218,"164":0.2562536419928475,"165":-0.2263599828914081,"166":0.1586177275143575,"167":0.15707934784883912,"168":0.1726418703059562,"169":0.10672663043513764,"170":0.032090081231176286,"171":0.1291525960967893,"172":-0.2304243978688313,"173":0.1184953031177135,"174":-0.12348360537034517,"175":-0.19031795690876524,"176":-0.29984087127982273,"177":-0.08815409763480414,"178":-0.3346530493777849,"179":0.17037995152019356,"180":-0.11029736570286955,"181":-0.28663864421320995,"182":-0.14283521962959242,"183":-0.19187991591975512,"184":0.05015183924333529,"185":-0.12808068340446205,"186":0.2721814630205538,"187":0.36890169236286285,"188":-0.19425483539501115,"189":0.3459506457753056,"190":0.07876054291134851,"191":0.03579144656950562,"192":-0.10297693384213137,"193":-0.17439489029984492,"194":-0.04274229330901972,"195":0.12480298161625684,"196":0.1955221356243186,"197":0.29961900104103273,"198":0.28915655965319215,"199":-0.01237037260579414}},{"sx":5,"sy":5,"depth":8,"w":{"0":-0.5552787364620406,"1":0.1554803892845812,"2":-0.171435420713513,"3":0.6359931213661774,"4":-0.29772099323355217,"5":-0.7539258672972683,"6":0.14125391656119332,"7":-0.1998885969131799,"8":0.05226867358042917,"9":-0.54015454038062,"10":-0.4628349157795697,"11":0.08556688109362193,"12":0.22917077253753415,"13":-0.1759766767644636,"14":-0.4762001185095359,"15":0.21633230648033533,"16":0.09372481570105223,"17":0.24796394808253913,"18":-0.17890986185902785,"19":0.22575226484148364,"20":0.007502714450801053,"21":0.018337424114202874,"22":-0.014055563415445213,"23":0.18422392485907033,"24":-0.08381702947634681,"25":0.4629019315165204,"26":-0.2790156015761418,"27":-0.446681285336561,"28":0.22869740446220185,"29":0.007890487982346605,"30":-0.5659900260563793,"31":-0.6260079023718127,"32":-0.020407376807098712,"33":0.39600262221679444,"34":-0.1333836092171736,"35":-0.21746804764090627,"36":-0.207256634308931,"37":0.2395143317723901,"38":-0.20882003493826048,"39":0.09427680353804856,"40":-0.2589216941943181,"41":0.1448248859923126,"42":-0.5707008319102226,"43":0.21764281894231,"44":0.00606282351052208,"45":-0.254754782049993,"46":0.10008088991330509,"47":0.06331915390988402,"48":0.20507822303424303,"49":-0.6729322561931248,"50":-0.08818788661336535,"51":-0.3979592069789649,"52":0.6252399260443368,"53":-0.08857161596097694,"54":0.17544868462614271,"55":0.3412370742977258,"56":0.17559279121129265,"57":-0.20577299787249542,"58":-0.09416282832446259,"59":0.310601216425596,"60":-0.004786636787651886,"61":0.002475725431231076,"62":-0.06840415094561132,"63":-0.0053985744696344465,"64":0.12679153566807286,"65":-0.27486376297736287,"66":-0.06220513965765094,"67":0.2328631295811632,"68":0.23756849373401256,"69":0.07568533826028688,"70":-0.3403154490615552,"71":0.24386396640370572,"72":0.1583955343940407,"73":0.8090578293902724,"74":0.17511667733275232,"75":0.018436807321042505,"76":0.4548068708804254,"77":0.19223185613871288,"78":-0.20249566649006462,"79":-0.628022752224903,"80":-0.2627275200460063,"81":0.07993642780595779,"82":-0.5705840494305051,"83":-0.2614128431941928,"84":0.23662351934190226,"85":0.10055684779306831,"86":-0.4370076162897365,"87":0.08241326432237703,"88":0.2512196503289756,"89":0.4906731693553686,"90":-0.36347636298079994,"91":-0.22346997138941613,"92":0.15637199039220337,"93":-0.04886425899625359,"94":0.22611665934543862,"95":0.06727853242473152,"96":0.22172161680781202,"97":-0.06116463923210369,"98":-0.27996531890206927,"99":-0.2681461558732543,"100":0.3448899341176394,"101":0.2081679111756013,"102":-0.4733329100153763,"103":0.013126703463000948,"104":0.19139408192431717,"105":0.1254111527111717,"106":0.5090407257720291,"107":0.12168732699611481,"108":0.1383437145887247,"109":0.5158707813861956,"110":-0.035322872556854214,"111":-0.3582389993801541,"112":-0.1230297543862535,"113":-0.7122257172968056,"114":0.310565643911269,"115":0.5357199528005503,"116":-0.5925671214646441,"117":-0.08332451478490027,"118":-0.4710352590510118,"119":0.21421063507915053,"120":-0.10197993852556873,"121":-0.1173187114540239,"122":-0.0564259773979711,"123":0.1916830282022217,"124":0.3601443760251042,"125":0.5027747362725407,"126":0.08740424850570078,"127":0.26281309493988997,"128":0.21455719615622915,"129":0.6267102522357192,"130":0.10331815198938224,"131":0.31144831441061593,"132":-0.09513291732315632,"133":0.15568851758335953,"134":-0.39152910790423173,"135":0.07894531081019862,"136":-0.03442774652382077,"137":0.5306816827022565,"138":-0.17837365771154967,"139":0.07618420001257507,"140":0.42478595453103823,"141":0.28036802662802,"142":0.025019496033362273,"143":-0.08146325763953019,"144":-0.6315226507277557,"145":0.2885997805257489,"146":-0.15051806659245553,"147":-0.2688569206482009,"148":-0.6912215770808912,"149":0.20866259143738924,"150":-0.4267742366478707,"151":0.31217306208589873,"152":-0.23633459715729765,"153":0.2971392704429813,"154":0.12563760140495736,"155":-0.07012149542413998,"156":-0.5463704947033728,"157":0.0754517337889868,"158":-0.12748738509684368,"159":0.5456561397207812,"160":0.13416305187042085,"161":-0.04211811801969698,"162":0.0639438007108176,"163":0.1897614145642387,"164":-0.07619910345043031,"165":0.15243392635253017,"166":0.1295996118330131,"167":-0.02300180247918745,"168":0.09077138343087747,"169":-0.6420894715935834,"170":-0.14371826890362763,"171":0.16937494597720612,"172":-0.08365757725268964,"173":0.23069303405589928,"174":-0.11542373550272683,"175":-0.08332162909976006,"176":-0.05708967912632493,"177":-0.07443390591802791,"178":-0.3421709113825326,"179":0.1870991599648137,"180":-0.08282655775591745,"181":0.4752780378771928,"182":-0.33597682523360695,"183":-0.42393949201988773,"184":-0.5867569294038039,"185":0.7393011676860239,"186":-0.38218516911731437,"187":0.36761560118228365,"188":-0.06220293811743674,"189":0.20527377052935253,"190":0.18284474619038993,"191":0.12206129238234988,"192":0.292874563038372,"193":-0.12729897253980735,"194":-0.45734526709146056,"195":0.20529111224025215,"196":0.5261665480419635,"197":0.6799732930414465,"198":-0.11029841506395431,"199":-0.2300645627996685}},{"sx":5,"sy":5,"depth":8,"w":{"0":-0.01884775356139605,"1":-0.8509418193857381,"2":0.2534374746577512,"3":-0.7244605174330973,"4":-0.2820868240209301,"5":-0.02051507279652052,"6":0.09165844727860548,"7":-0.006079382182466539,"8":0.03194758199433912,"9":-0.17512380382513917,"10":0.05012800985617967,"11":0.28032388778262557,"12":-0.1215269199348204,"13":0.5810395994070752,"14":-0.08244581739249823,"15":-0.16277848660452685,"16":0.06961835636175943,"17":0.4539637573497698,"18":-0.10776073462403102,"19":0.03123050639944823,"20":0.2052955479626708,"21":0.25054987867297335,"22":-0.08276240890185664,"23":-0.1999834302927032,"24":0.21911048703966737,"25":0.3635868242763472,"26":0.13967747224427168,"27":-0.6012036958236886,"28":-0.2795558330962982,"29":-0.18791185204570704,"30":-0.33813544601970164,"31":0.1683806956148574,"32":-0.05516419485085792,"33":0.6987025908181288,"34":0.23012524891750777,"35":0.27370622944173306,"36":-0.26020439081076346,"37":-0.034687227088107564,"38":-0.03444939285868505,"39":0.01355560380063839,"40":-0.058746988997203174,"41":0.9862937354407053,"42":0.1092248646091833,"43":0.02486076546616764,"44":0.027612084818735824,"45":-0.2991090931007294,"46":0.22496998648662195,"47":-0.23065234991627304,"48":-0.2762224541136186,"49":-0.4971386064595338,"50":0.47093760790827077,"51":-0.12343261513177654,"52":-0.5064111519462179,"53":0.16705604313134353,"54":0.22803589180143388,"55":0.17676868560487355,"56":0.1408020881453091,"57":-0.10512489310298387,"58":0.31215352934265866,"59":-0.2176204565883206,"60":0.3468439947654021,"61":0.08887284459212984,"62":0.1298217159421026,"63":0.08969984316741607,"64":0.2361671803000094,"65":0.5254352210543728,"66":-0.16850874329955748,"67":-0.19808971328864103,"68":0.48608158785314215,"69":-0.1158146811961795,"70":-0.0393768176614342,"71":0.27204478374247465,"72":-0.10119090473817346,"73":0.10693557025158093,"74":-0.01618602774640042,"75":0.18208510624193533,"76":0.4485839635114801,"77":-0.15048171390166828,"78":-0.30893145538554995,"79":-0.17560818839206646,"80":-0.02113336211656285,"81":0.2847448487227867,"82":-0.25834920750063145,"83":0.2968162566043484,"84":-0.4558899935061286,"85":-0.4151585506754567,"86":-0.028557408208349438,"87":-0.023624481749518735,"88":0.0131129824352267,"89":0.5466188966488262,"90":0.23257877998813092,"91":0.2018851077049883,"92":0.2495972277528269,"93":-0.05207048422949743,"94":0.10138019887817988,"95":-0.11659809836161657,"96":-0.16193115019529833,"97":-0.23232082398089793,"98":0.22070546134806818,"99":-0.04920903534447175,"100":-0.3076525299625564,"101":0.09938395974330129,"102":-0.23637499736946183,"103":-0.08925321666930436,"104":0.10645605760531426,"105":-0.09015995454274814,"106":-0.25030495494508836,"107":-0.43190044555796575,"108":0.4336637833791093,"109":-0.348987240329067,"110":-0.824817093077177,"111":-0.3908669165027386,"112":0.17172809337383843,"113":-0.6302721472655678,"114":-0.06674026391084474,"115":-0.6992340901518483,"116":0.001953604426956272,"117":0.10247262149104613,"118":-0.462984986306557,"119":-0.11873875567049814,"120":-0.039212871722432756,"121":-0.35981713903547585,"122":-0.39627870273924926,"123":0.8650156945913892,"124":0.31556016817687593,"125":0.06633369943409341,"126":0.16094924586307463,"127":-0.03305367910275071,"128":-0.09279154860322156,"129":0.09094575445540107,"130":0.11614235523139504,"131":0.09827768740045092,"132":0.4418151432773121,"133":-0.3074188695111145,"134":0.3534456349631441,"135":0.08445944189059215,"136":-0.2301224607034715,"137":0.09357122276149267,"138":0.041454857197150134,"139":0.07171858532490942,"140":0.025622197444883168,"141":0.07548376221893997,"142":0.34559038274732484,"143":-0.2751953421317556,"144":-0.39414847107233186,"145":0.1175657701363781,"146":-0.7307973558086172,"147":0.004449970985742102,"148":0.37030389009961046,"149":0.08771521411196864,"150":-0.33695998840900326,"151":-0.024616264986501137,"152":0.11113576340629894,"153":0.3404045778089675,"154":-0.4193911895781132,"155":0.2908519104671924,"156":0.09303412662086377,"157":-0.11106734597177086,"158":-0.2888118005347186,"159":-0.00026281417217551895,"160":0.24399141169595803,"161":-0.0036676605759827403,"162":0.10101244702416355,"163":0.2723414166227601,"164":-0.11361185315494964,"165":-0.026132890401390343,"166":0.5659059318362993,"167":-0.23859537011167556,"168":0.22966681394515903,"169":-0.4261949955284576,"170":0.3056414861977799,"171":0.00541924150932661,"172":0.45921164201432274,"173":0.26174912229641656,"174":0.28073388392703913,"175":-0.02912904909727983,"176":0.22536677830886634,"177":-0.1661683487399085,"178":0.18041103256083982,"179":-0.17751862540750088,"180":0.4983452139929648,"181":0.21156571915178968,"182":-0.19142089311891933,"183":-0.1998015707892517,"184":0.22029528567752496,"185":-0.2987318355665623,"186":-0.2443229568571553,"187":0.5945255706387178,"188":-0.09575172198795973,"189":-0.228051697905655,"190":-0.11745269344914049,"191":0.1748417395274775,"192":0.09502732485840952,"193":-0.5364495961813935,"194":-0.07347402395573416,"195":0.42388000616433935,"196":0.10913832724762469,"197":-0.6792952665985578,"198":-0.009468545796500265,"199":-0.17640356215119318}},{"sx":5,"sy":5,"depth":8,"w":{"0":-0.16171726070780562,"1":-0.20346204816341049,"2":-0.12298176628952781,"3":0.27868266606154307,"4":-0.09868689081880298,"5":0.1806207709661515,"6":0.21985420808894032,"7":0.332457864686548,"8":-0.25994075416876855,"9":-0.03289028556043965,"10":0.3115810312156031,"11":0.0949900646733838,"12":0.12792384103431412,"13":-0.1672969807877747,"14":0.16480153052584567,"15":0.07118712960096885,"16":0.14423894663753004,"17":-0.3869759893327826,"18":0.09722758656914629,"19":0.7293928253825951,"20":0.16292070582326765,"21":0.36334513766679927,"22":-0.34566602611730657,"23":-0.21355587094615114,"24":-0.041518064901244246,"25":-0.3018861905773014,"26":-0.03870064956578832,"27":-0.08914496810895571,"28":0.2309344845177502,"29":0.30844157815110795,"30":-0.06735454819480188,"31":-0.5653190592273012,"32":-0.40491768291661817,"33":0.31712459789307784,"34":-0.3192685451907666,"35":-0.4286277042918335,"36":0.07354261289770883,"37":-0.49463634800773687,"38":-0.18764426259500877,"39":-0.05491337855430419,"40":0.06746580259809118,"41":-0.171242077123398,"42":-0.13744688256465332,"43":0.2751342111398396,"44":-0.24969405931881195,"45":0.20426570986065373,"46":0.3390050313393361,"47":0.1948256590899953,"48":0.05970157090699898,"49":-0.29395197398802403,"50":0.10957369029278549,"51":-0.21342740522589307,"52":-0.01623264395028241,"53":-0.012471981010351255,"54":-0.11224408558470936,"55":-0.09157675897792628,"56":-0.12611555401689525,"57":-0.6636323871177513,"58":0.05527601360622744,"59":-0.5792602606661126,"60":0.34161999910163326,"61":0.103932790628652,"62":-0.3326627660740511,"63":-0.2217329673740208,"64":0.07220570291024722,"65":0.45768613900602023,"66":-0.1134529847947099,"67":0.5928834353816903,"68":0.2623310868110364,"69":0.21253858370023163,"70":0.08494133435985697,"71":0.09458738894221004,"72":-0.04610816192796804,"73":0.41758786475033605,"74":-0.2949850419594367,"75":0.33177461658915,"76":0.20897693361379116,"77":-0.338655521991623,"78":0.010382469906977918,"79":-0.2799430956919307,"80":-0.128055201970621,"81":-0.0740884165706212,"82":0.03882797882405505,"83":-0.20409576429733076,"84":-0.16943228418522302,"85":0.07860401670070448,"86":0.17960654426844166,"87":-0.41003792015552676,"88":0.06707124111780674,"89":-0.006816295083047995,"90":0.22922309667636517,"91":0.07838727531541316,"92":-0.11165548794089762,"93":0.16834554414966968,"94":0.6108218389975961,"95":0.06857544768700852,"96":0.07801700114265571,"97":0.020736683745969698,"98":0.1938710898650626,"99":-0.3511440012126353,"100":-0.15412402010491158,"101":-0.22504553729309498,"102":0.17812178650931673,"103":-0.11865407313148417,"104":-0.4915102334182948,"105":0.43916935029239385,"106":-0.034053732342449766,"107":-0.05410859771632521,"108":-0.214847465841134,"109":-0.24201647990762457,"110":0.28776011568961246,"111":0.02533446884023223,"112":0.4907935972487808,"113":0.4950251670286834,"114":0.06733031794893081,"115":-0.8519296079167463,"116":-0.38084554069947524,"117":0.10296592354854284,"118":-0.3356848008402227,"119":0.07142291674426347,"120":-0.27431131894978683,"121":-0.187311349096105,"122":0.3528185342295773,"123":0.027237552766933182,"124":0.07472308040011297,"125":-0.10559558466338438,"126":0.03437091911152651,"127":0.0056717017272965445,"128":-0.08457286893292854,"129":0.2715092354464015,"130":0.3517828474911666,"131":-0.6650431057030235,"132":0.34339393493058024,"133":-0.00932669575927375,"134":0.21399453517999456,"135":-0.06795241930799312,"136":-0.13295056043716946,"137":0.177541748950673,"138":0.028476541070297588,"139":0.20775888070735654,"140":-0.1313266503050174,"141":0.1453088122346859,"142":0.10215263604800402,"143":-0.08902128062322114,"144":-0.19696300635424097,"145":-0.4593321961198393,"146":0.5141117242900066,"147":0.5027747720543695,"148":0.16968483830610265,"149":-0.0622126000005103,"150":1.1463898789452938,"151":0.014423567539925807,"152":0.7440607675489569,"153":-1.0094725671554172,"154":0.044064878498942174,"155":-0.9862165596064602,"156":0.3841656108215798,"157":0.12852703082179953,"158":-0.3173985072005339,"159":0.1844962117832376,"160":-0.0068507489022480795,"161":-0.3797868347475755,"162":-0.028848594388639924,"163":0.4138206609082694,"164":0.6224420273758973,"165":0.14376809780468366,"166":0.5207947503847333,"167":-0.7016465141613359,"168":-0.06833042135028876,"169":-0.06025567751216646,"170":-0.04810370686208463,"171":-0.19708996190622752,"172":-0.5859921898960869,"173":0.16848165133512893,"174":-0.037748115596680704,"175":-0.21854578777650313,"176":0.17897507551841954,"177":0.3111958096498317,"178":0.4690567109060134,"179":-0.2006401313641065,"180":-0.06301197700904254,"181":0.2960923417992585,"182":-0.20688234206335232,"183":0.5542017610022021,"184":0.23405562762648197,"185":0.39613745273810674,"186":0.07903355673747219,"187":0.45202720154252807,"188":-0.8426124463377753,"189":-0.48065402860670103,"190":0.7956466370193154,"191":-0.3743624309032168,"192":-0.26574203761756127,"193":-0.3297491685692332,"194":0.05105109108501725,"195":-0.814323843301779,"196":-0.2534230766613314,"197":-0.7235399403433059,"198":0.1561738693278999,"199":0.10200592857010468}},{"sx":5,"sy":5,"depth":8,"w":{"0":0.13294954134258422,"1":-0.0925326348764593,"2":0.24785364166464052,"3":-0.43461674185117416,"4":-0.0979881451998623,"5":-0.11136409699064445,"6":0.1692934461483106,"7":-0.1009192224200351,"8":0.2585579697400079,"9":-0.003916963040596344,"10":0.28895710075782705,"11":-0.22385584499272093,"12":-0.4007977755259359,"13":-0.12509843910150678,"14":0.2478803082119114,"15":0.19503356979956232,"16":-0.03226927027584823,"17":0.11762179632652063,"18":0.31012405466444265,"19":-0.02343648268613358,"20":-0.4528112498927349,"21":-0.3531340542498986,"22":0.4363834845528328,"23":0.2938223821375808,"24":0.0163574043828886,"25":-0.05544432608318559,"26":-0.050456135452690024,"27":-0.04221675082597043,"28":-0.04252858158094043,"29":-0.01925829861145083,"30":-0.0025500809343265186,"31":-0.16772003969020025,"32":-0.0198712103927986,"33":-0.15117068514339987,"34":-0.07228996712079902,"35":0.0019830500392971338,"36":-0.19022326899698214,"37":0.003317605743464074,"38":-0.1684220815988251,"39":-0.11374041925509,"40":-0.1387851008519489,"41":-0.42000132458503253,"42":-0.017560583750379277,"43":-0.621835376251805,"44":0.15909005192219822,"45":-0.1465034792062039,"46":0.46642778541666474,"47":-0.09077087777924715,"48":0.2599658821231079,"49":-0.029025541236718234,"50":0.4238836936700895,"51":0.05522500875121358,"52":0.08630127276461304,"53":0.17375809622805105,"54":0.6689154774700653,"55":-0.2746605861917612,"56":-0.18115715786069114,"57":0.10768111711955654,"58":0.3893357799418734,"59":0.6854781882343737,"60":0.24027088242924452,"61":-0.2893449036968176,"62":0.7811148869300393,"63":0.09692885366999422,"64":-0.024493126078370064,"65":-0.16553633185712993,"66":-0.13272972868033897,"67":-0.0717096421040416,"68":-0.11866548591154873,"69":-0.036580923536477794,"70":-0.07407145514033366,"71":-0.10990145748295557,"72":-0.05198124409898548,"73":-0.11473965072762098,"74":-0.15958988495332277,"75":-0.10294801955057614,"76":-0.09916495642338452,"77":-0.0062831916950768394,"78":-0.02547492367745676,"79":-0.17526409771092047,"80":-0.13710311092891317,"81":-0.33250403317014754,"82":0.16339311711240564,"83":-0.09308310831978225,"84":-0.13281947346125972,"85":-0.07175341933869889,"86":-0.13296370764392368,"87":0.2574534952904957,"88":-0.08082911581503621,"89":0.5129313436738983,"90":-0.14963106803030907,"91":-0.22096546823292146,"92":-0.4182066025600695,"93":-0.2491310939863754,"94":0.08130979973692522,"95":-0.033287307578688606,"96":0.21462551336355876,"97":-0.05616338797340293,"98":0.1561911648798876,"99":-0.15427186661641207,"100":-0.03402802843020679,"101":0.1989334268505783,"102":0.4661757660400307,"103":0.020224136355020256,"104":-0.4348262730757683,"105":0.10047829299521789,"106":0.8013098969167747,"107":0.15364453580188484,"108":-1.4379205273252342,"109":-0.5636126184210742,"110":0.36761001220959805,"111":0.18966161160336456,"112":-0.3654514986325779,"113":0.02984683477757062,"114":-0.13903530671881328,"115":-1.0852007899810237,"116":-0.3426981383448538,"117":-0.3194731015489814,"118":-0.26635324553738127,"119":0.23581834849091318,"120":0.10876543152190238,"121":0.18523769879858734,"122":0.6773570935156434,"123":-0.1028635533844812,"124":0.15325053513673917,"125":-0.10102897298483615,"126":-0.0826519399510221,"127":-0.033278017926228254,"128":-0.15323624535369879,"129":0.3007184115296465,"130":0.3563874441429279,"131":-0.17018369212575632,"132":-0.05033832799538303,"133":-0.16493293953571578,"134":-0.08200127606033068,"135":-0.4575257850686863,"136":0.07215735277669724,"137":-0.8546973445726099,"138":0.2681256757372389,"139":-0.7782821556177432,"140":-0.25070523962381003,"141":-0.09548570792644585,"142":0.15608657387167982,"143":0.11563936056756785,"144":0.1292959051716128,"145":0.16482491809617342,"146":0.46000005971309443,"147":0.6120511833409105,"148":0.30221787911425513,"149":0.33092998115052413,"150":-0.06214481911726047,"151":0.06117497105201259,"152":-0.0480899413945421,"153":-0.30289508194760345,"154":-1.5741951232658273,"155":-1.5467691422531016,"156":-1.1994297408477812,"157":-0.059066021100457354,"158":-0.6475603385029901,"159":0.19466171097160745,"160":0.3563949713678754,"161":0.15153129597780324,"162":0.3885956950433216,"163":0.35869375361569755,"164":0.2738594022218769,"165":-0.014026104025874118,"166":0.5940081148625662,"167":-0.02777802815116177,"168":0.002422478566007968,"169":-0.1445620218064724,"170":0.24779905594691196,"171":-0.4205802580410584,"172":0.14743059675638814,"173":-0.3677020499881984,"174":-0.23214232559056366,"175":-0.12203836052613906,"176":0.01964488041710378,"177":-0.17987947638435497,"178":0.17285703042649744,"179":-0.6841590245925934,"180":0.2341664416355743,"181":0.0662342323784141,"182":0.18439279844591885,"183":0.08981012089476544,"184":-0.37561564027133515,"185":-0.14213482345830794,"186":-0.04827439236530109,"187":-0.4222685608073586,"188":-0.7860079721870578,"189":-0.6302861441626533,"190":-0.28035529745326504,"191":0.02176654907318992,"192":0.23733712170163457,"193":0.0994617662277942,"194":-0.0368684883633551,"195":-0.41720716893916476,"196":-0.5153387134037709,"197":-0.5782003413567145,"198":-0.14676956412373093,"199":0.02759489611646024}},{"sx":5,"sy":5,"depth":8,"w":{"0":-0.17479185155304788,"1":-0.23072356105898525,"2":-0.03153594035555714,"3":-0.696915565177311,"4":-0.2510643619512805,"5":0.09243421887018644,"6":0.5250682391107706,"7":0.35668509516406244,"8":-0.3321339731059029,"9":-0.24928103451608533,"10":-0.05878096103618274,"11":0.4674165275720133,"12":0.04752816639845093,"13":-0.2944161902968916,"14":0.04599413820874684,"15":0.34808777938589036,"16":0.4398257371803455,"17":-0.14923218181842862,"18":0.531715261919396,"19":-0.6117481751010186,"20":-0.07754774016224561,"21":0.003942995710601698,"22":0.29218000522407944,"23":0.23002372331779358,"24":-0.053048195534063494,"25":-0.18863880492974594,"26":-0.03460935667014101,"27":-0.07921975806713272,"28":0.15797559850978868,"29":0.06080267785682786,"30":0.020345882945414936,"31":0.19896037605386868,"32":-0.10714278917044373,"33":-0.4134662872846541,"34":-0.14063005934327433,"35":0.061776136758820877,"36":0.019699182662835393,"37":-0.1476443280196162,"38":-0.05595557198353483,"39":0.05324830185855821,"40":0.5937397262670179,"41":-0.21538429282439467,"42":0.721964782497552,"43":-0.030561071235183996,"44":0.37362292307054024,"45":0.30808715691439104,"46":0.42233548261522397,"47":0.15640158830148942,"48":0.15972405210935364,"49":0.037677797964213895,"50":0.12720879687874148,"51":-0.29637719094508164,"52":-0.25975085185072666,"53":0.3296630263171707,"54":0.468757979309662,"55":-0.18468132220760874,"56":0.08909817886320526,"57":-0.20799923133310663,"58":0.3384588836512874,"59":0.42236951572607984,"60":-0.16778305595626647,"61":-0.3246187291790505,"62":0.59663823160576,"63":0.19506770519203273,"64":-0.040830721619448465,"65":-0.4181284786304177,"66":-0.15119458013468712,"67":-0.24562933403676054,"68":-0.05557578452628113,"69":0.020900931214497726,"70":-0.3715326816445694,"71":-0.886651607593515,"72":-0.025051579533391637,"73":0.2087182945646854,"74":0.03258764946195524,"75":0.30321383098942106,"76":-0.1512065075741437,"77":0.06853256314658951,"78":0.0914370437114492,"79":-0.26057747349822014,"80":-0.29117575266142626,"81":-0.2186806966721995,"82":0.1864964936044898,"83":-0.8020789729916186,"84":-0.006634281298190769,"85":-0.40449154716583224,"86":-0.4481847752425209,"87":0.06196787694904955,"88":0.0894735746890857,"89":0.9767916340766125,"90":0.2685898558902641,"91":0.2322813730491069,"92":-0.06457447901764428,"93":-0.07495029515983366,"94":0.904523611276162,"95":-0.046857016019615005,"96":-0.1521740924584899,"97":0.3761910542792441,"98":0.3314673810306799,"99":-0.010494279315132785,"100":-0.03472637459584674,"101":-0.346362653406719,"102":0.566999062176946,"103":-0.17276690528692668,"104":-0.10549097019608593,"105":0.3903604897213614,"106":-0.14891322557209002,"107":0.28024415862372043,"108":0.2503850368065753,"109":-0.07552404122647406,"110":-0.0916786109357204,"111":0.5742829217187884,"112":0.062382524610478524,"113":-0.05446846699271605,"114":-0.15133482195745276,"115":-0.3275680367908894,"116":0.07512997898130704,"117":-0.1018841390242126,"118":-0.0037055807186707154,"119":-0.2306610399154835,"120":-0.312056354680913,"121":0.3658203931201495,"122":1.188976780965099,"123":0.2839809128063143,"124":-0.3357961491481421,"125":-0.9100669681651103,"126":0.6958087201969477,"127":0.1916717098022948,"128":-0.18277979407524073,"129":-0.529120461871781,"130":0.3328876040225049,"131":-0.6431953189640843,"132":-0.29843379421173505,"133":-0.46111756248226193,"134":0.5457377511368096,"135":-0.004806589822874764,"136":-0.4842909183068942,"137":-0.43858442976448125,"138":0.4689445855333663,"139":-0.5992743063204383,"140":-0.036608815696237335,"141":-0.15076716191885697,"142":0.1740860547344004,"143":-0.12034639022725273,"144":-0.032098395372034356,"145":0.035357679289558804,"146":0.34870904289146704,"147":0.25174384668331645,"148":0.05699973411712039,"149":0.01388537814198288,"150":0.09507814475815293,"151":-0.585884247725353,"152":0.21442217569232264,"153":0.06362860299494318,"154":-0.0435481936569473,"155":0.202042883198488,"156":0.19447461836605492,"157":0.264256613638098,"158":0.18878977713992096,"159":0.5603722008963462,"160":0.21615310336906304,"161":-0.32642808579845556,"162":1.3254140419441918,"163":0.09402217039292732,"164":0.04127703940962907,"165":0.12934150692381738,"166":0.8844831918264727,"167":0.08098147488229808,"168":0.17840342264534528,"169":0.24181257548050675,"170":1.4649883306881761,"171":-0.41143546676022946,"172":0.02928886427048173,"173":0.18899215979482734,"174":0.3358677384827051,"175":0.31424872412096666,"176":0.1480367213054604,"177":-0.35078106639494566,"178":0.5851526699049164,"179":-0.6513955229719249,"180":-0.3194738919950651,"181":0.09337714290947621,"182":-0.22335488531915035,"183":-0.05038668472937765,"184":0.2313102221084899,"185":-0.19055865849365156,"186":0.020646059803190318,"187":-0.10770080545972545,"188":0.12421287447546353,"189":0.0599471068257766,"190":-0.19620379384401357,"191":-0.3072885808263615,"192":0.03037533018300239,"193":-0.4737690841861985,"194":0.0585302603575021,"195":-0.6552250513321989,"196":-0.3793787957162247,"197":-0.041156636777379595,"198":-0.16774297400746244,"199":-1.8721475738756006}},{"sx":5,"sy":5,"depth":8,"w":{"0":-0.6444415460553512,"1":0.24451302791772495,"2":-0.14629177111992264,"3":-0.09108737193620657,"4":-0.3212319548445102,"5":-0.5686465227484043,"6":0.003901020338664309,"7":0.04759299726682446,"8":0.3167667300277757,"9":0.13574311970154387,"10":0.28775956627146193,"11":0.3214610827022726,"12":0.4264052052325523,"13":0.325997073530348,"14":0.401769208409916,"15":-0.3207665544958162,"16":0.06062183499246958,"17":-0.37984657633813457,"18":0.14377209284288706,"19":-0.41855220377045943,"20":-0.1995420015439729,"21":0.18809551736396737,"22":0.17179198011587804,"23":-0.12823379154434142,"24":0.2660893010682003,"25":0.41659531019626445,"26":0.4937403508845769,"27":0.43505187081606117,"28":-0.053787181119852014,"29":0.1256585422783425,"30":0.5419230491123288,"31":-0.40260045957491397,"32":-0.13254599667907818,"33":0.03691450385327405,"34":0.111810862117811,"35":-0.04554566952893854,"36":-0.10137385413615982,"37":-0.5882901968679521,"38":-0.2340224047930807,"39":0.10181616622508508,"40":-0.14821094178714062,"41":-0.1999545101287367,"42":0.27000063008566044,"43":-0.275102127222281,"44":0.3991125578450504,"45":-0.16363499015524377,"46":0.6008106801807265,"47":-0.5050346837713169,"48":-0.10348315904202603,"49":0.18736525300912887,"50":0.19217619858332277,"51":0.08143178835852667,"52":0.2097948185134945,"53":-0.08248604261237467,"54":0.11903224878243017,"55":0.012860780566016021,"56":0.254263097748753,"57":0.5885310232131121,"58":-0.027262156228261204,"59":-0.13013463040449136,"60":0.2525748954300468,"61":0.09200397291091222,"62":0.08788312949389392,"63":-0.40824600928291555,"64":-0.13668264034262706,"65":-0.26301589527328845,"66":0.12185000284991498,"67":-0.031202639588960288,"68":0.365648573231724,"69":-0.1256475622682963,"70":0.5088367888529625,"71":-0.014103783516292497,"72":0.2178519840570124,"73":-0.12764967002611852,"74":0.26785896289575,"75":-0.008585191037493459,"76":-0.19120804623198748,"77":0.33380769173226105,"78":-0.4045717200713402,"79":0.20553146535075018,"80":-0.11926308991971778,"81":-0.2630213266250885,"82":-0.014201627374223137,"83":-0.41676424105931437,"84":0.23843728826262076,"85":-0.04956961066330077,"86":-0.289125354880496,"87":-0.04928289427881267,"88":0.29875396196065573,"89":-0.17593677498023605,"90":-0.13881217748272162,"91":-0.49056719043481317,"92":0.505405520455024,"93":0.34482474370196525,"94":0.31562045734560984,"95":0.3326721000112696,"96":0.11887709555896966,"97":-0.3252037566812277,"98":-0.1004634565387283,"99":0.25360876903999374,"100":0.3243640490027033,"101":0.23810213368136843,"102":0.10753645702966268,"103":-0.12070395466757924,"104":0.11497539219006771,"105":-0.6952804934047494,"106":0.09811849355645907,"107":0.25477934405607655,"108":-0.40863923629088833,"109":0.539420332147753,"110":0.15785679649630402,"111":-0.13122017434537062,"112":0.14808388227135,"113":-0.5627802976235659,"114":0.1592726497158274,"115":-0.0064962790507425445,"116":0.2158495902359918,"117":-0.05567581467629062,"118":-0.1685986098128618,"119":-0.1371364313947097,"120":-0.2672321210494598,"121":0.607535919038956,"122":0.2560601783203993,"123":-0.9838622613802993,"124":0.5194257694095379,"125":0.20680309100365052,"126":0.22343836172204504,"127":0.03132388030566919,"128":0.2050297159129261,"129":0.23846957104249344,"130":-0.8510918308328735,"131":0.7942351156692692,"132":-0.9445407863334371,"133":-0.4682895622464833,"134":1.2185019421454781,"135":0.49477451455524896,"136":-0.3140309013461738,"137":-0.39799508825817065,"138":0.8628605050123038,"139":-0.6209998124680614,"140":0.46716624499566817,"141":-0.567522097251294,"142":0.6370898925957853,"143":-0.046758506195914915,"144":0.24635931884562853,"145":-0.6714906405713886,"146":0.4583599441377666,"147":-0.45047921266158686,"148":0.13389135403734717,"149":0.41232096469478563,"150":0.27631732667146136,"151":0.2569147303089937,"152":-0.003980869736545547,"153":-0.011002076875886287,"154":-0.27636498508696106,"155":-0.08046766928049214,"156":-0.548865068313062,"157":0.05375336885429649,"158":0.007095443536870566,"159":-0.03392472988056309,"160":-1.2130200932512603,"161":0.8400546824944326,"162":-0.5202446724820328,"163":0.06372052798925211,"164":-0.264338506955116,"165":-0.4542366837663195,"166":-0.44084934301567263,"167":-0.4079031248859719,"168":0.4513317018699315,"169":-2.0707311388380525,"170":0.6914947874251688,"171":-0.5849183568162546,"172":-0.5196514259025391,"173":-0.4008929228923372,"174":0.2627304732074668,"175":0.48747861239396867,"176":0.29207690491662247,"177":0.43533928250175463,"178":-0.09115430365215295,"179":0.34964865104209064,"180":0.28039869318062066,"181":-0.14582694416903913,"182":0.01830577899974757,"183":-0.07053232913506646,"184":-0.3254440783313799,"185":0.18041216871615054,"186":0.6082193175797036,"187":-0.33436975365148747,"188":1.0452080838804427,"189":-0.18154249854608467,"190":-0.20176643900927063,"191":-0.10934385074534111,"192":-0.579940788323284,"193":-0.3725676298893533,"194":0.5475134641336905,"195":-0.24519398526164965,"196":-0.05605849390775006,"197":0.04779065251676812,"198":0.17522840565251468,"199":-0.004188396075432711}},{"sx":5,"sy":5,"depth":8,"w":{"0":0.17048778119404212,"1":-0.5210721539225922,"2":-0.05060778728481564,"3":-0.13412803629622752,"4":-0.12494453099313359,"5":0.1979530188449713,"6":-0.2900813179964524,"7":-0.5790819128470475,"8":-0.20917916033140524,"9":-0.045163978568290235,"10":-0.057904943703980166,"11":0.6721346111090578,"12":0.2821271645607179,"13":-0.017470710100178564,"14":-0.11829078556552347,"15":0.1252822810448287,"16":0.061110253628372,"17":-0.2653485849198537,"18":-0.42370857800250855,"19":-0.057087030871621584,"20":-0.21282232250851174,"21":0.39657669788230365,"22":-0.5293215080832504,"23":0.1952766377668619,"24":0.2682943078602996,"25":-0.35809139152818836,"26":0.4117779662987852,"27":0.31159533185058386,"28":0.22532613517942446,"29":0.25949004095577866,"30":0.38495722924205206,"31":-0.06234093686223578,"32":-0.4495977462840283,"33":0.12318775626346003,"34":0.17260957192463403,"35":0.45363400305618684,"36":-0.19933336032842444,"37":0.298996947629232,"38":0.2144844647157221,"39":0.2305806364427214,"40":0.023144066117231674,"41":0.05249605075645979,"42":0.1160872220863698,"43":0.20609008137663282,"44":0.24353245676521473,"45":-0.08128446624220702,"46":-0.17571644184019186,"47":0.020793266714305796,"48":0.1262763831694277,"49":0.15022203017318628,"50":0.19445092828008953,"51":0.735592629375735,"52":-0.25556590411318614,"53":-0.04219140474411514,"54":-0.03646558444903517,"55":0.1372974284708693,"56":0.11151161900838123,"57":-0.35954310507844833,"58":0.08183147190068633,"59":-0.11073197041595578,"60":-0.07294295672044147,"61":0.0038076786333339115,"62":-0.42624797179655183,"63":0.27646388424203355,"64":-0.00403551939171092,"65":-0.13587771285303626,"66":0.5096948154730054,"67":-0.07145258736370445,"68":-0.46703905160008363,"69":0.07292346080000947,"70":0.18466369040970743,"71":0.2335253900205493,"72":-0.02619022729239992,"73":0.2532763237152383,"74":0.4914521904714499,"75":-0.6383320570221248,"76":0.641002805740542,"77":-0.25996200167728106,"78":-0.6859113951574262,"79":0.43660828234245297,"80":0.2239350919719496,"81":-0.09863708663699246,"82":-0.12756278709138602,"83":0.15299492640767615,"84":-0.4155253683876033,"85":0.22789591546295576,"86":0.12546634564256223,"87":-0.23615379610256462,"88":-0.12510515303570338,"89":0.34460147755998305,"90":0.05473100121441927,"91":-0.31037378088803885,"92":-0.10576983442899832,"93":-0.21769787721885134,"94":0.4543335329308145,"95":-0.4090776682723305,"96":-0.44721509104151985,"97":0.3477266562677828,"98":-0.04451549099067816,"99":-0.8117946059528413,"100":-0.3336753903597837,"101":-0.3257001879523497,"102":-0.13318233789983802,"103":0.3347378695079607,"104":-0.19172236816941893,"105":-0.8313723012295309,"106":-0.03969804135024279,"107":-0.2977694929452595,"108":-0.15454219829140614,"109":-0.4218477619368154,"110":-0.10880953512331445,"111":-0.07555639136505671,"112":0.25395221871679285,"113":0.22054335392570967,"114":0.09727396657497381,"115":-0.3185626708142858,"116":-0.27321727253819433,"117":0.09497999608875982,"118":0.3180838696615915,"119":-0.17677066986998957,"120":0.12279907214825236,"121":0.38230202365117916,"122":0.06981350764788902,"123":0.0898734518588612,"124":0.029683609527186603,"125":-0.009665443910437638,"126":-0.17630430790672857,"127":0.16354496161514273,"128":-0.05256116601551409,"129":-0.24587410472285892,"130":0.030551492932372287,"131":-0.08255501729109574,"132":0.12363999590850389,"133":-0.01639423319787923,"134":0.11077521309252569,"135":-0.056026253959953254,"136":-0.37868318170260507,"137":-0.09098773184413607,"138":0.08627355577626451,"139":0.24576796897358522,"140":-0.3820842473345743,"141":-0.10548464849578602,"142":0.18654196080170335,"143":0.1245863597352961,"144":0.3527148993209558,"145":-0.761591480907076,"146":0.6787891615558658,"147":0.49921432749817735,"148":0.08050102852669458,"149":0.04527364869265853,"150":0.11579227981406669,"151":-0.0951375898775167,"152":-0.2498420418117363,"153":-0.17270586764461135,"154":0.47739405276987207,"155":0.6421967910289892,"156":-0.29028039978741266,"157":0.3775225479602284,"158":0.6432137414347556,"159":-0.5050741655112216,"160":0.21402672686857202,"161":-0.6050876803535398,"162":-0.037680269003166775,"163":0.22901180347281236,"164":0.33490983670458047,"165":-0.043246161717033986,"166":0.031182022430750998,"167":-0.2643222463349967,"168":0.27862972591263085,"169":-0.2854064172063342,"170":0.2861349361157648,"171":0.5702689129052517,"172":-0.35509473946007847,"173":0.6633038552487748,"174":0.26703294898979535,"175":-0.3022808901507465,"176":0.1746040292992306,"177":-0.3810059507341925,"178":0.26087935542346835,"179":0.12362884039291565,"180":-0.19276451371192033,"181":0.31448446841127975,"182":-0.047376816611688154,"183":0.004016354617396072,"184":0.028267517634107463,"185":0.3174378149858083,"186":0.03810982187843509,"187":-1.0870396430685019,"188":-0.45462324429258777,"189":-0.7320337804406477,"190":0.5048507450583475,"191":0.2934032532326423,"192":-0.42747028387202285,"193":0.5426526539494737,"194":0.39026314007478113,"195":-0.13836804493182603,"196":-0.07732851696830936,"197":0.11495510501120221,"198":0.8442066704582288,"199":0.19262306508164465}},{"sx":5,"sy":5,"depth":8,"w":{"0":-0.027735482569890287,"1":0.5156329562780371,"2":0.21789117895588853,"3":-0.199448153589221,"4":0.13895013806527887,"5":0.1854707298306218,"6":0.4734555059052938,"7":-0.2639115507592688,"8":-0.02748101047123472,"9":0.1577816087502703,"10":-0.4985666287719948,"11":-0.2559670886241059,"12":-0.2945877007655126,"13":-0.11959748200606891,"14":-0.09953091584517978,"15":-0.13227195997936653,"16":-0.0696379044340594,"17":0.14187475080917802,"18":0.12631266894165613,"19":-0.7132141685469855,"20":0.058209958062191855,"21":0.5343355315525221,"22":0.017600725340200525,"23":0.07648719948513018,"24":-0.3135475751179438,"25":-0.6274158265228214,"26":-0.13903803343364513,"27":0.17699217935965683,"28":0.06415054189834582,"29":0.15438890897062088,"30":0.6125490187877819,"31":-0.06015756566820092,"32":0.12891470667440633,"33":0.25092919937967584,"34":0.25215878190043783,"35":-0.10886656067523127,"36":0.2855407792106523,"37":-0.2508688364312545,"38":-0.05243970036293321,"39":-0.13370032581486416,"40":0.002586693962896623,"41":-0.9131290197512172,"42":-0.1547506832138683,"43":0.6749907074062037,"44":0.37022770097985913,"45":0.10776604259832054,"46":0.38224443905517425,"47":-0.21350476865260232,"48":-0.015718477954223094,"49":0.5773700305619748,"50":-0.09158005756910254,"51":0.18209328222156887,"52":-0.35899296324865787,"53":-0.038919791793472415,"54":0.3349759980841154,"55":-0.0991342049314773,"56":-0.0762651488422736,"57":-0.1537294244331842,"58":-0.20553541424400093,"59":-0.17663957324094987,"60":0.1900281255819854,"61":0.3654121144733326,"62":0.024441763305646246,"63":0.0755482840594453,"64":-0.09295211573224815,"65":0.35701792776375546,"66":-0.10043450340988234,"67":0.056314671087507887,"68":-0.0409647602487071,"69":-0.010339798084000726,"70":0.8094722245563232,"71":0.02539382521263331,"72":0.042394555252860795,"73":0.07306242221935388,"74":-0.04803707887172534,"75":-0.0064931057571819654,"76":-0.0024775616922263232,"77":-0.33228199925632335,"78":-0.0921388202465532,"79":0.0345975979564781,"80":-0.37785290685614203,"81":-0.805041616400342,"82":-0.4550643269244762,"83":0.13129805726388802,"84":-0.4288212005784836,"85":-0.08696515656023478,"86":-0.21369103630458058,"87":-0.22850408132143288,"88":0.08560325488079565,"89":0.05037631652046686,"90":-0.05218181765599556,"91":-0.21717907068837553,"92":0.18390895700519996,"93":0.00837973746479095,"94":-0.47114599432902016,"95":0.3132768092570136,"96":-0.12441793762264862,"97":-0.07973220435911732,"98":0.008295370984728328,"99":0.05799244011189918,"100":0.014538463805763239,"101":-0.03942764491790244,"102":0.06893526663338481,"103":0.0008432858621194767,"104":0.18887598762425714,"105":-0.06676444556865574,"106":-0.35401055900442335,"107":0.1347153546661838,"108":-0.0012595745233228537,"109":0.16732799220837413,"110":-0.1871883299884336,"111":0.30252228978790546,"112":0.034816916027067935,"113":0.020684121592121043,"114":-0.5175211631916137,"115":-0.19156747232702767,"116":-0.010613337347540755,"117":0.04126655582183797,"118":-0.5853065734613805,"119":0.03465076693932511,"120":0.20868088088875042,"121":0.6160375900390676,"122":0.04706500625315499,"123":0.2560511668874323,"124":-0.29403946442225776,"125":-0.16719954176776208,"126":-0.3819296937724645,"127":-0.35420941628278946,"128":-0.09257622459000865,"129":0.333273388261404,"130":0.1290243051293645,"131":-0.8257300776608962,"132":0.1419912792190852,"133":-0.6095402035422763,"134":-0.761034532338664,"135":0.0697362537443876,"136":0.06191261560830837,"137":-0.15764767003707036,"138":0.413432806559234,"139":0.05959341480706369,"140":0.24027660653820568,"141":-0.25181417510855203,"142":0.07968385472969114,"143":-0.0338230785797223,"144":-0.08535725188586918,"145":0.01572688455162885,"146":0.22230834505691835,"147":-0.017265707609125828,"148":0.3730195734584409,"149":-0.5334822454568403,"150":0.10437708665536898,"151":0.06452718711385382,"152":-0.016853196735479473,"153":0.24995615338684424,"154":0.21112826978560054,"155":-0.006081816043260572,"156":0.14030164364979728,"157":0.34980362028312223,"158":0.37495429310858447,"159":-0.15675249920398693,"160":-0.0026303959258154193,"161":0.43220683968775075,"162":0.15710530305612258,"163":0.5572860956389902,"164":0.10592579657041598,"165":0.07317278564092186,"166":0.10062661645277204,"167":0.1721260479138918,"168":-0.28186653053127164,"169":0.6146125140320207,"170":-0.16115931571605663,"171":-0.078050216515481,"172":0.14623121743010292,"173":-0.06639462835414375,"174":-0.09170131625063686,"175":0.334043414096193,"176":0.0016776999689406481,"177":-0.1184408030361248,"178":0.456831506164242,"179":0.0425080888175484,"180":-0.30595547018067987,"181":-0.07259481101009337,"182":-0.09286083345783841,"183":0.11804886150481597,"184":0.12655163033426062,"185":-0.14514877487167208,"186":0.24607217695960715,"187":0.013150328167500818,"188":0.4551588341220897,"189":-0.07227687754671837,"190":0.7184682573333183,"191":-0.4212690157822786,"192":-0.1211109101418219,"193":0.1771036418824162,"194":0.22741123939005828,"195":0.17260694453222547,"196":-0.40231352328184666,"197":0.05045998410512484,"198":0.2653307077738215,"199":-0.37990269110949126}},{"sx":5,"sy":5,"depth":8,"w":{"0":-0.0784854803531865,"1":0.46599597002588156,"2":-0.20066368118648742,"3":-0.34377192861527395,"4":-0.23555518756267313,"5":-0.08581807607143659,"6":-0.24546690863634,"7":0.10441722227381739,"8":0.005567828694002236,"9":0.00011592213291291934,"10":0.3368788097270823,"11":0.4894933897123963,"12":-0.06624004600608417,"13":0.05968093559189024,"14":0.11053652448661894,"15":-0.3512375495411028,"16":0.15149762706618108,"17":0.21920669900937295,"18":-0.2948872377710705,"19":-0.06960933091236406,"20":-0.1756384200731345,"21":0.21144231477334255,"22":-0.2970383875511899,"23":0.400863523934243,"24":0.3080231099686374,"25":-0.06337113298924014,"26":-0.16141217028086122,"27":-0.08640847947919657,"28":0.44617603924377497,"29":-0.017226008187081893,"30":-0.10550144311496025,"31":-0.7769896006164546,"32":-0.2776042710043229,"33":-0.2296874005139787,"34":-0.08981665259857229,"35":0.2505597783539477,"36":-0.735820521397452,"37":-0.3801478865571617,"38":-0.9160739553200232,"39":-0.26356292201574893,"40":0.20481329255902678,"41":-0.24511673429987169,"42":-0.7667518331419078,"43":0.47611007319549076,"44":0.02837423526856433,"45":-0.1974242911450797,"46":0.045244411451084834,"47":0.10559658853004832,"48":0.14322690324117462,"49":0.48642808372673474,"50":0.04349721980439877,"51":0.1623163781452499,"52":-0.3162829620014619,"53":-0.040239307846523575,"54":-0.0544065378527122,"55":-0.29088041674727644,"56":-0.2378064506656041,"57":0.28739570536866405,"58":-0.5069509418897574,"59":0.17082959500721137,"60":-0.4237729610857419,"61":-0.19535668859603023,"62":-0.7870946536252902,"63":0.32342211609882815,"64":-0.6431988071863828,"65":0.37825628048950166,"66":-0.2416881129515342,"67":-0.19560582516828331,"68":0.6229286076456588,