{"layers":[{"out_depth":1,"out_sx":100,"out_sy":200,"layer_type":"input"},{"sx":5,"sy":5,"stride":1,"in_depth":1,"out_depth":16,"out_sx":100,"out_sy":200,"layer_type":"conv","l1_decay_mul":0,"l2_decay_mul":1,"pad":2,"filters":[{"sx":5,"sy":5,"depth":1,"w":{"0":0.0232187642647331,"1":-0.19764782394880112,"2":-0.13283803708203482,"3":-0.019402802732210785,"4":-0.3289141412322535,"5":-0.005830890915747077,"6":0.09045563042946009,"7":0.22016179682353082,"8":-0.08203673362217054,"9":-0.41763586000294056,"10":-0.06418901030673359,"11":-0.4327647053770718,"12":-0.005061346327213946,"13":-0.08378567886256348,"14":-0.07808022856272977,"15":0.12873680517084315,"16":-0.11055616779696519,"17":-0.13950127732947465,"18":-0.11606413668812648,"19":0.48047123619200843,"20":-0.16659321997994508,"21":0.44408620273921884,"22":-0.1376790877157462,"23":-0.24132859526084208,"24":0.11748192389040828}},{"sx":5,"sy":5,"depth":1,"w":{"0":-0.00011706220444138498,"1":0.11161315669273664,"2":0.26520041411634176,"3":0.030258709876057693,"4":0.11246476657718613,"5":0.027821346141928084,"6":-0.36504884921882796,"7":-0.22642401009326543,"8":-0.11612703524814466,"9":0.10064090935149604,"10":0.12083116551528564,"11":-0.02704496555411674,"12":0.2523357902281483,"13":0.20500253015198272,"14":0.029651644617950723,"15":0.26668618274815825,"16":0.05609908646161397,"17":-0.36091178110154504,"18":0.38144594931968706,"19":-0.12627667961573621,"20":0.3696395136638554,"21":0.053659483544159454,"22":-0.28334653187184144,"23":-0.01787389250718139,"24":-0.12056373672757462}},{"sx":5,"sy":5,"depth":1,"w":{"0":-0.11347723877943754,"1":-0.45174639301241193,"2":0.07810390098113205,"3":0.27877946991978214,"4":0.14450111430376028,"5":-0.31111951558171014,"6":-0.25755419514835126,"7":0.2100736764864786,"8":0.15247254777106573,"9":-0.13567293543573442,"10":0.21514490979816364,"11":-0.38988936356449366,"12":-0.013384644282319218,"13":-0.08340440687697327,"14":-0.2874181980538588,"15":-0.021160306897971562,"16":-0.1703219069856943,"17":0.026830844642775537,"18":0.08211357675543074,"19":0.2663666892907422,"20":0.3002295497416618,"21":0.27674804393972363,"22":-0.08206388766820018,"23":-0.09620222346041911,"24":-0.13917297252191646}},{"sx":5,"sy":5,"depth":1,"w":{"0":-0.15602165574412705,"1":0.009626377932504798,"2":0.12342914734838559,"3":-0.22234329281332174,"4":-0.03297364889162099,"5":0.2065553711714666,"6":0.16092783454444853,"7":0.379844308172206,"8":-0.22084447172489466,"9":-0.3069329964294034,"10":-0.037222265940852074,"11":-0.06374058681129181,"12":-0.005183690620074817,"13":-0.10447713721014142,"14":0.3906993053233663,"15":-0.008693022472755841,"16":0.36206402261343795,"17":-0.06555750449282222,"18":0.23722456319592725,"19":-0.0218025489844762,"20":-0.49463385559454753,"21":0.14624315239916075,"22":-0.2897331609054277,"23":0.15763748308865555,"24":0.036028043543826514}},{"sx":5,"sy":5,"depth":1,"w":{"0":0.29279921052437097,"1":-0.19063311084945142,"2":-0.028533548834916114,"3":-0.10230386804253129,"4":0.23667654628654128,"5":0.04415127886341905,"6":0.31314610709341906,"7":0.037007185351119756,"8":-0.18967423436476544,"9":0.23800674104879843,"10":-0.028169348128227793,"11":0.3373332389726126,"12":0.16628563764942048,"13":0.08695877434330361,"14":0.09130869962056953,"15":0.006720320638633396,"16":-0.04704845989814802,"17":-0.018905231294070086,"18":-0.049962385452888364,"19":-0.09966754384823853,"20":0.0451520063761939,"21":0.1619982022079483,"22":-0.10710944755518974,"23":0.3475265529690574,"24":0.25961163034392076}},{"sx":5,"sy":5,"depth":1,"w":{"0":-0.05453960767652842,"1":-0.002493999876118965,"2":-0.22860775201691952,"3":0.15078205585648546,"4":-0.07784411067168728,"5":-0.010201360552614697,"6":0.23027992105572664,"7":-0.1577640464261956,"8":0.07837409417883937,"9":-0.1118034972430868,"10":0.2286405366476752,"11":-0.16474139042621022,"12":0.10945684286617109,"13":-0.2325677411855557,"14":0.012491759204465942,"15":-0.28211789502355894,"16":-0.06111388718822283,"17":-0.10031378899678567,"18":0.173101658033621,"19":0.18261577298089435,"20":-0.19512541610041959,"21":0.21000615782367515,"22":-0.12365880423114975,"23":0.04616141656666155,"24":0.02930576626238318}},{"sx":5,"sy":5,"depth":1,"w":{"0":-0.0027945891700337875,"1":0.01849346518419125,"2":-0.14199155554081974,"3":0.23758498075079898,"4":0.1493451510559449,"5":0.06441713953410595,"6":-0.2525503818403536,"7":0.14528953048437362,"8":0.39518470509329884,"9":-0.140625970295251,"10":-0.4460257916809469,"11":0.025415185375563375,"12":-0.1420184984283338,"13":0.18650158173842696,"14":-0.06891928592188575,"15":0.26721757929284384,"16":0.14195879859573202,"17":-0.10771614493753087,"18":-0.12206211630432899,"19":-0.22742208840431596,"20":-0.1288697402126287,"21":-0.16225405667820123,"22":0.21611745340854724,"23":-0.0664876150023932,"24":0.0762038812784104}},{"sx":5,"sy":5,"depth":1,"w":{"0":-0.14519078336924357,"1":0.2109268750906587,"2":-0.2264268133591117,"3":0.012560637969857529,"4":0.149989953999355,"5":0.12470918194201397,"6":-0.03448960822329892,"7":0.12449006935027551,"8":-0.04632376296687953,"9":0.13808959432214282,"10":-0.18347788527015954,"11":0.0531169773125964,"12":0.21420974208168236,"13":-0.003587728633851582,"14":-0.04086946636973146,"15":0.10463215551958706,"16":0.27304240171826777,"17":0.11318934305789345,"18":0.06195982659661734,"19":0.2310408171283999,"20":0.05736038047123604,"21":-0.19078850969409106,"22":-0.1490629889572507,"23":-0.22794723079204068,"24":0.03669318865737294}},{"sx":5,"sy":5,"depth":1,"w":{"0":-0.03550367162434949,"1":-0.6418643513911532,"2":0.06950111221186162,"3":-0.054174246362314,"4":-0.014292170928712945,"5":0.3480205385129192,"6":0.1404674100904084,"7":0.017360617970674737,"8":0.25148370121311353,"9":0.06181095073871465,"10":0.20869193432115454,"11":-0.03713447219302849,"12":0.055104904815111745,"13":-0.18617677655763235,"14":-0.08339179384162702,"15":0.11424059117682347,"16":-0.08165056735429574,"17":0.060854747037078244,"18":0.04430826008604771,"19":-0.016400011840902156,"20":-0.15679830410748996,"21":-0.1956667386611779,"22":0.015725516139652295,"23":-0.015674060095138304,"24":0.004127374411266482}},{"sx":5,"sy":5,"depth":1,"w":{"0":0.16828334144855145,"1":0.08267182428289202,"2":-0.10720619685793326,"3":-0.060867718601717594,"4":-0.12378584076406753,"5":0.05143395057504324,"6":-0.15711585600401992,"7":-0.4035930760055226,"8":-0.2124166661452305,"9":-0.2820191496823296,"10":-0.4294668533558606,"11":0.20442332895558063,"12":-0.1986735221900408,"13":-0.19045649717581947,"14":-0.016042409209743168,"15":0.19449516010756407,"16":-0.12626087827985505,"17":0.21472238821227033,"18":0.3122856316044518,"19":0.14733191767975384,"20":-0.2863667675113548,"21":-0.11935429555506866,"22":-0.024709297973629977,"23":-0.05951841901178685,"24":-0.35318726631012815}},{"sx":5,"sy":5,"depth":1,"w":{"0":0.0038204863295930756,"1":-0.08203210942488316,"2":0.3240548732706288,"3":0.1063165273549283,"4":0.22093276658813146,"5":-0.11527029067268137,"6":-0.15574474505014252,"7":0.31045172917979263,"8":0.22494723519496032,"9":-0.4230400721443317,"10":0.06977965212101869,"11":0.0892382557979291,"12":-0.08361587293350052,"13":0.013772924850181972,"14":0.05179060636504087,"15":0.16609172669859215,"16":-0.17820742108484464,"17":0.0308774032120114,"18":-0.3387046780338247,"19":0.10137406046918582,"20":0.14599706628533415,"21":-0.12545357393632428,"22":-0.005420999268431436,"23":0.04906966420533441,"24":-0.029895224551594886}},{"sx":5,"sy":5,"depth":1,"w":{"0":-0.007406988899354741,"1":0.31048369003233617,"2":0.09683893954696118,"3":-0.45855781540881596,"4":-0.23128094956500148,"5":-0.029788431948296803,"6":0.12405284536417342,"7":-0.02203854096600808,"8":-0.09697209459209123,"9":-0.007859544583116383,"10":-0.009199040643282082,"11":-0.19538129670499405,"12":0.06581726210319705,"13":-0.061093269721783194,"14":0.07146076146877407,"15":0.19963745072207634,"16":0.20320556261430228,"17":0.4628774198574374,"18":0.05596520941107327,"19":0.19099434475452115,"20":-0.254300222169741,"21":0.3058621190545568,"22":-0.38818074035291894,"23":0.047572223852584035,"24":-0.3410778266983407}},{"sx":5,"sy":5,"depth":1,"w":{"0":-0.14403138717356595,"1":0.07844509673135437,"2":-0.2714616574973267,"3":0.09932761395661328,"4":0.05320248586851406,"5":-0.15852495395426508,"6":0.07991846211023337,"7":0.2489618910657341,"8":-0.13085843190918972,"9":0.3024330905061676,"10":0.1040033846229165,"11":-0.24150292057876963,"12":0.12356935302642015,"13":0.2863715876508667,"14":-0.06066024151779656,"15":0.07054251357238778,"16":-0.1589931044072046,"17":-0.11529602556771565,"18":0.09194453241945172,"19":0.03060256537473624,"20":0.24520071134186858,"21":-0.014744087631759125,"22":-0.22953064077063545,"23":0.0007850301744427928,"24":-0.12257362061580204}},{"sx":5,"sy":5,"depth":1,"w":{"0":-0.013065120583904695,"1":0.09083744444360058,"2":0.044186515181241746,"3":0.33355452869304125,"4":-0.06605874929563438,"5":-0.18318822105742621,"6":-0.002583878551872473,"7":0.15927201613966385,"8":0.23758346998144936,"9":-0.26184598678852444,"10":-0.14558413777080537,"11":0.0058306973931231045,"12":-0.179525205056673,"13":-0.18988352902781783,"14":0.037854970537855,"15":-0.10651594463121063,"16":-0.020065439441123496,"17":-0.2480918855263537,"18":0.00850535779161291,"19":0.16261845631336824,"20":-0.020298489358204073,"21":0.04828391843231141,"22":-0.005229373832109449,"23":0.3256839194631569,"24":0.16453429599670075}},{"sx":5,"sy":5,"depth":1,"w":{"0":-0.17216093611136554,"1":-0.012773523083774408,"2":-0.11228848027504718,"3":-0.12222554114407828,"4":0.42973142386293883,"5":-0.15191338860561002,"6":-0.1124999875697464,"7":-0.20337187116615912,"8":0.0262975196738632,"9":-0.124987434222494,"10":0.2988848835696301,"11":-0.2766042522151682,"12":0.0050352015594326725,"13":0.2212577106062865,"14":0.21376953882632876,"15":-0.08181436858861772,"16":0.1119213490905657,"17":0.03841769521332892,"18":0.6219662136621017,"19":0.15715889782378378,"20":0.013357707840233357,"21":-0.24482470698605288,"22":-0.15843289815091052,"23":-0.0627099757640764,"24":0.1311167144880137}},{"sx":5,"sy":5,"depth":1,"w":{"0":-0.04888962269662498,"1":0.36539294725622795,"2":-0.2869499997827276,"3":0.08593264507285994,"4":0.25415809298908154,"5":0.2683452173197881,"6":0.1864288379430065,"7":-0.23803220857026658,"8":0.1913404338679582,"9":0.40384683751977685,"10":0.26585596403883316,"11":0.09923578166892391,"12":0.19234212060538095,"13":-0.3830982796624097,"14":0.18351201779508683,"15":-0.12224754481113001,"16":0.07690976281394152,"17":-0.07679600162580895,"18":-0.30984427978360113,"19":-0.16986794093922689,"20":0.14357167125641485,"21":-0.4150701718440602,"22":0.2722524070677144,"23":-0.09609600744272354,"24":0.07797644228213645}}],"biases":{"sx":1,"sy":1,"depth":16,"w":{"0":0.0354061392241613,"1":0.06982557880752041,"2":0.06016812577831633,"3":0.06377899128840137,"4":0.04689535912498795,"5":0.04043439850012816,"6":0.04339504896372348,"7":0.06659384550999567,"8":0.03578853133588174,"9":0.05553215808364111,"10":0.07515216448850083,"11":0.03971616072513761,"12":0.04714915254988742,"13":0.051141800663407906,"14":0.021357641319249214,"15":0.026076456345207423}}},{"out_depth":16,"out_sx":100,"out_sy":200,"layer_type":"relu"},{"sx":2,"sy":2,"stride":2,"in_depth":16,"out_depth":16,"out_sx":50,"out_sy":100,"layer_type":"pool","pad":0},{"sx":5,"sy":5,"stride":1,"in_depth":16,"out_depth":20,"out_sx":50,"out_sy":100,"layer_type":"conv","l1_decay_mul":0,"l2_decay_mul":1,"pad":2,"filters":[{"sx":5,"sy":5,"depth":16,"w":{"0":-0.0061038054725870835,"1":-0.11411565458082995,"2":0.05701523142912013,"3":-0.08951819020976202,"4":-0.08408946366503402,"5":0.07074281785846755,"6":0.02683580737667034,"7":0.057024840611973604,"8":-0.011173792939666171,"9":0.04338138015226648,"10":-0.09141983765009745,"11":-0.012850964025291383,"12":0.022150710574415783,"13":0.0039336652706303135,"14":-0.025860844402645713,"15":0.050276895165654936,"16":0.13932848877459483,"17":-0.031970637942379,"18":-0.02039358866466602,"19":-0.02259910588732494,"20":-0.012028660838778567,"21":-0.036936043573724764,"22":-0.021317978029377762,"23":-0.07650484970618972,"24":-0.050173048620546015,"25":-0.022550867548461098,"26":0.0012188946777274441,"27":-0.07511196674660092,"28":-0.00940246990122583,"29":-0.07609157910108275,"30":0.06505295523112317,"31":0.05322657403452814,"32":0.01279898344784466,"33":-0.03580761999091892,"34":0.017292371633425983,"35":-0.04476708612605654,"36":-0.08080316079326769,"37":0.001073968618489589,"38":0.08191620457515014,"39":-0.026014762305074515,"40":0.008786414936284976,"41":-0.03430177221614736,"42":0.007564464375545753,"43":-0.0411564390993878,"44":0.07843531406173743,"45":-0.04604558591981348,"46":-0.08899988017476959,"47":0.09782966871268906,"48":0.061591313670185464,"49":0.0032664539337420428,"50":-0.018676240498618945,"51":-0.1018375619033758,"52":0.03931999139086595,"53":0.02397461329578767,"54":-0.04599971622961628,"55":0.07404433581288054,"56":-0.03627899846070429,"57":0.04158946036928762,"58":-0.06724828737407014,"59":-0.013500509840936892,"60":0.031583097332666996,"61":-0.038284245160616945,"62":0.052037763549188744,"63":-0.010153184534347114,"64":-0.007854981935365187,"65":-0.014666410862722122,"66":0.04507007192240562,"67":0.04041027201048364,"68":0.0167467205081362,"69":-0.0371597532732442,"70":0.09128510725083999,"71":-0.0024179426031112816,"72":0.07537266903965259,"73":-0.14507674149737848,"74":0.02844632401272472,"75":0.004685554088467936,"76":-0.09276054790635203,"77":-0.0020224648311624772,"78":-0.027542484656490025,"79":-0.024357500232208715,"80":-0.016436949784528015,"81":0.047859197737460946,"82":-0.07096604778352601,"83":-0.089232883919082,"84":0.07038207640300784,"85":-0.02132956902777708,"86":-0.0017511380049539187,"87":-0.053523753930978454,"88":-0.06499959522305987,"89":0.07533943219186122,"90":0.09202583805921268,"91":-0.023090880783921252,"92":-0.002041724365251354,"93":0.012110368062391338,"94":-0.04138421918381473,"95":-0.044499049762824816,"96":-0.03910698871651412,"97":0.052951283151262594,"98":0.01548853544581625,"99":0.024159204707241366,"100":-0.0033044161291021007,"101":0.016955284774841043,"102":0.06854034604654126,"103":0.03859035412274332,"104":-0.031220101247676546,"105":-0.02454347041127609,"106":0.0554331094800149,"107":-0.036833996490572736,"108":0.011436553678534989,"109":0.027762173397010113,"110":-0.006864417852693745,"111":0.0375055489322035,"112":0.0918656372864376,"113":-0.0018888804193690474,"114":-0.004729997217907519,"115":-0.03818100528638426,"116":-0.0017387264126255257,"117":-0.0034731943003036437,"118":0.025602791615253268,"119":0.027255788490649732,"120":-0.03340139331817792,"121":0.048869323698148136,"122":-0.08022704688935163,"123":0.04625540838385676,"124":0.030866220935267044,"125":-0.03766344115614586,"126":-0.044184582179912404,"127":0.11708001848012714,"128":-0.059881254627107375,"129":-0.060583260638138015,"130":0.03304193291204021,"131":-0.01715741797572729,"132":-0.0363289701191452,"133":-0.025634016352008304,"134":0.034760924061455756,"135":0.07987270995594965,"136":-0.11451448022689957,"137":-0.06178096950728172,"138":-0.059089273071113536,"139":0.03861457292976855,"140":0.031647728446383916,"141":-0.04557804873278935,"142":-0.02511063751761078,"143":0.05809180185517184,"144":0.03846521217906341,"145":0.020520653774151305,"146":-0.0007884183265729698,"147":0.04355247430391075,"148":-0.0027453900092955347,"149":0.0707253640822455,"150":-0.02235948976559607,"151":-0.07837150899192936,"152":0.02109121337733638,"153":0.039960466123678984,"154":-0.05722255966579582,"155":-0.002319598415948366,"156":0.00560238590904975,"157":-0.05763414138210887,"158":0.032083984524843734,"159":-0.013493122134814082,"160":-0.07666291118073668,"161":-0.031258270167889485,"162":-0.06908450371713333,"163":0.14020938336819644,"164":-0.05892134667570954,"165":-0.0010019850587446482,"166":0.036382041710313055,"167":-0.07485287593174086,"168":-0.04644108710287753,"169":-0.014873550409228588,"170":-0.11684223263285581,"171":-0.06785261850934125,"172":-0.007510866965319356,"173":0.0629057647033554,"174":-0.008300039119056675,"175":0.002178175464360152,"176":0.016036996697667512,"177":-0.030684552992525198,"178":-0.061191999799874365,"179":0.006317578510483006,"180":-0.028212915271399488,"181":-0.07912060698395143,"182":0.05619025493840268,"183":0.043726932326011346,"184":-0.028448812718276036,"185":0.01814019706397843,"186":-0.03547289341458682,"187":0.04770585822095351,"188":0.049199150653468755,"189":-0.015011401208000883,"190":0.019458973372506926,"191":-0.05391272157542163,"192":-0.04907001767426193,"193":-0.020018775816867614,"194":0.035738865673888,"195":0.0029730083573826917,"196":0.02564521565229085,"197":-0.0071586517724093685,"198":0.027739837764418653,"199":0.027107990128762957,"200":-0.07332086080095676,"201":0.0031359957469770028,"202":0.0647795546013069,"203":0.05074266113764841,"204":0.0006731849184096577,"205":-0.08085177632258665,"206":0.007621616860441876,"207":-0.06275756958595596,"208":0.06310770464610568,"209":0.061535262225033936,"210":0.008621254622948753,"211":-0.017155695590202906,"212":-0.019177095276590103,"213":0.02054211483758066,"214":0.03546387475430687,"215":0.09575765003751331,"216":-0.004790302543355868,"217":-0.11233849937839444,"218":-0.010590309853840043,"219":-0.027399433841147344,"220":0.07528829040537126,"221":-0.0686074579309082,"222":0.014272536503116814,"223":0.11205315836175354,"224":0.03835958185529855,"225":0.07303748489116245,"226":-0.04216597248738655,"227":-0.022415986204977416,"228":-0.046878542948366055,"229":-0.018026383358851632,"230":-0.035392955051895506,"231":0.010208178367783283,"232":0.020295346208860452,"233":0.01596756493185635,"234":0.032719191206250685,"235":-0.02591223779235433,"236":-0.056588908411194766,"237":-0.02344646458771211,"238":-0.03479108342124704,"239":0.04369257103878634,"240":0.045614982882655926,"241":0.05795135293022495,"242":0.02403401366757431,"243":0.0339391813227095,"244":0.031243789431024294,"245":-0.07526053671022634,"246":0.05843368403357266,"247":-0.008629421884743712,"248":0.13557318748991226,"249":-0.16831948603763527,"250":0.058222846080439115,"251":-0.10117342491935186,"252":-0.030619767569860575,"253":-0.006515119120147356,"254":-0.04344359346153261,"255":0.09128933172960564,"256":0.0012847220345773716,"257":0.010421664921371174,"258":-0.013538854774607275,"259":-0.02999170909143154,"260":0.03808660452321813,"261":0.07310036083528433,"262":-0.07740767530143673,"263":-0.07290328216837519,"264":0.03534447052942767,"265":-0.016808403429543383,"266":0.018020824128276866,"267":0.00019483261106794124,"268":0.050861833295947456,"269":0.02072850665834232,"270":-0.02646092888279182,"271":0.021653866641818897,"272":-0.056132195028755855,"273":0.029124159721464343,"274":0.031001117699643616,"275":0.00917446283815407,"276":0.06285324572176464,"277":0.01606929145238257,"278":-0.027088339751176593,"279":0.04480737212709524,"280":-0.02116214233715207,"281":0.10676690400992636,"282":-0.06355701154005704,"283":-0.08798627898542907,"284":0.011862861497398465,"285":0.025946459175809185,"286":-0.0538448435469468,"287":-0.08837609643590948,"288":0.06337215602071397,"289":0.06736917243266582,"290":-0.01690675880716345,"291":-0.004987462040503862,"292":0.023476500278467198,"293":-0.0759197180531707,"294":0.028716258208112994,"295":0.03754034808887193,"296":-0.0010559715246761536,"297":0.02807996718972374,"298":0.03561679813502228,"299":-0.051381936793674775,"300":-0.03987980824631404,"301":0.01257430071499544,"302":-0.036448384620265714,"303":-0.07335637812210774,"304":-0.07445912225245101,"305":-0.022147234421652815,"306":-0.08837555144765319,"307":0.05380953673828185,"308":-0.029055471973890613,"309":0.0019259131750191693,"310":0.02782370765737084,"311":0.06781033284010665,"312":-0.016746010700586022,"313":-0.0029446397065599804,"314":0.03620368969437171,"315":0.08826481790275822,"316":0.055791334239082606,"317":0.06549797073744883,"318":0.015051232882642837,"319":0.034040260565363946,"320":-0.047227501960903265,"321":0.03297366306954971,"322":-0.023374659857132503,"323":-0.06215904976461978,"324":0.08445452021760569,"325":0.04221402659481745,"326":0.0572960650858314,"327":-0.06369535714855135,"328":-0.06485814014300108,"329":0.03432228835675626,"330":-0.052309199933070344,"331":-0.03046988788217064,"332":-0.034887039960146554,"333":-0.0857304093523162,"334":-0.034937834366579316,"335":0.018745637590734346,"336":0.025321955329375905,"337":-0.013550030059568856,"338":-0.03988953808541177,"339":0.11294407283857166,"340":0.011329032750375865,"341":-0.05918962586477267,"342":-0.04064063938183111,"343":-0.04237310031545633,"344":0.1011219299740019,"345":0.054570141775565635,"346":0.03347471914512394,"347":0.09986709270734301,"348":0.0011896477971969775,"349":-0.14162451915592447,"350":-0.06988520448702151,"351":-0.002497364078714112,"352":0.04035777414892968,"353":-0.05479761801237551,"354":-0.0010779193382889972,"355":-0.03504099184921821,"356":0.011923025424648175,"357":0.012228978694974725,"358":-0.0024382623742046695,"359":0.029776999681850675,"360":0.03578656209705069,"361":-0.026679973237304762,"362":0.10904664421361374,"363":-0.07536393235177562,"364":-0.040694616262610075,"365":0.035407800747236096,"366":0.04004402634735125,"367":0.04926943153131663,"368":0.03656673493003921,"369":0.0478850925569879,"370":-0.02429386857827823,"371":-0.05161541635642391,"372":-0.017560540349896486,"373":0.008390275222780009,"374":0.019894945049943744,"375":0.030341795162207093,"376":0.08966106524424429,"377":0.006363912201667992,"378":0.02867887520638397,"379":0.05500605312086326,"380":-0.05912601985203676,"381":-0.007085802485878347,"382":0.02447237008971982,"383":0.01658116225209822,"384":-0.010373026687553842,"385":-0.0380119938685931,"386":-0.04859525745467211,"387":-0.10900477327073704,"388":-0.06731315888522518,"389":0.06838469721918213,"390":0.015800528755723103,"391":0.027808248577519103,"392":0.05362337824910105,"393":-0.004471616816879289,"394":0.028557632505378152,"395":-0.09662510184582043,"396":0.021692702302826144,"397":0.016206950969721055,"398":-0.01692928825978204,"399":0.02378885718496876}},{"sx":5,"sy":5,"depth":16,"w":{"0":-0.07460583942883194,"1":0.03868316776648889,"2":-0.0010710552665387275,"3":0.06700086477287312,"4":0.03042910634716679,"5":0.059411054704344095,"6":-0.0354681284972363,"7":-0.022543157099140565,"8":0.0641690616593896,"9":0.04263555256624019,"10":0.0371855751998638,"11":0.05223012441048758,"12":-0.007702143433337053,"13":0.0011886180970741213,"14":-0.03557738566366174,"15":-0.07176659383836817,"16":-0.03037523443273609,"17":-0.07521229275730915,"18":0.009242789764115836,"19":0.02093722703483692,"20":-0.089354209733462,"21":0.044142430178416674,"22":0.0019607780115204953,"23":0.013012007682053147,"24":-0.014094366318261876,"25":-0.05170452791826158,"26":-0.023879457334542706,"27":-0.1437224790789299,"28":0.057047388068258924,"29":0.01061432055798256,"30":-0.0061817686465602565,"31":-0.05390544081871355,"32":-0.04543557373620037,"33":0.04725525642181293,"34":0.05376942729419817,"35":0.014137882449386923,"36":-0.07231824609828941,"37":-0.06469215262712208,"38":-0.010675673574649413,"39":-0.017973177402515746,"40":0.04775890492830251,"41":0.055868465942688066,"42":0.006265562868585776,"43":0.03510648457043484,"44":0.06852447556068482,"45":0.059445006447200896,"46":-0.004643165076483121,"47":0.07034185415512936,"48":-0.013780421214381812,"49":0.05669096354739088,"50":-0.04573263725776518,"51":0.013157397226681206,"52":-0.004718135056351243,"53":0.012287412848762749,"54":-0.01845200028082259,"55":0.017623623997635503,"56":0.005451599485266016,"57":-0.06290215707465353,"58":0.059376093584099884,"59":0.06607826622854371,"60":-0.05954515499170375,"61":-0.07408703963092275,"62":0.002113260835900775,"63":-0.02895448698694244,"64":-0.02541368683006766,"65":0.01727611665613546,"66":0.0625504274001139,"67":-0.1133458053685862,"68":0.0357310394612102,"69":0.04823224097003105,"70":-0.060432928690903144,"71":-0.016760778214814198,"72":-0.022327452866709657,"73":0.042470179319613756,"74":0.033333933547167405,"75":-0.02997820102278141,"76":0.011416626561679653,"77":-0.07181896227731925,"78":-0.04159489913106465,"79":0.05817528135130766,"80":0.029881389923282493,"81":0.028406216160344364,"82":0.010645735160387177,"83":0.019535208652028926,"84":-0.01566314935432299,"85":0.04400041639881222,"86":-0.05361166202439169,"87":0.01810447388772397,"88":-0.032973268944686024,"89":0.004330267396217102,"90":-0.0693916432830313,"91":-0.028780791041289246,"92":-0.013728073123719818,"93":0.052557826301673605,"94":-0.0016521564245651978,"95":-0.01748240698209059,"96":-0.03812560990488833,"97":0.013460959530036778,"98":0.02407248151458691,"99":0.06626279315698776,"100":-0.010149769435616412,"101":0.004262869963461667,"102":-0.040015242966479715,"103":0.057852114543313814,"104":0.024876818602121858,"105":0.05736798429898077,"106":-0.07267026688095585,"107":-0.005370868225050952,"108":0.03297368559270727,"109":0.04441396785520315,"110":0.04992711192196621,"111":-0.0323852461603014,"112":0.05420833023634301,"113":0.02262954419804148,"114":0.014662770526214647,"115":0.021239969187936462,"116":0.03262938370762442,"117":-0.02012167375978536,"118":0.026915275069986137,"119":-0.0738821167397534,"120":0.03765053205046075,"121":0.02712107645729206,"122":-0.005118254747259982,"123":0.004684418727519273,"124":-0.005789084129954776,"125":-0.010666085839740944,"126":0.0912387838445861,"127":0.048057214998030826,"128":0.011111289382100742,"129":-0.01618990805610455,"130":-0.009430490015459939,"131":0.06998802566057534,"132":-0.04396430079881831,"133":-0.011828863219307019,"134":0.049373058519386566,"135":0.14054250152922076,"136":-0.02869275038284364,"137":0.0026100318638214983,"138":0.0408038125780759,"139":0.05178072108549222,"140":-0.018833671225831065,"141":0.0075418264259261335,"142":-0.03260365306036799,"143":-0.00823910368842977,"144":-0.07003676797372413,"145":0.04718024203002876,"146":0.016115742860199532,"147":-0.007576563164021612,"148":-0.06355428003744787,"149":-0.0035144023868383324,"150":-0.058380797274661604,"151":-0.06769281100331057,"152":0.03755441749108628,"153":-0.08081134746539423,"154":0.04832674777840536,"155":-0.05017507814958674,"156":0.03872314671605433,"157":-0.0595839600959905,"158":0.015837626337686674,"159":-0.06762641801099345,"160":-0.00026110690050499456,"161":0.014215194642305867,"162":-0.011180304948188616,"163":-0.05377508386207924,"164":-0.10028258790336356,"165":-0.029784946294224488,"166":-0.011127933383198832,"167":0.0671438479321479,"168":-0.08750424467190616,"169":-0.07455800015533064,"170":0.06352112090576821,"171":0.027221908832770404,"172":0.07545699714014091,"173":0.03602130764117457,"174":-0.04538358619639031,"175":-0.13149771370443125,"176":-0.001983281789759664,"177":-0.05757920380697048,"178":0.020126375930145646,"179":0.051562170017078676,"180":-0.05681868142812618,"181":-0.00988644438518598,"182":-0.022929964807396654,"183":-0.1009171656612857,"184":-0.04978438832074258,"185":0.1039041687506326,"186":0.15213476624908748,"187":-0.020123652989839407,"188":-0.02860881855901878,"189":0.0653927554800349,"190":-0.05048664110735532,"191":-0.030999803474749274,"192":-0.04050321854322815,"193":-0.005052806858614194,"194":-0.028509565409283125,"195":-0.020192569772799204,"196":0.05312973515951305,"197":0.0378066694803452,"198":-0.031430893632496626,"199":-0.08040200400477408,"200":-0.05560084130757049,"201":-0.025077550976305967,"202":-0.016698326072666116,"203":-0.07829069263917385,"204":0.04535620679971319,"205":-0.006687747467789936,"206":0.058125147498307134,"207":0.10720486935010934,"208":0.05026403394675637,"209":0.056862849127809104,"210":0.09051397017179029,"211":0.07621898758055935,"212":0.044287137357068226,"213":0.018692237589768484,"214":-0.06741439026683838,"215":-0.060331653165043776,"216":0.08268192274932955,"217":0.045793582980265916,"218":-0.08520431872123331,"219":-0.07000416055841845,"220":0.03565964301498198,"221":0.012106590676902312,"222":0.021141308223649194,"223":-0.02780483261045572,"224":0.05317767900871814,"225":0.12226882520309076,"226":-0.047077445855682076,"227":0.006018622441847885,"228":0.03101613913836455,"229":0.0010291278007414743,"230":0.00012494656582875212,"231":-0.0221844069645247,"232":-0.12391586331632597,"233":0.041918115829446906,"234":0.011248830911936725,"235":-0.00192418826140545,"236":-0.01511652266537951,"237":-0.011831794768170251,"238":0.030996745892623016,"239":0.023079900589687303,"240":0.0492458533320529,"241":0.09175776882715779,"242":0.07818046848822313,"243":-0.10410446225866872,"244":0.03341329556918897,"245":-0.07869915655477089,"246":-0.025543530951003757,"247":0.03308530562709612,"248":-0.030130355131621968,"249":-0.017648773763050102,"250":-0.012663743562785282,"251":-0.016154929487967915,"252":0.019452750237853745,"253":0.016827578136753438,"254":-0.033970607244248455,"255":-0.02226825721153825,"256":0.001664422436648542,"257":0.03543113470010803,"258":0.044454935747293374,"259":-0.08765805139876373,"260":-0.006325145530392096,"261":0.026349323446357348,"262":0.041765367137877825,"263":0.035117628090074654,"264":0.004175772809633249,"265":0.16962361649467309,"266":-0.0012837676425119329,"267":-0.040872866001312666,"268":0.08826767379675601,"269":-0.011709221978551341,"270":0.0658019510181709,"271":0.04484550754905474,"272":0.08333596625651249,"273":0.07286225489575687,"274":-0.03349887600144246,"275":0.016716851713315245,"276":-0.014360744890649,"277":0.012067874613156851,"278":-0.0212015250474001,"279":0.0015717721833752186,"280":-0.007322183278020795,"281":0.024795881980212226,"282":0.013227985646114094,"283":0.03563508561213904,"284":0.03807549815441376,"285":0.07167495242146124,"286":-0.008891466580625177,"287":-0.028555961087335643,"288":-0.05469096161545801,"289":0.04533279000787059,"290":0.046025077975867336,"291":0.03486811506103107,"292":-0.01042801215621607,"293":-0.02703350010036591,"294":0.018490204386227935,"295":0.030154974733427778,"296":0.025507954727333814,"297":-0.09032451554521426,"298":-0.005098138130702101,"299":0.03875572534051796,"300":0.022253350536040314,"301":-0.05033865369112528,"302":-0.022018202870483776,"303":0.03304905054187281,"304":0.04589770291789309,"305":0.05033030567955929,"306":-0.03135322496996017,"307":-0.0501856455243966,"308":0.0044852126734707485,"309":0.08924785748320117,"310":0.049134299659311015,"311":0.06846671715299371,"312":0.07703874071711679,"313":-0.11487503220886339,"314":-0.08542368048090847,"315":0.06206403744747194,"316":-0.016234849296196487,"317":-0.10637306596325279,"318":0.0013100054788791505,"319":-0.040117846000875014,"320":0.06903401301850413,"321":0.003440786245388554,"322":-0.010106407649944193,"323":-0.021412105077660518,"324":-0.04251281340278635,"325":-0.0253735597240906,"326":-0.012331028292880502,"327":-0.048209511454791,"328":0.02682013215240443,"329":-0.038628024882760605,"330":-0.03169665528433307,"331":0.04614762808239469,"332":0.01176325866361347,"333":0.03595016948655718,"334":0.07044135456296988,"335":0.017381507926859108,"336":-0.052554058045770256,"337":0.0023598710891881303,"338":-0.06518555917070011,"339":0.03885563603193167,"340":-0.034040860233141526,"341":0.01944154153138184,"342":0.03245455836315556,"343":-0.048942339848527375,"344":0.013070296696331035,"345":0.01587973477528451,"346":-0.053242599717831254,"347":0.013826973783244632,"348":-0.0365409752535263,"349":-0.041860816348415326,"350":0.05425874023979218,"351":0.11655590757048791,"352":0.045891408129964846,"353":0.021117560531222584,"354":0.09435549852144245,"355":0.042812086810822485,"356":0.04283471210806735,"357":0.04672571284032972,"358":-0.1117421301658361,"359":-0.01704655395684347,"360":0.0474628825796992,"361":0.056093226586792486,"362":0.020760055058753304,"363":0.016470257296810648,"364":0.07314156062476719,"365":-0.04116333646182928,"366":-0.0016250978507829097,"367":-0.03162856994898717,"368":0.09295551809089825,"369":-0.03309044843223731,"370":0.07919107146359752,"371":0.064323653377011,"372":-0.04828361899772547,"373":-0.014779141418241905,"374":-0.028913368080583684,"375":-0.041641354081296954,"376":-0.010186725137747363,"377":-0.04521701464615264,"378":-0.0071152865183244166,"379":-0.09163436604492761,"380":0.029656918614549985,"381":0.13140034561315567,"382":-0.019386188519139955,"383":0.03792527692040879,"384":0.032996754995149966,"385":0.0872725294415845,"386":0.11024186880137517,"387":-0.02741724819522021,"388":-0.020704860688413446,"389":0.04863184227584847,"390":0.005603844879419134,"391":0.013263612269873565,"392":0.04186525481349813,"393":-0.01690811931586235,"394":-0.023506428576996547,"395":0.015896945982574625,"396":-0.01575612716495129,"397":0.0006585444773772648,"398":-0.0131645731102012,"399":-0.09842195819173125}},{"sx":5,"sy":5,"depth":16,"w":{"0":0.031553830500792635,"1":-0.0264739309582345,"2":0.06659819342399707,"3":0.10350729763280048,"4":-0.05347934121810128,"5":0.008746644825309331,"6":0.08245600295272416,"7":0.03314482189839322,"8":-0.030641318243875625,"9":0.00992210879201097,"10":0.06923116551781275,"11":-0.06184080131002531,"12":0.04885733030778426,"13":0.05936286125704353,"14":-0.01890944245912968,"15":0.03285696616706595,"16":0.06504503235569592,"17":0.06129536198277828,"18":0.09923995507721915,"19":-0.01512994949152579,"20":0.01303203157568755,"21":-0.020945880024738132,"22":0.0626188161344102,"23":0.09124455084219717,"24":-0.008422375234865831,"25":-0.007803620164138867,"26":0.013918133591170775,"27":-0.010301306686904961,"28":-0.02270185923049459,"29":-0.004484728313229005,"30":0.09192100817583923,"31":0.014900615595564489,"32":0.07162581354191662,"33":0.15798941278044568,"34":0.013562204740200623,"35":0.10536054101198088,"36":0.05168218172673844,"37":0.037273743411763136,"38":0.03304488555002127,"39":-0.03649734174006651,"40":0.009655042994443135,"41":0.024440678520525182,"42":0.04051303706189829,"43":0.005547998833554708,"44":0.02364895481713939,"45":0.0008338296177886488,"46":-0.013957740474596577,"47":0.05230454606814671,"48":0.008589625070517744,"49":0.11348346423047133,"50":-0.12166550508331418,"51":0.05039171384517322,"52":-0.03577763190567289,"53":0.07720110518138304,"54":0.09393831825496163,"55":0.09362877846504292,"56":0.0395906181988622,"57":0.11357514090678261,"58":0.04649359003575064,"59":0.017383912109676596,"60":0.07937703972154145,"61":-0.009597551987189286,"62":0.045594288752477764,"63":0.038764748965267756,"64":0.08529806186943277,"65":0.027703311247298922,"66":-0.015745118670397643,"67":0.13842918515822927,"68":0.053235436047835184,"69":0.011715684311048137,"70":0.050660611422649604,"71":0.03695220906454268,"72":0.02148159448716609,"73":-0.07769298799852438,"74":0.026055885386563553,"75":0.07906072969221081,"76":-0.0662018646125202,"77":0.01864546758067294,"78":0.003014876423940143,"79":-0.044933420509408704,"80":0.04974137778116363,"81":0.0636520105100266,"82":-0.003775129421479212,"83":-0.02901882896132937,"84":0.056261187353564675,"85":-0.04187607225643134,"86":0.10747454545610395,"87":0.040980558493966444,"88":0.1093931895936732,"89":0.004739472965520603,"90":-0.01952743329928054,"91":0.004262631648496224,"92":0.04279326717789897,"93":0.019865874000060863,"94":0.0534624064933726,"95":-0.03254296811949005,"96":0.011874559371246762,"97":0.004770977832133025,"98":0.01626032530411755,"99":0.04538263600055356,"100":-0.07337290472645203,"101":0.02553734942956171,"102":0.007973133845218307,"103":0.08360092190771654,"104":0.02169655786355598,"105":0.032925030211848685,"106":0.09077237365342056,"107":-0.033402120089086294,"108":0.0303653832419991,"109":-0.019799714400434435,"110":-0.042221262446222145,"111":-0.046609836030643115,"112":0.03277662144924817,"113":0.0053060286049563055,"114":0.09140598452959343,"115":0.09925666972031734,"116":0.09340769881428214,"117":0.02237938832273516,"118":0.08280109166816438,"119":0.0198188520287853,"120":0.008232795001438855,"121":0.01945473761711957,"122":-0.00511143792364221,"123":0.03152579710175587,"124":0.01675726331091528,"125":0.01854719701894312,"126":-0.022573131115705594,"127":0.058786894669526905,"128":0.06255397082020465,"129":0.030264796065410618,"130":0.07150035422577512,"131":-0.015275203948717755,"132":0.007752064080708063,"133":0.04290614501886999,"134":-0.014546258236696162,"135":0.031559331179556546,"136":0.007828362781245733,"137":-0.06276617558885265,"138":0.07144398898316004,"139":-0.05249543822233345,"140":0.035434698909698865,"141":0.025062292623098392,"142":0.005814009134291187,"143":0.0703969118084916,"144":-0.09750945157688706,"145":0.15422224093963918,"146":-0.005437412692073228,"147":-0.03829233267947002,"148":0.009401158275229434,"149":-0.025357713811368376,"150":0.041556574112864786,"151":-0.02988707507607687,"152":0.03423080250709341,"153":-0.003373196537191057,"154":0.06358945678868769,"155":0.052645188656352565,"156":-0.09952935028869489,"157":0.058421158339044585,"158":0.04844891765773552,"159":0.01793281254692431,"160":-0.09522637592189853,"161":-0.06093706554630199,"162":-0.006386937430646267,"163":0.00852288700065274,"164":-0.045812665543413615,"165":-0.0000074169711602993074,"166":-0.030201963004507833,"167":0.030655711742135616,"168":0.03527478571144088,"169":0.06452916012608348,"170":0.012986018964885607,"171":0.010052036415100763,"172":0.11108214450253955,"173":0.01785422836879329,"174":-0.00430428968083095,"175":0.036949665129254114,"176":-0.01930040558622756,"177":0.09537229613728376,"178":0.07438928053863497,"179":0.16266774420785868,"180":0.022948572424087807,"181":0.06068361642963325,"182":0.0968201763949141,"183":0.0799501912869586,"184":0.16227679769124703,"185":0.006988060581726341,"186":-0.02278296215708457,"187":0.01195743489653933,"188":-0.04895090833834198,"189":0.08155430755223382,"190":0.010265645353600722,"191":0.1202923311527384,"192":-0.023189139750514023,"193":0.006160811211684067,"194":0.06149278392062497,"195":0.00349009084492276,"196":0.04577748023825369,"197":-0.04059395845935519,"198":0.02814019081139342,"199":-0.01884376019930625,"200":0.10510887089108979,"201":0.06284200874631,"202":0.06037749175927414,"203":-0.050048414973783685,"204":-0.004821734261917464,"205":-0.0512759081685343,"206":0.04692345130130272,"207":0.022410686436180743,"208":0.06312200335980771,"209":0.04432262689188266,"210":0.009353868030224049,"211":-0.05011455769742142,"212":0.004000139726894599,"213":-0.05536691634450034,"214":0.0804596988744044,"215":0.029687235428990474,"216":0.006826560352785245,"217":-0.06393982742668036,"218":-0.024879678443291052,"219":0.06587918437438682,"220":-0.023476932963277776,"221":0.08906851131953195,"222":0.16815815324332517,"223":0.016023700322076596,"224":0.10886000413559202,"225":-0.11955817390146245,"226":0.05337643272587911,"227":0.05364596772062301,"228":0.0893128506246952,"229":0.004122770985424579,"230":-0.0017577696150683627,"231":0.0629731412189363,"232":0.011100635389881316,"233":-0.02340131614368585,"234":0.08679938403459193,"235":-0.00791798150307293,"236":-0.047064492105425314,"237":0.14228344231247103,"238":-0.009718006348020928,"239":0.020934411933067387,"240":0.007277565591318886,"241":0.09945746553226387,"242":0.07318352893263623,"243":-0.005646016953322814,"244":-0.008070904113891426,"245":0.027163468306515306,"246":0.11917919130681956,"247":-0.04450148798785729,"248":0.04578177122046368,"249":0.01889846552298272,"250":0.022981185685309685,"251":0.026017504046504783,"252":0.011384386356803982,"253":0.09141558350989648,"254":0.018269171635659266,"255":0.016273887845211416,"256":0.008501003148539637,"257":-0.012553905677648839,"258":0.08738519988457272,"259":0.08467595804305833,"260":0.07788190019667839,"261":0.08548541562939266,"262":0.028348514512620455,"263":0.05193370430218784,"264":0.00021476948220649562,"265":0.07666765771618088,"266":0.0004339158544663682,"267":-0.01885480390221136,"268":0.06485308660383121,"269":0.06496036667263488,"270":-0.03238243346183422,"271":-0.0504691684233898,"272":-0.018506997487928924,"273":-0.07673462483799641,"274":0.09649487193864739,"275":0.019041904352265198,"276":-0.05483683732514326,"277":0.066837751264671,"278":0.025146266678510238,"279":0.02751082624001934,"280":-0.05457726023677921,"281":-0.03957559419063942,"282":-0.021369941576814752,"283":-0.02758626289450905,"284":0.05444646620872412,"285":0.1020627002544967,"286":0.02968786936382596,"287":-0.0171058771302529,"288":0.03289286087801586,"289":0.05057632597338984,"290":0.07614494315103518,"291":0.06007661458944978,"292":0.03761598990974762,"293":0.01883299276150779,"294":-0.034288982395856496,"295":0.0633916331546224,"296":0.025586982067159883,"297":-0.016548598706310792,"298":0.07086698619099512,"299":0.023339391857600676,"300":0.0696628913981563,"301":0.08807588810846823,"302":-0.00052031188047913,"303":0.06021210473562093,"304":0.03828419542902943,"305":-0.059362856409351815,"306":0.09296675750056203,"307":0.05107420629276072,"308":-0.07627962310041879,"309":-0.019580100764046662,"310":0.06244451067178279,"311":0.0006159406318493714,"312":0.03257607500159785,"313":0.054366309226128146,"314":-0.05203407986456538,"315":0.07841588926682486,"316":0.13838537853854568,"317":0.07979081257149828,"318":-0.025963305236272823,"319":0.02069744245041819,"320":0.015334267700594697,"321":-0.0306753094984203,"322":0.002449275735842624,"323":-0.04979351663287535,"324":0.10491148004177114,"325":0.06852895099005765,"326":-0.0035694401312536326,"327":0.17591618251611243,"328":0.0736116761493154,"329":0.009197715648136796,"330":0.0035813176252961856,"331":0.05738267261651494,"332":-0.02381385294721718,"333":0.02393034864565966,"334":-0.012260440788739755,"335":0.037152495669095856,"336":0.060421316797934256,"337":0.0884001748138843,"338":-0.007367011855461255,"339":-0.011273056326009147,"340":0.022275129663594514,"341":0.05156157342957423,"342":0.06823191025430446,"343":-0.030840189766330614,"344":-0.022576606284992758,"345":0.06607616608110198,"346":0.07416374126338951,"347":0.08846404197904485,"348":0.03794887156568983,"349":0.04565647079806274,"350":-0.046309963328982934,"351":0.045688389908499834,"352":-0.025144985068060236,"353":0.04203262951089631,"354":-0.028904488285052855,"355":0.001803863936642724,"356":-0.011809796339226863,"357":0.017774866750238885,"358":-0.0023448236029834546,"359":0.0625239135296393,"360":-0.06514928205736345,"361":0.02482258194814607,"362":0.0010724146815803413,"363":0.08255769641449646,"364":0.017899879928271745,"365":0.012699999226437043,"366":0.08179735164151512,"367":-0.03279296036500704,"368":-0.04572966078572096,"369":0.07161689972415847,"370":-0.022025844780763693,"371":-0.030083970658117493,"372":0.0832870291163253,"373":0.019282228762175425,"374":0.06070720242345264,"375":0.04093003700456155,"376":-0.0015991556912129693,"377":0.003933390069947146,"378":0.0025429889282163293,"379":0.04771231215275876,"380":-0.031124660848518816,"381":0.028529707862971286,"382":0.11002050631543098,"383":0.064768919621103,"384":0.04631660867726995,"385":0.15469715905274714,"386":0.0028369454271866853,"387":-0.010552717326579567,"388":0.10411967187170985,"389":-0.02166243249311546,"390":-0.015344987394834498,"391":0.06370441553580854,"392":-0.03439044042058447,"393":0.07789490102465435,"394":0.055125268593252404,"395":0.07647953868725513,"396":0.0009082209188985403,"397":0.14778013508988905,"398":0.05074938405769957,"399":-0.06372810493976694}},{"sx":5,"sy":5,"depth":16,"w":{"0":0.04508191067630528,"1":-0.061171188539257404,"2":0.06339063948921253,"3":0.030612140742481524,"4":0.08603744478580644,"5":0.00542004651823856,"6":-0.03679250945939366,"7":-0.0548459525511199,"8":0.027938606731532725,"9":0.03743943300675424,"10":-0.011223587362741962,"11":-0.029136563824769052,"12":-0.013126391927455043,"13":0.005509794203736766,"14":-0.03906675430308387,"15":0.024064855277773894,"16":-0.004897002590549302,"17":-0.004701716965407107,"18":-0.10652027233884026,"19":0.018787374158228877,"20":0.01519407319893282,"21":0.021153199260925827,"22":0.08090277224415988,"23":0.01631528092437649,"24":0.019659362946032977,"25":0.05086178173608746,"26":0.022699956264853077,"27":-0.10417894737993103,"28":-0.0967377107895748,"29":-0.05785266466995055,"30":0.05796928705594199,"31":0.06971203135957604,"32":0.03763107720554131,"33":-0.07858712955452563,"34":-0.08693649504863901,"35":0.0638939329816251,"36":0.04771143744163523,"37":0.002264822365719747,"38":0.012770074089224745,"39":0.05587914626246267,"40":0.062477259472440094,"41":-0.007908358286501068,"42":0.04590510817317398,"43":-0.07197781374846249,"44":0.06769325670672634,"45":-0.015513496457451243,"46":0.025434268828650745,"47":-0.06961895986054625,"48":-0.0337705460537613,"49":0.017308624967352585,"50":-0.0016770091296113335,"51":0.04832316311142406,"52":-0.031148421780828446,"53":0.0060821398790055,"54":0.019706506543764768,"55":0.03364153663837061,"56":-0.032508243971814135,"57":-0.061568863780078364,"58":0.09522747956490264,"59":-0.005596117508953545,"60":-0.0030918627877085485,"61":0.06996444503532875,"62":0.006213789451187785,"63":0.03890029640287349,"64":-0.03725366679708808,"65":-0.01740820488276885,"66":0.0783939962722588,"67":-0.03968138620782408,"68":-0.004362074930972167,"69":-0.015524399051363127,"70":0.14699064159186348,"71":0.07937875588461961,"72":-0.00414670211787447,"73":0.004184594534844499,"74":-0.08340861974398524,"75":0.03463794364028288,"76":0.019842792081809228,"77":0.062089300762119465,"78":0.028643439360785623,"79":-0.010322647637018557,"80":0.037443212786927374,"81":0.015232781701119974,"82":0.039119274731916724,"83":0.06439713941788792,"84":0.00942037972073154,"85":0.013374264062067877,"86":0.021633511002801812,"87":0.004206939982919091,"88":-0.05738428993497108,"89":-0.0026890749763346733,"90":0.040281650254568514,"91":-0.036127564345536066,"92":-0.0010257188755370423,"93":-0.048794636283130945,"94":0.023737072445765724,"95":-0.044266727355028526,"96":0.003979987915658632,"97":0.015390835053705268,"98":-0.02137360635930124,"99":0.051306736553313054,"100":0.01124585170244918,"101":0.01396055145147071,"102":0.023323836627372523,"103":0.09126589679808755,"104":-0.027255303518180743,"105":0.001341495346004557,"106":-0.007419206020842835,"107":0.06712310983030498,"108":0.0584050897932168,"109":0.11790797631160006,"110":0.09338898464925079,"111":-0.03359387765735169,"112":-0.10594011308911594,"113":0.08052127360984203,"114":-0.037450159590677344,"115":0.03098605099813431,"116":0.06047947573840801,"117":0.09089225444180733,"118":0.04950969766190181,"119":0.13642711830330062,"120":0.03638312191485331,"121":-0.005250624494075121,"122":0.01167285676409571,"123":0.03462750265132699,"124":-0.005474726456161444,"125":0.14285230675715133,"126":-0.023584291412774943,"127":-0.08076002441394455,"128":-0.012621902828212232,"129":0.003934943902391367,"130":-0.016028858609254147,"131":0.05854630461344215,"132":0.1687043203395067,"133":-0.056319775646841076,"134":0.04410934497751529,"135":-0.021098617856020747,"136":-0.07014989520640713,"137":-0.015234411980529494,"138":0.016934912047993692,"139":0.016893264679142785,"140":0.03356292334601069,"141":0.03930807423086329,"142":-0.044444669397591445,"143":0.013602020695472181,"144":-0.040956102060331116,"145":0.06279186125607165,"146":0.0025920506319652673,"147":-0.023043653804746843,"148":0.035809785261201495,"149":0.07620957621029881,"150":-0.06792440549562477,"151":0.08501497255900771,"152":0.04473169991642679,"153":-0.026630143243235514,"154":0.023194330945484502,"155":-0.037916412046606084,"156":-0.05680487484621213,"157":0.0908564007336512,"158":-0.0038078854490168792,"159":-0.03405552268763681,"160":0.08257322503830844,"161":0.07753593512947583,"162":0.015352258418227847,"163":0.018076567061823326,"164":0.004861914893359305,"165":0.028876428082092755,"166":-0.03003846875852496,"167":0.07496163367518355,"168":0.03541213800603365,"169":0.06340650822674557,"170":0.0632003056167612,"171":-0.01653988493022407,"172":0.04215260651260295,"173":0.008688412790547861,"174":0.04851826356319516,"175":0.08296966245602311,"176":-0.020113256761042763,"177":-0.07441747538809146,"178":-0.12082413218590607,"179":0.027024025899544783,"180":0.05839940606751753,"181":0.047883745549652766,"182":-0.029713690638529893,"183":0.11266763928635862,"184":-0.03864834501093656,"185":-0.06515578232849144,"186":0.06966222175164624,"187":0.046393139027470054,"188":0.058410015037531994,"189":0.07746227701905156,"190":-0.07685910195909165,"191":-0.026308402377467597,"192":-0.04752454623414609,"193":0.12574271924657776,"194":0.01585657496100746,"195":0.018610373755064205,"196":-0.005450599273790781,"197":-0.023130870757947054,"198":-0.04692769163493376,"199":-0.02113968647109715,"200":-0.021133961685719075,"201":0.04420622971471382,"202":0.023853955874428453,"203":0.049123358723570244,"204":-0.08953255918622673,"205":-0.10660699988447755,"206":-0.02069834330557845,"207":0.006378401274042412,"208":-0.05933195938435563,"209":-0.04472771069823022,"210":0.04987208371219281,"211":0.01700905435357254,"212":-0.03889218884190237,"213":0.13216219034457077,"214":0.02884504870725238,"215":0.0658965790668799,"216":0.060971055469569074,"217":0.019587650117413462,"218":0.017312850107723578,"219":0.12071940912156642,"220":0.06949967950742349,"221":0.07893007177765432,"222":0.009740324286470295,"223":0.016568215742523717,"224":0.015038951174862028,"225":-0.0316020824463269,"226":0.04932788895451472,"227":-0.021192633879139555,"228":-0.05473908998993744,"229":0.07703897635785453,"230":-0.05064840053151165,"231":-0.01831240271880752,"232":0.09602561522444067,"233":0.004235079075532819,"234":0.00843270390546806,"235":0.028582971653310592,"236":-0.03714466048370772,"237":-0.009889455136972557,"238":-0.035707473094879656,"239":-0.0326250585611209,"240":-0.023762553637612864,"241":-0.024577296173811554,"242":0.02701594971400715,"243":0.04835304132639478,"244":-0.05242520294570822,"245":-0.06340870273037524,"246":-0.0006439753317618556,"247":0.018855090199837114,"248":-0.03679954231692193,"249":-0.03813029906630081,"250":-0.0033619081341171274,"251":0.0237230222145959,"252":0.015512289717740466,"253":-0.07103052914051124,"254":0.02751298148188865,"255":0.015663395378904373,"256":0.10818727574479352,"257":-0.026212506190187022,"258":-0.0023720953286194856,"259":0.04316796232591806,"260":-0.052639119861894304,"261":-0.00929883062329792,"262":0.007564556635133498,"263":-0.040337980649540583,"264":0.015621529467513577,"265":0.009008540804617625,"266":-0.029597474452348862,"267":-0.0011428698320851138,"268":0.04408471387661977,"269":0.01012843902993041,"270":-0.13527160642963382,"271":0.004219372176350554,"272":0.0680157608297628,"273":-0.09741218737091889,"274":-0.03629524934140247,"275":0.09003751866932153,"276":-0.02673128584561348,"277":-0.03259974100930166,"278":-0.039161875906886315,"279":-0.08926436171016609,"280":-0.035233241802122645,"281":-0.05910444434547895,"282":0.031195255808069606,"283":-0.04121357037497502,"284":-0.021578810338737386,"285":0.02623022817052048,"286":0.063554645141697,"287":-0.017157058546918905,"288":0.041261022375768716,"289":0.002923140429285246,"290":0.004629481417390992,"291":0.011142456169747031,"292":0.06631838444654338,"293":-0.052399188636458684,"294":0.05472349955799326,"295":-0.000068253580247425,"296":-0.005586290162879636,"297":0.022196780417008056,"298":0.05152483881158336,"299":-0.12981281406796946,"300":0.0083791640296241,"301":0.03949642929129751,"302":-0.028312924350688162,"303":0.038189430319612735,"304":-0.03935495594426649,"305":0.033904518114546235,"306":0.012847475556303363,"307":0.013727716023133073,"308":-0.058654241603257225,"309":0.034183505164052996,"310":-0.07288801534063674,"311":0.043295242169353855,"312":-0.01121309195161598,"313":-0.03588950974065329,"314":0.03141174507548761,"315":-0.015902886836058002,"316":-0.05016300736743669,"317":-0.010102128258362307,"318":-0.0008321222143957939,"319":0.008496347044287625,"320":0.07568420410503995,"321":0.023106875160870583,"322":0.019617291245733574,"323":-0.021093381082796247,"324":-0.05767627613920351,"325":0.027433083443088944,"326":-0.02693027909649569,"327":0.07255454315004901,"328":0.02584343043381165,"329":0.028564882658261577,"330":0.09047641884201668,"331":-0.004102693146958544,"332":0.0038956796328702492,"333":0.03845036117560035,"334":-0.010880135881252133,"335":0.02172067219953574,"336":-0.06463576525660682,"337":0.0725897992906967,"338":-0.035453547659641094,"339":0.02759211880319197,"340":-0.008075555831876823,"341":0.044136830291340065,"342":-0.06797463041054876,"343":0.05052127199236487,"344":-0.07613484946964606,"345":0.03356075760573125,"346":0.10092759859081922,"347":-0.04168362165483686,"348":0.003680224306268458,"349":-0.001874524977751648,"350":0.06992339448114011,"351":0.0011866601479549631,"352":0.08355280872657254,"353":-0.06053417036610534,"354":0.058859728652812734,"355":0.07068164314671264,"356":0.03435188703778897,"357":0.0059339879140488695,"358":0.008861962685515328,"359":-0.08169732063032926,"360":-0.02780495899778452,"361":-0.019069938792945225,"362":0.10126512487753264,"363":0.04000365267257798,"364":0.02870551462893304,"365":-0.0059064260938692745,"366":-0.022927414336437715,"367":0.02183185102913189,"368":-0.055483144016412696,"369":0.05775857236889856,"370":0.08989801627608515,"371":-0.03847276961094374,"372":0.022045349688434215,"373":-0.0293397464978933,"374":-0.01073300145096197,"375":0.06050865996202556,"376":-0.02634743740398729,"377":-0.049881163667927525,"378":-0.05635572934028392,"379":0.03984232102521024,"380":-0.009376269399788499,"381":-0.07987867504137418,"382":-0.029999170064478577,"383":-0.018803507116121915,"384":-0.0751501770473483,"385":0.07685007975756043,"386":0.070461224048248,"387":0.06624324062437138,"388":0.0063370494498626515,"389":0.08721459475073544,"390":0.005117315927451948,"391":0.004501249361686998,"392":0.02763626502028598,"393":0.04986493134575262,"394":-0.0030929104648350814,"395":-0.010403530450811034,"396":-0.052933190693669405,"397":0.034373935073376674,"398":0.019826660970509485,"399":0.02070339407245845}},{"sx":5,"sy":5,"depth":16,"w":{"0":0.1023382040131551,"1":-0.03791030924884904,"2":-0.03359171912139793,"3":-0.06273262438077916,"4":-0.01332065439693834,"5":0.0239732903133564,"6":-0.0795216522722204,"7":0.009073064764063261,"8":0.02794826001532191,"9":0.021203429096970376,"10":0.06840176255664883,"11":0.06651176515615709,"12":0.017166992833434733,"13":-0.05558978777077918,"14":-0.13460531283100585,"15":-0.02850777816503715,"16":-0.006345983063826261,"17":-0.05441397224085489,"18":-0.03575757446692688,"19":-0.02751262909803912,"20":0.028533604897837545,"21":-0.0231704175074859,"22":0.0091922666964872,"23":-0.0488301213381274,"24":-0.0071409806132011235,"25":-0.006058205570705869,"26":0.06583783096476159,"27":0.09051909957889635,"28":0.01419519304303763,"29":-0.17807148472519904,"30":0.04103336667944395,"31":-0.04685491662159547,"32":-0.04399540284311065,"33":-0.03520656958994539,"34":0.0072757946356445235,"35":0.04488963049197446,"36":-0.03037717343074016,"37":0.04248915961646532,"38":0.06360592514584121,"39":-0.10413631135662622,"40":-0.02092204344355894,"41":-0.021472494483017145,"42":-0.040675479096823224,"43":-0.021496040793997077,"44":0.009919634166444036,"45":0.12465074605816981,"46":0.01400427309463268,"47":-0.05580154948013767,"48":0.028562657452858214,"49":0.08820348365367855,"50":0.0317370112648749,"51":0.09382771373855725,"52":-0.04388626756757033,"53":0.025859346623421296,"54":0.007663247367406337,"55":0.050479821306734764,"56":0.019990158028225482,"57":0.03464146998593187,"58":-0.03182312576026221,"59":-0.010243789567652295,"60":-0.005851414485330707,"61":-0.03615630215671418,"62":0.03188300300882656,"63":0.0863864242403832,"64":0.04966883307344449,"65":-0.015489589261127154,"66":-0.08843683998939496,"67":-0.10395964172197958,"68":0.023282711528585395,"69":-0.04718889233367602,"70":0.02440700604506228,"71":0.014723667330368657,"72":-0.1057250676911081,"73":0.0435319745150032,"74":0.006845792711341924,"75":-0.08053566207954317,"76":-0.008012202076969758,"77":0.03938187430485211,"78":0.09005255043647407,"79":0.05951404785229856,"80":-0.03274076361572174,"81":0.08455440223593973,"82":-0.09507166189794546,"83":0.07516013830630401,"84":-0.002622582628219127,"85":0.040242717150953504,"86":0.04562320335268853,"87":-0.0039693647049856605,"88":-0.029956099963974452,"89":0.0109837136454257,"90":-0.07002174240283174,"91":0.03314946352020864,"92":-0.07864397044255032,"93":0.0020511279376449654,"94":0.09378366838586764,"95":0.012011470425158753,"96":0.02682697977769706,"97":0.016998551642022474,"98":-0.006330482894024705,"99":-0.0851573846047619,"100":-0.01688147323588305,"101":-0.06547068399143466,"102":-0.07089841144920096,"103":-0.021636761752150686,"104":0.05579265576269892,"105":-0.02868792610671544,"106":-0.03102902546403333,"107":0.07217957094267603,"108":-0.012239383459602708,"109":0.055774622393730204,"110":-0.001649910280796007,"111":0.06685124533566758,"112":-0.036387966672255405,"113":-0.008653887640146208,"114":-0.011718162283167743,"115":0.037655033672445874,"116":-0.023250507127481217,"117":-0.1271213216587346,"118":0.10289147165121237,"119":-0.00001448851981341684,"120":0.009897994841418765,"121":-0.03008924819037372,"122":0.09615028740218924,"123":0.0034115820198057393,"124":-0.06005741387177476,"125":-0.03204371759246149,"126":0.11632338512228704,"127":-0.023665841213429694,"128":-0.07465500340602929,"129":0.03210740403057717,"130":-0.10220546626002606,"131":-0.014540675622254005,"132":-0.08793864265266836,"133":0.006165046601889115,"134":0.033025279994299106,"135":0.054741388134700864,"136":0.07631197565914496,"137":-0.08142216300555993,"138":-0.03360108510251455,"139":0.015459698944323379,"140":-0.0928499673907186,"141":0.05463549033706918,"142":-0.02029977545418683,"143":0.03666435901406499,"144":0.042240781172649774,"145":0.017757045084931828,"146":-0.015582140463384419,"147":0.08538053209041978,"148":0.011761161899937108,"149":-0.009155559512467016,"150":0.04413655485948743,"151":0.08324879300285246,"152":-0.0468778891943971,"153":-0.024933703970382005,"154":-0.039607689376815754,"155":-0.051716693942637774,"156":0.05774005708095491,"157":0.02781101345985566,"158":0.026765169954004284,"159":-0.031144137232328558,"160":-0.01679163391608734,"161":-0.04997664449475026,"162":0.017329939242707745,"163":-0.04985811054637153,"164":-0.026427310163795383,"165":0.024874804157991117,"166":0.0430378669803776,"167":0.01918819430911666,"168":-0.0494384618850896,"169":0.04772964249477121,"170":-0.0861057836764814,"171":-0.011777866890041417,"172":-0.0352350197535512,"173":0.08162372428973745,"174":0.015963854075874487,"175":-0.05377839771326072,"176":0.08607117637130533,"177":-0.03960937821367595,"178":-0.035531115816607776,"179":-0.017308844067141168,"180":0.045341760385380285,"181":-0.0030466277245724442,"182":0.08455338372556068,"183":-0.0020546141653574037,"184":-0.05193172027533409,"185":0.01074792196317312,"186":0.08987256556283348,"187":0.03116962272760665,"188":0.03495662877880141,"189":-0.04520579830490009,"190":0.002992948755958357,"191":0.037406381136119986,"192":-0.0024308677813252807,"193":0.008476290060598387,"194":0.018903007258081337,"195":-0.026971578814799876,"196":-0.004830362338137574,"197":0.03978962574005287,"198":-0.04500820616613569,"199":0.03350611252914227,"200":0.031757058538630256,"201":-0.0006008691272569137,"202":0.027299101637367335,"203":-0.042095307100407924,"204":0.0019188861547439966,"205":0.037710720496297284,"206":0.0015144063926075878,"207":-0.13994040406788108,"208":0.005580005290796638,"209":0.03328906315462704,"210":0.043261988008365504,"211":-0.024919351218266918,"212":-0.038638683579491524,"213":0.018981369434527936,"214":0.0596839196593832,"215":0.11258912894169973,"216":0.014187463392871871,"217":-0.0007337113570547719,"218":0.044863822925823624,"219":0.0995986141787295,"220":-0.05079706644120373,"221":-0.05371144157009241,"222":-0.05739782369579873,"223":0.0365549708577987,"224":0.09806809699302785,"225":-0.028118921286055105,"226":0.013483021649177434,"227":0.0332043907763883,"228":-0.02635251827054262,"229":0.008356875518830437,"230":-0.013820805404016617,"231":-0.044935953100149244,"232":0.08415406752499738,"233":0.019857898828632377,"234":0.01234295778304571,"235":-0.011803740389485992,"236":-0.013453592767639765,"237":-0.03693125452667046,"238":-0.03852006214531248,"239":0.012405435038530647,"240":-0.08765080454484425,"241":-0.018614394514678414,"242":-0.05925236398266925,"243":0.06000238440177406,"244":0.015964546756710607,"245":-0.07373378609875657,"246":-0.003127460929157276,"247":-0.07716891413969298,"248":-0.076440231379895,"249":-0.045762447902419366,"250":-0.03886245707646441,"251":-0.052794084475112385,"252":-0.1052174946319586,"253":0.018546424110408126,"254":-0.08007296937427724,"255":-0.04423379551522668,"256":-0.13595233382903274,"257":-0.11509265061226608,"258":-0.019573876867243416,"259":-0.14713068649159597,"260":-0.08702776886604553,"261":-0.011434307460819318,"262":0.08367653844754179,"263":-0.007944919177886907,"264":-0.032994678081605236,"265":-0.0011652630830037728,"266":-0.12125439712942121,"267":-0.013398508403891504,"268":0.08876862723694368,"269":0.08320412042655413,"270":0.04580407771674064,"271":-0.06291299714388283,"272":0.08599117830384771,"273":-0.02467684161589809,"274":-0.006277151217393446,"275":0.012327233136823398,"276":-0.05811385872408012,"277":0.03305896196971468,"278":0.07073060035725283,"279":0.03711472904895756,"280":0.0027116402565895486,"281":-0.07562985172889602,"282":-0.0493603016225034,"283":-0.03603700211240914,"284":-0.00711449797130112,"285":-0.056253745583632116,"286":-0.04412057797196927,"287":-0.00459049798919137,"288":-0.0056654009203534,"289":-0.022977486753508348,"290":-0.004030365735646771,"291":-0.002845274122428288,"292":0.009327379610539132,"293":-0.056494876323443924,"294":-0.004820439209388897,"295":0.004173876626922651,"296":-0.08516816317189915,"297":0.033321180561436986,"298":-0.08580441960186988,"299":0.05418583878184921,"300":0.006805625162462721,"301":0.020225842119851123,"302":-0.021938039698257486,"303":0.026344258364747793,"304":-0.0050871294971398,"305":-0.03701549726340739,"306":-0.034052448446961016,"307":-0.022411141940687097,"308":-0.1367215037285988,"309":-0.13741495935730264,"310":-0.03588852536098803,"311":-0.03068486719358742,"312":0.025634349371549934,"313":-0.04232518592275839,"314":0.021778414848674512,"315":-0.06200316331275008,"316":-0.07278279579618821,"317":0.06591027832464837,"318":-0.006350104176531724,"319":0.06738029537215293,"320":0.007507270105408129,"321":0.03722609870835601,"322":-0.043258316073939686,"323":0.07123545660373248,"324":0.014273477201734757,"325":-0.043541241618542614,"326":-0.01005253197719712,"327":-0.0959352946754836,"328":0.056296100381293915,"329":-0.03717440872995452,"330":-0.047528455255972664,"331":-0.017697776669386663,"332":-0.04334444313643621,"333":0.023788649312087923,"334":-0.06508017925365561,"335":-0.06624698826676083,"336":-0.03176171357759337,"337":-0.05022598391273626,"338":0.037442336592923425,"339":-0.008942310977372095,"340":-0.028239464947658947,"341":-0.0025193837915285463,"342":0.018903539346216455,"343":0.056525599224832,"344":-0.06388209295383955,"345":0.0634714083086683,"346":0.09124768133298226,"347":-0.01918125557878357,"348":0.0026514385388972067,"349":-0.03776514540594454,"350":0.002221621369549937,"351":0.06914384665554975,"352":-0.022828305981208684,"353":-0.013697137890473578,"354":-0.05288393344370733,"355":0.008405340680558631,"356":-0.011523336627620147,"357":-0.07708638112012046,"358":0.02504071464820674,"359":-0.041854206951945395,"360":-0.11201885972304741,"361":0.04238723580615548,"362":0.005799615036454919,"363":-0.009641887327459998,"364":0.015177760328439878,"365":-0.08208208621886054,"366":0.011907844611265615,"367":0.021656352711284823,"368":-0.1041637446142479,"369":-0.03683420832307359,"370":0.005016336047750791,"371":-0.020254799445021777,"372":-0.10895690950054014,"373":-0.12920366866100563,"374":-4.005713457876542e-8,"375":-0.00606527291830825,"376":0.054450505826246776,"377":0.06060499721697341,"378":0.03349915828127968,"379":0.07401035142181836,"380":-0.04473672030546731,"381":-0.11695087187891326,"382":-0.10849473046544267,"383":0.00864897875640657,"384":0.027273681083870426,"385":-0.0516091429610951,"386":0.1094284982791432,"387":-0.009509624954449309,"388":0.1180194346953331,"389":-0.04591501996124778,"390":0.01145455128197467,"391":0.010613529849181031,"392":0.03226039750800275,"393":0.07239078408378519,"394":-0.025564961108209012,"395":-0.026764882977064416,"396":-0.03822184277253537,"397":0.011313999988253725,"398":0.010862372692742756,"399":-0.0016669854602591565}},{"sx":5,"sy":5,"depth":16,"w":{"0":0.021327220664477432,"1":-0.03428755977886079,"2":-0.03266339936820894,"3":0.015396065269928273,"4":0.04603287924584436,"5":-0.023772674838465662,"6":-0.09046107005111448,"7":-0.0914896246802747,"8":0.035637475039704436,"9":-0.020937741423149192,"10":-0.10967275615304839,"11":-0.1251718948404797,"12":-0.07861427718750641,"13":0.028251758377807027,"14":-0.04714359993486413,"15":0.042842322330887875,"16":0.010279355462967828,"17":0.07645009284243927,"18":0.016983777763618976,"19":-0.05985035715467071,"20":-0.011576125193778512,"21":-0.02391892506381509,"22":-0.06105580127136468,"23":0.028548559642316455,"24":-0.012947923939543832,"25":0.06631463367513603,"26":0.07395993363726788,"27":0.003802018822800865,"28":-0.09800518567837505,"29":-0.032934029211708814,"30":0.03873187783604296,"31":-0.03163673681557183,"32":-0.060213468636148154,"33":0.05526211386413673,"34":-0.0486085558262141,"35":0.0047007974763325616,"36":-0.05983983585681389,"37":-0.055601404086637815,"38":-0.06024535439570001,"39":-0.007895997957577328,"40":0.03533463943306662,"41":-0.05343325921103887,"42":0.016785428081964364,"43":0.05262476941586347,"44":-0.002555019167607745,"45":-0.042491102283655734,"46":-0.014689261018549933,"47":-0.0700407883536657,"48":0.05508796394609696,"49":0.14279850783463804,"50":-0.06781922254239936,"51":-0.053212056403683886,"52":0.02036187846572774,"53":0.006463222683554926,"54":-0.011476539398099676,"55":-0.0005585043666695542,"56":-0.09171835369562306,"57":-0.0010363368581687348,"58":-0.030225494660804975,"59":0.044326097970716474,"60":-0.02798804681351095,"61":-0.06729596397851956,"62":-0.006100802772219019,"63":0.011400567503288795,"64":-0.07427222878011816,"65":0.003822953524610404,"66":0.02040300896387353,"67":-0.022022343012954648,"68":0.02389553040479009,"69":0.030385169978389557,"70":0.011727039548395607,"71":0.05456327888973337,"72":0.06130215797808469,"73":-0.04301575706006336,"74":-0.08010467109558214,"75":-0.038207538214212945,"76":-0.0013034675458057044,"77":0.09776106928471937,"78":-0.03650951929282452,"79":-0.020045305202376667,"80":-0.03153906534207488,"81":-0.050899591257986335,"82":-0.07208658848522842,"83":0.035456639813023494,"84":0.03217935848788997,"85":0.022362953878066194,"86":-0.1190582869482875,"87":-0.037708332533731084,"88":0.03808149006965133,"89":-0.10218373199767422,"90":-0.01575959798462534,"91":0.020643810137396346,"92":-0.0423155465688927,"93":-0.014007219089971611,"94":-0.060076630146272396,"95":-0.03108127250251909,"96":0.11133786027284895,"97":0.08862032955690953,"98":-0.02667633994881977,"99":-0.07979283160039827,"100":0.011381461357863672,"101":-0.03889961844172225,"102":-0.04160440908468594,"103":-0.06573920186797129,"104":0.0470785972383262,"105":0.002052087328934919,"106":0.006945348106830546,"107":-0.009227603268822476,"108":0.0925506516593642,"109":0.0003900511554107512,"110":-0.007211671352687619,"111":0.017656556008590993,"112":-0.024917292441101857,"113":0.006363263349500607,"114":0.031164558934037218,"115":-0.01729111023075143,"116":-0.015317610540522173,"117":0.08128433795139521,"118":0.05635497319702764,"119":0.006603795641057779,"120":0.00800901786485063,"121":0.0003506106781939769,"122":0.022420746180462702,"123":0.00212253960261258,"124":0.06403217552043276,"125":-0.021190094590266308,"126":-0.0492877064637582,"127":-0.015157357981366653,"128":-0.05916452347707989,"129":0.026591497981457966,"130":-0.03486191812620367,"131":0.01383730913489287,"132":-0.008695202661537308,"133":-0.07316270935977917,"134":-0.027405230754689716,"135":-0.014220430594345983,"136":-0.08151525500473754,"137":-0.013278046611896688,"138":0.02654844465402147,"139":0.024330356194780405,"140":-0.015578515765127412,"141":0.019280823674084614,"142":0.05050910911857789,"143":0.01173961756032869,"144":-0.01043357561627278,"145":0.15092313256046763,"146":0.000762392818562948,"147":-0.04874444124275745,"148":-0.03729998306627109,"149":0.009732989579591263,"150":-0.060364596034282535,"151":0.03350540243905945,"152":-0.02156897176455157,"153":0.014586830611734934,"154":0.020507379830377242,"155":0.016476121579487274,"156":0.0771884823834618,"157":-0.05465649785470863,"158":-0.003710130623685292,"159":-0.01532131114668411,"160":-0.023759043569122437,"161":-0.001109836510394816,"162":-0.080836136901586,"163":0.025244320242584786,"164":-0.0079896077240367,"165":-0.019249394967106693,"166":0.012547058022913863,"167":-0.038052122810980346,"168":0.08496392181775739,"169":-0.09535677145559988,"170":-0.04551117760043135,"171":-0.005393486382892776,"172":-0.06874327933292484,"173":0.08271511752085461,"174":-0.05325317408247932,"175":0.005644056904235726,"176":-0.016628416389781003,"177":0.052643499449254234,"178":0.03411776346798431,"179":-0.005062903381267313,"180":0.017994885017883006,"181":-0.00462729694842826,"182":0.05912028885990955,"183":-0.012319597452080866,"184":-0.011750651994680892,"185":-0.028589400277222007,"186":-0.007455761367532021,"187":0.10010173631743827,"188":0.036490346211920766,"189":-0.04320009697355089,"190":0.0439500741756962,"191":0.07197262290878209,"192":-0.06969280696332089,"193":0.019920713068097937,"194":0.05255141329210815,"195":0.023781589541137394,"196":-0.015371716997773406,"197":0.07923957628258102,"198":0.06611219412210434,"199":-0.10141027317482938,"200":0.016484236654804512,"201":0.002812172480379913,"202":-0.06453834831678743,"203":0.028730921553416014,"204":-0.004461825703025141,"205":-0.01677180879499792,"206":-0.000623774146191567,"207":-0.03038467660369525,"208":0.025293625020598672,"209":-0.04006183984987131,"210":0.011798848490081426,"211":-0.030666163118318,"212":0.003724704761920778,"213":0.09673082211308079,"214":-0.00889341044119764,"215":-0.06780056532818496,"216":-0.000255231305863988,"217":0.12521440937293093,"218":-0.01883404599669555,"219":-0.02408333029286385,"220":-0.024712014121038815,"221":-0.10869865410677028,"222":-0.03313888863573596,"223":-0.034808850351042635,"224":-0.01283815582288816,"225":0.06678827522317296,"226":0.02976619397602494,"227":-0.037123714235252056,"228":0.018132245488845636,"229":0.03742707202213154,"230":-0.028857783284526473,"231":0.0015327390518996668,"232":-0.05273479132392317,"233":0.031935293481104875,"234":0.008047008066875042,"235":0.1070659327586362,"236":0.03152491850458701,"237":0.025956663374949226,"238":-0.07073415281917421,"239":0.05792729043935788,"240":-0.02561377743799641,"241":-0.05983538468792518,"242":0.021157099523932976,"243":-0.0656497475629103,"244":-0.017503631278128384,"245":-0.113936331582066,"246":0.031052930694168913,"247":-0.05379707522557129,"248":-0.050179977280074096,"249":0.02306875696509957,"250":-0.011180882122226605,"251":-0.017494170447494774,"252":-0.014060893488476415,"253":-0.05961815066655378,"254":0.008218442049971495,"255":0.006703943254042654,"256":-0.018620012499763472,"257":-0.038784777203749655,"258":-0.15268284574168436,"259":0.023632715535268245,"260":0.043077545436771246,"261":0.05785505478152075,"262":-0.08773388159875262,"263":0.07180629656172488,"264":0.05276024486433074,"265":-0.032820360941176956,"266":-0.03828567200232196,"267":-0.025731991837074197,"268":0.0669848106678864,"269":-0.01207394963974214,"270":0.02701429872408862,"271":0.005407474394179198,"272":-0.015182059944018517,"273":0.025966085604693486,"274":0.011955601457205804,"275":0.015599824338525789,"276":-0.002058146128081522,"277":-0.022727200814737725,"278":-0.09041088616120599,"279":-0.07147158396169949,"280":0.05389841787172173,"281":-0.11114586669577302,"282":-0.022689220483264445,"283":-0.0025527456135479576,"284":0.10413640729935697,"285":-0.01123218121658967,"286":-0.070227731675528,"287":-0.019162528443697906,"288":0.0695299828598816,"289":-0.039715318118058014,"290":-0.022569895082615435,"291":0.08285932243712135,"292":0.01258450752775349,"293":0.050992048720925255,"294":0.07504959960152731,"295":-0.08502574778354242,"296":-0.0538918096746826,"297":-0.005348224147772649,"298":-0.06882706976027377,"299":0.04522624332958038,"300":-0.011976919003557506,"301":-0.10790031392782402,"302":-0.12315351073816129,"303":0.007992762878535889,"304":0.08082240722671867,"305":-0.016513951645343642,"306":-0.004995223759315478,"307":-0.09521788300709072,"308":0.060395228286583995,"309":-0.05275469300016791,"310":-0.054348817683947385,"311":-0.020486462477716336,"312":0.04047924169705639,"313":0.06055285199674161,"314":0.0596965598587968,"315":0.011497655112906565,"316":-0.09584384065842746,"317":-0.02045321499812602,"318":-0.019176540712235485,"319":0.0007954892688865681,"320":0.002782846331863837,"321":0.033953275301598994,"322":-0.016892193896197196,"323":0.03332420370138738,"324":0.05745593856192047,"325":0.015230794478109436,"326":-0.029390172931491848,"327":-0.010225017428501048,"328":-0.09203243649319884,"329":0.03193169518952466,"330":-0.010435428630211513,"331":0.030119396021204264,"332":0.033452076017467566,"333":0.021026853399194603,"334":-0.024882322946381537,"335":-0.031243006432550516,"336":-0.005361203728094627,"337":-0.07719198879363753,"338":-0.0027451843023663593,"339":-0.050948757638160876,"340":-0.0808548336988883,"341":0.0071118704897722,"342":-0.0693499262877394,"343":-0.04385281950061431,"344":-0.04306150787507863,"345":-0.05156573637879694,"346":0.09145695291279021,"347":0.018545099398298466,"348":0.006081026951109414,"349":-0.06970813884420676,"350":0.029086991696766262,"351":0.054313666206022106,"352":0.14357918031947928,"353":0.05179088038608202,"354":-0.008120112961092621,"355":0.01511804914551065,"356":-0.09507085135315978,"357":-0.03602603892094988,"358":0.023410662422170544,"359":0.003697468380599654,"360":-0.06803182709121358,"361":-0.0005982423731986247,"362":0.004766115827296724,"363":-0.030117575939187857,"364":-0.010251647272676436,"365":-0.007269609655908803,"366":0.051303041381433837,"367":0.018246782081544562,"368":0.04812570400590838,"369":0.03173701272226269,"370":-0.009554631782624487,"371":-0.006225102527473454,"372":0.00758420582881326,"373":0.03407865418690436,"374":0.09724643265896735,"375":0.03309509660274432,"376":-0.042448159319558074,"377":0.0010277895745208108,"378":0.0361541874726299,"379":-0.10705317894058339,"380":0.021697153833676482,"381":-0.07263502559263492,"382":-0.0029530656415189707,"383":-0.058000071174573925,"384":0.04967008951940631,"385":0.028170581378091173,"386":0.0385732254455673,"387":-0.0336857829332522,"388":-0.04309287675114062,"389":-0.034875394269241404,"390":-0.01733104934728502,"391":0.01922342757520346,"392":0.04840001943460247,"393":0.04447062038784197,"394":-0.06247174815941132,"395":-0.007138509538748123,"396":0.009505744942139035,"397":-0.022780725595728045,"398":-0.022760428261724367,"399":0.024417063637754664}},{"sx":5,"sy":5,"depth":16,"w":{"0":-0.0065906254226025945,"1":0.04470061359159979,"2":-0.03722427299487809,"3":-0.03089031808494068,"4":0.06033435302616917,"5":-0.000913661830767848,"6":0.05965119803710319,"7":0.06620318548617264,"8":-0.017209983077874202,"9":0.0811941763848408,"10":0.09010737790008028,"11":-0.09793297168441609,"12":-0.017322362484108844,"13":0.007925496145084419,"14":-0.038907622364341,"15":-0.025636653145125123,"16":0.09458705179184805,"17":0.06334161267513615,"18":0.04526208490929929,"19":-0.03600610247832299,"20":-0.11515895522286947,"21":0.07046787037256645,"22":0.022011911373362662,"23":0.02350911763025062,"24":-0.08904457851403612,"25":0.07464623917310619,"26":0.014106062484565671,"27":-0.01738313402110618,"28":0.002409918228308299,"29":-0.060465032112621823,"30":0.08219518835185421,"31":-0.014645322732826286,"32":0.0705521276017667,"33":-0.05639120685355237,"34":-0.023266610482882855,"35":-0.06894918103065191,"36":0.047303376683843115,"37":-0.05925196486785663,"38":0.09381146688620452,"39":0.10696305713561668,"40":0.023631257194581503,"41":-0.0444732522627147,"42":0.007313722759779547,"43":0.0014742802920635508,"44":-0.05208713237568902,"45":-0.113797390627714,"46":0.03721369015800323,"47":-0.11077089881333596,"48":0.07884939452044887,"49":0.04996569309735245,"50":-0.05894916808822991,"51":-0.034073514902975284,"52":-0.008542993736296385,"53":0.1037171800446062,"54":0.08382104946337582,"55":0.026808192297328465,"56":-0.04714379592212161,"57":-0.01615070155489829,"58":0.000732011886553295,"59":-0.01655874481676286,"60":0.007392793479946548,"61":0.03569515507642968,"62":0.015440362153293885,"63":0.04438723029591731,"64":0.12059129268472035,"65":0.019143629343037216,"66":0.04351397763388618,"67":-0.03789621142355962,"68":-0.02325874589109798,"69":-0.026867727414892826,"70":-0.04722988605965992,"71":0.0019867006416488223,"72":0.07523449776692048,"73":0.078293569859644,"74":0.040874410750366255,"75":0.006094237395750657,"76":-0.006717414604667745,"77":-0.04973397696191865,"78":-0.026897916598228225,"79":-0.0043322508011690445,"80":-0.05968699445658938,"81":-0.029289597263959268,"82":0.0484682281961797,"83":-0.02593215070631246,"84":-0.03251424940039037,"85":-0.02313092378677224,"86":-0.05243782042823501,"87":0.03071280497278045,"88":0.0015582641413030762,"89":-0.005010138928809169,"90":0.043285036699020306,"91":-0.06428787102348195,"92":-0.05322054711660305,"93":0.0012051707312610168,"94":0.007168434481379324,"95":0.04619487378884082,"96":-0.04031974906549069,"97":0.027844247468965362,"98":-0.022742149315769577,"99":-0.09662398078389613,"100":0.02224469072583935,"101":0.004358786382715523,"102":0.019089602872238483,"103":0.07077068253128418,"104":0.00453251181346601,"105":0.05012587390418675,"106":-0.06711433376246542,"107":0.008801317686829,"108":-0.029496653833546212,"109":-0.060193842632478754,"110":-0.06418780573673163,"111":0.01859146573071451,"112":-0.04264494378129867,"113":0.03519556582228117,"114":0.09164670648197977,"115":0.04341271199867879,"116":-0.043854027312980014,"117":-0.011275649590273757,"118":-0.045460489999862644,"119":0.005885466330024876,"120":0.0023283741915626913,"121":-0.01694004133304117,"122":0.03233279264203161,"123":0.09571865456495761,"124":0.0005610570116511312,"125":0.06838791914701847,"126":-0.040679573410889965,"127":0.030783498224295415,"128":-0.017913507480322464,"129":0.05303269562486607,"130":0.06574211815798348,"131":-0.022505972581044812,"132":-0.07374134054607674,"133":-0.015382348200634116,"134":-0.018422455568161133,"135":-0.02701622845890831,"136":-0.02385140106754628,"137":-0.029809064918021187,"138":0.006112128290131668,"139":0.05527946483660937,"140":-0.025150839132830432,"141":-0.010687309578355605,"142":-0.1049087692255019,"143":0.009059411833020233,"144":0.07157584073018054,"145":0.06922574793700816,"146":0.07547369412279727,"147":0.023063176211613554,"148":-0.08200556732111275,"149":0.02762386542446076,"150":0.04290940899619791,"151":0.017711921198963265,"152":0.06039130555603333,"153":0.05843226227529668,"154":-0.13075063174322127,"155":0.04348710597907534,"156":0.005766195046659865,"157":-0.03496032230184377,"158":0.08460667412632053,"159":0.031079846025655694,"160":0.1125523604378311,"161":-0.0005038746045159153,"162":-0.06723725967579715,"163":-0.022714086966779807,"164":0.06125788416365929,"165":-0.023529462617000254,"166":-0.022812725918634796,"167":0.026839195355534577,"168":0.03537677181810779,"169":-0.00749550994363326,"170":-0.03421419052367156,"171":-0.012371747590492217,"172":-0.009630128318674434,"173":-0.048066633437841816,"174":-0.0968356982782179,"175":-0.004193129652452394,"176":-0.08556742956239802,"177":0.04411431059466132,"178":-0.001459415275296662,"179":0.06440595677170936,"180":-0.020679397394338675,"181":-0.015051567549146804,"182":0.015990660933245956,"183":0.0013694685797321637,"184":0.01941152905108353,"185":0.05180671790841887,"186":0.07915222801644822,"187":-0.02774166097945353,"188":0.07695402278255463,"189":0.011458246835289903,"190":0.07036845470810667,"191":-0.045503140510712595,"192":0.050201017873858375,"193":0.04811466452470857,"194":0.10462214444424194,"195":-0.052530618525167466,"196":0.11269180816227688,"197":-0.011210523098394543,"198":0.04315574082672554,"199":-0.006476812422315674,"200":0.05208757083358933,"201":-0.07629152871529865,"202":-0.0037727366061714672,"203":-0.006311492764817132,"204":0.016402687026762976,"205":0.007678010482371286,"206":0.059496427899397894,"207":0.040161913194284735,"208":-0.00812484067653345,"209":0.02254734334857959,"210":-0.04145830969442211,"211":-0.06095672782258199,"212":-0.01750696209381851,"213":-0.048618215860218715,"214":0.038557166120734544,"215":-0.020888371367406504,"216":-0.02053470757223031,"217":0.02082789669440308,"218":0.04497256623952212,"219":-0.06910112787909524,"220":-0.03519641759784987,"221":0.012018670353529255,"222":-0.005895347587446231,"223":-0.05114771231316072,"224":0.06382369957366209,"225":0.056896908987328285,"226":0.0019958589206436794,"227":0.024546029046148034,"228":-0.025061149345506618,"229":-0.019590369595736828,"230":-0.01706940259016446,"231":0.05862226754933688,"232":-0.015250573659981738,"233":0.006698480523381461,"234":0.03872595024749502,"235":0.076731053872138,"236":0.1338686477107796,"237":0.041948473040223276,"238":-0.06712750614954821,"239":-0.10236258614047596,"240":-0.032740863389075996,"241":-0.030295738600520435,"242":-0.037265912284385326,"243":-0.024082877739810975,"244":0.010371323674333455,"245":-0.12019163419902973,"246":0.0947725175134134,"247":0.0204869132285009,"248":-0.033498054153064886,"249":0.07178714364620911,"250":-0.01185402110653375,"251":-0.02859796868812485,"252":0.028979603393613593,"253":-0.010823892396860796,"254":0.007299492311767857,"255":-0.0021339589404999566,"256":0.005219358200246343,"257":0.06271219536160634,"258":0.04414612395407151,"259":-0.011540350606287076,"260":0.010890090387397616,"261":0.10710571712849362,"262":-0.0852135635912814,"263":0.07003461712258274,"264":-0.06022943512218527,"265":-0.045302126145509804,"266":0.04095485425892501,"267":0.02963700531524276,"268":-0.06338261849751707,"269":0.01736758357756488,"270":0.03276386277026167,"271":-0.060365278477382635,"272":0.010991178200853083,"273":0.05351578593845008,"274":-0.026084126538757663,"275":0.06552772148760644,"276":-0.024976526059960084,"277":-0.009310594419141281,"278":0.06888739368969259,"279":0.0003335623644903893,"280":-0.0400401003150252,"281":-0.1249828984487811,"282":0.011620694773435164,"283":-0.03283627147206583,"284":0.057781932471466645,"285":-0.058632542779711035,"286":-0.00791731527234186,"287":0.05675886816743586,"288":0.08925380443406492,"289":-0.004942285994336512,"290":0.06657565544401514,"291":0.0339903239076301,"292":0.04857712140624551,"293":0.019937760452399717,"294":0.040270786497306976,"295":0.01504496963867404,"296":-0.09339084703615284,"297":-0.06855733543330898,"298":0.045325462636710126,"299":0.009639955941961903,"300":-0.060232580518650936,"301":-0.04024397139512672,"302":-0.031038577046784983,"303":-0.03980231410656229,"304":0.010426374196804415,"305":0.002047674490168932,"306":-0.08932055186056274,"307":0.1265883217925918,"308":-0.07708554527084857,"309":-0.056872101683441076,"310":0.03515451268372999,"311":0.043066920942431655,"312":-0.04830928522256563,"313":0.044776622998785286,"314":0.11362694104208172,"315":0.03567926778863027,"316":-0.012714275574593023,"317":-0.027514256309724743,"318":-0.021866858730934694,"319":-0.038209515279354025,"320":-0.10218879111402078,"321":0.08193622035789713,"322":0.07433585743187932,"323":-0.0024213336391200584,"324":-0.0004282118340867006,"325":0.03499212553895313,"326":0.05416560589144711,"327":-0.03093900265443287,"328":0.02828268793058048,"329":0.01478182869099854,"330":-0.0025231379783960547,"331":0.06867924615153524,"332":-0.04772833836905994,"333":-0.005729650181181599,"334":0.014588057064214234,"335":0.029485484186080713,"336":-0.01489351541425236,"337":0.06639916160345766,"338":0.11257623634449912,"339":-0.009815813959007947,"340":-0.00031444700336089325,"341":-0.0621498923811758,"342":0.033572938938574354,"343":0.03682812072427391,"344":-0.03162189538232447,"345":0.04057512358623135,"346":0.02864884003969972,"347":0.009673335615202347,"348":-0.03537321510213246,"349":-0.06618537335100164,"350":0.04045350143684195,"351":0.040477563574967505,"352":0.07666811093088635,"353":-0.0029574889466579867,"354":0.06431904714210164,"355":0.0008178079624741234,"356":0.022330522226012714,"357":-0.019362103487879905,"358":-0.0667046078109726,"359":0.009099201056079531,"360":-0.01600907773527654,"361":-0.06563926357362856,"362":0.00834193546025774,"363":-0.05955516274607435,"364":0.03474563779520056,"365":0.0652259469531038,"366":-0.0253765791040964,"367":-0.04232709354210045,"368":0.055660042761474744,"369":-0.03123341284893064,"370":-0.03485895317736486,"371":-0.05705580542356487,"372":0.07782260691193978,"373":-0.09259279969653085,"374":-0.04328395741283848,"375":0.054951421689296676,"376":0.039691519892728365,"377":0.013121125848794341,"378":-0.019617649785035912,"379":0.08398004390592588,"380":-0.004686476323863404,"381":0.0268733954687122,"382":0.04000033118751995,"383":0.003085629439937197,"384":-0.014783666874503743,"385":-0.04120588014145983,"386":0.023857306647849415,"387":0.0372912946387208,"388":0.03286754932742587,"389":-0.019733756062397564,"390":-0.038133056382374485,"391":-0.023072001415937814,"392":0.08119005487965075,"393":0.08494777250067792,"394":0.06793906056201028,"395":-0.011955655930951485,"396":-0.011303554300714566,"397":-0.008208220664444987,"398":0.03356592763486685,"399":0.11129304510816654}},{"sx":5,"sy":5,"depth":16,"w":{"0":-0.057849637370259464,"1":-0.05773937235333619,"2":0.0029108381502516373,"3":0.030663879403466248,"4":0.07015273680120167,"5":0.04189317368980044,"6":0.02929546564781733,"7":-0.00971513000431735,"8":-0.023175449441415266,"9":0.16506674931108958,"10":-0.0953428209265695,"11":0.04407489201806913,"12":0.0054740603692665065,"13":-0.04654295924371891,"14":-0.03952830681023399,"15":0.03257264130869569,"16":0.06933913060007141,"17":0.07532535756487271,"18":-0.033506740390106635,"19":0.04860320197343155,"20":-0.008556155633718737,"21":-0.014578779137074713,"22":0.022682726913407548,"23":-0.027421027302962954,"24":0.031953303952187546,"25":0.027307643215433188,"26":-0.012284482317173512,"27":-0.012128945475214193,"28":0.03372828806922912,"29":0.08470409658357637,"30":0.018099379568384664,"31":-0.02947739204712028,"32":-0.026812782491534237,"33":0.039639151375875335,"34":-0.09970963333997344,"35":-0.046362406555790645,"36":-0.06957527500835141,"37":-0.005323699182851188,"38":0.023455137816842633,"39":0.10475034416006658,"40":0.12323847817962841,"41":-0.03716966401094404,"42":0.05104675421600572,"43":0.040675225033543816,"44":-0.04787910804284047,"45":0.055382310883493706,"46":-0.006790697880994976,"47":0.027032686703606874,"48":0.039873549585589106,"49":-0.0002710228964392749,"50":-0.020441815785139653,"51":-0.057214168720118905,"52":-0.022257451569928387,"53":-0.061277889255126484,"54":0.07326682707347859,"55":0.07943309203386215,"56":0.03194645637797264,"57":0.03755541214938071,"58":-0.028810266444003564,"59":0.010625741325281678,"60":0.03791902597545832,"61":-0.09596275692114642,"62":0.07018398786478208,"63":-0.020242516275964233,"64":0.001919562367040069,"65":-0.023609361406421107,"66":-0.013172060860869427,"67":0.013459927611167202,"68":0.022855801530727568,"69":-0.00363961283055138,"70":0.09604499310008603,"71":-0.035249987511328656,"72":0.017468921807992185,"73":0.05286432906856247,"74":-0.0643024269504756,"75":-0.03803896933896951,"76":-0.008780806938969828,"77":0.013036827628636838,"78":0.01803518828788862,"79":0.06758474798523587,"80":-0.025880413507146004,"81":0.07693110469599934,"82":0.021992033661435238,"83":-0.06358412025659858,"84":-0.05159319323883904,"85":0.027269059057546653,"86":-0.011803412639902578,"87":0.02087218622635538,"88":-0.0794959415553869,"89":0.05409199979953034,"90":-0.035802246138992744,"91":-0.010976541476275048,"92":0.04907782614208515,"93":-0.0003922043644615398,"94":0.10835412688064237,"95":0.007676711113065612,"96":-0.07844082471023267,"97":0.002524063025310806,"98":-0.030863859494169414,"99":0.06194819103164952,"100":-0.02614902292093623,"101":0.008079218961871207,"102":0.03366354051811518,"103":0.026078931524060375,"104":0.0003030473869918192,"105":-0.01005047717893113,"106":0.08445332768692128,"107":0.04842155244867091,"108":0.05745104985512222,"109":0.04713600297819857,"110":-0.0009663379408461571,"111":0.0005077613527921182,"112":-0.07723294068504354,"113":0.026465293909055485,"114":-0.010429115011536927,"115":0.003244350444433427,"116":-0.12416569940211052,"117":-0.06764232609436628,"118":-0.040290485514087725,"119":-0.01204508582649174,"120":0.00045190088637129096,"121":0.07965019430033053,"122":-0.037472555240776015,"123":0.010526572506573321,"124":0.031944220214180634,"125":-0.01555213904347677,"126":-0.002086311493376345,"127":0.026156569717292414,"128":-0.007688446623823389,"129":0.028659706387111395,"130":0.04473055864650321,"131":0.03710053181592074,"132":-0.006436749693678196,"133":0.0246674497074245,"134":0.0026013111321239826,"135":-0.0026337687546111955,"136":0.03205537773673917,"137":-0.05667159080095757,"138":-0.03953283579808368,"139":-0.02383059335591698,"140":-0.02090309866267002,"141":0.051757962617827356,"142":0.07857256190323626,"143":0.00911209947535688,"144":0.0381510449577489,"145":0.014429512685546745,"146":-0.026836003919879295,"147":0.032035222192213074,"148":-0.020251532254453454,"149":0.026776092764690677,"150":-0.09887465545909487,"151":0.015276009537836517,"152":-0.02664072672015579,"153":0.02842035224187355,"154":0.01584889443821616,"155":0.003515148357050648,"156":-0.07521295197749167,"157":-0.008448069625739012,"158":0.003232374169118225,"159":-0.020527528747120563,"160":0.020678516643523603,"161":0.037411127537512384,"162":-0.015042409235824585,"163":-0.022289856124512106,"164":-0.019072932394737525,"165":-0.10156779926187699,"166":-0.067269897422251,"167":0.05566972491703037,"168":-0.00899328281811766,"169":-0.020405935474513984,"170":-0.015249365940458353,"171":0.04442368719658829,"172":0.05360913811514496,"173":0.03313337655970919,"174":-0.05245823622385825,"175":0.001185866075566649,"176":0.0011767567124926306,"177":0.06882506463628724,"178":-0.12448084157574237,"179":-0.07634437969557548,"180":-0.0060742713865752996,"181":-0.009447739615203772,"182":0.013192621262524266,"183":0.026874375519130765,"184":0.02075204150116343,"185":-0.005332443486921933,"186":-0.029146239453945712,"187":0.08312100478378649,"188":-0.06174987587893696,"189":-0.056137093309813216,"190":-0.0485389344178341,"191":-0.03609426013333694,"192":-0.015361893002951202,"193":-0.038629834616871424,"194":0.0720216457913241,"195":0.0415395520204065,"196":-0.03360905641436537,"197":-0.03172843910978878,"198":0.052590746350868696,"199":0.015371404335959682,"200":-0.0257068515673452,"201":-0.007139072145039738,"202":0.05357201828281677,"203":-0.02212601079721506,"204":-0.020116914811512173,"205":-0.042957948664353415,"206":-0.03329712478231594,"207":0.06299523468991826,"208":-0.009976263243271416,"209":0.026507728288810286,"210":-0.0771436059595096,"211":0.0990122482656257,"212":0.04205059143523679,"213":-0.008909704983297745,"214":0.12225257897546554,"215":0.05212075033351289,"216":0.06606731121050773,"217":-0.019148960731979355,"218":0.08316963955072552,"219":0.04376795063600486,"220":-0.03562585364385575,"221":-0.06152459825733129,"222":-0.00795432330486049,"223":0.028032495896812414,"224":-0.02214162519535071,"225":-0.006934810297655492,"226":-0.013576327824001498,"227":-0.02483260012150657,"228":-0.03582647301051695,"229":-0.04229080132585163,"230":0.03394777036713896,"231":-0.06441782685162033,"232":-0.07395788746447357,"233":0.05099943365844746,"234":-0.03275597417084609,"235":-0.07338478192897104,"236":-0.04467623611248942,"237":0.060108069178800794,"238":0.055079965270504086,"239":0.0054315084263695905,"240":-0.03206742987845435,"241":0.016274310657174152,"242":0.013000418891640188,"243":0.05247614280853162,"244":-0.0928422491473975,"245":0.002426930201622178,"246":-0.0014198408639574506,"247":0.06345567629238955,"248":0.0021898127132792466,"249":-0.012539553926893205,"250":-0.05631153999347098,"251":-0.001808962792119137,"252":-0.06779621738141249,"253":-0.034086698834872774,"254":-0.03550332546665342,"255":-0.02818648198267562,"256":0.030019455353399074,"257":0.026710335092580736,"258":0.13467411353689238,"259":-0.03311658740699519,"260":-0.009639316363475411,"261":-0.055316551140311296,"262":-0.0315335709886346,"263":-0.002566429783523793,"264":-0.047002160905155944,"265":0.008339162301861798,"266":-0.02498738926338067,"267":-0.016402736457329672,"268":0.019246387056627696,"269":0.03781127220397522,"270":0.0667604043536918,"271":-0.05597255068940681,"272":-0.09036802038523997,"273":0.11342928922620835,"274":0.01890031983465407,"275":0.01932377401871073,"276":-0.005260227755509169,"277":0.016213847899797802,"278":0.057034350414539754,"279":-0.03184860714416264,"280":0.08165431864278108,"281":0.07020420827535853,"282":-0.01687986524461468,"283":0.06893940679037772,"284":-0.0033966568582903234,"285":0.06153186904205131,"286":0.031029795785087164,"287":0.006625464895344642,"288":0.046104804381751574,"289":0.06880444994840677,"290":0.019070481599921,"291":-0.00192555263272926,"292":-0.01922611976334809,"293":0.056460648802093574,"294":0.13855493100502989,"295":-0.011106063894644204,"296":0.06553997004906252,"297":0.0574890701346322,"298":0.0005002194033833646,"299":0.011204342624062528,"300":-0.1255909468095993,"301":0.04902752427456452,"302":0.023643116165487033,"303":-0.06350393966151095,"304":0.05267261840937944,"305":-0.04606488379129814,"306":-0.06764723403647982,"307":-0.029260260320334835,"308":0.027925248981403358,"309":-0.0005710793453432595,"310":0.06431159887701457,"311":0.034562944327076836,"312":-0.010651558392935188,"313":-0.022790484771342774,"314":0.03377419053251014,"315":0.004050499154414884,"316":-0.025419804975361754,"317":-0.037630360319836936,"318":0.016769602064023035,"319":-0.02851003110012913,"320":0.05389674630970074,"321":-0.03413396074833482,"322":-0.0040781937469102445,"323":-0.060970332647487246,"324":-0.08305865750960113,"325":-0.02115790850121635,"326":-0.0574934647981056,"327":-0.04919437299255847,"328":0.045108071805364976,"329":-0.05982836046057564,"330":-0.014443731553713509,"331":-0.03496450983274677,"332":0.005816150615510733,"333":-0.04186353013002074,"334":-0.061475809093887154,"335":-0.009310883945890934,"336":-0.0380588794415078,"337":-0.015456209184086713,"338":0.005447857102562874,"339":-0.025390589116800144,"340":0.019963882714953002,"341":-0.03376552192016277,"342":-0.02270851364343314,"343":-0.0033592103362492594,"344":-0.012282980623276074,"345":0.08192547002901733,"346":-0.06111041283616267,"347":-0.04280876515783133,"348":-0.057563928599381094,"349":0.00823867373152974,"350":-0.06736540638604452,"351":-0.012466932704330115,"352":-0.06194016717223392,"353":-0.04762749498927233,"354":-0.0018084068412717244,"355":-0.036381088893848175,"356":0.054874051352159926,"357":-0.04313157715675284,"358":-0.05945506235416871,"359":0.011516022281457408,"360":0.033115173699591494,"361":-0.0481095857963958,"362":-0.01863890569520549,"363":0.050703462267667414,"364":0.06290396151482966,"365":0.010010353822671219,"366":-0.06733001628301151,"367":0.015830028729854513,"368":-0.01701854601215733,"369":0.049296955742159546,"370":-0.021227540441264722,"371":0.08406052352266923,"372":0.015494902796607955,"373":-0.02119774702739788,"374":-0.05561306238294536,"375":-0.0033463166991143903,"376":0.013912858094173555,"377":-0.041875631226815126,"378":0.07548907023725511,"379":-0.05367073926823706,"380":-0.03391205892827852,"381":-0.03212792723447663,"382":-0.02842422374012176,"383":0.004570814970973261,"384":0.014837414730771843,"385":0.09216277270338408,"386":-0.024849544413971886,"387":-0.0621854234389169,"388":0.023246700847428435,"389":-0.016432939631986537,"390":-0.00032804201994288666,"391":0.15846271417737753,"392":-0.11162464875229479,"393":-0.019371637094628982,"394":-0.03912185579362293,"395":-0.019226619340419075,"396":-0.016785612787896566,"397":-0.00744022911093773,"398":0.06595499540565698,"399":-0.016569406486084827}},{"sx":5,"sy":5,"depth":16,"w":{"0":0.039710019448664126,"1":0.04756197256020472,"2":-0.04888754409653271,"3":-0.041213290594719065,"4":0.010544868337942524,"5":0.03732453269595971,"6":0.03001523230046445,"7":0.01253673193708516,"8":-0.036407743495425124,"9":-0.06856533148264453,"10":0.05764639520899704,"11":0.031034787160928005,"12":0.01578523698392674,"13":-0.06044147617485975,"14":0.0050434426823682795,"15":-0.02344850091694015,"16":-0.038208089465828335,"17":0.0638853352946632,"18":0.024280181763701128,"19":0.09311436994055715,"20":0.006809355886269629,"21":0.03511656267904847,"22":0.037432206597539486,"23":-0.0867431080054986,"24":0.05652731624601267,"25":-0.029990278251834323,"26":-0.02352722880116441,"27":0.030954813539815187,"28":0.01485577870729862,"29":-0.029814438776999234,"30":0.07423158547010703,"31":0.02045689472109185,"32":0.029241506684791453,"33":-0.05621943646102987,"34":0.021637869740844404,"35":-0.05892876575595766,"36":-0.05925751883486749,"37":0.09247197602074497,"38":-0.04620954060351859,"39":-0.0023546966427481575,"40":-0.03210002457335401,"41":-0.046928911587299706,"42":-0.06998524670532541,"43":0.03793618851596263,"44":0.09515513979911888,"45":-0.09311611847775984,"46":-0.06619306073738772,"47":-0.03143114607945058,"48":0.013046108522559588,"49":0.0016630144928440607,"50":-0.044326921750873785,"51":-0.04444246166602809,"52":0.06503434021682021,"53":-0.01786838595554603,"54":-0.05428069808376107,"55":-0.010541480902284775,"56":-0.010417032573145605,"57":0.07926729841507249,"58":-0.013541265931362761,"59":-0.06288532068165857,"60":0.03642428675863164,"61":-0.05660216865411869,"62":0.04753034851562256,"63":-0.02287262685695942,"64":-0.0562490797569916,"65":-0.08538210937723133,"66":-0.04832418739820345,"67":0.0013460559163604726,"68":-0.03274925652196092,"69":0.02693020474403162,"70":0.04037148760999349,"71":0.06041274076496038,"72":0.006996178858257446,"73":0.020471922761186933,"74":-0.038643521961641454,"75":0.006005340529187536,"76":-0.06513106375492674,"77":-0.09310239950588903,"78":-0.03895467079359054,"79":-0.009080738619490098,"80":0.06648841604751597,"81":0.04065963466695483,"82":-0.04353384144289612,"83":-0.08383444453801589,"84":-0.04249418268886653,"85":-0.030875431198893768,"86":-0.09337737004643594,"87":-0.007704419578310051,"88":0.03854933912546912,"89":-0.12392250212979211,"90":-0.046296322528261644,"91":-0.010188173922470633,"92":-0.02978295206564253,"93":-0.07272173727385713,"94":0.028754758576127318,"95":0.024617974929108204,"96":-0.07818457850291496,"97":0.05809679390829977,"98":0.0429894348166933,"99":0.029210821766454658,"100":0.08996354608454842,"101":-0.0005486776381122661,"102":-0.03682032635998279,"103":-0.09684907127644933,"104":0.08185551091018464,"105":-0.021240117019754028,"106":-0.028272713194417917,"107":-0.021310044069906775,"108":-0.05028348912454165,"109":0.05200537418522636,"110":0.008540426150525901,"111":0.009198731756024887,"112":0.013433343512093122,"113":0.050574080620847874,"114":-0.03508993652694512,