{"layers":[{"out_depth":1,"out_sx":49,"out_sy":49,"layer_type":"input"},{"sx":3,"sy":3,"stride":1,"in_depth":1,"out_depth":4,"out_sx":51,"out_sy":51,"layer_type":"conv","l1_decay_mul":0,"l2_decay_mul":1,"pad":2,"filters":[{"sx":3,"sy":3,"depth":1,"w":{"0":0.307523,"1":-0.041807,"2":0.017654,"3":0.559229,"4":0.106435,"5":0.259947,"6":0.349071,"7":-0.480583,"8":0.058307}},{"sx":3,"sy":3,"depth":1,"w":{"0":0.202267,"1":-0.859467,"2":0.052989,"3":-0.294886,"4":-0.064968,"5":-0.007916,"6":-0.023436,"7":-0.294433,"8":-0.122311}},{"sx":3,"sy":3,"depth":1,"w":{"0":-0.238222,"1":0.196067,"2":0.224955,"3":0.189727,"4":0.437386,"5":0.451743,"6":0.304585,"7":-0.592714,"8":0.213138}},{"sx":3,"sy":3,"depth":1,"w":{"0":-0.160268,"1":0.350103,"2":0.180014,"3":0.337125,"4":0.590152,"5":-0.309279,"6":-0.556642,"7":0.191176,"8":0.156221}}],"biases":{"sx":1,"sy":1,"depth":4,"w":{"0":0.10819835676558759,"1":0.07248008045934397,"2":0.07416873089568495,"3":0.07867712261523117}}},{"out_depth":4,"out_sx":51,"out_sy":51,"layer_type":"relu"},{"sx":3,"sy":3,"stride":1,"in_depth":4,"out_depth":4,"out_sx":49,"out_sy":49,"layer_type":"pool","pad":0},{"sx":3,"sy":3,"stride":1,"in_depth":4,"out_depth":8,"out_sx":51,"out_sy":51,"layer_type":"conv","l1_decay_mul":0,"l2_decay_mul":1,"pad":2,"filters":[{"sx":3,"sy":3,"depth":4,"w":{"0":0.053264,"1":0.124295,"2":-0.099203,"3":-0.003945,"4":-0.182071,"5":0.029837,"6":0.182325,"7":-0.170949,"8":-0.124401,"9":0.041728,"10":-0.144383,"11":-0.160149,"12":-0.120146,"13":0.072934,"14":-0.089248,"15":0.124158,"16":0.204196,"17":0.239659,"18":0.236972,"19":0.009449,"20":-0.065996,"21":0.055428,"22":0.135245,"23":0.085755,"24":0.005379,"25":-0.048908,"26":0.190564,"27":0.00441,"28":0.065297,"29":-0.104522,"30":-0.402222,"31":-0.00585,"32":0.051485,"33":-0.060953,"34":-0.126917,"35":0.122643}},{"sx":3,"sy":3,"depth":4,"w":{"0":0.077041,"1":-0.225896,"2":-0.004532,"3":0.118369,"4":-0.057789,"5":-0.033936,"6":-0.188551,"7":0.136012,"8":-0.096686,"9":-0.142508,"10":-0.122561,"11":0.027842,"12":-0.002484,"13":0.283821,"14":0.333455,"15":0.033816,"16":0.187124,"17":0.060309,"18":0.190896,"19":-0.037088,"20":-0.198341,"21":0.170405,"22":0.155402,"23":-0.222851,"24":-0.149075,"25":-0.154483,"26":-0.014988,"27":0.004662,"28":0.082188,"29":-0.070591,"30":0.046951,"31":0.124805,"32":0.187064,"33":-0.387938,"34":-0.003937,"35":0.179742}},{"sx":3,"sy":3,"depth":4,"w":{"0":-0.02657,"1":0.10628,"2":-0.006661,"3":-0.00856,"4":-0.283675,"5":0.019887,"6":0.03085,"7":0.148888,"8":-0.0491,"9":-0.273187,"10":0.135468,"11":0.03494,"12":0.198303,"13":-0.138329,"14":0.172209,"15":0.288098,"16":-0.163072,"17":0.20012,"18":0.304092,"19":0.019567,"20":-0.143706,"21":-0.079289,"22":0.19948,"23":-0.061582,"24":0.329243,"25":-0.135598,"26":-0.147999,"27":-0.059359,"28":-0.080141,"29":-0.1482,"30":0.135889,"31":-0.188338,"32":0.118555,"33":-0.20014,"34":0.041368,"35":0.104602}},{"sx":3,"sy":3,"depth":4,"w":{"0":0.183117,"1":0.068128,"2":0.181151,"3":0.274636,"4":0.008397,"5":-0.167895,"6":-0.039922,"7":-0.143186,"8":0.149426,"9":0.111791,"10":-0.1289,"11":0.28676,"12":0.007913,"13":0.104063,"14":-0.139457,"15":-0.039566,"16":-0.075974,"17":0.091859,"18":0.32383,"19":0.09889,"20":0.009968,"21":0.080876,"22":-0.324535,"23":-0.252854,"24":0.210273,"25":-0.054043,"26":-0.354969,"27":-0.140779,"28":-0.183826,"29":-0.010868,"30":0.041482,"31":-0.190949,"32":-0.163724,"33":-0.097291,"34":-0.043287,"35":0.014284}},{"sx":3,"sy":3,"depth":4,"w":{"0":-0.106834,"1":-0.111629,"2":0.100956,"3":0.072113,"4":-0.109163,"5":0.464604,"6":0.051998,"7":0.064761,"8":-0.059987,"9":-0.202949,"10":-0.170368,"11":-0.124625,"12":0.186947,"13":0.034425,"14":0.04066,"15":0.037061,"16":0.034085,"17":-0.416927,"18":0.228352,"19":-0.270549,"20":0.247354,"21":-0.029881,"22":-0.09176,"23":-0.019377,"24":-0.125963,"25":-0.052088,"26":0.049491,"27":-0.125639,"28":0.173799,"29":0.103872,"30":0.161812,"31":-0.058743,"32":-0.076691,"33":0.275571,"34":-0.080301,"35":-0.087025}},{"sx":3,"sy":3,"depth":4,"w":{"0":0.233176,"1":0.100222,"2":0.039209,"3":0.268254,"4":0.215402,"5":0.203931,"6":0.087518,"7":-0.138468,"8":-0.120062,"9":-0.090751,"10":-0.035018,"11":0.086052,"12":0.024582,"13":0.089662,"14":-0.141567,"15":0.121025,"16":0.213766,"17":0.171727,"18":0.241779,"19":-0.091069,"20":0.097549,"21":-0.034612,"22":0.115521,"23":-0.012723,"24":0.03987,"25":-0.322416,"26":-0.199866,"27":0.016374,"28":-0.10294,"29":-0.124719,"30":-0.221807,"31":0.207719,"32":-0.11754,"33":0.208939,"34":0.056528,"35":-0.0021}},{"sx":3,"sy":3,"depth":4,"w":{"0":-0.191623,"1":-0.041655,"2":0.325389,"3":-0.044271,"4":0.120068,"5":-0.131915,"6":-0.130605,"7":-0.077219,"8":-0.123371,"9":-0.020518,"10":-0.130666,"11":-0.448666,"12":0.156457,"13":0.094218,"14":0.470599,"15":0.16224,"16":0.297232,"17":-0.126581,"18":0.212892,"19":-0.017943,"20":-0.043997,"21":-0.346517,"22":0.01772,"23":0.075174,"24":0.022137,"25":0.139716,"26":0.09314,"27":0.194937,"28":-0.321389,"29":-0.019287,"30":-0.189507,"31":0.060523,"32":-0.03642,"33":0.151427,"34":0.188701,"35":-0.209582}},{"sx":3,"sy":3,"depth":4,"w":{"0":0.010384,"1":0.157177,"2":-0.085902,"3":0.101257,"4":-0.09909,"5":0.057605,"6":0.059419,"7":0.03345,"8":0.16333,"9":0.079458,"10":-0.097322,"11":0.091298,"12":-0.033479,"13":0.076875,"14":-0.152722,"15":0.027046,"16":0.13573,"17":-0.079216,"18":0.145639,"19":-0.188781,"20":0.202313,"21":-0.067081,"22":-0.130585,"23":0.026249,"24":0.123707,"25":-0.199252,"26":-0.003535,"27":-0.227617,"28":-0.068921,"29":-0.060844,"30":0.077127,"31":-0.122576,"32":-0.0129,"33":0.44709,"34":0.008301,"35":-0.003582}}],"biases":{"sx":1,"sy":1,"depth":8,"w":{"0":0.07674555314246294,"1":0.10839095389342927,"2":0.11092262218614429,"3":0.10499905928755075,"4":0.110444130540381,"5":0.07346902079157541,"6":0.06904971873142317,"7":0.10772040493461872}}},{"out_depth":8,"out_sx":51,"out_sy":51,"layer_type":"relu"},{"sx":3,"sy":3,"stride":1,"in_depth":8,"out_depth":8,"out_sx":49,"out_sy":49,"layer_type":"pool","pad":0},{"out_depth":5,"out_sx":1,"out_sy":1,"layer_type":"fc","num_inputs":19208,"l1_decay_mul":0,"l2_decay_mul":1,"filters":[{"sx":1,"sy":1,"depth":19208,"w":{"0":-0.013824,"1":-0.005772,"2":-0.012965,"3":0.012918,"4":-0.002721,"5":-0.026059,"6":-0.011613,"7":-0.010502,"8":-0.009834,"9":-0.005063,"10":0.001993,"11":-0.009469,"12":-0.015483,"13":-0.01637,"14":-0.015492,"15":0.002671,"16":-0.008221,"17":-0.010532,"18":0.00057,"19":-0.008325,"20":-0.008572,"21":-0.02196,"22":-0.010398,"23":0.01014,"24":-0.002305,"25":-0.013392,"26":-0.000107,"27":0.002257,"28":-0.006269,"29":-0.007868,"30":-0.000785,"31":0.005847,"32":-0.014508,"33":0.000668,"34":-0.001503,"35":0.002143,"36":-0.016598,"37":-0.008024,"38":-0.00963,"39":0.005854,"40":0.001079,"41":-0.007235,"42":-0.005455,"43":0.007422,"44":-0.001053,"45":-0.014804,"46":-0.007179,"47":0.012574,"48":-0.003838,"49":-0.002939,"50":0.004481,"51":0.01502,"52":-0.007065,"53":-0.009683,"54":-0.005477,"55":-0.008698,"56":-0.000124,"57":-0.001616,"58":-0.012761,"59":0.00249,"60":0.008614,"61":-0.007143,"62":-0.008265,"63":-0.004835,"64":-0.000915,"65":-0.019064,"66":-0.013101,"67":-0.003198,"68":0.001778,"69":0.005709,"70":0.000371,"71":0.010119,"72":0.004562,"73":0.007761,"74":-0.001669,"75":0.007042,"76":-0.005618,"77":0.000593,"78":-0.009328,"79":0.003533,"80":0.000095,"81":0.00733,"82":0.003786,"83":-0.005395,"84":-0.002601,"85":-0.016048,"86":-0.008381,"87":0.010384,"88":-0.000605,"89":-0.002256,"90":0.006252,"91":0.007059,"92":-0.004512,"93":-0.014815,"94":-0.001851,"95":-0.000962,"96":0.000062,"97":-0.001912,"98":0.002326,"99":0.00973,"100":-0.009875,"101":-0.001303,"102":-0.009459,"103":0.001266,"104":0.003699,"105":-0.018018,"106":-0.001656,"107":0.006882,"108":-0.001344,"109":0.000292,"110":0.005896,"111":-0.00515,"112":-0.003623,"113":-0.00564,"114":-0.017029,"115":-0.001253,"116":-0.001455,"117":-0.008262,"118":-0.002242,"119":-0.004572,"120":-0.006566,"121":0.012416,"122":-0.016133,"123":0.009189,"124":-0.011318,"125":0.00063,"126":-0.00113,"127":-0.000982,"128":-0.001642,"129":-0.006296,"130":-0.005759,"131":0.005796,"132":-0.01721,"133":-0.006526,"134":-0.002537,"135":-0.006617,"136":0.001188,"137":-0.003804,"138":-0.002582,"139":0.005092,"140":-0.010245,"141":-0.007343,"142":-0.002317,"143":-0.002255,"144":0.002189,"145":0.00163,"146":0.001582,"147":-0.003414,"148":-0.008189,"149":-0.011593,"150":-0.006222,"151":-0.006271,"152":-0.000164,"153":0.010965,"154":0.001296,"155":0.010213,"156":-0.00478,"157":0.005237,"158":-0.018703,"159":0.000018,"160":-0.004501,"161":-0.001493,"162":-0.006807,"163":-0.00589,"164":-0.008391,"165":-0.002747,"166":-0.003699,"167":-0.004125,"168":-0.000308,"169":-0.001032,"170":-0.007152,"171":0.000849,"172":-0.014952,"173":-0.009607,"174":-0.007117,"175":-0.006738,"176":-0.001218,"177":-0.005419,"178":-0.011796,"179":-0.000392,"180":-0.009013,"181":-0.004942,"182":-0.004889,"183":0.001156,"184":-0.000039,"185":0.000538,"186":0.000107,"187":0.013459,"188":0.00716,"189":-0.013549,"190":-0.004792,"191":-0.002544,"192":-0.007052,"193":-0.006309,"194":-0.009817,"195":0.004454,"196":0.005459,"197":-0.007997,"198":-0.013017,"199":0.002369,"200":-0.003986,"201":0.006286,"202":0.003624,"203":0.006004,"204":-0.004051,"205":-0.004435,"206":0.000974,"207":-0.01487,"208":-0.002735,"209":-0.014356,"210":-0.002064,"211":0.009938,"212":-0.003731,"213":-0.013165,"214":-0.009821,"215":0.005579,"216":0.004237,"217":-0.002143,"218":0.001529,"219":0.003266,"220":-0.00342,"221":-0.019586,"222":0.006961,"223":0.006209,"224":-0.007004,"225":-0.012546,"226":-0.016973,"227":0.009899,"228":-0.005043,"229":0.005591,"230":-0.006991,"231":0.009558,"232":-0.003586,"233":-0.00578,"234":-0.001131,"235":0.005998,"236":0.001381,"237":-0.009322,"238":0.000501,"239":-0.004894,"240":0.005737,"241":-0.005474,"242":-0.000818,"243":0.007404,"244":-0.013709,"245":-0.003091,"246":0.008583,"247":0.000238,"248":0.001246,"249":-0.013684,"250":-0.003028,"251":0.006533,"252":0.011375,"253":-0.010013,"254":-0.014907,"255":-0.005841,"256":0.005752,"257":-0.00688,"258":-0.004473,"259":-0.001224,"260":0.004585,"261":-0.000136,"262":-0.009456,"263":-0.006945,"264":-0.008854,"265":-0.011149,"266":-0.000721,"267":0.007493,"268":-0.00198,"269":0.000393,"270":0.006356,"271":0.012812,"272":-0.004783,"273":-0.017269,"274":-0.004839,"275":0.011925,"276":0.003412,"277":-0.005873,"278":0.007822,"279":-0.005559,"280":-0.011232,"281":-0.012148,"282":-0.006788,"283":0.004147,"284":-0.000598,"285":0.004087,"286":-0.008323,"287":-0.005475,"288":-0.009945,"289":0.009432,"290":0.001555,"291":0.008957,"292":0.000419,"293":0.00335,"294":-0.000883,"295":-0.003135,"296":-0.001862,"297":-0.004474,"298":0.01004,"299":0.006767,"300":-0.004337,"301":-0.011029,"302":-0.008062,"303":0.001313,"304":-0.001646,"305":-0.016991,"306":-0.004167,"307":0.00828,"308":-0.000538,"309":-0.001676,"310":0.002277,"311":0.001423,"312":0.005523,"313":-0.008278,"314":-0.006048,"315":0.013178,"316":0.008257,"317":-0.002345,"318":-0.005966,"319":-0.003965,"320":0.001142,"321":-0.01021,"322":0.009345,"323":0.013785,"324":0.008395,"325":-0.007692,"326":-0.010882,"327":0.000243,"328":0.012336,"329":-0.025057,"330":-0.006806,"331":-0.002157,"332":-0.006221,"333":-0.011568,"334":-0.002412,"335":0.004111,"336":-0.00624,"337":0.005967,"338":-0.012859,"339":0.000017,"340":0.005429,"341":-0.020347,"342":-0.017748,"343":-0.000198,"344":0.000613,"345":-0.01796,"346":0.004978,"347":0.011552,"348":-0.000045,"349":-0.002285,"350":-0.007989,"351":0.005738,"352":-0.001182,"353":-0.003502,"354":-0.001281,"355":0.015435,"356":-0.006179,"357":-0.006209,"358":-0.010583,"359":0.00149,"360":-0.010988,"361":-0.004728,"362":-0.008745,"363":0.009874,"364":-0.009393,"365":-0.009256,"366":-0.012464,"367":0.00486,"368":-0.016888,"369":-0.017507,"370":0.000212,"371":0.010242,"372":-0.009609,"373":0.002306,"374":-0.010215,"375":-0.002598,"376":-0.0034,"377":-0.011296,"378":-0.001755,"379":0.00348,"380":-0.004515,"381":-0.003172,"382":-0.008235,"383":0.003895,"384":0.00544,"385":-0.015839,"386":-0.020532,"387":0.003712,"388":0.005681,"389":-0.002024,"390":-0.006276,"391":-0.010512,"392":-0.009632,"393":-0.017894,"394":-0.007597,"395":-0.000603,"396":-0.01261,"397":0.008228,"398":-0.014854,"399":-0.011605,"400":-0.008961,"401":-0.015004,"402":0.000156,"403":-0.005297,"404":-0.022937,"405":-0.012977,"406":-0.005224,"407":-0.010888,"408":-0.006786,"409":-0.011083,"410":-0.007648,"411":-0.013915,"412":-0.012201,"413":-0.00617,"414":-0.016942,"415":0.000088,"416":-0.019863,"417":-0.012011,"418":-0.013044,"419":-0.003385,"420":-0.008583,"421":-0.017229,"422":-0.01137,"423":-0.003783,"424":-0.012071,"425":-0.000225,"426":-0.012682,"427":0.003587,"428":-0.010805,"429":0.006894,"430":-0.015446,"431":-0.000351,"432":-0.011139,"433":0.001996,"434":0.000354,"435":0.000071,"436":0.006767,"437":-0.0108,"438":-0.000801,"439":-0.00164,"440":-0.021578,"441":0.004874,"442":0.002531,"443":0.006761,"444":-0.001811,"445":-0.002807,"446":-0.007894,"447":0.003168,"448":0.008661,"449":0.000946,"450":0.001465,"451":0.006818,"452":0.000955,"453":0.001381,"454":-0.000148,"455":-0.004586,"456":0.004016,"457":0.003472,"458":-0.015563,"459":0.002093,"460":-0.007821,"461":-0.011377,"462":-0.009102,"463":-0.004661,"464":-0.005838,"465":0.003391,"466":-0.01482,"467":0.006586,"468":-0.006906,"469":-0.005877,"470":-0.007516,"471":-0.001008,"472":0.009012,"473":-0.007514,"474":0.008671,"475":0.007979,"476":0.00064,"477":-0.004934,"478":-0.012331,"479":-0.004585,"480":0.006718,"481":-0.004076,"482":-0.005976,"483":0.007017,"484":-0.003643,"485":0.008663,"486":-0.005492,"487":0.013649,"488":0.002725,"489":-0.001332,"490":-0.011304,"491":0.006352,"492":0.010435,"493":-0.003749,"494":-0.010195,"495":0.002571,"496":0.000352,"497":-0.007195,"498":-0.00742,"499":0.000034,"500":-0.010221,"501":-0.015124,"502":-0.006156,"503":-0.011797,"504":-0.003511,"505":-0.010745,"506":-0.015448,"507":0.003079,"508":-0.000761,"509":-0.011863,"510":-0.013735,"511":-0.013127,"512":0.010574,"513":-0.008158,"514":-0.000185,"515":0.003061,"516":-0.013074,"517":-0.008891,"518":-0.005509,"519":-0.000027,"520":0.002052,"521":-0.000387,"522":-0.006744,"523":0.003962,"524":-0.002022,"525":-0.00512,"526":-0.006276,"527":-0.007688,"528":-0.003083,"529":-0.021478,"530":0.003935,"531":0.0029,"532":0.003195,"533":0.001151,"534":-0.010992,"535":-0.001235,"536":-0.005676,"537":-0.008806,"538":-0.011476,"539":0.002493,"540":-0.000151,"541":0.001127,"542":-0.009521,"543":0.00053,"544":-0.010747,"545":-0.002155,"546":-0.005055,"547":0.004675,"548":-0.004575,"549":-0.012928,"550":-0.004155,"551":-0.003899,"552":-0.002012,"553":-0.006389,"554":-0.009505,"555":0.003739,"556":0.003233,"557":0.001025,"558":-0.012305,"559":-0.002935,"560":-0.003612,"561":-0.015381,"562":0.000349,"563":0.001948,"564":-0.000121,"565":-0.00266,"566":0.001546,"567":0.00414,"568":-0.003179,"569":0.006935,"570":-0.010916,"571":0.008509,"572":0.008133,"573":-0.01113,"574":-0.012952,"575":-0.003656,"576":-0.004176,"577":-0.00171,"578":0.003105,"579":-0.004686,"580":-0.006449,"581":-0.005019,"582":-0.004804,"583":-0.002424,"584":-0.01441,"585":-0.005219,"586":-0.009217,"587":0.003353,"588":0.010441,"589":-0.006285,"590":-0.003515,"591":-0.002737,"592":0.002336,"593":0.005773,"594":-0.000297,"595":0.005736,"596":0.006761,"597":0.002516,"598":-0.010814,"599":-0.003064,"600":0.001224,"601":-0.0214,"602":-0.015798,"603":0.003592,"604":-0.002405,"605":0.006026,"606":0.002744,"607":-0.00064,"608":-0.00974,"609":0.006102,"610":0.00311,"611":0.00781,"612":-0.005427,"613":-0.007442,"614":-0.007847,"615":0.010001,"616":0.000969,"617":-0.010197,"618":0.009647,"619":-0.001492,"620":-0.017862,"621":-0.009035,"622":-0.00554,"623":-0.008394,"624":-0.008917,"625":-0.003203,"626":-0.005176,"627":0.008163,"628":-0.013683,"629":-0.000425,"630":-0.018076,"631":-0.004676,"632":-0.013499,"633":-0.010795,"634":-0.003898,"635":0.014885,"636":-0.006347,"637":0.002805,"638":-0.012754,"639":0.000195,"640":-0.002924,"641":-0.006222,"642":0.001007,"643":0.00396,"644":0.007466,"645":-0.015078,"646":-0.010459,"647":-0.007162,"648":-0.004088,"649":0.000563,"650":0.001164,"651":-0.004991,"652":-0.000777,"653":0.00335,"654":0.001778,"655":-0.007186,"656":0.000435,"657":-0.005934,"658":-0.009404,"659":0.00906,"660":0.003628,"661":0.010389,"662":-0.006394,"663":-0.007275,"664":-0.018708,"665":0.00324,"666":0.014724,"667":0.000595,"668":-0.007812,"669":-0.006337,"670":-0.003016,"671":0.011332,"672":-0.002442,"673":-0.015248,"674":-0.006049,"675":-0.000685,"676":-0.008914,"677":-0.010172,"678":-0.00821,"679":0.000289,"680":0.004399,"681":0.002302,"682":0.003331,"683":0.003992,"684":0.01494,"685":-0.004034,"686":-0.000946,"687":0.005608,"688":-0.011288,"689":-0.007413,"690":0.012062,"691":0.01096,"692":0.002664,"693":-0.007443,"694":-0.000792,"695":0.000671,"696":0.000563,"697":0.00045,"698":-0.007968,"699":0.009496,"700":-0.007644,"701":-0.001982,"702":-0.010842,"703":0.001888,"704":0.002015,"705":-0.01502,"706":-0.011821,"707":-0.005463,"708":0.00244,"709":0.002989,"710":-0.010144,"711":-0.002114,"712":-0.001084,"713":-0.009006,"714":-0.009148,"715":0.004658,"716":0.00452,"717":-0.007055,"718":-0.003613,"719":-0.005336,"720":0.002928,"721":-0.003865,"722":-0.005672,"723":0.00231,"724":0.005425,"725":-0.006841,"726":-0.000067,"727":0.001916,"728":-0.012214,"729":-0.003256,"730":0.004368,"731":0.003163,"732":0.00094,"733":-0.015502,"734":-0.004392,"735":0.001236,"736":-0.011711,"737":-0.005233,"738":-0.016193,"739":0.001202,"740":-0.002305,"741":-0.01135,"742":-0.015507,"743":-0.002417,"744":-0.005476,"745":-0.01493,"746":-0.000504,"747":0.006226,"748":-0.013644,"749":-0.001887,"750":-0.011079,"751":0.011059,"752":-0.008594,"753":-0.006726,"754":-0.001465,"755":0.00419,"756":-0.00685,"757":0.003113,"758":-0.018091,"759":0.002516,"760":-0.001069,"761":-0.000994,"762":-0.012022,"763":0.004379,"764":-0.005299,"765":-0.008627,"766":-0.0052,"767":-0.003687,"768":-0.001811,"769":-0.017556,"770":-0.002616,"771":0.009668,"772":-0.005512,"773":-0.003744,"774":-0.011246,"775":0.010107,"776":-0.001973,"777":-0.010509,"778":-0.004324,"779":-0.00863,"780":-0.012981,"781":-0.003818,"782":-0.013513,"783":0.002166,"784":-0.008967,"785":-0.009624,"786":-0.006208,"787":0.005283,"788":-0.02247,"789":-0.030379,"790":-0.000389,"791":-0.007294,"792":-0.001383,"793":0.000107,"794":-0.010232,"795":-0.005236,"796":-0.004203,"797":-0.023837,"798":-0.006228,"799":0.003955,"800":-0.011366,"801":-0.024948,"802":-0.010435,"803":0.005842,"804":-0.004033,"805":-0.003283,"806":-0.005307,"807":-0.020239,"808":-0.010291,"809":-0.019701,"810":0.007029,"811":0.006406,"812":-0.014779,"813":-0.005115,"814":-0.003959,"815":0.002387,"816":-0.010741,"817":-0.000239,"818":-0.006274,"819":-0.015487,"820":-0.003343,"821":-0.015921,"822":-0.004475,"823":-0.002561,"824":-0.001058,"825":-0.001275,"826":-0.001936,"827":0.000639,"828":-0.000911,"829":0.007324,"830":0.005255,"831":-0.000093,"832":0.001065,"833":-0.003552,"834":-0.004222,"835":0.002601,"836":0.005421,"837":-0.00944,"838":-0.008728,"839":0.003324,"840":-0.023731,"841":-0.007826,"842":-0.008923,"843":0.012178,"844":0.002179,"845":-0.007947,"846":-0.008236,"847":0.00687,"848":-0.010506,"849":-0.002992,"850":-0.007989,"851":0.012954,"852":0.009456,"853":-0.004005,"854":-0.00102,"855":0.000274,"856":-0.001679,"857":0.0051,"858":-0.004164,"859":0.001156,"860":-0.005964,"861":-0.005497,"862":0.004386,"863":0.014479,"864":-0.006066,"865":-0.004505,"866":0.002163,"867":-0.002969,"868":0.009163,"869":-0.018717,"870":0.000134,"871":0.004378,"872":-0.003408,"873":0.002089,"874":0.01235,"875":0.009597,"876":-0.004438,"877":-0.002775,"878":-0.006126,"879":-0.002332,"880":0.004993,"881":-0.00915,"882":-0.007638,"883":-0.009094,"884":0.007391,"885":-0.005499,"886":-0.006143,"887":-0.007192,"888":0.001818,"889":-0.005002,"890":0.001236,"891":0.014124,"892":-0.002024,"893":-0.016666,"894":0.006494,"895":-0.00308,"896":0.00615,"897":0.002594,"898":0.008126,"899":-0.005926,"900":-0.014611,"901":-0.012113,"902":0.006658,"903":0.003415,"904":0.005377,"905":-0.008715,"906":-0.004262,"907":0.008622,"908":0.000115,"909":-0.004732,"910":-0.003928,"911":-0.009537,"912":-0.003758,"913":-0.000601,"914":-0.001498,"915":0.016039,"916":0.003011,"917":-0.004586,"918":0.006143,"919":-0.000531,"920":-0.004186,"921":-0.001157,"922":-0.009187,"923":0.0079,"924":-0.006984,"925":-0.007754,"926":0.00119,"927":0.001228,"928":0.007741,"929":0.005931,"930":-0.006604,"931":0.010152,"932":-0.005335,"933":-0.017241,"934":-0.00252,"935":-0.007756,"936":0.009949,"937":-0.002483,"938":0.001732,"939":0.006855,"940":-0.009256,"941":-0.00922,"942":-0.00803,"943":-0.00247,"944":-0.007765,"945":0.004862,"946":-0.001062,"947":-0.006454,"948":0.006027,"949":0.004802,"950":0.000831,"951":0.003097,"952":0.007022,"953":-0.007516,"954":-0.006973,"955":-0.000443,"956":0.002048,"957":0.00028,"958":-0.002776,"959":-0.00752,"960":-0.002638,"961":0.004017,"962":-0.002479,"963":-0.00582,"964":0.00488,"965":-0.011513,"966":0.002711,"967":-0.000063,"968":-0.000081,"969":0.002756,"970":0.000989,"971":0.008487,"972":-0.004292,"973":0.004344,"974":0.000639,"975":-0.017092,"976":0.008813,"977":-0.012393,"978":-0.002557,"979":0.001527,"980":0.000751,"981":-0.003873,"982":-0.001512,"983":-0.002051,"984":-0.009966,"985":-0.006889,"986":-0.002783,"987":0.018824,"988":-0.005632,"989":-0.003217,"990":0.002393,"991":-0.016382,"992":0.00398,"993":0.008673,"994":0.00273,"995":0.005453,"996":0.001149,"997":0.003119,"998":0.006678,"999":0.002849,"1000":-0.002963,"1001":0.002193,"1002":0.00001,"1003":-0.00186,"1004":0.002839,"1005":0.001627,"1006":0.002106,"1007":0.002421,"1008":0.001854,"1009":-0.004943,"1010":-0.011399,"1011":0.015896,"1012":-0.010996,"1013":-0.005579,"1014":-0.010484,"1015":0.001033,"1016":-0.006965,"1017":0.009576,"1018":-0.021341,"1019":0.006199,"1020":0.003951,"1021":0.008307,"1022":0.002138,"1023":-0.001727,"1024":0.000544,"1025":-0.001835,"1026":-0.002395,"1027":0.012997,"1028":-0.002085,"1029":-0.002324,"1030":-0.005973,"1031":0.0054,"1032":0.004464,"1033":-0.011182,"1034":-0.016514,"1035":0.002202,"1036":-0.006139,"1037":-0.011366,"1038":-0.004011,"1039":-0.012388,"1040":-0.003698,"1041":-0.002543,"1042":-0.005491,"1043":-0.003818,"1044":0.006186,"1045":-0.004981,"1046":0.00855,"1047":-0.006989,"1048":0.002373,"1049":-0.00453,"1050":-0.004856,"1051":0.011479,"1052":0.002144,"1053":-0.010766,"1054":-0.003635,"1055":0.004275,"1056":-0.009544,"1057":0.002278,"1058":-0.008085,"1059":0.001648,"1060":-0.008146,"1061":-0.008625,"1062":0.001346,"1063":0.006157,"1064":-0.006655,"1065":0.003366,"1066":-0.001029,"1067":0.01028,"1068":0.008856,"1069":0.001206,"1070":-0.001721,"1071":-0.007703,"1072":-0.015493,"1073":-0.00766,"1074":-0.012212,"1075":-0.004014,"1076":-0.008606,"1077":-0.000329,"1078":-0.009445,"1079":0.004709,"1080":0.004154,"1081":0.00563,"1082":-0.009406,"1083":-0.00521,"1084":-0.003435,"1085":-0.004382,"1086":-0.00816,"1087":0.000423,"1088":0.008574,"1089":-0.004157,"1090":0.000724,"1091":0.015628,"1092":-0.004125,"1093":-0.004264,"1094":-0.000101,"1095":-0.001638,"1096":0.004825,"1097":0.004974,"1098":-0.009483,"1099":0.002033,"1100":0.003754,"1101":-0.001612,"1102":-0.007236,"1103":-0.003278,"1104":-0.004773,"1105":-0.008868,"1106":-0.012505,"1107":0.001471,"1108":0.00374,"1109":-0.001584,"1110":0.000042,"1111":-0.000134,"1112":0.007499,"1113":-0.010924,"1114":-0.000344,"1115":0.004121,"1116":-0.000839,"1117":0.000425,"1118":-0.006434,"1119":-0.002019,"1120":0.000225,"1121":-0.004431,"1122":-0.006934,"1123":-0.007796,"1124":0.009944,"1125":-0.01334,"1126":0.000204,"1127":-0.003561,"1128":-0.005521,"1129":-0.004321,"1130":-0.002447,"1131":-0.009165,"1132":-0.001295,"1133":-0.002764,"1134":-0.000701,"1135":-0.003095,"1136":0.011355,"1137":-0.003379,"1138":-0.000605,"1139":0.011953,"1140":-0.006053,"1141":-0.012441,"1142":-0.00359,"1143":0.003125,"1144":0.012613,"1145":0.003106,"1146":-0.00631,"1147":0.008037,"1148":0.003192,"1149":-0.000452,"1150":-0.007011,"1151":-0.005836,"1152":0.000057,"1153":0.001546,"1154":-0.014,"1155":0.005362,"1156":0.0062,"1157":-0.010497,"1158":0.001621,"1159":-0.011302,"1160":0.00659,"1161":-0.000675,"1162":0.006788,"1163":-0.008758,"1164":0.009016,"1165":0.003044,"1166":-0.00291,"1167":-0.012816,"1168":0.00114,"1169":0.001558,"1170":-0.010919,"1171":-0.006073,"1172":-0.005113,"1173":-0.004454,"1174":-0.007086,"1175":-0.004743,"1176":0.006401,"1177":-0.000857,"1178":-0.011996,"1179":-0.012096,"1180":-0.005885,"1181":-0.010915,"1182":-0.008151,"1183":-0.003981,"1184":-0.009594,"1185":-0.010913,"1186":-0.005713,"1187":-0.001864,"1188":-0.014046,"1189":-0.002241,"1190":-0.007211,"1191":0.000093,"1192":-0.015253,"1193":-0.010302,"1194":-0.004267,"1195":0.000817,"1196":-0.008135,"1197":-0.006028,"1198":0.000119,"1199":-0.008486,"1200":-0.007391,"1201":-0.009651,"1202":-0.017758,"1203":-0.005108,"1204":-0.00303,"1205":0.000878,"1206":-0.016227,"1207":-0.007865,"1208":-0.010215,"1209":0.002543,"1210":-0.000616,"1211":0.000568,"1212":-0.013802,"1213":-0.015975,"1214":0.001162,"1215":0.004905,"1216":0.003479,"1217":-0.003001,"1218":0.001149,"1219":-0.008811,"1220":0.00781,"1221":-0.010831,"1222":-0.013723,"1223":0.008063,"1224":0.003235,"1225":-0.005787,"1226":-0.002915,"1227":0.004862,"1228":0.010971,"1229":-0.018854,"1230":0.010211,"1231":0.004198,"1232":-0.008528,"1233":-0.002829,"1234":0.010335,"1235":-0.006445,"1236":-0.00725,"1237":0.008271,"1238":-0.006899,"1239":0.001339,"1240":0.011804,"1241":0.00611,"1242":0.006625,"1243":0.011674,"1244":0.005847,"1245":-0.009866,"1246":0.009353,"1247":0.004456,"1248":0.010016,"1249":-0.001456,"1250":0.000634,"1251":0.008184,"1252":-0.007243,"1253":-0.000129,"1254":-0.007007,"1255":0.004048,"1256":0.004809,"1257":-0.010388,"1258":-0.009583,"1259":0.012193,"1260":-0.000941,"1261":-0.004918,"1262":0.004065,"1263":-0.006603,"1264":-0.004737,"1265":0.001014,"1266":-0.005713,"1267":-0.005112,"1268":-0.006766,"1269":-0.015821,"1270":0.001226,"1271":-0.003503,"1272":0.002007,"1273":-0.00387,"1274":0.003606,"1275":-0.008178,"1276":-0.013769,"1277":-0.003311,"1278":-0.003928,"1279":-0.002157,"1280":-0.001165,"1281":-0.001198,"1282":0.006032,"1283":-0.002005,"1284":0.001443,"1285":-0.016967,"1286":-0.002463,"1287":-0.007446,"1288":-0.007178,"1289":-0.006959,"1290":-0.014954,"1291":0.000953,"1292":0.001545,"1293":-0.0062,"1294":0.001279,"1295":0.005635,"1296":-0.002223,"1297":-0.015739,"1298":-0.00047,"1299":0.000722,"1300":-0.002228,"1301":-0.00215,"1302":-0.006738,"1303":0.009603,"1304":0.009647,"1305":-0.017291,"1306":-0.007565,"1307":-0.005634,"1308":0.002564,"1309":-0.00948,"1310":0.00144,"1311":-0.015491,"1312":-0.008692,"1313":-0.018123,"1314":-0.002999,"1315":-0.000606,"1316":0.008824,"1317":-0.004852,"1318":0.001292,"1319":-0.001278,"1320":0.001507,"1321":-0.004502,"1322":-0.003797,"1323":-0.007638,"1324":-0.011985,"1325":-0.010024,"1326":0.003844,"1327":0.007701,"1328":0.009078,"1329":0.009493,"1330":0.001233,"1331":0.008951,"1332":-0.008373,"1333":0.006869,"1334":0.007139,"1335":-0.00382,"1336":0.000184,"1337":0.000165,"1338":0.009606,"1339":0.003609,"1340":-0.003264,"1341":-0.002485,"1342":0.002962,"1343":-0.002696,"1344":0.007662,"1345":0.001522,"1346":-0.004396,"1347":0.007481,"1348":-0.004045,"1349":-0.008043,"1350":0.006428,"1351":0.003693,"1352":-0.0035,"1353":0.001271,"1354":0.001939,"1355":0.013113,"1356":-0.008241,"1357":-0.011046,"1358":0.009106,"1359":0.009096,"1360":-0.000138,"1361":-0.005576,"1362":-0.01455,"1363":0.002425,"1364":-0.010765,"1365":-0.002956,"1366":0.000785,"1367":-0.016384,"1368":0.007041,"1369":-0.01956,"1370":-0.004806,"1371":0.007052,"1372":-0.009103,"1373":-0.001922,"1374":0.005398,"1375":0.006595,"1376":-0.001999,"1377":-0.000303,"1378":-0.005509,"1379":-0.001606,"1380":0.006275,"1381":-0.007214,"1382":-0.003699,"1383":-0.009239,"1384":-0.007791,"1385":-0.001025,"1386":0.000734,"1387":0.011094,"1388":-0.002808,"1389":-0.003851,"1390":-0.00572,"1391":-0.006432,"1392":-0.001062,"1393":0.001004,"1394":0.005083,"1395":0.013332,"1396":0.00261,"1397":-0.006088,"1398":-0.009688,"1399":0.002612,"1400":-0.016538,"1401":0.003907,"1402":-0.001861,"1403":0.011815,"1404":0.001952,"1405":-0.005118,"1406":-0.003418,"1407":0.001163,"1408":0.004471,"1409":-0.005505,"1410":-0.005064,"1411":-0.003575,"1412":-0.006659,"1413":0.00369,"1414":0.006606,"1415":-0.000708,"1416":-0.006784,"1417":-0.006928,"1418":-0.00272,"1419":0.005973,"1420":0.005592,"1421":-0.000591,"1422":-0.007004,"1423":0.002425,"1424":0.000063,"1425":-0.010054,"1426":-0.006962,"1427":-0.000051,"1428":0.005661,"1429":-0.010448,"1430":0.02144,"1431":-0.006649,"1432":0.004941,"1433":-0.012501,"1434":0.005259,"1435":0.007224,"1436":0.000507,"1437":-0.015253,"1438":0.004866,"1439":-0.001427,"1440":-0.011366,"1441":-0.006262,"1442":0.008058,"1443":0.009838,"1444":0.002446,"1445":-0.013185,"1446":-0.002919,"1447":-0.001874,"1448":-0.002743,"1449":-0.003795,"1450":-0.01058,"1451":0.006323,"1452":0.007421,"1453":-0.001641,"1454":0.006648,"1455":-0.004304,"1456":0.001441,"1457":-0.003985,"1458":0.003495,"1459":0.018546,"1460":0.00005,"1461":-0.002348,"1462":-0.002686,"1463":-0.006038,"1464":0.006726,"1465":-0.00817,"1466":-0.00266,"1467":0.002516,"1468":0.000797,"1469":-0.002019,"1470":-0.007452,"1471":-0.000647,"1472":0.000563,"1473":0.002747,"1474":0.00513,"1475":0.015432,"1476":-0.006341,"1477":-0.010753,"1478":0.009665,"1479":0.000291,"1480":0.000577,"1481":0.009839,"1482":0.010784,"1483":0.015745,"1484":-0.001748,"1485":-0.011445,"1486":0.005407,"1487":-0.000318,"1488":0.00589,"1489":-0.005622,"1490":-0.005397,"1491":0.022014,"1492":-0.006153,"1493":-0.005901,"1494":0.004895,"1495":0.002341,"1496":0.003839,"1497":-0.009011,"1498":0.002813,"1499":0.00938,"1500":0.00196,"1501":-0.00341,"1502":-0.007317,"1503":-0.011462,"1504":0.005033,"1505":0.01317,"1506":-0.013848,"1507":-0.000375,"1508":-0.005113,"1509":-0.002976,"1510":0.008882,"1511":0.001457,"1512":0.004417,"1513":-0.002098,"1514":-0.008483,"1515":-0.008756,"1516":-0.00362,"1517":-0.006788,"1518":-0.007067,"1519":-0.006057,"1520":0.013337,"1521":-0.004197,"1522":-0.001029,"1523":0.009309,"1524":0.004596,"1525":-0.001619,"1526":0.004253,"1527":-0.008497,"1528":-0.0013,"1529":0.002483,"1530":-0.009051,"1531":0.002297,"1532":-0.008121,"1533":-0.003787,"1534":-0.002169,"1535":-0.002623,"1536":-0.002702,"1537":0.003963,"1538":0.0075,"1539":-0.003928,"1540":-0.006316,"1541":-0.009506,"1542":0.004574,"1543":-0.001878,"1544":0.007024,"1545":-0.00507,"1546":0.008931,"1547":0.008574,"1548":-0.006656,"1549":-0.012951,"1550":0.010377,"1551":-0.002303,"1552":0.004439,"1553":-0.007691,"1554":-0.001963,"1555":0.001217,"1556":-0.007926,"1557":-0.00416,"1558":-0.010167,"1559":0.00063,"1560":-0.010314,"1561":0.009423,"1562":-0.003388,"1563":0.000543,"1564":-0.013757,"1565":0.001355,"1566":-0.002134,"1567":0.01038,"1568":-0.00068,"1569":-0.002731,"1570":-0.001893,"1571":-0.011151,"1572":-0.00869,"1573":-0.017675,"1574":0.003467,"1575":-0.004353,"1576":-0.014658,"1577":0.002068,"1578":-0.008133,"1579":-0.001665,"1580":-0.000027,"1581":-0.011706,"1582":-0.00234,"1583":-0.001259,"1584":0.001021,"1585":0.008049,"1586":0.002486,"1587":-0.01308,"1588":-0.002214,"1589":-0.004836,"1590":-0.012484,"1591":-0.00405,"1592":-0.001306,"1593":0.004003,"1594":0.005976,"1595":-0.006313,"1596":-0.000062,"1597":-0.004754,"1598":-0.003786,"1599":0.000864,"1600":-0.004877,"1601":0.001452,"1602":0.011742,"1603":0.000293,"1604":0.003466,"1605":-0.002669,"1606":-0.006516,"1607":-0.008674,"1608":-0.002626,"1609":0.001209,"1610":-0.004978,"1611":0.014266,"1612":-0.006466,"1613":-0.000623,"1614":-0.004945,"1615":-0.000728,"1616":0.003621,"1617":0.001353,"1618":0.01134,"1619":0.012014,"1620":0.012754,"1621":-0.0095,"1622":0.005997,"1623":-0.000413,"1624":0.011053,"1625":-0.008922,"1626":-0.010864,"1627":0.003347,"1628":0.001493,"1629":-0.00715,"1630":-0.004316,"1631":0.001616,"1632":-0.012163,"1633":0.00643,"1634":-0.001303,"1635":0.002802,"1636":0.005818,"1637":-0.015783,"1638":0.011042,"1639":-0.004123,"1640":-0.001932,"1641":0.010645,"1642":-0.005076,"1643":0.010376,"1644":-0.00639,"1645":-0.004677,"1646":-0.006423,"1647":-0.005734,"1648":0.003226,"1649":-0.000665,"1650":-0.010851,"1651":0.01784,"1652":-0.002274,"1653":-0.002776,"1654":-0.002139,"1655":-0.003849,"1656":0.005139,"1657":-0.003976,"1658":0.004166,"1659":0.00819,"1660":-0.004593,"1661":-0.001304,"1662":0.006477,"1663":0.008997,"1664":-0.003605,"1665":0.009091,"1666":-0.00217,"1667":-0.00512,"1668":0.001325,"1669":-0.009951,"1670":0.003013,"1671":-0.004372,"1672":-0.001291,"1673":0.003234,"1674":-0.002759,"1675":0.009512,"1676":-0.002907,"1677":-0.010545,"1678":0.006502,"1679":-0.005472,"1680":0.002954,"1681":-0.002481,"1682":-0.006886,"1683":0.012674,"1684":-0.009578,"1685":0.000633,"1686":-0.000668,"1687":0.004301,"1688":-0.007133,"1689":0.003451,"1690":-0.006098,"1691":0.011528,"1692":0.001644,"1693":-0.011034,"1694":-0.006469,"1695":-0.007699,"1696":0.004507,"1697":-0.007272,"1698":0.003688,"1699":-0.000727,"1700":0.007093,"1701":-0.004665,"1702":-0.00907,"1703":0.000749,"1704":0.00697,"1705":0.007042,"1706":-0.010025,"1707":0.015408,"1708":-0.005721,"1709":-0.011914,"1710":-0.000498,"1711":-0.004969,"1712":0.000896,"1713":-0.00131,"1714":-0.000941,"1715":-0.000199,"1716":-0.013528,"1717":0.007513,"1718":-0.006119,"1719":-0.000265,"1720":-0.008633,"1721":-0.006777,"1722":-0.000946,"1723":-0.000758,"1724":-0.00274,"1725":-0.010035,"1726":-0.007472,"1727":-0.002436,"1728":0.009149,"1729":-0.005105,"1730":0.002497,"1731":0.000716,"1732":0.006363,"1733":-0.00363,"1734":-0.002609,"1735":-0.00281,"1736":-0.001338,"1737":-0.005192,"1738":0.001682,"1739":0.012763,"1740":-0.004156,"1741":-0.007239,"1742":0.002465,"1743":0.007012,"1744":0.002591,"1745":0.002685,"1746":-0.012657,"1747":-0.005906,"1748":-0.003289,"1749":0.00271,"1750":0.005178,"1751":-0.001481,"1752":-0.011141,"1753":-0.012151,"1754":0.004096,"1755":0.001807,"1756":0.001791,"1757":0.002121,"1758":-0.00971,"1759":-0.001745,"1760":0.002701,"1761":0.005066,"1762":0.00116,"1763":0.005684,"1764":-0.004273,"1765":-0.010865,"1766":0.009636,"1767":-0.009291,"1768":-0.005742,"1769":-0.001032,"1770":-0.002296,"1771":0.00206,"1772":0.000587,"1773":-0.010103,"1774":0.004258,"1775":-0.005124,"1776":0.005852,"1777":-0.007668,"1778":0.000947,"1779":-0.000984,"1780":-0.004298,"1781":-0.007787,"1782":0.006795,"1783":-0.00845,"1784":-0.007732,"1785":-0.009377,"1786":-0.012264,"1787":0.003778,"1788":0.00282,"1789":-0.008205,"1790":-0.003685,"1791":-0.00592,"1792":-0.004217,"1793":0.000966,"1794":0.006697,"1795":-0.005422,"1796":-0.005732,"1797":-0.001573,"1798":-0.005219,"1799":0.000025,"1800":-0.002938,"1801":0.010185,"1802":0.010181,"1803":0.003926,"1804":-0.013041,"1805":0.006879,"1806":0.00132,"1807":0.000323,"1808":0.008797,"1809":-0.010396,"1810":-0.001993,"1811":-0.011599,"1812":-0.000182,"1813":-0.011311,"1814":-0.000839,"1815":-0.002996,"1816":-0.007548,"1817":-0.011934,"1818":-0.006258,"1819":0.012984,"1820":0.009525,"1821":0.004869,"1822":-0.005025,"1823":-0.008163,"1824":-0.000454,"1825":-0.008295,"1826":0.000509,"1827":0.003451,"1828":0.010321,"1829":-0.005748,"1830":-0.001591,"1831":0.014756,"1832":0.005442,"1833":0.004197,"1834":0.007088,"1835":0.005866,"1836":-0.004782,"1837":0.000854,"1838":0.000426,"1839":0.010346,"1840":-0.009866,"1841":-0.004909,"1842":0.004535,"1843":0.004235,"1844":-0.003183,"1845":-0.004502,"1846":-0.007171,"1847":-0.002953,"1848":-0.012045,"1849":-0.005145,"1850":0.008104,"1851":0.001053,"1852":0.003551,"1853":-0.011012,"1854":0.007365,"1855":0.007982,"1856":-0.003402,"1857":-0.001859,"1858":-0.006323,"1859":0.012497,"1860":-0.003155,"1861":0.000705,"1862":0.00544,"1863":0.01373,"1864":-0.006229,"1865":-0.011852,"1866":-0.00429,"1867":0.009255,"1868":-0.002006,"1869":-0.011063,"1870":0.012141,"1871":-0.001001,"1872":-0.006011,"1873":-0.014498,"1874":0.000341,"1875":-0.000692,"1876":0.00414,"1877":-0.014229,"1878":0.005353,"1879":0.000465,"1880":-0.006314,"1881":-0.017652,"1882":-0.002011,"1883":0.003955,"1884":0.012412,"1885":0.021913,"1886":0.000111,"1887":0.005232,"1888":0.006117,"1889":0.004874,"1890":0.001779,"1891":-0.005947,"1892":-0.008963,"1893":-0.004319,"1894":-0.003238,"1895":0.010844,"1896":0.015837,"1897":0.00683,"1898":0.00704,"1899":0.0049,"1900":-0.000298,"1901":-0.002503,"1902":0.00077,"1903":-0.011877,"1904":0.00349,"1905":-0.001054,"1906":0.002016,"1907":0.004646,"1908":0.004391,"1909":-0.007746,"1910":-0.000137,"1911":-0.005699,"1912":0.000827,"1913":0.005163,"1914":-0.006311,"1915":0.008072,"1916":0.006523,"1917":-0.001614,"1918":0.002099,"1919":0.002197,"1920":-0.010514,"1921":-0.008574,"1922":0.001667,"1923":0.006028,"1924":0.007907,"1925":-0.002853,"1926":-0.002288,"1927":0.000064,"1928":0.003182,"1929":-0.001412,"1930":-0.001077,"1931":0.001449,"1932":-0.000778,"1933":-0.006641,"1934":0.003435,"1935":0.009523,"1936":-0.001081,"1937":-0.007603,"1938":0.004977,"1939":0.00247,"1940":0.00314,"1941":0.002352,"1942":0.000499,"1943":0.004904,"1944":-0.008852,"1945":0.001419,"1946":-0.001053,"1947":-0.000388,"1948":-0.019654,"1949":-0.005863,"1950":0.003612,"1951":-0.004345,"1952":-0.00507,"1953":-0.003144,"1954":-0.002961,"1955":0.010222,"1956":-0.008759,"1957":-0.003922,"1958":0.006286,"1959":-0.004865,"1960":-0.00293,"1961":0.003197,"1962":-0.008699,"1963":0.010529,"1964":-0.008193,"1965":0.003356,"1966":-0.001555,"1967":0.000696,"1968":0.001794,"1969":-0.004152,"1970":-0.00072,"1971":-0.002411,"1972":-0.000587,"1973":0.006964,"1974":0.002556,"1975":0.000237,"1976":-0.005366,"1977":-0.004678,"1978":-0.001424,"1979":0.009585,"1980":0.003536,"1981":0.004936,"1982":-0.01013,"1983":0.010803,"1984":0.003782,"1985":0.002983,"1986":0.008521,"1987":0.008796,"1988":0.002647,"1989":-0.001912,"1990":-0.005916,"1991":0.01457,"1992":0.004894,"1993":-0.001264,"1994":-0.014425,"1995":0.015768,"1996":-0.008469,"1997":-0.007808,"1998":0.007676,"1999":-0.00644,"2000":-0.001418,"2001":0.002669,"2002":-0.015293,"2003":-0.002597,"2004":-0.001705,"2005":-0.010392,"2006":0.006638,"2007":-0.006639,"2008":-0.001581,"2009":-0.004604,"2010":0.004317,"2011":0.007063,"2012":-0.000653,"2013":-0.007574,"2014":0.006997,"2015":0.000631,"2016":0.004333,"2017":-0.014565,"2018":0.003459,"2019":0.002636,"2020":0.004014,"2021":-0.007818,"2022":-0.003306,"2023":0.002962,"2024":-0.004684,"2025":-0.013289,"2026":-0.00834,"2027":0.000035,"2028":0.006299,"2029":-0.00118,"2030":-0.000497,"2031":-0.007935,"2032":0.01359,"2033":-0.008998,"2034":-0.000965,"2035":0.003563,"2036":-0.002732,"2037":-0.000726,"2038":-0.000993,"2039":-0.010441,"2040":0.008614,"2041":0.007427,"2042":-0.005402,"2043":0.002854,"2044":0.001107,"2045":-0.002737,"2046":-0.003508,"2047":-0.002889,"2048":-0.002323,"2049":0.004765,"2050":0.00649,"2051":0.000401,"2052":-0.013471,"2053":-0.02217,"2054":-0.01074,"2055":0.00175,"2056":-0.009655,"2057":-0.006968,"2058":0.002234,"2059":0.011966,"2060":-0.009394,"2061":-0.00314,"2062":-0.000667,"2063":-0.014422,"2064":0.005845,"2065":-0.006524,"2066":0.001513,"2067":-0.006223,"2068":0.009606,"2069":-0.003691,"2070":-0.007056,"2071":0.00718,"2072":-0.007565,"2073":0.010435,"2074":-0.001514,"2075":0.010752,"2076":0.004354,"2077":-0.003768,"2078":-0.009879,"2079":-0.004156,"2080":0.009353,"2081":-0.001364,"2082":-0.001391,"2083":-0.001867,"2084":0.00241,"2085":-0.01019,"2086":0.008395,"2087":-0.005283,"2088":0.008722,"2089":0.000334,"2090":0.001716,"2091":-0.00072,"2092":0.00412,"2093":-0.013815,"2094":-0.006148,"2095":-0.016401,"2096":-0.008421,"2097":0.000658,"2098":-0.012611,"2099":0.010392,"2100":-0.011605,"2101":0.000336,"2102":-0.002465,"2103":0.003628,"2104":0.008527,"2105":-0.00017,"2106":-0.009179,"2107":0.006213,"2108":-0.004377,"2109":0.004594,"2110":-0.011115,"2111":0.004564,"2112":0.002945,"2113":-0.00232,"2114":-0.006738,"2115":0.001493,"2116":-0.005708,"2117":-0.000194,"2118":-0.004729,"2119":-0.006936,"2120":-0.006311,"2121":-0.006626,"2122":-0.001553,"2123":0.000122,"2124":-0.00256,"2125":-0.016796,"2126":-0.000326,"2127":-0.011301,"2128":-0.00537,"2129":-0.005311,"2130":-0.000703,"2131":0.006967,"2132":-0.002336,"2133":-0.003096,"2134":-0.001977,"2135":-0.014798,"2136":-0.002824,"2137":-0.002602,"2138":0.003456,"2139":-0.001536,"2140":0.004444,"2141":-0.008034,"2142":0.003264,"2143":0.002636,"2144":0.000937,"2145":-0.003953,"2146":-0.004816,"2147":0.000201,"2148":-0.000201,"2149":-0.001852,"2150":-0.001118,"2151":-0.008749,"2152":-0.005939,"2153":-0.000191,"2154":0.009163,"2155":0.008935,"2156":-0.006013,"2157":-0.003803,"2158":-0.003405,"2159":-0.002014,"2160":0.004164,"2161":-0.010705,"2162":-0.004266,"2163":0.013379,"2164":0.006067,"2165":-0.013358,"2166":-0.007366,"2167":-0.010997,"2168":-0.001498,"2169":0.002407,"2170":0.004951,"2171":0.001217,"2172":-0.005941,"2173":-0.002509,"2174":0.010024,"2175":0.004504,"2176":0.001796,"2177":-0.000207,"2178":-0.011485,"2179":0.004475,"2180":0.001914,"2181":-0.008627,"2182":-0.000584,"2183":0.004284,"2184":-0.003072,"2185":-0.003061,"2186":0.006687,"2187":0.010504,"2188":0.010743,"2189":0.005316,"2190":-0.014086,"2191":-0.0006,"2192":0.004756,"2193":0.003705,"2194":-0.012851,"2195":0.014011,"2196":-0.013129,"2197":-0.010332,"2198":0.006158,"2199":0.000045,"2200":-0.003297,"2201":-0.006684,"2202":-0.007915,"2203":-0.000715,"2204":0.005692,"2205":0.001744,"2206":-0.001052,"2207":-0.006272,"2208":0.019361,"2209":0.000417,"2210":-0.011,"2211":0.006828,"2212":-0.00889,"2213":-0.004989,"2214":-0.007144,"2215":-0.000098,"2216":0.000828,"2217":-0.012448,"2218":-0.004789,"2219":-0.008102,"2220":-0.008094,"2221":0.000728,"2222":-0.000274,"2223":-0.004719,"2224":-0.008166,"2225":-0.013631,"2226":0.004311,"2227":-0.005727,"2228":-0.008936,"2229":-0.005193,"2230":-0.004839,"2231":0.00685,"2232":-0.010596,"2233":-0.004032,"2234":-0.003889,"2235":0.005604,"2236":-0.004522,"2237":-0.015852,"2238":0.002575,"2239":0.005131,"2240":-0.016792,"2241":0.002882,"2242":-0.013247,"2243":0.011619,"2244":-0.002522,"2245":-0.020318,"2246":-0.002558,"2247":-0.002206,"2248":-0.000577,"2249":0.001639,"2250":0.001153,"2251":0.012324,"2252":0.00062,"2253":-0.008705,"2254":0.004792,"2255":-0.001453,"2256":0.003082,"2257":0.001678,"2258":0.013224,"2259":0.010987,"2260":0.004917,"2261":-0.005858,"2262":-0.012585,"2263":0.006922,"2264":0.004447,"2265":0.006574,"2266":-0.007631,"2267":0.017012,"2268":-0.01509,"2269":-0.014127,"2270":0.007388,"2271":-0.01573,"2272":-0.003773,"2273":0.013363,"2274":0.00093,"2275":0.012629,"2276":0.008721,"2277":-0.015156,"2278":0.004917,"2279":-0.000574,"2280":-0.006044,"2281":0.00701,"2282":0.001121,"2283":0.003266,"2284":0.00815,"2285":-0.015151,"2286":-0.004887,"2287":-0.005025,"2288":-0.004921,"2289":-0.006541,"2290":0.001505,"2291":0.000323,"2292":0.007464,"2293":0.005948,"2294":-0.002415,"2295":0.01017,"2296":0.003406,"2297":-0.00491,"2298":0.000476,"2299":0.010219,"2300":-0.000059,"2301":-0.003377,"2302":-0.00168,"2303":-0.001214,"2304":-0.003518,"2305":0.01119,"2306":0.00416,"2307":0.008697,"2308":-0.009607,"2309":-0.016498,"2310":0.002934,"2311":-0.001342,"2312":0.000388,"2313":0.002436,"2314":0.003141,"2315":0.010157,"2316":-0.008903,"2317":0.000752,"2318":-0.000607,"2319":-0.006454,"2320":-0.002514,"2321":0.016126,"2322":-0.011221,"2323":-0.007128,"2324":-0.006251,"2325":-0.012814,"2326":0.000417,"2327":0.004938,"2328":-0.004792,"2329":-0.000216,"2330":-0.007592,"2331":0.005136,"2332":0.006895,"2333":-0.009286,"2334":0.000523,"2335":0.005218,"2336":-0.005632,"2337":-0.007428,"2338":0.003594,"2339":-0.004529,"2340":0.000445,"2341":-0.002913,"2342":-0.003502,"2343":0.002637,"2344":0.005817,"2345":0.003273,"2346":-0.005153,"2347":-0.013838,"2348":-0.013908,"2349":-0.009978,"2350":-0.009243,"2351":-0.006667,"2352":-0.001543,"2353":0.006335,"2354":-0.009246,"2355":0.017395,"2356":-0.001948,"2357":-0.007533,"2358":0.006032,"2359":0.000356,"2360":0.006352,"2361":0.000518,"2362":-0.005994,"2363":0.006299,"2364":-0.007323,"2365":-0.009193,"2366":0.000869,"2367":-0.006798,"2368":-0.004327,"2369":-0.000599,"2370":-0.005325,"2371":-0.000691,"2372":0.003542,"2373":-0.014738,"2374":-0.007891,"2375":0.006765,"2376":0.002068,"2377":-0.002979,"2378":-0.003563,"2379":0.005707,"2380":-0.000196,"2381":-0.005687,"2382":-0.009153,"2383":0.002109,"2384":-0.004294,"2385":0.00232,"2386":-0.011753,"2387":0.004658,"2388":0.006653,"2389":-0.010051,"2390":-0.009533,"2391":-0.005277,"2392":-0.009906,"2393":0.002712,"2394":-0.004676,"2395":0.006229,"2396":0.003154,"2397":-0.01411,"2398":0.001446,"2399":-0.002304,"2400":0.002967,"2401":-0.01302,"2402":0.011358,"2403":0.000804,"2404":0.007513,"2405":-0.008781,"2406":-0.007137,"2407":-0.013627,"2408":0.001152,"2409":0.001829,"2410":-0.011536,"2411":-0.009103,"2412":-0.012444,"2413":0.006926,"2414":-0.003217,"2415":0.003585,"2416":0.003726,"2417":-0.003119,"2418":-0.010033,"2419":-0.000277,"2420":-0.003312,"2421":0.002153,"2422":0.001844,"2423":0.004234,"2424":-0.010565,"2425":-0.015447,"2426":-0.000469,"2427":0.015441,"2428":-0.011074,"2429":-0.003393,"2430":0.010747,"2431":0.005066,"2432":0.012085,"2433":-0.011416,"2434":-0.003825,"2435":0.01648,"2436":0.009953,"2437":0.002568,"2438":-0.01234,"2439":-0.0055,"2440":-0.004662,"2441":-0.008275,"2442":0.006033,"2443":0.005016,"2444":-0.008133,"2445":0.00371,"2446":0.002654,"2447":0.002348,"2448":0.000446,"2449":-0.001763,"2450":-0.008808,"2451":-0.006537,"2452":0.010109,"2453":0.001049,"2454":0.001006,"2455":-0.008777,"2456":-0.008144,"2457":-0.012262,"2458":-0.000099,"2459":0.007541,"2460":0.016592,"2461":-0.004463,"2462":-0.001391,"2463":-0.010246,"2464":0.003575,"2465":0.003464,"2466":-0.006155,"2467":0.007599,"2468":0.00372,"2469":-0.012037,"2470":0.003187,"2471":-0.003099,"2472":0.004565,"2473":-0.016272,"2474":0.004234,"2475":0.009381,"2476":0.00297,"2477":-0.001568,"2478":-0.013023,"2479":-0.008549,"2480":-0.002868,"2481":0.005305,"2482":-0.003731,"2483":0.001315,"2484":-0.007534,"2485":-0.012599,"2486":0.002693,"2487":0.010878,"2488":0.002963,"2489":0.001067,"2490":-0.007092,"2491":-0.001042,"2492":0.001848,"2493":-0.011259,"2494":0.006664,"2495":-0.001612,"2496":-0.003047,"2497":-0.006167,"2498":-0.001109,"2499":0.01206,"2500":-0.010593,"2501":0.008482,"2502":-0.004541,"2503":0.003919,"2504":-0.002562,"2505":0.000695,"2506":-0.005149,"2507":-0.00006,"2508":0.001669,"2509":-0.007374,"2510":-0.019548,"2511":-0.00826,"2512":-0.003276,"2513":0.01211,"2514":0.00012,"2515":0.003752,"2516":0.010735,"2517":0.009241,"2518":-0.015029,"2519":-0.011671,"2520":-0.013726,"2521":-0.005972,"2522":-0.000571,"2523":-0.002301,"2524":-0.009986,"2525":-0.01989,"2526":-0.006151,"2527":0.00094,"2528":0.002892,"2529":-0.008513,"2530":-0.005484,"2531":0.005581,"2532":-0.003827,"2533":-0.013568,"2534":0.001783,"2535":0.021114,"2536":0.003439,"2537":-0.006963,"2538":-0.001885,"2539":-0.009944,"2540":0.012146,"2541":-0.003277,"2542":-0.003012,"2543":0.002016,"2544":-0.000523,"2545":0.001755,"2546":0.002604,"2547":-0.000954,"2548":-0.019153,"2549":-0.012958,"2550":0.003162,"2551":0.002155,"2552":-0.000587,"2553":-0.004881,"2554":-0.007933,"2555":-0.003544,"2556":0.000545,"2557":-0.001434,"2558":0.008889,"2559":-0.003127,"2560":-0.003451,"2561":-0.007463,"2562":-0.012925,"2563":0.006794,"2564":-0.001781,"2565":-0.011027,"2566":-0.005402,"2567":0.00582,"2568":-0.006129,"2569":0.01453,"2570":-0.000608,"2571":0.014769,"2572":0.000521,"2573":-0.005348,"2574":-0.001607,"2575":-0.002041,"2576":0.00535,"2577":0.008148,"2578":0.004789,"2579":-0.001532,"2580":0.014525,"2581":-0.014896,"2582":-0.020065,"2583":-0.002263,"2584":0.012718,"2585":-0.001484,"2586":0.00653,"2587":-0.00626,"2588":-0.002101,"2589":0.004348,"2590":0.00201,"2591":0.004426,"2592":0.001197,"2593":0.000971,"2594":-0.008099,"2595":0.005679,"2596":0.021197,"2597":-0.009703,"2598":0.004881,"2599":0.006185,"2600":0.010933,"2601":-0.00397,"2602":-0.005821,"2603":0.009185,"2604":-0.000368,"2605":-0.004132,"2606":0.003535,"2607":0.002123,"2608":-0.009307,"2609":-0.00242,"2610":-0.004781,"2611":-0.000665,"2612":-0.00263,"2613":-0.00309,"2614":0.000538,"2615":-0.005754,"2616":-0.002249,"2617":-0.003169,"2618":0.006363,"2619":0.02357,"2620":-0.006998,"2621":-0.003285,"2622":-0.005159,"2623":-0.006022,"2624":-0.002523,"2625":-0.000161,"2626":-0.007352,"2627":-0.00156,"2628":0.000767,"2629":-0.00975,"2630":0.001717,"2631":-0.009467,"2632":0.002901,"2633":0.006392,"2634":0.005428,"2635":-0.00067,"2636":0.000441,"2637":-0.002151,"2638":-0.000498,"2639":-0.004165,"2640":0.000831,"2641":0.008839,"2642":-0.007014,"2643":0.008051,"2644":0.000003,"2645":-0.006588,"2646":0.006979,"2647":-0.005509,"2648":0.00261,"2649":-0.008161,"2650":0.005289,"2651":0.005938,"2652":-0.002159,"2653":-0.016309,"2654":0.009736,"2655":-0.00488,"2656":-0.012399,"2657":0.007921,"2658":0.010802,"2659":0.011661,"2660":-0.007407,"2661":-0.005231,"2662":0.000642,"2663":0.004445,"2664":-0.008533,"2665":-0.00428,"2666":0.007463,"2667":0.003927,"2668":-0.009558,"2669":-0.003563,"2670":0.0049,"2671":-0.004253,"2672":0.000862,"2673":0.002163,"2674":0.000565,"2675":0.007583,"2676":-0.001027,"2677":0.00126,"2678":-0.000917,"2679":-0.005609,"2680":0.000999,"2681":0.00856,"2682":0.005306,"2683":-0.002962,"2684":0.000233,"2685":-0.017649,"2686":0.011449,"2687":-0.011236,"2688":-0.006909,"2689":0.003475,"2690":0.010521,"2691":-0.003931,"2692":-0.007468,"2693":-0.005678,"2694":0.002872,"2695":-0.001796,"2696":-0.002016,"2697":-0.009705,"2698":0.003721,"2699":0.014656,"2700":-0.001866,"2701":-0.011995,"2702":0.005007,"2703":0.001563,"2704":0.003511,"2705":-0.003035,"2706":-0.005586,"2707":0.007272,"2708":-0.01983,"2709":-0.007149,"2710":-0.013979,"2711":-0.01338,"2712":-0.00936,"2713":-0.00528,"2714":0.018885,"2715":0.001827,"2716":-0.003004,"2717":-0.006912,"2718":0.010574,"2719":-0.002855,"2720":-0.010461,"2721":-0.005854,"2722":-0.006471,"2723":0.011512,"2724":0.004188,"2725":0.004614,"2726":-0.010146,"2727":-0.003372,"2728":-0.008146,"2729":-0.017413,"2730":0.004836,"2731":-0.001565,"2732":0.007695,"2733":-0.0094,"2734":-0.000916,"2735":-0.01193,"2736":-0.01455,"2737":-0.014619,"2738":-0.003052,"2739":0.000989,"2740":-0.012004,"2741":-0.017387,"2742":-0.016899,"2743":-0.001735,"2744":-0.003552,"2745":-0.000417,"2746":-0.007954,"2747":0.014557,"2748":0.009194,"2749":-0.009019,"2750":-0.002833,"2751":0.014633,"2752":0.004723,"2753":0.0144,"2754":-0.012115,"2755":0.009064,"2756":-0.010701,"2757":-0.005497,"2758":-0.017109,"2759":0.00071,"2760":0.002731,"2761":-0.004852,"2762":0.007347,"2763":0.01077,"2764":-0.007566,"2765":-0.011663,"2766":0.002861,"2767":0.009213,"2768":0.000585,"2769":-0.00277,"2770":-0.007266,"2771":0.006993,"2772":0.000282,"2773":-0.013466,"2774":-0.000226,"2775":-0.002655,"2776":0.011052,"2777":0.003069,"2778":-0.000671,"2779":0.001034,"2780":-0.002016,"2781":-0.001198,"2782":0.003717,"2783":-0.002022,"2784":-0.006144,"2785":0.003386,"2786":0.013449,"2787":0.005693,"2788":-0.005805,"2789":0.005456,"2790":0.002079,"2791":-0.011681,"2792":0.005836,"2793":-0.003791,"2794":-0.010732,"2795":0.008976,"2796":0.004342,"2797":0.004157,"2798":-0.002944,"2799":-0.0065,"2800":-0.001251,"2801":0.001465,"2802":-0.005509,"2803":-0.00926,"2804":0.001752,"2805":0.007391,"2806":0.000752,"2807":-0.002032,"2808":-0.002068,"2809":0.000427,"2810":-0.002795,"2811":0.012724,"2812":0.009925,"2813":-0.01545,"2814":-0.007358,"2815":0.007762,"2816":0.003021,"2817":-0.001744,"2818":0.012261,"2819":-0.004418,"2820":0.002238,"2821":-0.002452,"2822":-0.008304,"2823":-0.001363,"2824":0.003562,"2825":0.00747,"2826":-0.005301,"2827":0.013279,"2828":0.011429,"2829":0.001436,"2830":0.003321,"2831":0.002062,"2832":0.003237,"2833":-0.01041,"2834":-0.0104,"2835":0.002131,"2836":-0.012148,"2837":-0.004567,"2838":-0.004014,"2839":-0.010867,"2840":-0.003329,"2841":0.009797,"2842":0.015794,"2843":-0.000774,"2844":-0.000659,"2845":-0.000158,"2846":-0.001263,"2847":-0.009788,"2848":0.00426,"2849":0.000799,"2850":0.003168,"2851":-0.003897,"2852":-0.003153,"2853":-0.013321,"2854":-0.004481,"2855":-0.007592,"2856":-0.011857,"2857":-0.004048,"2858":-0.00983,"2859":0.004795,"2860":0.000594,"2861":-0.009948,"2862":0.007237,"2863":-0.001494,"2864":0.003997,"2865":-0.008362,"2866":0.004323,"2867":0.003449,"2868":0.016819,"2869":-0.004674,"2870":-0.003184,"2871":0.020872,"2872":0.00615,"2873":0.003452,"2874":-0.012679,"2875":0.00141,"2876":-0.001787,"2877":-0.00103,"2878":0.008342,"2879":-0.024598,"2880":-0.007147,"2881":-0.005279,"2882":0.000007,"2883":0.002399,"2884":0.009878,"2885":-0.007882,"2886":0.003444,"2887":-0.004925,"2888":0.009379,"2889":0.005371,"2890":-0.00779,"2891":0.003492,"2892":0.008828,"2893":-0.002555,"2894":0.005236,"2895":0.010334,"2896":0.001266,"2897":0.002191,"2898":0.001337,"2899":-0.002465,"2900":-0.000559,"2901":-0.019441,"2902":0.005165,"2903":0.000617,"2904":-0.005201,"2905":-0.010667,"2906":-0.011061,"2907":0.010847,"2908":-0.003509,"2909":0.00662,"2910":-0.007667,"2911":-0.003086,"2912":0.000405,"2913":-0.010272,"2914":0.004006,"2915":-0.003638,"2916":0.006697,"2917":0.004438,"2918":-0.019768,"2919":0.003461,"2920":-0.003817,"2921":-0.001137,"2922":-0.004656,"2923":0.005637,"2924":-0.000278,"2925":-0.003786,"2926":-0.004068,"2927":0.013018,"2928":0.00125,"2929":0.004359,"2930":-0.008635,"2931":0.001664,"2932":0.00392,"2933":-0.011983,"2934":-0.003772,"2935":-0.001296,"2936":0.004594,"2937":-0.003103,"2938":0.005992,"2939":0.005177,"2940":-0.001904,"2941":0.005559,"2942":0.001801,"2943":0.000788,"2944":-0.007412,"2945":0.011988,"2946":-0.002717,"2947":0.000598,"2948":0.005295,"2949":-0.010413,"2950":-0.012064,"2951":-0.013998,"2952":-0.002513,"2953":0.002725,"2954":-0.002658,"2955":-0.006042,"2956":0.010758,"2957":-0.014572,"2958":-0.010118,"2959":0.0028,"2960":-0.016029,"2961":-0.007828,"2962":-0.002691,"2963":0.003536,"2964":0.003013,"2965":-0.018932,"2966":-0.012747,"2967":0.007556,"2968":-0.004931,"2969":-0.009167,"2970":-0.011357,"2971":0.007758,"2972":-0.008909,"2973":0.001566,"2974":0.010851,"2975":0.001676,"2976":0.007545,"2977":-0.003977,"2978":-0.005114,"2979":0.012596,"2980":0.00081,"2981":-0.006911,"2982":-0.0162,"2983":-0.011185,"2984":0.013587,"2985":-0.007259,"2986":-0.002809,"2987":0.006388,"2988":0.004581,"2989":0.006246,"2990":-0.000889,"2991":-0.00862,"2992":-0.006021,"2993":-0.006121,"2994":0.00523,"2995":-0.004272,"2996":-0.00311,"2997":-0.014877,"2998":0.002096,"2999":0.001474,"3000":0.003179,"3001":-0.008816,"3002":-0.008521,"3003":0.011632,"3004":-0.008819,"3005":0.004639,"3006":0.002593,"3007":0.008865,"3008":0.003142,"3009":-0.003425,"3010":0.005322,"3011":0.017174,"3012":0.005271,"3013":-0.010049,"3014":0.002318,"3015":-0.009992,"3016":-0.003049,"3017":0.004652,"3018":-0.0074,"3019":0.005473,"3020":0.007199,"3021":-0.010124,"3022":0.006559,"3023":0.001904,"3024":-0.001295,"3025":0.004184,"3026":-0.006198,"3027":0.001252,"3028":-0.010791,"3029":-0.000291,"3030":0.003463,"3031":0.01288,"3032":0.008608,"3033":0.003842,"3034":0.001455,"3035":0.006066,"3036":0.007637,"3037":-0.005887,"3038":-0.01336,"3039":-0.00576,"3040":-0.007338,"3041":-0.009417,"3042":-0.001755,"3043":0.004815,"3044":-0.003525,"3045":-0.003686,"3046":-0.00366,"3047":-0.000608,"3048":0.000063,"3049":-0.003985,"3050":0.002569,"3051":0.012693,"3052":0.008679,"3053":-0.002978,"3054":-0.001583,"3055":0.001126,"3056":0.0157,"3057":0.00509,"3058":-0.003357,"3059":0.002936,"3060":-0.006047,"3061":-0.009174,"3062":0.000331,"3063":-0.002894,"3064":0.006606,"3065":-0.002064,"3066":-0.001562,"3067":0.00419,"3068":0.000899,"3069":-0.005524,"3070":0.007286,"3071":0.001415,"3072":0.00875,"3073":0.000715,"3074":0.002055,"3075":0.003986,"3076":-0.006062,"3077":-0.003103,"3078":0.004524,"3079":-0.005373,"3080":-0.002388,"3081":-0.009048,"3082":-0.005961,"3083":-0.002211,"3084":0.012854,"3085":-0.005675,"3086":-0.002892,"3087":0.006927,"3088":0.005427,"3089":0.001933,"3090":0.00065,"3091":0.013043,"3092":0.00002,"3093":-0.003046,"3094":-0.006701,"3095":-0.003672,"3096":-0.006235,"3097":-0.006617,"3098":-0.000402,"3099":0.015195,"3100":-0.000295,"3101":-0.010855,"3102":0.006943,"3103":-0.00497,"3104":-0.004353,"3105":-0.002091,"3106":-0.006733,"3107":0.010907,"3108":-0.012509,"3109":-0.000217,"3110":-0.001813,"3111":0.003799,"3112":-0.002355,"3113":-0.007039,"3114":-0.000195,"3115":-0.000981,"3116":0.006784,"3117":0.00619,"3118":-0.006494,"3119":-0.002196,"3120":-0.001494,"3121":-0.009532,"3122":0.003136,"3123":-0.005041,"3124":-0.001876,"3125":-0.00322,"3126":0.004647,"3127":-0.002414,"3128":-0.014595,"3129":0.006741,"3130":-0.007438,"3131":-0.007416,"3132":-0.00623,"3133":-0.002377,"3134":-0.004688,"3135":0.009079,"3136":-0.012804,"3137":-0.00827,"3138":0.004675,"3139":0.000825,"3140":-0.008083,"3141":0.009596,"3142":-0.012869,"3143":-0.010017,"3144":-0.011064,"3145":0.001392,"3146":0.001873,"3147":0.007965,"3148":-0.002725,"3149":-0.011614,"3150":0.001161,"3151":-0.002172,"3152":-0.018735,"3153":-0.007877,"3154":-0.009254,"3155":0.006101,"3156":-0.010775,"3157":-0.006464,"3158":-0.002474,"3159":-0.006772,"3160":0.005893,"3161":-0.006514,"3162":0.004774,"3163":0.005112,"3164":-0.000638,"3165":-0.01987,"3166":-0.00177,"3167":-0.000472,"3168":-0.006105,"3169":0.002737,"3170":-0.004514,"3171":0.004641,"3172":-0.002252,"3173":-0.00842,"3174":-0.002779,"3175":0.006717,"3176":0.002997,"3177":-0.000491,"3178":-0.008023,"3179":0.000076,"3180":-0.009232,"3181":-0.003492,"3182":0.006434,"3183":0.001473,"3184":0.011085,"3185":0.004931,"3186":-0.002768,"3187":0.00736,"3188":-0.001411,"3189":-0.004417,"3190":0.008856,"3191":0.001638,"3192":0.01961,"3193":-0.001633,"3194":-0.005671,"3195":0.00029,"3196":-0.007215,"3197":-0.001222,"3198":0.000481,"3199":0.000924,"3200":-0.009031,"3201":-0.00189,"3202":-0.00807,"3203":-0.008185,"3204":-0.000336,"3205":-0.007204,"3206":-0.000165,"3207":0.005899,"3208":-0.00784,"3209":-0.000995,"3210":-0.008459,"3211":-0.004412,"3212":0.006404,"3213":-0.00164,"3214":-0.015043,"3215":-0.007667,"3216":-0.001588,"3217":0.002168,"3218":0.001181,"3219":0.003456,"3220":0.000536,"3221":0.003393,"3222":-0.00067,"3223":0.007731,"3224":-0.002879,"3225":0.012095,"3226":-0.006866,"3227":0.001203,"3228":0.003387,"3229":-0.008339,"3230":0.002012,"3231":-0.003064,"3232":0.000655,"3233":0.001775,"3234":-0.00691,"3235":0.008939,"3236":-0.002219,"3237":-0.009371,"3238":0.002385,"3239":-0.006,"3240":0.006178,"3241":-0.002245,"3242":-0.001179,"3243":0.003546,"3244":0.00539,"3245":0.006536,"3246":0.018717,"3247":-0.014764,"3248":-0.00089,"3249":-0.003087,"3250":-0.005972,"3251":0.009201,"3252":0.003228,"3253":-0.009089,"3254":-0.002792,"3255":-0.007045,"3256":0.007394,"3257":-0.000472,"3258":0.013868,"3259":-0.003232,"3260":-0.010488,"3261":0.001605,"3262":0.003696,"3263":-0.004936,"3264":0.000829,"3265":-0.005027,"3266":-0.000013,"3267":0.005855,"3268":0.002509,"3269":-0.000393,"3270":0.003855,"3271":0.000195,"3272":-0.001997,"3273":-0.002617,"3274":0.001166,"3275":0.000412,"3276":0.00559,"3277":-0.014853,"3278":-0.003328,"3279":-0.017889,"3280":0.009261,"3281":-0.010765,"3282":-0.003159,"3283":0.002259,"3284":-0.004949,"3285":-0.001303,"3286":-0.004481,"3287":0.007224,"3288":0.001625,"3289":0.007149,"3290":-0.002729,"3291":0.006619,"3292":-0.005069,"3293":-0.006065,"3294":0.008774,"3295":0.012191,"3296":-0.001218,"3297":-0.003728,"3298":0.003936,"3299":0.008017,"3300":-0.001426,"3301":-0.006381,"3302":-0.001732,"3303":-0.000446,"3304":0.001045,"3305":0.007335,"3306":-0.000556,"3307":0.00471,"3308":0.002031,"3309":-0.001733,"3310":0.009023,"3311":-0.001838,"3312":-0.001316,"3313":-0.011039,"3314":-0.003919,"3315":-0.007519,"3316":-0.007008,"3317":-0.006408,"3318":0.001634,"3319":-0.003037,"3320":-0.000062,"3321":-0.000502,"3322":-0.000766,"3323":-0.002032,"3324":-0.012839,"3325":-0.008518,"3326":0.003389,"3327":-0.015667,"3328":-0.00232,"3329":-0.00696,"3330":0.002527,"3331":0.012651,"3332":0.000995,"3333":0.001651,"3334":-0.006297,"3335":0.012901,"3336":-0.000887,"3337":-0.005506,"3338":0.003515,"3339":0.008884,"3340":0.001081,"3341":-0.008683,"3342":-0.006861,"3343":-0.003125,"3344":-0.001106,"3345":-0.006099,"3346":0.008636,"3347":0.008754,"3348":0.001822,"3349":0.003763,"3350":-0.000098,"3351":-0.003059,"3352":-0.006068,"3353":0.001249,"3354":0.005433,"3355":0.001064,"3356":-0.001026,"3357":0.004987,"3358":-0.000669,"3359":0.003438,"3360":-0.009321,"3361":0.005259,"3362":-0.007738,"3363":0.011072,"3364":-0.004093,"3365":-0.002245,"3366":-0.003405,"3367":0.015881,"3368":-0.00528,"3369":-0.000888,"3370":-0.001949,"3371":0.004741,"3372":-0.005424,"3373":-0.006838,"3374":0.011581,"3375":0.00358,"3376":-0.005241,"3377":0.000408,"3378":-0.004108,"3379":-0.005416,"3380":0.011956,"3381":-0.011853,"3382":0.001795,"3383":-0.012265,"3384":-0.00751,"3385":0.000009,"3386":0.000255,"3387":0.003921,"3388":-0.010134,"3389":-0.006272,"3390":-0.009021,"3391":0.006743,"3392":0.009012,"3393":-0.008673,"3394":-0.011792,"3395":0.000107,"3396":-0.005434,"3397":-0.014273,"3398":-0.004257,"3399":-0.012459,"3400":0.000761,"3401":-0.011301,"3402":-0.002057,"3403":0.004113,"3404":-0.014557,"3405":0.00234,"3406":-0.003524,"3407":0.001893,"3408":0.010286,"3409":-0.007101,"3410":-0.000869,"3411":0.014297,"3412":0.006855,"3413":-0.007654,"3414":0.003245,"3415":-0.004601,"3416":-0.003095,"3417":-0.005915,"3418":-0.001437,"3419":0.009685,"3420":-0.002918,"3421":-0.008867,"3422":0.001012,"3423":-0.001822,"3424":0.002672,"3425":-0.008581,"3426":0.004181,"3427":0.009753,"3428":0.001515,"3429":0.004929,"3430":-0.011861,"3431":-0.001702,"3432":-0.000361,"3433":0.000628,"3434":-0.001831,"3435":0.008946,"3436":-0.00371,"3437":0.000771,"3438":-0.009879,"3439":-0.008749,"3440":0.003901,"3441":-0.002245,"3442":-0.008638,"3443":0.015794,"3444":0.004721,"3445":-0.005595,"3446":0.009053,"3447":0.008493,"3448":0.002371,"3449":0.0126,"3450":-0.002909,"3451":-0.010875,"3452":-0.005485,"3453":-0.007037,"3454":-0.005196,"3455":0.002282,"3456":0.005242,"3457":-0.009716,"3458":-0.007992,"3459":-0.005991,"3460":0.002688,"3461":0.004269,"3462":0.002528,"3463":0.003652,"3464":-0.000128,"3465":0.00618,"3466":-0.001625,"3467":-0.013819,"3468":-0.006817,"3469":-0.007988,"3470":0.008744,"3471":-0.002787,"3472":0.010632,"3473":-0.010242,"3474":-0.004956,"3475":-0.004438,"3476":-0.007232,"3477":0.005002,"3478":0.004248,"3479":-0.010401,"3480":-0.004224,"3481":0.007612,"3482":0.000852,"3483":0.004764,"3484":0.000067,"3485":-0.007928,"3486":0.000401,"3487":-0.016916,"3488":0.006381,"3489":-0.007952,"3490":-0.009224,"3491":-0.001917,"3492":-0.000934,"3493":-0.006605,"3494":-0.009125,"3495":0.006199,"3496":-0.008127,"3497":0.002088,"3498":0.006904,"3499":0.001547,"3500":0.006005,"3501":0.000859,"3502":-0.005331,"3503":0.000967,"3504":0.004395,"3505":-0.001097,"3506":-0.010353,"3507":0.002794,"3508":-0.00626,"3509":-0.004114,"3510":0.004278,"3511":-0.001977,"3512":-0.003278,"3513":-0.002714,"3514":-0.004745,"3515":0.007776,"3516":0.008489,"3517":-0.003877,"3518":-0.010257,"3519":0.014018,"3520":-0.006756,"3521":-0.000048,"3522":-0.018203,"3523":0.011689,"3524":-0.002431,"3525":-0.005491,"3526":-0.011575,"3527":0.00331,"3528":-0.007576,"3529":-0.000578,"3530":-0.001366,"3531":0.013709,"3532":0.000594,"3533":-0.014126,"3534":-0.002917,"3535":-0.009245,"3536":-0.0073,"3537":-0.018634,"3538":0.004783,"3539":0.01323,"3540":0.000245,"3541":-0.00181,"3542":-0.014686,"3543":-0.004396,"3544":-0.005741,"3545":-0.011829,"3546":0.010647,"3547":-0.006067,"3548":0.001613,"3549":-0.007764,"3550":-0.000417,"3551":0.010992,"3552":0.015131,"3553":-0.001011,"3554":-0.009464,"3555":0.012386,"3556":-0.005798,"3557":0.001212,"3558":0.002802,"3559":0.001938,"3560":-0.003146,"3561":-0.004329,"3562":-0.007773,"3563":0.014972,"3564":0.003809,"3565":0.000405,"3566":0.009136,"3567":-0.009904,"3568":-0.0006,"3569":0.005908,"3570":0.001097,"3571":0.002093,"3572":-0.002742,"3573":-0.003167,"3574":-0.012368,"3575":0.002371,"3576":0.001642,"3577":-0.00235,"3578":0.005321,"3579":-0.003095,"3580":-0.00826,"3581":-0.008323,"3582":-0.001676,"3583":-0.007824,"3584":-0.005611,"3585":-0.002033,"3586":-0.002219,"3587":0.008619,"3588":0.002272,"3589":0.000675,"3590":0.00176,"3591":-0.009182,"3592":0.002943,"3593":-0.00301,"3594":-0.005916,"3595":0.006243,"3596":-0.003622,"3597":0.005175,"3598":-0.003486,"3599":0.003483,"3600":-0.003236,"3601":-0.005116,"3602":0.013376,"3603":0.013749,"3604":0.005772,"3605":-0.000582,"3606":-0.005908,"3607":-0.005612,"3608":-0.0091,"3609":-0.00093,"3610":0.000351,"3611":0.013723,"3612":0.003429,"3613":-0.002332,"3614":-0.000941,"3615":0.000397,"3616":0.008776,"3617":-0.000421,"3618":-0.001176,"3619":0.007284,"3620":-0.00587,"3621":-0.01067,"3622":-0.012418,"3623":0.001306,"3624":-0.010023,"3625":-0.00548,"3626":0.001599,"3627":0.008106,"3628":0.003474,"3629":-0.003297,"3630":-0.004433,"3631":-0.019263,"3632":0.000493,"3633":0.013046,"3634":-0.008954,"3635":0.009667,"3636":-0.005646,"3637":-0.004829,"3638":-0.006004,"3639":0.008629,"3640":-0.008787,"3641":0.00013,"3642":-0.006944,"3643":-0.003023,"3644":0.000143,"3645":-0.000893,"3646":-0.002539,"3647":-0.00834,"3648":0.002719,"3649":-0.001759,"3650":-0.001924,"3651":0.004545,"3652":-0.009894,"3653":0.000698,"3654":0.003622,"3655":-0.000206,"3656":-0.01355,"3657":-0.000596,"3658":0.001509,"3659":-0.001493,"3660":-0.000874,"3661":0.010251,"3662":-0.002613,"3663":0.002321,"3664":-0.001234,"3665":-0.003498,"3666":-0.003581,"3667":0.008042,"3668":-0.009909,"3669":-0.010706,"3670":-0.010381,"3671":-0.001746,"3672":0.000041,"3673":-0.003482,"3674":-0.003472,"3675":-0.004592,"3676":-0.001129,"3677":-0.001877,"3678":-0.004197,"3679":-0.00335,"3680":-0.015531,"3681":-0.013697,"3682":-0.01563,"3683":-0.002811,"3684":0.002141,"3685":-0.01042,"3686":-0.00293,"3687":-0.009948,"3688":-0.001428,"3689":0.007706,"3690":-0.004114,"3691":0.013352,"3692":-0.009911,"3693":-0.002077,"3694":0.00123,"3695":-0.00819,"3696":0.011027,"3697":0.000136,"3698":-0.003394,"3699":0.011189,"3700":-0.007112,"3701":-0.006654,"3702":0.009801,"3703":-0.004382,"3704":0.005064,"3705":-0.011686,"3706":-0.010795,"3707":0.012288,"3708":-0.003644,"3709":0.000936,"3710":0.000996,"3711":0.004949,"3712":-0.001232,"3713":-0.009795,"3714":-0.017206,"3715":0.008417,"3716":-0.018945,"3717":-0.006331,"3718":-0.00335,"3719":0.004873,"3720":0.002556,"3721":-0.011018,"3722":-0.004925,"3723":0.009425,"3724":-0.002285,"3725":-0.002117,"3726":-0.004717,"3727":-0.00568,"3728":-0.003296,"3729":-0.008791,"3730":-0.016772,"3731":0.004303,"3732":0.008728,"3733":0.011558,"3734":0.003694,"3735":-0.000532,"3736":-0.001501,"3737":0.011362,"3738":0.004083,"3739":0.009387,"3740":0.009813,"3741":-0.00331,"3742":-0.002976,"3743":0.005772,"3744":0.006437,"3745":-0.001985,"3746":0.004106,"3747":-0.000107,"3748":-0.005986,"3749":-0.001829,"3750":0.011891,"3751":0.004099,"3752":0.002685,"3753":-0.000613,"3754":-0.003357,"3755":0.011241,"3756":-0.002357,"3757":-0.014348,"3758":0.009387,"3759":-0.000965,"3760":-0.008234,"3761":-0.002045,"3762":-0.00334,"3763":0.003565,"3764":0.002949,"3765":-0.004376,"3766":-0.003338,"3767":0.001242,"3768":-0.006264,"3769":0.00451,"3770":-0.002395,"3771":0.00495,"3772":0.003779,"3773":-0.00659,"3774":-0.005636,"3775":0.003573,"3776":0.003575,"3777":-0.000036,"3778":0.002713,"3779":0.002482,"3780":-0.000301,"3781":-0.01302,"3782":-0.001812,"3783":-0.006889,"3784":0.004276,"3785":-0.005422,"3786":-0.012253,"3787":0.007187,"3788":-0.001943,"3789":-0.004679,"3790":-0.000425,"3791":0.004496,"3792":0.002459,"3793":0.004326,"3794":0.007746,"3795":0.006937,"3796":0.006215,"3797":-0.005033,"3798":0.001383,"3799":0.000712,"3800":-0.004423,"3801":0.011354,"3802":-0.002454,"3803":-0.011467,"3804":0.013865,"3805":-0.015072,"3806":0.001605,"3807":-0.006208,"3808":0.005711,"3809":0.00491,"3810":-0.002369,"3811":0.002785,"3812":-0.013103,"3813":0.00125,"3814":0.003831,"3815":0.000525,"3816":-0.00165,"3817":-0.00871,"3818":0.002887,"3819":0.008751,"3820":-0.001072,"3821":0.003058,"3822":0.005143,"3823":0.004391,"3824":-0.009723,"3825":0.008507,"3826":0.006426,"3827":-0.003576,"3828":0.010344,"3829":-0.015081,"3830":-0.005098,"3831":-0.004023,"3832":-0.001681,"3833":0.014095,"3834":-0.010268,"3835":0.001895,"3836":0.008824,"3837":-0.005861,"3838":-0.003169,"3839":-0.002071,"3840":-0.009397,"3841":-0.007519,"3842":-0.006817,"3843":0.012463,"3844":0.001951,"3845":-0.019299,"3846":-0.00444,"3847":-0.000901,"3848":-0.000205,"3849":-0.00281,"3850":0.000137,"3851":0.008258,"3852":-0.010702,"3853":-0.014321,"3854":-0.001225,"3855":0.005071,"3856":-0.009382,"3857":0.002862,"3858":-0.001308,"3859":0.007674,"3860":0.001649,"3861":-0.011136,"3862":-0.003671,"3863":0.001161,"3864":0.007882,"3865":-0.005721,"3866":0.002081,"3867":0.003081,"3868":-0.010333,"3869":-0.005312,"3870":0.002403,"3871":0.001564,"3872":0.019058,"3873":0.002341,"3874":-0.003282,"3875":0.00713,"3876":0.001388,"3877":-0.005095,"3878":0.001706,"3879":-0.004768,"3880":-0.003051,"3881":0.003071,"3882":0.000978,"3883":-0.000559,"3884":0.002821,"3885":-0.004644,"3886":0.008637,"3887":-0.011018,"3888":-0.009753,"3889":0.008472,"3890":0.010132,"3891":0.001678,"3892":-0.010443,"3893":-0.005057,"3894":0.002087,"3895":0.00302,"3896":-0.007217,"3897":-0.006884,"3898":-0.00221,"3899":0.001963,"3900":0.00027,"3901":0.011148,"3902":0.01852,"3903":-0.010018,"3904":-0.008556,"3905":0.003675,"3906":-0.002361,"3907":0.011196,"3908":0.004818,"3909":-0.007568,"3910":0.004093,"3911":0.0005,"3912":-0.005755,"3913":-0.005851,"3914":0.000497,"3915":0.002295,"3916":0.000533,"3917":-0.007046,"3918":-0.004172,"3919":-0.00502,"3920":-0.004833,"3921":0.002054,"3922":0.009933,"3923":-0.003503,"3924":-0.006397,"3925":0.007701,"3926":0.001595,"3927":-0.00667,"3928":0.001473,"3929":0.003588,"3930":-0.007918,"3931":-0.005293,"3932":-0.010537,"3933":-0.014511,"3934":-0.009635,"3935":-0.008276,"3936":-0.010796,"3937":-0.004014,"3938":0.012431,"3939":0.015245,"3940":-0.006746,"3941":-0.011901,"3942":-0.006179,"3943":-0.003948,"3944":0.001298,"3945":-0.001987,"3946":0.000102,"3947":-0.004076,"3948":-0.001065,"3949":0.00041,"3950":0.001788,"3951":-0.000441,"3952":-0.002042,"3953":-0.005864,"3954":-0.011813,"3955":0.00987,"3956":-0.011306,"3957":-0.000815,"3958":-0.003048,"3959":-0.006578,"3960":0.001194,"3961":0.008736,"3962":-0.003192,"3963":0.005001,"3964":0.007213,"3965":-0.000792,"3966":0.000869,"3967":0.001718,"3968":0.000441,"3969":-0.014321,"3970":-0.002077,"3971":0.006137,"3972":0.006995,"3973":0.004886,"3974":-0.000767,"3975":-0.001758,"3976":-0.001643,"3977":-0.002679,"3978":0.012384,"3979":0.002858,"3980":0.01755,"3981":-0.010178,"3982":-0.001496,"3983":0.011719,"3984":-0.009085,"3985":0.000571,"3986":-0.000689,"3987":-0.004673,"3988":-0.00271,"3989":-0.003836,"3990":-0.002538,"3991":-0.008764,"3992":-0.010077,"3993":0.006107,"3994":0.009502,"3995":-0.001961,"3996":-0.004096,"3997":0.004793,"3998":-0.004097,"3999":-0.011864,"4000":0.00112,"4001":0.007392,"4002":-0.008475,"4003":0.00917,"4004":0.008112,"4005":-0.008382,"4006":-0.012238,"4007":-0.00569,"4008":-0.006903,"4009":0.012462,"4010":-0.000558,"4011":-0.001097,"4012":0.004485,"4013":-0.010439,"4014":-0.010207,"4015":-0.007614,"4016":0.005804,"4017":-0.001579,"4018":-0.002904,"4019":0.006886,"4020":-0.001883,"4021":-0.008236,"4022":-0.00787,"4023":-0.00875,"4024":0.00695,"4025":-0.003446,"4026":-0.002158,"4027":0.007625,"4028":-0.004133,"4029":-0.005899,"4030":-0.007634,"4031":-0.000017,"4032":0.003108,"4033":0.000335,"4034":0.002936,"4035":-0.000535,"4036":-0.004403,"4037":-0.006427,"4038":0.00019,"4039":0.004881,"4040":0.001919,"4041":-0.005553,"4042":0.011959,"4043":0.010934,"4044":-0.011144,"4045":0.005144,"4046":0.001154,"4047":-0.001821,"4048":-0.007343,"4049":-0.001213,"4050":-0.008272,"4051":0.005465,"4052":-0.005387,"4053":-0.000692,"4054":-0.005229,"4055":-0.00649,"4056":-0.00132,"4057":0.001959,"4058":-0.015492,"4059":0.003363,"4060":-0.000973,"4061":-0.013679,"4062":0.004167,"4063":-0.000741,"4064":-0.005951,"4065":-0.008123,"4066":-0.00258,"4067":0.001069,"4068":-0.008894,"4069":-0.001356,"4070":-0.005496,"4071":-0.006533,"4072":0.00267,"4073":-0.003703,"4074":0.008022,"4075":0.002325,"4076":-0.002074,"4077":-0.003648,"4078":0.002499,"4079":-0.009255,"4080":-0.011328,"4081":-0.010761,"4082":0.005778,"4083":0.00232,"4084":-0.002218,"4085":0.003756,"4086":0.00234,"4087":-0.002634,"4088":0.004698,"4089":-0.012307,"4090":-0.007973,"4091":0.002863,"4092":0.004662,"4093":-0.005067,"4094":-0.012781,"4095":-0.009147,"4096":0.001055,"4097":0.009663,"4098":-0.000376,"4099":-0.008161,"4100":-0.000012,"4101":-0.000511,"4102":0.000639,"4103":0.003942,"4104":-0.004302,"4105":-0.010199,"4106":0.005908,"4107":0.006414,"4108":-0.008706,"4109":-0.006772,"4110":-0.001197,"4111":-0.002932,"4112":0.001021,"4113":0.013904,"4114":-0.004162,"4115":0.01637,"4116":-0.004074,"4117":-0.007154,"4118":-0.001472,"4119":0.011546,"4120":-0.010432,"4121":0.003423,"4122":-0.016632,"4123":0.004045,"4124":-0.002066,"4125":-0.009474,"4126":-0.004207,"4127":-0.005754,"4128":-0.001296,"4129":-0.000767,"4130":0.001574,"4131":0.008221,"4132":0.001973,"4133":-0.009087,"4134":0.001831,"4135":0.012596,"4136":0.01042,"4137":-0.00784,"4138":-0.000345,"4139":0.012708,"4140":-0.00623,"4141":0.001173,"4142":0.006823,"4143":0.004817,"4144":0.017493,"4145":-0.001522,"4146":-0.003512,"4147":-0.001401,"4148":0.004694,"4149":0.004415,"4150":-0.003888,"4151":-0.00702,"4152":-0.01436,"4153":-0.003906,"4154":-0.006916,"4155":0.007999,"4156":0.00417,"4157":-0.003599,"4158":-0.001304,"4159":-0.009973,"4160":0.012112,"4161":-0.003554,"4162":-0.01086,"4163":0.011319,"4164":-0.007407,"4165":0.009858,"4166":0.002644,"4167":-0.001335,"4168":0.003509,"4169":-0.001604,"4170":0.018239,"4171":0.002976,"4172":-0.004489,"4173":-0.004269,"4174":-0.004632,"4175":0.008836,"4176":0.002881,"4177":-0.00736,"4178":0.004747,"4179":0.007983,"4180":-0.004967,"4181":-0.005356,"4182":-0.000727,"4183":-0.000754,"4184":-0.003441,"4185":-0.002227,"4186":-0.013903,"4187":0.010957,"4188":0.01349,"4189":0.002925,"4190":0.0015,"4191":-0.000302,"4192":0.00533,"4193":-0.005129,"4194":-0.001735,"4195":0.000254,"4196":0.002738,"4197":-0.01352,"4198":0.000146,"4199":-0.016334,"4200":-0.004492,"4201":-0.000884,"4202":-0.000755,"4203":0.000143,"4204":0.008161,"4205":-0.011746,"4206":-0.003564,"4207":-0.002852,"4208":0.002214,"4209":0.00214,"4210":-0.006826,"4211":0.006012,"4212":-0.004507,"4213":0.001171,"4214":-0.002775,"4215":-0.007729,"4216":0.004408,"4217":-0.003583,"4218":0.000321,"4219":0.013506,"4220":-0.006758,"4221":-0.008539,"4222":0.004213,"4223":0.006539,"4224":-0.012902,"4225":-0.001622,"4226":-0.002235,"4227":-0.000373,"4228":-0.001617,"4229":-0.009598,"4230":0.001607,"4231":-0.004605,"4232":-0.007517,"4233":-0.005031,"4234":-0.003479,"4235":0.006069,"4236":0.001976,"4237":-0.011016,"4238":-0.005107,"4239":-0.00246,"4240":0.000484,"4241":0.014119,"4242":0.004572,"4243":0.010742,"4244":0.001141,"4245":-0.013349,"4246":0.000718,"4247":0.007059,"4248":-0.005894,"4249":-0.003887,"4250":0.002611,"4251":0.012994,"4252":0.00195,"4253":0.002024,"4254":0.002107,"4255":-0.009031,"4256":-0.008421,"4257":0.006198,"4258":0.001486,"4259":0.004903,"4260":-0.007158,"4261":-0.009609,"4262":0.011737,"4263":0.001067,"4264":-0.003991,"4265":0.004544,"4266":0.00503,"4267":0.004785,"4268":0.011795,"4269":-0.004068,"4270":-0.007304,"4271":0.007296,"4272":-0.010743,"4273":-0.002637,"4274":0.001089,"4275":0.002313,"4276":0.002145,"4277":-0.000257,"4278":0.006526,"4279":-0.000258,"4280":-0.001813,"4281":-0.019569,"4282":-0.01243,"4283":-0.000292,"4284":-0.006436,"4285":-0.009801,"4286":-0.007969,"4287":-0.001294,"4288":-0.003339,"4289":0.001869,"4290":0.005038,"4291":0.015703,"4292":0.003297,"4293":-0.000578,"4294":-0.017375,"4295":-0.005488,"4296":-0.000374,"4297":0.000221,"4298":-0.002581,"4299":0.01537,"4300":-0.002606,"4301":-0.007716,"4302":-0.015962,"4303":-0.001295,"4304":-0.008979,"4305":0.004707,"4306":-0.008374,"4307":0.006666,"4308":-0.008572,"4309":-0.009596,"4310":-0.005768,"4311":0.010847,"4312":0.002035,"4313":-0.001256,"4314":0.00286,"4315":-0.005503,"4316":-0.003323,"4317":-0.00673,"4318":-0.002821,"4319":0.004065,"4320":0.002445,"4321":-0.003632,"4322":-0.011544,"4323":0.002315,"4324":0.005182,"4325":-0.003696,"4326":0.002053,"4327":0.009786,"4328":-0.001276,"4329":-0.00442,"4330":-0.010684,"4331":-0.001561,"4332":0.004388,"4333":-0.014891,"4334":0.002378,"4335":0.014264,"4336":-0.002485,"4337":-0.002519,"4338":-0.015587,"4339":0.011291,"4340":-0.005471,"4341":-0.016894,"4342":0.00101,"4343":-0.000698,"4344":-0.004846,"4345":-0.005135,"4346":-0.010303,"4347":0.000755,"4348":0.0061,"4349":-0.005266,"4350":-0.00612,"4351":-0.000575,"4352":-0.008007,"4353":0.012313,"4354":-0.004248,"4355":0.013382,"4356":-0.009567,"4357":-0.010406,"4358":0.006768,"4359":-0.007058,"4360":0.000975,"4361":-0.00595,"4362":-0.001128,"4363":0.001758,"4364":-0.00752,"4365":-0.005232,"4366":-0.001606,"4367":0.00133,"4368":-0.00763,"4369":-0.001525,"4370":-0.013134,"4371":0.007601,"4372":0.00806,"4373":0.003737,"4374":-0.002789,"4375":-0.014111,"4376":0.001397,"4377":-0.008487,"4378":-0.000139,"4379":0.011087,"4380":-0.003369,"4381":-0.006704,"4382":-0.001126,"4383":-0.000892,"4384":-0.003202,"4385":0.000409,"4386":-0.005599,"4387":0.001027,"4388":0.006585,"4389":-0.000992,"4390":0.001186,"4391":0.002195,"4392":0.004034,"4393":-0.004904,"4394":0.011519,"4395":0.004035,"4396":0.001203,"4397":-0.002339,"4398":0.008383,"4399":0.010546,"4400":0.00091,"4401":-0.005938,"4402":-0.001818,"4403":-0.005047,"4404":-0.009348,"4405":-0.007812,"4406":-0.002872,"4407":0.0059,"4408":-0.01126,"4409":-0.004609,"4410":0.001157,"4411":0.008456,"4412":0.000167,"4413":-0.003045,"4414":-0.002334,"4415":-0.003946,"4416":-0.007001,"4417":0.003918,"4418":0.008064,"4419":0.010277,"4420":-0.003754,"4421":-0.00055,"4422":-0.001754,"4423":-0.010623,"4424":0.00901,"4425":-0.002016,"4426":-0.005171,"4427":0.014609,"4428":-0.006145,"4429":-0.003374,"4430":-0.003427,"4431":-0.01022,"4432":-0.005626,"4433":-0.003535,"4434":-0.010397,"4435":0.004428,"4436":-0.008306,"4437":-0.011572,"4438":-0.008692,"4439":0.000095,"4440":0.007743,"4441":0.013095,"4442":0.000506,"4443":-0.004607,"4444":0.010507,"4445":-0.002271,"4446":-0.008534,"4447":-0.011803,"4448":-0.002551,"4449":-0.006466,"4450":0.002802,"4451":0.003011,"4452":-0.003403,"4453":-0.008966,"4454":0.003769,"4455":-0.000213,"4456":-0.001407,"4457":0.005195,"4458":-0.003074,"4459":0.012519,"4460":-0.007438,"4461":-0.012042,"4462":-0.008455,"4463":-0.010022,"4464":0.002649,"4465":-0.004406,"4466":0.000918,"4467":0.008894,"4468":-0.006038,"4469":-0.005672,"4470":0.006827,"4471":0.000468,"4472":-0.014609,"4473":-0.002769,"4474":-0.005964,"4475":0.015415,"4476":-0.003973,"4477":-0.005449,"4478":0.000936,"4479":0.007988,"4480":-0.001938,"4481":0.000908,"4482":0.001476,"4483":0.005513,"4484":-0.003315,"4485":-0.00035,"4486":0.005592,"4487":-0.002995,"4488":0.000873,"4489":-0.001644,"4490":0.000723,"4491":0.004964,"4492":0.002947,"4493":0.006044,"4494":0.010143,"4495":-0.00592,"4496":-0.001629,"4497":0.012935,"4498":0.000734,"4499":0.005359,"4500":-0.009347,"4501":-0.001504,"4502":-0.012673,"4503":0.012063,"4504":-0.006353,"4505":-0.016208,"4506":0.000483,"4507":-0.005681,"4508":-0.002325,"4509":-0.005206,"4510":-0.004556,"4511":-0.009162,"4512":-0.00409,"4513":-0.002634,"4514":-0.012849,"4515":-0.000813,"4516":0.002036,"4517":-0.001556,"4518":0.001013,"4519":-0.006059,"4520":0.000864,"4521":-0.005226,"4522":0.004669,"4523":-0.005388,"4524":-0.004731,"4525":-0.000452,"4526":-0.004278,"4527":-0.008079,"4528":-0.009641,"4529":0.001629,"4530":-0.000587,"4531":0.007836,"4532":-0.001137,"4533":-0.009694,"4534":0.001547,"4535":0.002213,"4536":-0.001443,"4537":-0.001859,"4538":0.007125,"4539":0.010608,"4540":0.001071,"4541":-0.00938,"4542":-0.006183,"4543":-0.010893,"4544":0.004815,"4545":0.007731,"4546":0.001614,"4547":0.014542,"4548":0.004253,"4549":-0.006773,"4550":0.003316,"4551":-0.008123,"4552":0.013479,"4553":0.012022,"4554":-0.01299,"4555":0.00249,"4556":0.00247,"4557":-0.002131,"4558":0.000438,"4559":0.000671,"4560":-0.010334,"4561":-0.003716,"4562":-0.0069,"4563":0.007947,"4564":0.014423,"4565":0.00115,"4566":-0.000361,"4567":0.004499,"4568":0.004752,"4569":-0.003129,"4570":0.009519,"4571":0.013079,"4572":0.000943,"4573":0.001854,"4574":0.003481,"4575":-0.003347,"4576":-0.007778,"4577":-0.016203,"4578":-0.000821,"4579":0.006257,"4580":-0.00424,"4581":-0.009744,"4582":-0.006834,"4583":0.003933,"4584":-0.006742,"4585":0.00696,"4586":-0.005517,"4587":0.002627,"4588":-0.004596,"4589":-0.009348,"4590":-0.003759,"4591":0.004755,"4592":-0.000909,"4593":-0.013194,"4594":0.002005,"4595":0.001396,"4596":-0.000616,"4597":-0.003531,"4598":-0.011105,"4599":0.004325,"4600":-0.004458,"4601":0.00487,"4602":0.003043,"4603":0.011406,"4604":0.00193,"4605":-0.001374,"4606":-0.005431,"4607":0.007682,"4608":0.010793,"4609":-0.000259,"4610":0.003325,"4611":0.0059,"4612":0.002907,"4613":-0.007306,"4614":0.000748,"4615":-0.004523,"4616":0.005905,"4617":-0.000853,"4618":0.019705,"4619":0.003274,"4620":0.003051,"4621":-0.011237,"4622":-0.003512,"4623":0.005806,"4624":0.004534,"4625":-0.006811,"4626":0.003693,"4627":0.00166,"4628":-0.001395,"4629":-0.003704,"4630":0.005678,"4631":-0.005445,"4632":-0.003958,"4633":-0.000307,"4634":-0.00327,"4635":0.014324,"4636":-0.001528,"4637":-0.000901,"4638":0.006128,"4639":-0.011258,"4640":0.004905,"4641":-0.004986,"4642":0.004911,"4643":-0.000793,"4644":0.000836,"4645":-0.001227,"4646":-0.005212,"4647":-0.010396,"4648":0.003456,"4649":-0.012264,"4650":-0.01815,"4651":0.00969,"4652":-0.000817,"4653":-0.004856,"4654":-0.007197,"4655":-0.002129,"4656":0.003382,"4657":0.002231,"4658":-0.000841,"4659":0.002043,"4660":0.00869,"4661":-0.017123,"4662":-0.00133,"4663":0.010757,"4664":0.009058,"4665":0.011335,"4666":-0.008943,"4667":-0.001434,"4668":-0.000419,"4669":0.005287,"4670":0.007978,"4671":-0.00634,"4672":0.006957,"4673":-0.005461,"4674":0.00133,"4675":-0.006925,"4676":0.005226,"4677":0.001898,"4678":-0.003769,"4679":-0.006849,"4680":-0.010614,"4681":0.00108,"4682":-0.005271,"4683":0.017423,"4684":-0.012137,"4685":-0.018996,"4686":-0.006429,"4687":-0.010204,"4688":-0.007743,"4689":-0.012346,"4690":-0.007726,"4691":0.003564,"4692":0.00602,"4693":-0.013885,"4694":-0.007723,"4695":-0.000821,"4696":0.006213,"4697":-0.008508,"4698":-0.00385,"4699":-0.004378,"4700":0.00163,"4701":-0.006336,"4702":-0.007069,"4703":0.003136,"4704":0.010173,"4705":0.000755,"4706":-0.001931,"4707":0.001017,"4708":0.000614,"4709":-0.001826,"4710":-0.003949,"4711":0.014586,"4712":-0.008587,"4713":-0.006939,"4714":-0.008067,"4715":0.012442,"4716":0.002226,"4717":-0.004405,"4718":-0.017374,"4719":-0.004038,"4720":0.004686,"4721":-0.004169,"4722":0.005871,"4723":0.010007,"4724":-0.01155,"4725":-0.007161,"4726":-0.012654,"4727":0.00248,"4728":-0.004307,"4729":-0.011076,"4730":-0.007887,"4731":0.000455,"4732":0.001841,"4733":-0.001582,"4734":-0.002444,"4735":0.012635,"4736":0.007373,"4737":0.001299,"4738":-0.000211,"4739":0.006218,"4740":-0.000957,"4741":-0.007873,"4742":-0.010269,"4743":0.006269,"4744":-0.007451,"4745":0.004233,"4746":-0.003635,"4747":-0.004286,"4748":0.003641,"4749":-0.01137,"4750":0.000512,"4751":0.004742,"4752":-0.001648,"4753":-0.001087,"4754":-0.00055,"4755":0.007211,"4756":0.016355,"4757":0.002497,"4758":-0.010076,"4759":0.005366,"4760":-0.003187,"4761":-0.000959,"4762":-0.002975,"4763":0.003937,"4764":-0.012385,"4765":-0.013789,"4766":-0.001949,"4767":0.002198,"4768":0.006498,"4769":-0.000975,"4770":-0.024075,"4771":0.017501,"4772":-0.011583,"4773":-0.015634,"4774":0.007155,"4775":0.002927,"4776":-0.002391,"4777":-0.008306,"4778":-0.014487,"4779":-0.002213,"4780":0.004593,"4781":-0.014032,"4782":0.004138,"4783":-0.005506,"4784":0.004889,"4785":-0.001529,"4786":-0.008467,"4787":0.004598,"4788":0.001872,"4789":-0.003123,"4790":0.000686,"4791":-0.003614,"4792":0.006183,"4793":-0.003985,"4794":-0.007408,"4795":-0.000044,"4796":0.007081,"4797":-0.00685,"4798":0.007712,"4799":0.001741,"4800":-0.013756,"4801":0.017681,"4802":-0.002436,"4803":0.005984,"4804":-0.001586,"4805":-0.000192,"4806":0.003946,"4807":-0.007448,"4808":0.00093,"4809":0.00687,"4810":0.005796,"4811":0.003784,"4812":-0.002389,"4813":-0.004523,"4814":-0.007932,"4815":-0.007476,"4816":0.005626,"4817":-0.009359,"4818":-0.012152,"4819":0.004044,"4820":0.003196,"4821":0.000474,"4822":-0.005724,"4823":-0.005605,"4824":-0.013423,"4825":0.003296,"4826":0.004154,"4827":0.002948,"4828":0.001497,"4829":-0.002387,"4830":-0.003316,"4831":-0.008401,"4832":-0.001503,"4833":-0.010023,"4834":0.009034,"4835":-0.002552,"4836":-0.008692,"4837":0.003425,"4838":-0.001185,"4839":0.005546,"4840":0.007431,"4841":-0.005582,"4842":0.010799,"4843":0.00088,"4844":-0.008531,"4845":-0.000585,"4846":-0.005435,"4847":0.002921,"4848":0.018163,"4849":-0.00089,"4850":-0.012941,"4851":0.007173,"4852":-0.005455,"4853":-0.012442,"4854":0.004873,"4855":-0.009529,"4856":-0.005715,"4857":-0.01284,"4858":-0.00152,"4859":0.008794,"4860":0.00112,"4861":-0.011555,"4862":0.000555,"4863":-0.009502,"4864":-0.004539,"4865":-0.00383,"4866":-0.005313,"4867":0.01798,"4868":-0.000172,"4869":-0.006291,"4870":-0.010835,"4871":-0.000709,"4872":0.002472,"4873":0.001322,"4874":-0.003258,"4875":-0.003651,"4876":0.000006,"4877":-0.015632,"4878":-0.004602,"4879":0.003586,"4880":-0.002271,"4881":0.004437,"4882":-0.00873,"4883":-0.010415,"4884":-0.019831,"4885":-0.002332,"4886":0.00425,"4887":0.001596,"4888":-0.003193,"4889":-0.004114,"4890":-0.005393,"4891":0.003074,"4892":0.00595,"4893":-0.010515,"4894":-0.005878,"4895":0.012387,"4896":-0.007293,"4897":0.015337,"4898":-0.0008,"4899":0.000871,"4900":-0.005974,"4901":-0.009721,"4902":-0.005348,"4903":-0.006229,"4904":0.007388,"4905":-0.005545,"4906":0.002933,"4907":0.013255,"4908":-0.001571,"4909":0.000936,"4910":-0.000644,"4911":0.009093,"4912":-0.004285,"4913":-0.004635,"4914":-0.001654,"4915":0.007404,"4916":-0.009747,"4917":-0.013069,"4918":0.00108,"4919":0.007221,"4920":-0.009358,"4921":0.003967,"4922":0.001218,"4923":0.010323,"4924":-0.002046,"4925":-0.012166,"4926":0.008237,"4927":0.00229,"4928":0.001044,"4929":0.004109,"4930":-0.004611,"4931":-0.001801,"4932":0.004278,"4933":0.003822,"4934":-0.014731,"4935":-0.015231,"4936":0.000482,"4937":0.008896,"4938":0.001809,"4939":0.002265,"4940":0.002975,"4941":-0.006953,"4942":-0.003586,"4943":0.000459,"4944":-0.009658,"4945":-0.001801,"4946":-0.004216,"4947":0.00548,"4948":0.006933,"4949":-0.003793,"4950":0.000722,"4951":-0.00261,"4952":-0.004572,"4953":-0.000576,"4954":-0.001094,"4955":0.006831,"4956":-0.006144,"4957":0.003755,"4958":-0.000845,"4959":-0.006083,"4960":-0.00197,"4961":-0.004128,"4962":-0.000383,"4963":0.009699,"4964":-0.004444,"4965":-0.000812,"4966":0.006796,"4967":-0.002842,"4968":0.0007,"4969":-0.005247,"4970":-0.005206,"4971":0.003563,"4972":0.003511,"4973":-0.006172,"4974":0.004618,"4975":-0.014814,"4976":-0.001976,"4977":-0.010627,"4978":-0.002419,"4979":0.014867,"4980":-0.00182,"4981":-0.001389,"4982":0.003399,"4983":0.006073,"4984":-0.00409,"4985":-0.001906,"4986":-0.00412,"4987":0.001371,"4988":0.000372,"4989":0.000865,"4990":0.000338,"4991":0.004634,"4992":-0.000488,"4993":-0.00215,"4994":-0.005066,"4995":0.012183,"4996":-0.008806,"4997":-0.00852,"4998":0.004326,"4999":-0.004074,"5000":-0.000838,"5001":-0.003652,"5002":-0.00905,"5003":0.002274,"5004":-0.004977,"5005":-0.01828,"5006":-0.001585,"5007":0.008392,"5008":0.012029,"5009":-0.012793,"5010":0.003575,"5011":0.024915,"5012":-0.008827,"5013":-0.005422,"5014":0.002308,"5015":-0.004106,"5016":0.000631,"5017":0.005778,"5018":0.001675,"5019":0.006038,"5020":-0.005974,"5021":0.000397,"5022":0.001345,"5023":0.001395,"5024":0.010785,"5025":-0.000582,"5026":0.005676,"5027":0.014671,"5028":-0.002972,"5029":-0.009904,"5030":-0.007872,"5031":0.00664,"5032":-0.004382,"5033":0.008266,"5034":-0.00055,"5035":0.006486,"5036":-0.001785,"5037":-0.010001,"5038":0.008121,"5039":-0.012936,"5040":0.005586,"5041":-0.007194,"5042":-0.001704,"5043":0.00205,"5044":-0.007129,"5045":-0.003863,"5046":0.008127,"5047":0.006085,"5048":-0.001956,"5049":0.001089,"5050":-0.002953,"5051":0.003484,"5052":-0.005156,"5053":-0.008271,"5054":0.000776,"5055":0.002146,"5056":-0.008157,"5057":0.000816,"5058":-0.001638,"5059":0.007955,"5060":-0.00537,"5061":0.007102,"5062":-0.003245,"5063":0.001818,"5064":0.002363,"5065":-0.003134,"5066":-0.000133,"5067":0.003921,"5068":-0.00053,"5069":-0.005381,"5070":-0.006522,"5071":0.004341,"5072":0.005188,"5073":0.007843,"5074":0.010679,"5075":0.006276,"5076":-0.007912,"5077":0.003406,"5078":0.000251,"5079":-0.002933,"5080":0.003292,"5081":0.006274,"5082":0.005431,"5083":0.003266,"5084":-0.006731,"5085":-0.010758,"5086":-0.011538,"5087":-0.015664,"5088":0.00083,"5089":0.001232,"5090":-0.007204,"5091":-0.003392,"5092":0.004902,"5093":-0.005098,"5094":-0.006964,"5095":0.003289,"5096":0.000327,"5097":-0.001233,"5098":-0.008228,"5099":-0.002658,"5100":0.005813,"5101":-0.008713,"5102":-0.006,"5103":-0.003411,"5104":0.000141,"5105":0.000266,"5106":-0.002157,"5107":0.006403,"5108":-0.010656,"5109":-0.002917,"5110":-0.003633,"5111":0.000645,"5112":0.018819,"5113":0.000177,"5114":0.00371,"5115":0.011444,"5116":0.000586,"5117":-0.003971,"5118":0.002598,"5119":0.00226,"5120":0.00582,"5121":0.00242,"5122":0.006407,"5123":0.001291,"5124":0.002491,"5125":0.012498,"5126":-0.002309,"5127":0.00418,"5128":-0.002112,"5129":0.00446,"5130":-0.00741,"5131":-0.004281,"5132":-0.009769,"5133":0.007469,"5134":-0.005184,"5135":-0.008781,"5136":0.01002,"5137":0.008094,"5138":0.001612,"5139":0.017749,"5140":0.012025,"5141":-0.009253,"5142":-0.007669,"5143":0.004828,"5144":-0.008485,"5145":-0.009737,"5146":-0.009437,"5147":0.010914,"5148":-0.004753,"5149":0.005455,"5150":-0.000682,"5151":0.001541,"5152":0.002709,"5153":0.009061,"5154":-0.011748,"5155":0.005277,"5156":-0.006461,"5157":-0.00393,"5158":0.000002,"5159":-0.000233,"5160":-0.00686,"5161":0.003307,"5162":-0.001905,"5163":0.008914,"5164":0.000597,"5165":-0.003962,"5166":0.005002,"5167":-0.004881,"5168":0.004337,"5169":0.001145,"5170":-0.001876,"5171":0.006027,"5172":0.000372,"5173":0.000096,"5174":0.002179,"5175":-0.004056,"5176":0.002958,"5177":-0.00025,"5178":-0.001742,"5179":0.00261,"5180":0.003221,"5181":0.000801,"5182":-0.000931,"5183":0.005101,"5184":-0.00267,"5185":-0.001334,"5186":0.012031,"5187":0.007412,"5188":-0.00393,"5189":-0.00016,"5190":0.010721,"5191":0.011721,"5192":0.000129,"5193":0.003514,"5194":-0.00446,"5195":0.009343,"5196":-0.001701,"5197":-0.001118,"5198":-0.000835,"5199":-0.000064,"5200":0.010613,"5201":-0.003779,"5202":-0.000854,"5203":0.005595,"5204":-0.002128,"5205":-0.001256,"5206":-0.008467,"5207":0.002148,"5208":-0.004808,"5209":-0.005505,"5210":-0.004154,"5211":0.001972,"5212":0.006761,"5213":-0.001001,"5214":0.009028,"5215":0.008198,"5216":-0.003554,"5217":0.004157,"5218":-0.003295,"5219":0.008604,"5220":0.010737,"5221":-0.019079,"5222":-0.00431,"5223":-0.001278,"5224":-0.00023,"5225":-0.002205,"5226":-0.00325,"5227":0.010275,"5228":0.001138,"5229":-0.002998,"5230":-0.009242,"5231":-0.000596,"5232":0.001643,"5233":-0.002253,"5234":-0.003201,"5235":0.008047,"5236":0.004804,"5237":-0.01099,"5238":0.000388,"5239":-0.010587,"5240":-0.006945,"5241":-0.005311,"5242":-0.008501,"5243":0.000594,"5244":-0.000057,"5245":0.005558,"5246":0.006956,"5247":0.004683,"5248":-0.005961,"5249":-0.009605,"5250":0.006747,"5251":-0.013667,"5252":-0.002843,"5253":-0.002079,"5254":-0.003557,"5255":-0.005569,"5256":0.004734,"5257":-0.003747,"5258":0.007685,"5259":0.002567,"5260":0.002882,"5261":-0.020067,"5262":0.006632,"5263":-0.007566,"5264":-0.000963,"5265":0.002262,"5266":0.00636,"5267":0.010217,"5268":-0.005416,"5269":-0.011135,"5270":-0.005044,"5271":-0.000293,"5272":0.004434,"5273":-0.004645,"5274":-0.006375,"5275":-0.007422,"5276":-0.003057,"5277":-0.001308,"5278":0.000885,"5279":0.004974,"5280":-0.002181,"5281":0.003568,"5282":-0.000201,"5283":0.013735,"5284":0.006038,"5285":-0.001245,"5286":0.002117,"5287":0.008706,"5288":0.003647,"5289":0.001836,"5290":-0.008169,"5291":-0.006342,"5292":0.000146,"5293":-0.011031,"5294":-0.003456,"5295":0.008899,"5296":0.00668,"5297":0.003753,"5298":-0.004692,"5299":0.005764,"5300":-0.001748,"5301":0.001277,"5302":-0.005392,"5303":0.007415,"5304":-0.007462,"5305":-0.000906,"5306":-0.010742,"5307":0.002108,"5308":0.000315,"5309":-0.018312,"5310":0.005598,"5311":0.007942,"5312":0.002813,"5313":-0.007703,"5314":-0.010885,"5315":0.009309,"5316":0.011514,"5317":0.000995,"5318":0.004512,"5319":-0.016207,"5320":-0.00456,"5321":0.003524,"5322":-0.01654,"5323":-0.005984,"5324":-0.00599,"5325":-0.006104,"5326":-0.001752,"5327":0.002164,"5328":-0.008792,"5329":-0.008941,"5330":-0.00391,"5331":-0.003236,"5332":-0.000911,"5333":0.002103,"5334":0.010995,"5335":-0.004494,"5336":0.003222,"5337":0.003521,"5338":0.001117,"5339":0.016366,"5340":-0.008883,"5341":-0.008596,"5342":-0.002204,"5343":-0.007143,"5344":0.005816,"5345":-0.006502,"5346":-0.018282,"5347":0.004688,"5348":-0.002521,"5349":0.004796,"5350":-0.003456,"5351":0.0037,"5352":-0.00034,"5353":0.006941,"5354":-0.006284,"5355":-0.000344,"5356":-0.004318,"5357":-0.010597,"5358":-0.001976,"5359":0.017565,"5360":0.004202,"5361":-0.003532,"5362":-0.009124,"5363":0.00109,"5364":0.002985,"5365":-0.008139,"5366":-0.000388,"5367":0.000044,"5368":0.013769,"5369":-0.004713,"5370":-0.005217,"5371":-0.009223,"5372":-0.003914,"5373":0.009301,"5374":0.003425,"5375":-0.003809,"5376":0.003422,"5377":-0.008689,"5378":0.006036,"5379":0.008028,"5380":-0.00031,"5381":-0.00502,"5382":-0.004493,"5383":0.013129,"5384":-0.000234,"5385":-0.008764,"5386":0.005001,"5387":0.007343,"5388":-0.014137,"5389":-0.001065,"5390":0.00162,"5391":-0.01002,"5392":0.000205,"5393":-0.00651,"5394":-0.001386,"5395":-0.002873,"5396":0.001056,"5397":-0.018559,"5398":0.000564,"5399":-0.007632,"5400":0.006289,"5401":-0.009808,"5402":0.005941,"5403":0.012877,"5404":-0.004074,"5405":-0.006499,"5406":0.00531,"5407":-0.01546,"5408":0.005241,"5409":-0.011693,"5410":0.008668,"5411":0.006079,"5412":-0.002203,"5413":-0.004012,"5414":-0.009555,"5415":0.007909,"5416":-0.007168,"5417":0.011316,"5418":-0.006815,"5419":-0.002653,"5420":0.005475,"5421":-0.001911,"5422":0.003835,"5423":0.006814,"5424":0.002968,"5425":0.002735,"5426":0.001545,"5427":-0.007612,"5428":-0.003453,"5429":-0.008881,"5430":0.002431,"5431":-0.000847,"5432":-0.004974,"5433":-0.000582,"5434":-0.00546,"5435":0.011195,"5436":-0.000839,"5437":-0.01539,"5438":0.000749,"5439":-0.003567,"5440":-0.00867,"5441":0.002986,"5442":0.006112,"5443":0.010293,"5444":-0.004751,"5445":-0.013667,"5446":0.002963,"5447":0.015939,"5448":0.006642,"5449":-0.000894,"5450":-0.011436,"5451":0.007511,"5452":-0.016177,"5453":0.00325,"5454":-0.000674,"5455":-0.001421,"5456":0.004135,"5457":-0.012313,"5458":-0.015293,"5459":0.011972,"5460":-0.000704,"5461":-0.003377,"5462":0.002055,"5463":-0.000473,"5464":-0.010671,"5465":-0.004126,"5466":0.000128,"5467":-0.007089,"5468":-0.001318,"5469":0.003694,"5470":-0.002292,"5471":0.000843,"5472":0.00199,"5473":0.006228,"5474":-0.012866,"5475":-0.00929,"5476":0.004855,"5477":-0.010459,"5478":-0.01095,"5479":-0.021561,"5480":0.001845,"5481":-0.004112,"5482":-0.011055,"5483":-0.006103,"5484":-0.002496,"5485":-0.005206,"5486":0.000621,"5487":0.019135,"5488":-0.006896,"5489":0.002871,"5490":0.006752,"5491":0.004429,"5492":0.007458,"5493":0.00502,"5494":-0.005267,"5495":0.00455,"5496":0.004168,"5497":0.010592,"5498":-0.003706,"5499":-0.00124,"5500":0.000096,"5501":0.00437,"5502":0.000869,"5503":0.00321,"5504":-0.010953,"5505":-0.012834,"5506":0.007394,"5507":0.008974,"5508":-0.007024,"5509":0.003686,"5510":-0.002737,"5511":-0.008479,"5512":-0.006898,"5513":-0.005624,"5514":0.004849,"5515":0.000626,"5516":0.001181,"5517":0.001081,"5518":-0.01205,"5519":0.001913,"5520":-0.003798,"5521":0.010534,"5522":0.01251,"5523":0.009444,"5524":-0.000268,"5525":0.000143,"5526":-0.004562,"5527":-0.006458,"5528":-0.005165,"5529":0.007138,"5530":-0.001408,"5531":0.00086,"5532":0.002256,"5533":-0.001164,"5534":0.001228,"5535":0.003344,"5536":0.004778,"5537":0.000365,"5538":-0.000288,"5539":-0.004335,"5540":-0.006952,"5541":-0.008732,"5542":-0.000261,"5543":0.006096,"5544":-0.007365,"5545":-0.00411,"5546":0.014517,"5547":0.004203,"5548":0.014783,"5549":-0.010316,"5550":-0.004799,"5551":0.005245,"5552":0.007547,"5553":-0.011332,"5554":-0.006726,"5555":-0.000114,"5556":-0.004707,"5557":-0.003429,"5558":0.00002,"5559":-0.006873,"5560":-0.001379,"5561":-0.001986,"5562":-0.010897,"5563":-0.003538,"5564":0.001537,"5565":-0.005494,"5566":-0.002664,"5567":0.013939,"5568":-0.003318,"5569":-0.006725,"5570":-0.007871,"5571":0.007407,"5572":-0.001615,"5573":-0.008268,"5574":-0.005575,"5575":-0.00449,"5576":0.000482,"5577":0.00236,"5578":-0.016716,"5579":0.010608,"5580":-0.006106,"5581":-0.004129,"5582":-0.00472,"5583":-0.001864,"5584":-0.011215,"5585":-0.005542,"5586":-0.007006,"5587":0.010806,"5588":-0.001189,"5589":-0.002022,"5590":0.003402,"5591":-0.001331,"5592":0.00801,"5593":0.009412,"5594":0.000963,"5595":-0.006175,"5596":-0.012393,"5597":-0.006258,"5598":0.00469,"5599":-0.003386,"5600":0.003361,"5601":0.006015,"5602":-0.009533,"5603":0.007418,"5604":-0.004183,"5605":0.001365,"5606":0.002361,"5607":-0.013432,"5608":0.003283,"5609":0.002356,"5610":-0.011071,"5611":-0.001731,"5612":-0.009644,"5613":-0.007244,"5614":-0.003915,"5615":-0.007541,"5616":-0.003846,"5617":0.00224,"5618":-0.002826,"5619":0.000144,"5620":0.009517,"5621":-0.008113,"5622":0.000791,"5623":-0.003142,"5624":0.002101,"5625":-0.008585,"5626":-0.003377,"5627":0.001434,"5628":0.011694,"5629":-0.004718,"5630":-0.009066,"5631":0.006294,"5632":0.001155,"5633":0.00908,"5634":-0.011064,"5635":0.000647,"5636":-0.005871,"5637":0.006656,"5638":0.01009,"5639":-0.00195,"5640":-0.013923,"5641":0.015576,"5642":0.008154,"5643":0.002736,"5644":0.007073,"5645":0.001534,"5646":0.000707,"5647":-0.008703,"5648":-0.002718,"5649":0.006819,"5650":-0.006437,"5651":0.010818,"5652":-0.001273,"5653":-0.013289,"5654":0.002043,"5655":-0.005895,"5656":0.001512,"5657":-0.006547,"5658":0.003954,"5659":0.01238,"5660":0.007339,"5661":0.006018,"5662":-0.012339,"5663":0.000624,"5664":0.007553,"5665":0.001815,"5666":0.001954,"5667":0.015298,"5668":-0.005232,"5669":-0.009085,"5670":0.002306,"5671":0.000903,"5672":-0.002672,"5673":0.002876,"5674":0.007507,"5675":0.009361,"5676":0.001212,"5677":-0.007925,"5678":0.001998,"5679":0.006154,"5680":0.016453,"5681":-0.006184,"5682":0.000788,"5683":0.020103,"5684":-0.011526,"5685":-0.000377,"5686":-0.010079,"5687":-0.001796,"5688":0.006591,"5689":0.007269,"5690":-0.013241,"5691":0.0055,"5692":0.007438,"5693":-0.013077,"5694":0.001858,"5695":-0.000114,"5696":-0.001056,"5697":0.006751,"5698":-0.005927,"5699":0.011629,"5700":-0.009328,"5701":-0.009143,"5702":-0.012542,"5703":-0.005939,"5704":0.005841,"5705":0.004233,"5706":-0.003071,"5707":0.008074,"5708":-0.000762,"5709":-0.00511,"5710":-0.010962,"5711":0.001036,"5712":-0.005073,"5713":-0.003511,"5714":0.007018,"5715":0.010719,"5716":-0.001147,"5717":-0.014341,"5718":0.002187,"5719":0.00167,"5720":0.007304,"5721":-0.002117,"5722":-0.003882,"5723":0.006591,"5724":-0.001512,"5725":0.002337,"5726":0.010735,"5727":-0.007365,"5728":0.003111,"5729":-0.004765,"5730":0.002596,"5731":0.017216,"5732":-0.01001,"5733":0.0151,"5734":-0.00862,"5735":0.00231,"5736":-0.001482,"5737":-0.009989,"5738":-0.004887,"5739":0.012162,"5740":0.000587,"5741":0.000954,"5742":0.000708,"5743":0.000984,"5744":0.00808,"5745":0.004852,"5746":-0.005724,"5747":-0.00283,"5748":-0.008887,"5749":0.006805,"5750":0.008754,"5751":0.000999,"5752":-0.003611,"5753":-0.005433,"5754":-0.011012,"5755":-0.001762,"5756":-0.014124,"5757":-0.012193,"5758":0.005612,"5759":-0.006298,"5760":0.000774,"5761":-0.000511,"5762":0.005159,"5763":0.00704,"5764":0.00295,"5765":-0.005356,