{"layers":[{"out_depth":1,"out_sx":225,"out_sy":225,"layer_type":"input"},{"sx":10,"sy":10,"stride":5,"in_depth":1,"out_depth":8,"out_sx":44,"out_sy":44,"layer_type":"conv","l1_decay_mul":0,"l2_decay_mul":1,"pad":2,"filters":[{"sx":10,"sy":10,"depth":1,"w":{"0":-0.13381427943758,"1":0.19579008974868356,"2":0.030363092471188034,"3":0.0001156653902926805,"4":0.008526405767856507,"5":-0.0626496312450912,"6":-0.09616759837879443,"7":0.08303657124715032,"8":0.11020736058963704,"9":0.06953366955521603,"10":0.05789612047548701,"11":0.2033862272997667,"12":-0.10429180677785453,"13":0.003692683635564362,"14":0.056317354167325855,"15":-0.004384062261862921,"16":-0.036458839823603845,"17":-0.0014967251841100802,"18":-0.03526746544251642,"19":0.019296208865476852,"20":0.16554893930222536,"21":0.11526222356948125,"22":0.07841243493508905,"23":0.031080122680339394,"24":0.0076461556699454,"25":0.05292843275723013,"26":0.1728413627307506,"27":0.021824775159617574,"28":0.015196600190460922,"29":-0.033586495862855906,"30":-0.11917927256294254,"31":0.032728422572910434,"32":-0.18299017205859114,"33":-0.005030636992176913,"34":0.10455050687023835,"35":0.06855878180685929,"36":-0.15022792291655143,"37":0.05294199980017989,"38":0.10679007282817377,"39":-0.0222930539701833,"40":0.039623720264523495,"41":0.1021840363896982,"42":0.10534462082128088,"43":0.12065386513143368,"44":-0.08057302378148658,"45":0.1113177259496703,"46":-0.08267582226150555,"47":-0.13296724001391577,"48":0.013627571964613373,"49":0.02630442651128736,"50":0.04993132182478626,"51":0.04661783027343955,"52":0.14475710275319198,"53":0.05261642386690285,"54":0.14233665185050162,"55":0.0013865262060096851,"56":0.04475518681478439,"57":0.18237244089946275,"58":-0.07295283036622714,"59":-0.018364293265684038,"60":0.11597615988517065,"61":-0.15562227263614048,"62":0.05417604955895216,"63":0.11379107820931675,"64":0.0782491429366573,"65":-0.11005390561839981,"66":-0.03560123512721288,"67":-0.07746466846934641,"68":0.14482267765815976,"69":0.027151325816085103,"70":-0.18353654411234077,"71":-0.07100245189721173,"72":0.0857142209291476,"73":-0.05748921575350992,"74":0.02402626155035877,"75":-0.04327158401715177,"76":0.04330778911727948,"77":0.0986211175087417,"78":-0.07945587803966088,"79":0.09616906316602086,"80":0.005003090465890177,"81":0.12612926426061216,"82":0.15173732093564174,"83":-0.05884144548975965,"84":-0.04469571606749294,"85":0.06136530282604135,"86":-0.06016024110206052,"87":0.03904569643344538,"88":0.0010460253306249468,"89":0.08490666561776769,"90":-0.08112325577879019,"91":-0.10898506681349258,"92":0.059884833408341276,"93":0.02027279093638151,"94":0.11688591193314363,"95":0.06313969206147062,"96":-0.010970035477336904,"97":-0.05808053757387089,"98":0.08324997962994449,"99":-0.22292129102477046}},{"sx":10,"sy":10,"depth":1,"w":{"0":-0.05175493194757535,"1":0.07197192896931268,"2":-0.0522574456069318,"3":-0.07959679025487096,"4":0.11405543973996435,"5":0.13661951120454258,"6":0.05550898351562959,"7":0.1660190937699078,"8":0.020936127073757367,"9":-0.05681344104407775,"10":-0.08104448916019244,"11":0.006663373842661235,"12":0.08754792240632925,"13":0.008411432551321835,"14":0.011004294128288662,"15":0.050384237610882114,"16":0.0693213708588372,"17":0.09295294722762693,"18":-0.02866293714963524,"19":0.05716151658803321,"20":-0.06843180082152803,"21":0.07815415275708,"22":-0.06157625407792614,"23":0.09436758591039247,"24":-0.057076097192378154,"25":-0.021787731004724697,"26":-0.020732164188406614,"27":0.0912701949010879,"28":0.13307923757702314,"29":0.044580462971397554,"30":0.050572983589977756,"31":-0.07902974643365837,"32":-0.09704728761360557,"33":0.07410603135261268,"34":-0.19125395185767483,"35":-0.06043184634300181,"36":0.17268466771393853,"37":-0.11166704211007454,"38":0.17765091335355965,"39":0.07102852874294809,"40":0.11093644709765874,"41":-0.008096042505985588,"42":0.017630333673687014,"43":0.22948225752047574,"44":0.01930331044131592,"45":-0.08725014291042088,"46":-0.0403157263530793,"47":0.004492348409763565,"48":0.05530897030937318,"49":0.005920936258137548,"50":-0.013813802318284305,"51":-0.0386069244315505,"52":-0.07698153716714416,"53":0.11993965293329498,"54":-0.16954073037205206,"55":0.12491143554511554,"56":-0.021142634548091083,"57":-0.02002577782167912,"58":0.025891350812744213,"59":-0.05156330509036346,"60":-0.02512841232161341,"61":-0.03056102800419412,"62":0.1366831621820382,"63":-0.07972639086579299,"64":-0.018272708936687865,"65":-0.17877208883643145,"66":-0.00024427055826525314,"67":0.026133894605851932,"68":0.0948594319509641,"69":-0.008953542365153172,"70":-0.09196181649649662,"71":-0.022695864579978006,"72":0.0582014084791792,"73":-0.0088597535649432,"74":0.15062688874268182,"75":-0.1936680153832054,"76":-0.02997341717998316,"77":0.14368730946709315,"78":-0.006957439526362935,"79":0.08635755629557462,"80":-0.07015226950655422,"81":-0.013506431260983477,"82":0.07189865020603141,"83":0.05901072643775539,"84":-0.1324273601006346,"85":-0.0932713012884401,"86":-0.03297761446933638,"87":0.007904608612068828,"88":0.10181532370830575,"89":-0.13746237280267623,"90":-0.0014174457377394583,"91":0.0030307947270422366,"92":0.0612098899689403,"93":0.15205451604197007,"94":0.04145324841102835,"95":0.1165367034925465,"96":0.14544529554345345,"97":-0.20324438539237485,"98":-0.1422815462056268,"99":-0.06687120438029476}},{"sx":10,"sy":10,"depth":1,"w":{"0":-0.062382974922833165,"1":-0.03737050064357697,"2":0.008072136740520663,"3":-0.08590169133544356,"4":0.06925098707198081,"5":-0.026337527530235307,"6":-0.06670021859479885,"7":-0.19875613746897197,"8":-0.046169197748419426,"9":0.13114608159488025,"10":-0.012177755538581038,"11":0.008662142855095796,"12":-0.10112588026202715,"13":0.032723219752308894,"14":-0.17435473509510455,"15":0.0577456715824879,"16":-0.031254242954969626,"17":0.02426642900647513,"18":-0.17983155628239436,"19":0.12295636465096418,"20":-0.10896160597621292,"21":0.01287819059706361,"22":-0.033451304210994,"23":0.0034503578081296403,"24":-0.03837916885606596,"25":-0.037313347218550674,"26":-0.11106404803037316,"27":0.08424243840088795,"28":-0.02787661126319595,"29":0.045722894307763676,"30":0.11685797011206192,"31":0.13910272494875783,"32":0.03583539606029775,"33":-0.030029522350809024,"34":0.056563689911236115,"35":0.07811626005519075,"36":0.14956034444425498,"37":0.07939871902484125,"38":0.09419466288263675,"39":0.0458227313280635,"40":-0.027078110715963728,"41":0.07064616849510527,"42":-0.027875395191681474,"43":0.014890748639433262,"44":0.17173490689414175,"45":0.050300505129876175,"46":0.13286298817847472,"47":-0.03520725473291154,"48":-0.05749731837510018,"49":0.07733366965442878,"50":-0.12721097810025778,"51":-0.18063820153542143,"52":0.007643869617794915,"53":0.05709886359468797,"54":0.1268956092966108,"55":-0.13463893570217852,"56":0.058256585322843925,"57":-0.09045850381252908,"58":-0.0955843144413717,"59":-0.021885851947020103,"60":0.036195917714667666,"61":0.03446143115031342,"62":0.05832478301600498,"63":-0.04581862803456508,"64":0.019760680243766694,"65":-0.062258927933709664,"66":-0.13330884042966423,"67":0.09873353689499244,"68":-0.09492038475528597,"69":-0.07110214390951976,"70":0.1859700178732802,"71":-0.06096063922693104,"72":0.11580458246774908,"73":-0.028657058858897237,"74":-0.01331349964583119,"75":-0.023441272608931432,"76":-0.04415311009367236,"77":0.05572088441213644,"78":0.03487004783866311,"79":0.04968919687726209,"80":0.04968308792929512,"81":0.04746369024222423,"82":0.07034829335078263,"83":-0.025567387747436183,"84":-0.08242443508796075,"85":0.14168900082959457,"86":0.06693368002265926,"87":-0.017173305285200533,"88":0.08888107630832899,"89":-0.09766188569109961,"90":-0.17075902154214379,"91":-0.01972791454679495,"92":0.06599062914210187,"93":0.10151063094177548,"94":-0.09300853509056492,"95":-0.11147448098711281,"96":0.019106761579402994,"97":0.21906623290685096,"98":-0.11443114616407402,"99":-0.11689700796544444}},{"sx":10,"sy":10,"depth":1,"w":{"0":0.20746773908896604,"1":-0.09641869021229264,"2":0.02205405254807391,"3":0.043377162313052164,"4":-0.07877082011657495,"5":-0.10194860944847757,"6":0.02876986722792952,"7":-0.1588454771999975,"8":0.06515536313499622,"9":0.19977322122067687,"10":-0.1493882237804321,"11":-0.07252380406574024,"12":-0.10942463662548217,"13":-0.05480538998928415,"14":0.1142634394191183,"15":-0.011450651504484547,"16":0.09514066388813228,"17":0.10025775172769348,"18":0.09439811195351647,"19":-0.0375415490527916,"20":0.06482701354581794,"21":0.243169198453321,"22":0.019518066309504728,"23":-0.15973843351615985,"24":-0.03671169979274159,"25":-0.15999346074005744,"26":0.05846666918177668,"27":-0.09855092688663074,"28":0.07161151692530703,"29":-0.09570636608882217,"30":-0.039161760733609476,"31":0.16237736883651469,"32":-0.06686556205341065,"33":-0.02398141888140006,"34":-0.2203793959981201,"35":-0.057263550471030336,"36":0.004547961719082304,"37":0.08182154913153253,"38":0.08037751509961802,"39":-0.04545588310307871,"40":-0.20458864525868906,"41":-0.0948271487674103,"42":0.11157150547188162,"43":0.06763272308558657,"44":-0.11945593045150968,"45":0.03650415439776618,"46":-0.021751042150014954,"47":-0.06153481397810132,"48":-0.044393773627659734,"49":-0.0033078375252255394,"50":-0.08111460108133345,"51":-0.09838929373384958,"52":-0.10796078651624014,"53":0.047699820227587376,"54":0.014841552180467626,"55":-0.09901623966142063,"56":-0.116719595734975,"57":0.04116661610113977,"58":-0.06298710570797378,"59":-0.048206989633064815,"60":-0.19007710542945688,"61":0.1355519858459069,"62":0.03727122379244935,"63":-0.09112604865892814,"64":0.0772945094755937,"65":-0.03971979993220301,"66":0.13913549947633597,"67":0.02174746777368045,"68":0.03983495386697364,"69":0.03449580507653744,"70":0.16970986790430556,"71":-0.034988652537402465,"72":-0.06652150419384499,"73":0.028563347186930908,"74":0.08914676065087977,"75":0.047566880394592795,"76":0.1089689878970972,"77":0.07093242737897486,"78":0.021395227275120464,"79":0.062022019226178754,"80":0.005114913302164938,"81":-0.07722684565425555,"82":-0.0011260271529077222,"83":0.21692072683375233,"84":-0.05228473448569725,"85":0.11371875860075795,"86":-0.012804992186507637,"87":-0.05681460779138492,"88":0.15032836269556468,"89":0.019382585849397758,"90":-0.024362074116993895,"91":-0.03261585769262566,"92":-0.01217414289062898,"93":-0.08145051165448464,"94":0.10432418849861225,"95":0.016822841406881325,"96":0.015335007140802432,"97":0.08579351877373745,"98":-0.11680815850958733,"99":-0.017460323303441955}},{"sx":10,"sy":10,"depth":1,"w":{"0":0.16511922573598706,"1":-0.07895652591536553,"2":0.036756667792050564,"3":0.02856543284648319,"4":-0.0748707513992655,"5":0.027260386617589966,"6":0.015286765410352112,"7":-0.2126941156251429,"8":0.12160880146661518,"9":-0.032580336504144,"10":-0.02800133036779149,"11":0.11379147842032525,"12":0.0695540309218105,"13":0.07676129102962596,"14":0.014835082688391558,"15":-0.09474537228917448,"16":-0.20843045204503033,"17":0.05105296033522312,"18":0.03672323266249035,"19":-0.003521384655261517,"20":-0.1904859840999461,"21":0.0536302933489399,"22":0.07181034285508958,"23":-0.15633543895528088,"24":0.1104670851150676,"25":0.006339060033726024,"26":-0.05865570993083713,"27":-0.19499644480024653,"28":0.08944474342854498,"29":0.06706853696933478,"30":0.027329833397310536,"31":-0.068861740368109,"32":0.004708063154998849,"33":-0.02923537523643223,"34":-0.029441522919236227,"35":0.007222453228909219,"36":0.05457618242883692,"37":0.038173673491907874,"38":0.01236409555409439,"39":-0.034586685813152766,"40":0.03807251435360809,"41":0.09273833806368084,"42":0.06166877871032513,"43":0.15903429485395248,"44":0.24093518586836854,"45":-0.0729173823881369,"46":0.011636747009111015,"47":-0.18261769652282117,"48":-0.15260871247710545,"49":0.10448954837254622,"50":-0.031912300918588446,"51":0.04958986873335545,"52":-0.029630981283665443,"53":-0.36686985554544393,"54":-0.01847233561601379,"55":-0.08286401488983243,"56":0.08449007741104793,"57":0.04468978642402739,"58":-0.012403480064502948,"59":0.0945543883707672,"60":-0.23650878220122537,"61":0.07864617247299249,"62":0.033364473971764994,"63":0.042176076761440265,"64":-0.08569305730463135,"65":0.040647956578801506,"66":-0.11552201143789796,"67":-0.04856676217254682,"68":0.022384131551077453,"69":0.06012007406975122,"70":-0.08242569543782068,"71":-0.022897301775773156,"72":0.06423123052106205,"73":-0.16740703522296393,"74":-0.00442468424877453,"75":0.19399499105155393,"76":-0.18668713503154613,"77":0.016439441068448666,"78":0.1448108771106551,"79":0.19400039526962695,"80":0.10499896891260058,"81":-0.09019339523371891,"82":0.06340843844265039,"83":-0.06204579039979488,"84":-0.1208339990999614,"85":-0.20153067383749468,"86":-0.031248448306516043,"87":0.02909198803058298,"88":0.001037747045296567,"89":-0.08695220377204763,"90":0.1380881833961342,"91":0.08611511509310787,"92":-0.10390821522514707,"93":-0.14771163334262416,"94":0.18730163838652583,"95":0.10121058586604838,"96":0.03696389585802145,"97":-0.02700894831602483,"98":0.029303070291381107,"99":0.009302786195168711}},{"sx":10,"sy":10,"depth":1,"w":{"0":-0.13319426848699464,"1":0.04687164540112503,"2":0.09985071229440652,"3":-0.084012923993051,"4":0.01369017457107895,"5":0.09336506663822397,"6":-0.07005991963259922,"7":0.042225092306609924,"8":-0.12098883970587913,"9":0.16575454417396487,"10":-0.1330997249647133,"11":-0.07381131934019121,"12":-0.07069049658878279,"13":-0.05028883577022725,"14":0.15691279040014328,"15":-0.22316820633587797,"16":-0.023274354319787686,"17":-0.06101349139013862,"18":0.08360352607860852,"19":0.021389214476636564,"20":0.13899097245685765,"21":0.015091014707129142,"22":0.13524709230625354,"23":0.20574108604694352,"24":-0.016956345072889494,"25":-0.09135079513650839,"26":-0.026546691594328785,"27":-0.04946904905391977,"28":-0.20700256616874735,"29":-0.02546591696300115,"30":0.19780620573397317,"31":0.013299191568349956,"32":-0.19401113285866523,"33":0.06585510454135884,"34":-0.020816712830105683,"35":0.12435833924364448,"36":-0.12188554990772904,"37":0.2261909564823248,"38":0.040907401571635804,"39":-0.027212777958713616,"40":-0.1899964376397292,"41":0.07793865332856122,"42":0.09545433752602168,"43":0.00897018666248624,"44":-0.02601306817431173,"45":0.12153533341947692,"46":0.02969446326828617,"47":-0.042414856422393,"48":0.08258499023077735,"49":0.14623517114004908,"50":0.01639637978506912,"51":-0.22008887381272596,"52":-0.02956544267391082,"53":-0.06557310727300675,"54":-0.07102142078501028,"55":-0.03589131380873468,"56":-0.049750430009433876,"57":-0.045265591669065186,"58":0.07976199994093879,"59":0.017866741219654064,"60":-0.027434066922691708,"61":0.15621008010473614,"62":0.1060508097403232,"63":0.07387187684250789,"64":-0.0021382024660138435,"65":0.10460466794529415,"66":0.03927043147108253,"67":-0.027205950458428132,"68":-0.05512470955036816,"69":-0.012745186143801213,"70":-0.031199200707707722,"71":0.09225822208998205,"72":0.05232298477214985,"73":-0.14607458473305726,"74":0.10866303037402267,"75":-0.2554680095602653,"76":-0.012277928462618427,"77":0.04912513850108614,"78":0.18827233999771628,"79":0.047561220722893933,"80":0.0166580474088921,"81":-0.07908546316166143,"82":0.04257652824861771,"83":0.013671996099014176,"84":0.0979606715259,"85":0.04383427681294002,"86":0.016612832256163272,"87":0.03547083636166012,"88":0.03809537113465028,"89":-0.07853658208560924,"90":-0.07042755031485681,"91":0.038892495605453194,"92":0.06245370276911498,"93":-0.10659866305093701,"94":0.020376626069604685,"95":-0.07040568557327367,"96":-0.11062614022904398,"97":0.037006187866495024,"98":0.03912032249339785,"99":0.10771767342424965}},{"sx":10,"sy":10,"depth":1,"w":{"0":0.045873840739988334,"1":0.08295275395395545,"2":-0.21323148917258747,"3":-0.18219959669989275,"4":0.09274775661255646,"5":-0.0524819978350351,"6":0.07434509941570729,"7":0.04852427201137732,"8":-0.0862870307445044,"9":0.008285396825638003,"10":0.10128029720648102,"11":-0.030329721811308448,"12":-0.23237528738141547,"13":-0.1496939363182173,"14":-0.027082182163470612,"15":-0.09384861597231926,"16":0.006797544218256192,"17":0.017295953879520574,"18":-0.017466672963424898,"19":-0.04224622764393831,"20":0.03606930032641807,"21":0.004694221315345772,"22":0.054870525907710604,"23":-0.02326583219158447,"24":-0.04065955966600444,"25":-0.0022617401058162407,"26":-0.029108229523808173,"27":0.09068448475422176,"28":0.035213407618406786,"29":-0.09330739466823593,"30":0.03134986610874132,"31":0.00623594668025191,"32":0.017871759200877566,"33":-0.19832263418896615,"34":0.02937646245657106,"35":-0.0485843870476331,"36":0.05717799896939769,"37":-0.00972298319581917,"38":0.0543202489474762,"39":-0.11024008836015727,"40":0.13551335391305266,"41":-0.1542204245847699,"42":-0.05539999493572871,"43":0.14256658869567765,"44":-0.004159490672183675,"45":-0.09701510397939515,"46":-0.0791912355282599,"47":-0.016048086509032725,"48":-0.030430052147651133,"49":-0.0337407069342383,"50":-0.008284795326081552,"51":-0.04375321384382665,"52":0.03492737532276042,"53":0.03446581263142146,"54":-0.14564543554386689,"55":0.07166405810174942,"56":-0.06219449081266156,"57":-0.10150022324190751,"58":0.12145731353045854,"59":-0.09689683430560143,"60":-0.11494204088070578,"61":-0.111229951995569,"62":-0.01003272022381519,"63":-0.11018887580417212,"64":0.02944416874836866,"65":0.08096544095242655,"66":-0.02196293125267679,"67":-0.01482523033021453,"68":-0.054342466655985217,"69":0.025543151621290148,"70":-0.19023401992375927,"71":0.05670025551241104,"72":-0.04559367171788403,"73":0.09848759679524066,"74":0.08542885021585869,"75":0.00942208465458201,"76":0.1654640046143961,"77":0.020770292750430384,"78":-0.023598972276114856,"79":0.062398355727462024,"80":-0.06191665781806914,"81":0.006806314427373562,"82":0.08336885222163734,"83":-0.03949444058012341,"84":-0.0682770216155845,"85":-0.1732555166275346,"86":-0.057960321164169194,"87":0.045314062717827154,"88":0.009753641090615826,"89":-0.17979353737493448,"90":-0.19289281061166288,"91":-0.0127679912445978,"92":0.04825477992952615,"93":0.005146186705470578,"94":0.006839092093357328,"95":-0.06569464237440249,"96":-0.12276382719695046,"97":0.014818011392432617,"98":-0.07578499853231334,"99":-0.016751034033211945}},{"sx":10,"sy":10,"depth":1,"w":{"0":-0.05334330144635235,"1":-0.05978414656803156,"2":0.05564307426146245,"3":-0.11950411502530248,"4":0.14596035988355255,"5":0.042547042719627996,"6":-0.25783466330766786,"7":0.031640884647643704,"8":-0.07634976118721722,"9":-0.045643274314611265,"10":0.028494098786513426,"11":0.16737152225475202,"12":-0.0016777136322110864,"13":-0.1293762585723938,"14":0.10369743933125071,"15":0.02371642635399264,"16":0.10364338578428736,"17":0.08260909024144186,"18":0.03390483116611645,"19":-0.15322455966283544,"20":-0.06505875984849227,"21":-0.024060293837536773,"22":-0.08827372211700334,"23":-0.16715936611940455,"24":0.06076850405078767,"25":0.009559774905120909,"26":-0.019635128485773732,"27":0.16946551784642364,"28":-0.08552280323164116,"29":-0.07501305191417558,"30":0.04747172882511322,"31":0.02787144182414971,"32":-0.09302852942190999,"33":-0.0867417986677005,"34":0.299758120585064,"35":0.09101097925598428,"36":0.05112396515909217,"37":0.053105154441006504,"38":0.022394482618373308,"39":-0.16102671045836076,"40":-0.13385200349347123,"41":-0.03813611395007643,"42":0.07581875119526926,"43":-0.11708755501297521,"44":-0.01207889263048307,"45":0.020275160185757233,"46":0.1572310511394461,"47":0.19848633173956026,"48":-0.05910952738609512,"49":0.053947611033136014,"50":0.07755546505763349,"51":0.08834845337646802,"52":-0.005995766216811733,"53":0.09049005381915494,"54":-0.08376102807662303,"55":-0.05203637104988289,"56":-0.010400741109671468,"57":0.12863297999151713,"58":-0.04344979139402087,"59":0.005837993772441482,"60":-0.07642141547405862,"61":0.031205625840305076,"62":0.07649408712366046,"63":0.030693877189870867,"64":0.02703164489222316,"65":-0.05957081146990873,"66":0.09878041142133116,"67":-0.07147112172035414,"68":-0.041777281176474876,"69":-0.006900977219328036,"70":0.024428166098344636,"71":0.002201424676167812,"72":-0.019009976464580736,"73":0.01061966968070939,"74":0.0892175802775576,"75":0.13096763906207565,"76":-0.02138714687601099,"77":-0.10966041573406476,"78":-0.0740458481685831,"79":0.05098977060180849,"80":-0.06744203909359762,"81":-0.12431381191177639,"82":0.045583164843109814,"83":0.10307233914902236,"84":-0.018697204263231508,"85":0.03673586017559815,"86":-0.04001013699613713,"87":0.004874587280703262,"88":0.0912749477632953,"89":-0.05487198835050534,"90":-0.10269508156666471,"91":0.020088286766224917,"92":0.0865036046396317,"93":0.0017153369981188884,"94":-0.01829762425071018,"95":0.03265336516861335,"96":0.021961681742623928,"97":-0.1377161778372968,"98":0.09608988298620354,"99":0.010661179264498891}}],"biases":{"sx":1,"sy":1,"depth":8,"w":{"0":0.1,"1":0.1,"2":0.1,"3":0.1,"4":0.1,"5":0.1,"6":0.1,"7":0.1}}},{"out_depth":8,"out_sx":44,"out_sy":44,"layer_type":"relu"},{"sx":5,"sy":5,"stride":5,"in_depth":8,"out_depth":8,"out_sx":8,"out_sy":8,"layer_type":"pool","pad":0},{"sx":5,"sy":5,"stride":2,"in_depth":8,"out_depth":20,"out_sx":4,"out_sy":4,"layer_type":"conv","l1_decay_mul":0,"l2_decay_mul":1,"pad":2,"filters":[{"sx":5,"sy":5,"depth":8,"w":{"0":-0.046288849193394065,"1":-0.014996342860830967,"2":0.05043233059812347,"3":0.07649664092790624,"4":-0.09042206332555532,"5":0.04113544343717858,"6":0.08472028700168797,"7":0.007813729193886112,"8":0.010357616878526167,"9":0.044970579535105575,"10":-0.1257863101551081,"11":0.08498336743600264,"12":0.06742868410251505,"13":0.0417874810042302,"14":0.04115660939110833,"15":-0.06942352094651784,"16":-0.009826983478559734,"17":-0.02215898469130105,"18":0.004547896969048026,"19":-0.1150960492130703,"20":0.0065692250785106005,"21":0.03570944686026752,"22":0.012444708776844926,"23":-0.1713215822645656,"24":-0.02181415167406734,"25":0.026210226249246814,"26":0.12474182446753453,"27":0.08312842266232617,"28":0.035702903921389355,"29":-0.00916479012986812,"30":0.09776788324038131,"31":0.01362618127706219,"32":-0.0004343775259143256,"33":-0.03133996744737504,"34":0.055829417446225695,"35":0.020532810868610116,"36":-0.11031188301923964,"37":0.026522463716875347,"38":-0.05221644125777804,"39":0.09675671484421074,"40":-0.03341935328114583,"41":0.05250282341655192,"42":0.08558715362210058,"43":0.009660436038778756,"44":0.027456055580704675,"45":-0.013823971425996019,"46":-0.06776006037815661,"47":0.05203905966601565,"48":0.009296457699083164,"49":-0.1207821021201741,"50":-0.04260247665413176,"51":-0.04664279190297798,"52":0.09300860216963946,"53":0.018029998116453887,"54":-0.027340350702762785,"55":-0.029315388281581034,"56":0.17219015705219035,"57":-0.06482418660114908,"58":0.00621525885203475,"59":0.06340865187210805,"60":0.0036332340185932827,"61":0.006777011858174453,"62":0.1132286794409612,"63":-0.11070462859602903,"64":0.025724242510435636,"65":0.0417513879273811,"66":-0.015007168991296973,"67":0.11991966863873174,"68":-0.0610472029011071,"69":-0.00614483529442614,"70":0.008240353273311907,"71":-0.015866735545530496,"72":0.14361931832740518,"73":-0.042538085281347164,"74":-0.0619459722117398,"75":-0.0757780579747769,"76":-0.06139991081402849,"77":0.041828826665294166,"78":-0.07546148907252263,"79":0.003657929101955764,"80":0.022596001093141204,"81":-0.005566857139096125,"82":0.04580172757378497,"83":0.06097416760520001,"84":0.057802860598826195,"85":0.01862180774316608,"86":0.07223360419217194,"87":-0.029893873109011777,"88":0.06572805552005782,"89":0.09934034190919427,"90":-0.03336080817033527,"91":-0.15168359749753252,"92":0.09231103511046095,"93":-0.0321196424332536,"94":0.03179066521267318,"95":-0.05151947456466127,"96":0.03540341977181666,"97":-0.0321233917024799,"98":0.0706292261670565,"99":-0.0841681938612497,"100":-0.04856346911990641,"101":-0.04821335768719265,"102":0.010216774269835086,"103":0.1293707199064201,"104":-0.04007725059691628,"105":0.06358112360688395,"106":-0.011311139846766334,"107":0.08653395184229871,"108":0.03242843548684644,"109":-0.05688365183532686,"110":0.008235255462790301,"111":-0.020953639102873046,"112":0.06827670030967274,"113":-0.02935276944164747,"114":0.05031585033774822,"115":0.028092758821409942,"116":-0.012849720012537303,"117":-0.02539174167333615,"118":0.03149736275515699,"119":0.07208198376583484,"120":-0.06316793812422566,"121":0.001097159003542812,"122":-0.009142672027844391,"123":0.03595216913459673,"124":-0.010790434636415578,"125":-0.08914197596561918,"126":-0.08456750773871359,"127":0.03905085114367971,"128":0.056811007195680246,"129":-0.028861849793604826,"130":-0.05244063168632384,"131":-0.04658281392969029,"132":0.012284226141454236,"133":0.029291853094393593,"134":0.00287937892396975,"135":-0.03041700192323622,"136":-0.0071877121846835685,"137":0.038218038782340404,"138":-0.045477171514386475,"139":0.05459451437467739,"140":-0.03598517304275109,"141":-0.012866757781081237,"142":-0.030840136239651955,"143":-0.10861181916649039,"144":0.06129926836634403,"145":0.003454470898986642,"146":-0.058677395877929875,"147":0.023887383870149537,"148":0.05647571628589066,"149":-0.015764203258479777,"150":-0.07123635794217277,"151":0.03198673108353242,"152":0.13382329666453122,"153":0.020014640283963183,"154":0.015665522499732534,"155":-0.009778491351483943,"156":-0.04203470168726018,"157":0.07270376742662851,"158":0.09941761000473158,"159":0.011354505954581179,"160":-0.03389738868281727,"161":0.011668360980183385,"162":-0.01944454460747427,"163":-0.10685668881031009,"164":-0.05249288488859323,"165":0.05757925027499486,"166":-0.006597857418842081,"167":0.1441721403808164,"168":0.09879151599771177,"169":-0.05753123453436471,"170":-0.016611460427600085,"171":-0.027412885665939538,"172":-0.08652049625144889,"173":0.03825465492762035,"174":0.0333440502423724,"175":0.10806827092686686,"176":0.1333864138156999,"177":-0.019923063929205464,"178":0.058761994917590536,"179":-0.0686278131152051,"180":0.037103508992386805,"181":0.1122310418264576,"182":0.012619667626170795,"183":0.036229594755533515,"184":-0.054368784069118735,"185":0.048380003019306034,"186":-0.014258961427105374,"187":-0.040094879813203754,"188":0.004941173285799509,"189":0.0443728646204613,"190":-0.054737891637669164,"191":-0.17095541703081463,"192":-0.08440255855859542,"193":0.012880809857198493,"194":0.028531146128806473,"195":0.17624037806943435,"196":-0.014517672867456054,"197":0.050190878119156596,"198":0.08912513500906558,"199":0.03753603301809387}},{"sx":5,"sy":5,"depth":8,"w":{"0":0.08366358050166593,"1":0.024812076228451285,"2":0.010288316001534832,"3":0.03951321335638506,"4":-0.004074610618631822,"5":-0.020084064593928315,"6":0.037907150698435164,"7":0.1475485714474149,"8":0.023603438524456895,"9":0.06807875415145206,"10":0.051259209026671845,"11":0.05110216117756142,"12":0.002225871217304566,"13":-0.002572616003213841,"14":0.060695597168447864,"15":0.07242753127638227,"16":0.0056614437274379315,"17":-0.0387208574459134,"18":0.024230051974453586,"19":0.0820670410478205,"20":0.0794606641892987,"21":-0.015421081014538695,"22":-0.0016418882431354094,"23":-0.0583284559789227,"24":0.0019968607196101155,"25":0.10492022159698405,"26":0.004268649674438758,"27":0.06025979979856279,"28":-0.15447030064983813,"29":-0.05666952003334821,"30":-0.03508932380174519,"31":-0.027073488762276447,"32":0.15224425926492705,"33":-0.05018944227672849,"34":-0.08113280339854513,"35":-0.11588055605707148,"36":-0.11882088867162742,"37":-0.02318288573358585,"38":-0.11858419254752796,"39":-0.0642140916119545,"40":0.01271901755529348,"41":-0.002699598018468088,"42":-0.11942762719926465,"43":-0.07506483674056799,"44":-0.03213833393599673,"45":-0.10626998395649048,"46":0.1599336299124785,"47":-0.09368934909895754,"48":0.0007697011540741607,"49":0.02617800765024959,"50":-0.03261668005243284,"51":-0.05363867770558457,"52":-0.04836350752785697,"53":-0.0353837969812947,"54":0.004734436858509505,"55":0.07468182169074959,"56":-0.052502498687577684,"57":-0.09262457338813623,"58":0.040730574384804256,"59":0.01581317276474211,"60":-0.04084641865148345,"61":-0.11685149539937136,"62":0.07459928449460504,"63":0.03260852358256947,"64":0.06447858485460808,"65":0.012064781405336,"66":-0.0264511435720776,"67":-0.007142388024156171,"68":-0.04021932229662453,"69":-0.08221244745352842,"70":0.17735256337747124,"71":-0.06691340899245982,"72":-0.0022842233689702274,"73":-0.06729117089959034,"74":0.08192828610068749,"75":0.08168430906211577,"76":-0.10440090427470677,"77":0.006199845907268169,"78":-0.090016186144169,"79":0.06782592096780597,"80":0.03924339321093166,"81":0.011662760716053747,"82":0.08165322445186678,"83":0.009448441815073054,"84":-0.04505053928014483,"85":0.10926014335958684,"86":0.07503332269559362,"87":-0.06412730540535717,"88":-0.024785732057428258,"89":-0.030142303133101327,"90":-0.028181954570342643,"91":-0.18428990427271538,"92":-0.05048186853794883,"93":0.01137107630238001,"94":0.06272706210629385,"95":0.07445572836169449,"96":0.08384386570949015,"97":-0.06441363389693656,"98":-0.04981584492977993,"99":-0.07360597595955808,"100":0.01767095654094616,"101":-0.038508181144550305,"102":-0.05218830774071881,"103":-0.03468135866290456,"104":-0.027707861160736057,"105":-0.05774002525423124,"106":0.04342435038453815,"107":-0.0667765443742409,"108":-0.06713055411642543,"109":-0.0831569523533564,"110":0.031761288451958025,"111":0.023988671893796613,"112":-0.10355263092379544,"113":0.158709803200098,"114":0.08161136274249674,"115":-0.05912251233612316,"116":-0.03054848507140669,"117":-0.08520522140147109,"118":0.08164790047121726,"119":0.024901746815361076,"120":0.02459771984758778,"121":-0.04212113228805991,"122":-0.05830775316553234,"123":0.16100579311977728,"124":0.049424142854673975,"125":0.012306648575172333,"126":-0.1630089381710464,"127":0.07725265631332316,"128":-0.08443609755181182,"129":-0.08688071464792399,"130":-0.01910737484155045,"131":0.009097156530988814,"132":-0.017805890040723214,"133":0.11804784676034255,"134":0.007876158702517707,"135":-0.030306171874998337,"136":-0.02055106986930296,"137":0.20257740663645762,"138":0.023672871195453665,"139":-0.08045273069438065,"140":0.0976845177874084,"141":-0.02627620470099629,"142":-0.08429920515193205,"143":-0.0742601815484791,"144":0.013591091020346507,"145":-0.11293174432164158,"146":0.21028129281600308,"147":-0.054576260131505336,"148":-0.07018488581721603,"149":0.003507802284176436,"150":-0.1461824898044597,"151":-0.046702467373104926,"152":0.04661469788886087,"153":-0.007836522266595796,"154":-0.005597845072397658,"155":-0.07241125073950219,"156":0.09373646691294964,"157":0.009520926761161399,"158":0.010523396012592551,"159":-0.060055333979759346,"160":0.0755326240304639,"161":0.05076510094298763,"162":-0.006796356972715166,"163":-0.019480324455229518,"164":-0.03359579437911033,"165":0.08581364874419434,"166":0.03346798838727095,"167":0.04219578863488104,"168":-0.006151980497266315,"169":0.04363668253043216,"170":0.02116033365118057,"171":0.060418286839688924,"172":0.10100325430666768,"173":0.05738296283618824,"174":0.026984830281503287,"175":0.04947439156588731,"176":-0.03794424266733845,"177":-0.01867994415265267,"178":0.05177067534298774,"179":0.007398973378458221,"180":0.025131938147893353,"181":0.11811889997521469,"182":-0.04787907257270944,"183":-0.011216455006726106,"184":0.019528111122060897,"185":-0.017018705068866623,"186":0.17241541391342508,"187":-0.045549847169366074,"188":0.002517756423275184,"189":-0.028834238141213896,"190":0.04571498848395379,"191":0.08691503504773088,"192":0.002452879581194156,"193":-0.04516950226667754,"194":0.10702467899450586,"195":0.022643028646887338,"196":0.07578672980613387,"197":0.02565493445896742,"198":0.055717775683404566,"199":-0.1111267538491249}},{"sx":5,"sy":5,"depth":8,"w":{"0":0.13862281453395847,"1":0.07984028570809279,"2":-0.03215457674476951,"3":-0.09237361764728841,"4":-0.04987394973682607,"5":0.10227007994699616,"6":0.11992712377327461,"7":0.0014072218843758832,"8":0.037161949768143236,"9":0.07683637522110541,"10":0.05542603276179522,"11":0.031290285634012115,"12":-0.007897679257098349,"13":0.006287054414800994,"14":-0.09529502870311671,"15":-0.04532514712761378,"16":-0.08990210849063261,"17":0.0553294558422969,"18":-0.04562170317818335,"19":-0.023671806840386816,"20":0.001808406009596329,"21":0.007171977234878908,"22":-0.00037302015882821095,"23":-0.03929300122505187,"24":-0.035443623496591053,"25":0.06525033922777311,"26":-0.010428273954764233,"27":-0.10566292918296545,"28":0.02981802629360752,"29":0.03312586029593912,"30":0.06890906189131803,"31":-0.04357776745120451,"32":-0.008605321276018997,"33":0.14320670896481394,"34":0.01977401588839194,"35":-0.01718383660843986,"36":-0.08883625282015592,"37":-0.09541947147572308,"38":0.06985293509392027,"39":-0.011699572184468699,"40":-0.02071089151248822,"41":0.11437528049003622,"42":0.03566409684978335,"43":0.06653417335422528,"44":-0.08068923738959034,"45":0.019085490674762968,"46":-0.02436591271138154,"47":0.06527254859254485,"48":-0.011108551030671591,"49":0.07282221449969846,"50":0.02110986581064341,"51":0.021422909827454185,"52":0.033376593212892304,"53":-0.18060618739394266,"54":-0.10437243414362472,"55":0.08853051323525925,"56":-0.059575473999048424,"57":-0.048053906987413526,"58":0.019519278550427094,"59":-0.08412254270900706,"60":0.13401269014997202,"61":0.053875971185552894,"62":0.03948027493216578,"63":-0.13084110051644546,"64":0.07886375967660794,"65":0.04106645591208697,"66":0.056362920298790496,"67":-0.0004028611070692216,"68":-0.05132143588624875,"69":0.05216304895065935,"70":-0.01356249705223486,"71":0.05019635763339332,"72":-0.09315503589848007,"73":0.1100146102601125,"74":0.018167002719890416,"75":-0.19483355260920684,"76":-0.028322444762472403,"77":-0.07922960181533163,"78":-0.011399003713750083,"79":0.02412176879606885,"80":0.08942910690603956,"81":-0.09498323675981651,"82":0.030367274333224274,"83":0.026614798054968296,"84":0.02109618176809976,"85":0.04412968000805712,"86":-0.06032133216029168,"87":-0.04734500113844591,"88":-0.029213675279439077,"89":0.02301601352526967,"90":-0.0354015374118199,"91":0.011465988582595737,"92":0.14041863671363178,"93":-0.023589711929985057,"94":0.023958409091668915,"95":0.02483731648441971,"96":-0.02819619530220422,"97":0.053107805698245907,"98":-0.036989920991352336,"99":-0.045574458409947505,"100":-0.06346984442633784,"101":-0.04007761891286708,"102":0.05001141304143634,"103":0.045522027855978406,"104":0.052375384502033766,"105":0.07830119969075838,"106":0.13522555157673133,"107":-0.12904387011302912,"108":0.013965859549022963,"109":-0.04074608005538764,"110":0.17456953242385248,"111":0.031679479778108234,"112":0.02305563278351269,"113":0.07587398181547515,"114":-0.12081026824293001,"115":-0.04755355454794623,"116":0.018149097962248516,"117":0.019027055501815753,"118":0.06152802000564628,"119":0.056305707147974185,"120":-0.05245705579343386,"121":0.008138310707261651,"122":-0.055104735640858875,"123":0.09002015943595071,"124":-0.14444455273496343,"125":0.11409924068861611,"126":0.19446025891938962,"127":0.003127615866303574,"128":0.02288529403574515,"129":0.054756144326711526,"130":0.043087696550954895,"131":0.083702204243105,"132":0.11618623533193323,"133":-0.06932340665182413,"134":0.08135082445845028,"135":-0.009218911600336086,"136":-0.009070569288827626,"137":-0.012147819592369238,"138":0.0796800950624708,"139":0.05975246340913141,"140":-0.05706540275328297,"141":0.08785847149669411,"142":0.08763246371048986,"143":-0.05992247557597937,"144":-0.030313054715668673,"145":0.06863905527131452,"146":0.04887404195803598,"147":0.0004792186601348939,"148":0.023188863300131417,"149":-0.05352451817578997,"150":-0.013232310682615395,"151":-0.06353985871761673,"152":0.013970992292837464,"153":-0.034277125060858546,"154":0.08738542504135555,"155":-0.04462730959676004,"156":0.08634920233443392,"157":0.08528138398751922,"158":0.10509548248157324,"159":-0.0016835237018731645,"160":-0.11504892096427105,"161":-0.04921672789599206,"162":0.09355769842148098,"163":-0.09383248212658983,"164":0.040998451112999684,"165":-0.0009350058099800098,"166":-0.11751004177584291,"167":-0.02176866737744007,"168":-0.04786628133648528,"169":-0.039626262477401634,"170":0.029239760608982177,"171":0.07657864907791286,"172":-0.02459949821449825,"173":-0.056342347078964586,"174":-0.03849821070538905,"175":-0.030757520490069735,"176":0.04336337863668469,"177":0.0638857055371703,"178":-0.1145984474081265,"179":0.04118595305588189,"180":-0.02313731238681298,"181":0.08626534541895711,"182":0.07740932302451743,"183":-0.05773094365269922,"184":-0.06370444471832933,"185":-0.07701368428460553,"186":0.01532694182245443,"187":-0.06468618978088571,"188":-0.12194892471047354,"189":0.09064374679091439,"190":0.08174406418305091,"191":0.03181818923017411,"192":0.13706969605819938,"193":0.06877134228551139,"194":-0.18549618080198135,"195":-0.04235212778020972,"196":0.07658615166312593,"197":0.10473866464372338,"198":-0.11009569006317593,"199":0.10965940683423094}},{"sx":5,"sy":5,"depth":8,"w":{"0":-0.06733218316926329,"1":0.08373288750768659,"2":0.03303331849851315,"3":-0.023295659049686765,"4":-0.0492825479228076,"5":-0.026361823536707855,"6":0.08478045385664751,"7":0.06449453339621429,"8":-0.015710882325795466,"9":-0.07857806958692753,"10":0.008018364222292558,"11":0.001470921351133916,"12":0.04375416315329408,"13":-0.06200212908882526,"14":0.2545667197497784,"15":-0.0201827642209208,"16":0.02509865347047972,"17":0.06873492639015308,"18":0.07362539467909233,"19":-0.005631865994582093,"20":0.050415759989562894,"21":-0.07156060003504547,"22":-0.08542552955264393,"23":0.05675618658245198,"24":-0.08453033511649716,"25":0.05233562292669465,"26":0.04570492030075298,"27":-0.1322853304950921,"28":0.020042106693450322,"29":-0.021012561373622972,"30":-0.03750561469299684,"31":-0.01862940945078345,"32":-0.06364575536164631,"33":-0.023024765001850998,"34":-0.07766371865397043,"35":0.005439744078274228,"36":-0.11759053418363447,"37":-0.04322909373901013,"38":-0.008374885432412497,"39":0.13524782301369823,"40":-0.042764459834628156,"41":0.00556942765339171,"42":0.0610908550522101,"43":-0.1237916965330596,"44":0.016577867739542566,"45":0.018649005545501744,"46":-0.0836226106022446,"47":0.03904036453118432,"48":0.02262166361006257,"49":0.008278883429544219,"50":0.1137885028710814,"51":0.014889795971338495,"52":-0.004022429275874041,"53":0.048486346047440426,"54":-0.07237804449592343,"55":0.018981514689828245,"56":-0.1367663732038535,"57":-0.028420801274246146,"58":0.09333948887886111,"59":-0.06276902573699757,"60":-0.016430142398339505,"61":-0.13220394115952616,"62":0.07404109649689261,"63":-0.07388646802236037,"64":0.14261083106669464,"65":0.1215290778625208,"66":-0.009993782882336424,"67":-0.03776384270429942,"68":0.0656429177242603,"69":-0.08230610192291773,"70":-0.03518998489453595,"71":0.00030034185469028104,"72":-0.03478672387514058,"73":-0.017985347140876917,"74":-0.028926775954159205,"75":-0.030173963642655094,"76":0.13956975542593883,"77":-0.06646974467176894,"78":-0.045493105223396606,"79":0.045823306446639796,"80":-0.13266854035685466,"81":-0.11816020499888921,"82":-0.09672719645530808,"83":0.01601963520768775,"84":0.14004436758766287,"85":0.0009922937976503822,"86":-0.10691783653196292,"87":0.09768630211214,"88":-0.0035266722651174152,"89":-0.06276347444366254,"90":-0.09403510615717689,"91":-0.05744629171298295,"92":-0.009905810130851097,"93":-0.021214111309229268,"94":0.007332972384721668,"95":0.08333177703465315,"96":0.08455351035872952,"97":0.09921846315604273,"98":0.048795658124127075,"99":-0.06013595673107673,"100":0.10325195977539776,"101":0.05828352318919489,"102":0.020177338126461955,"103":0.005561799284731182,"104":0.09147035038154086,"105":-0.05301971255146252,"106":-0.0032929969972992825,"107":-0.0047592996757323735,"108":-0.022552351142804697,"109":-0.09977066989942178,"110":-0.08374054043929471,"111":0.001969793902548266,"112":-0.025821845809585908,"113":-0.023700546920017367,"114":-0.08963159383843719,"115":0.016773514906234896,"116":0.08720888230250651,"117":-0.09343435627028183,"118":0.03745607540320553,"119":-0.08678297624237408,"120":0.08802138108367767,"121":0.14167102801777112,"122":0.009272557958628141,"123":-0.047556726581706565,"124":0.0028585767487637405,"125":-0.15459804258849458,"126":-0.12532117509089533,"127":0.16405027267232267,"128":-0.039157687588393005,"129":0.04730691021469793,"130":-0.014073843763356388,"131":0.027938852123422293,"132":-0.03870761271038561,"133":0.14728429086518194,"134":0.006862120808116208,"135":0.062363079466082216,"136":0.010367055339390356,"137":0.015189090994690166,"138":0.04885053953966852,"139":-0.026433341627879615,"140":-0.047555641393711656,"141":0.07397705905441938,"142":0.03460672298611988,"143":-0.0355888832410284,"144":0.0039220752968610155,"145":0.0711247491169161,"146":0.017094908539302626,"147":-0.006209516731612346,"148":-0.055546935899640895,"149":0.06390494899992429,"150":0.09256558464242932,"151":-0.02592830553573715,"152":-0.1235706758295106,"153":0.09055252728909757,"154":0.026003413748785776,"155":-0.03472703895034758,"156":-0.0417727749707792,"157":-0.10622890003027934,"158":-0.047342766483728274,"159":0.030874024013972566,"160":-0.1021141368478578,"161":0.10137898389971514,"162":-0.11011705536759486,"163":-0.0067526110094774106,"164":0.01757352510295875,"165":-0.05248043484281218,"166":0.003180530917648536,"167":0.01847093047382726,"168":0.022867090548405685,"169":0.08388352551672196,"170":0.0953985580033556,"171":-0.05993235523065513,"172":-0.06246667919560697,"173":0.024295185657950746,"174":-0.020207530808530782,"175":0.009688779635004332,"176":0.11903073500040773,"177":0.010955167290322743,"178":-0.09098625166669584,"179":0.09296745040684597,"180":-0.05941645988709981,"181":0.04192518649312843,"182":0.005008186671537752,"183":0.13209970207213692,"184":-0.05244948590153361,"185":-0.0792359945642226,"186":-0.0629994075955679,"187":0.03756924920176663,"188":0.07029327855072715,"189":0.023900865760260327,"190":0.07907914076951915,"191":0.034890112168283104,"192":0.009379351268965911,"193":0.040031325908248816,"194":0.061123226220674086,"195":0.06173514489693292,"196":-0.07949975873920301,"197":-0.020964160095283572,"198":0.13450319892120305,"199":0.07972051521491619}},{"sx":5,"sy":5,"depth":8,"w":{"0":-0.011721695331999606,"1":-0.10435528237601348,"2":-0.11844301635145121,"3":-0.03694182241366866,"4":0.04518569265764521,"5":-0.036684626056892794,"6":0.07155260591612955,"7":-0.12955732229714112,"8":-0.0967599956355859,"9":-0.04681491532101552,"10":0.04188249752665558,"11":0.011288611357049054,"12":-0.08483809415680747,"13":-0.1410131177998465,"14":-0.055432356088757885,"15":-0.00915586365378298,"16":-0.0567431291273684,"17":0.049885655244612,"18":0.00790233591877508,"19":-0.000821605397502084,"20":0.11797602744198976,"21":0.013699444081275077,"22":0.005478592573543965,"23":0.03553071991483842,"24":-0.024754390151911526,"25":0.022611617132439022,"26":-0.0387525706012758,"27":-0.2040084972544106,"28":-0.04681796789577671,"29":0.0021822569618114465,"30":0.05368619123146332,"31":0.0003286721143624685,"32":0.05330111616855543,"33":-0.03240217211037612,"34":-0.08652837709712502,"35":-0.07713462817322207,"36":-0.09163727185277123,"37":0.11465582424974793,"38":0.06557934772651827,"39":0.06134274004491863,"40":0.0857738338021577,"41":0.013213102205505388,"42":0.11569599167319315,"43":-0.09281104811324108,"44":0.020990216171484083,"45":0.028025091062445016,"46":0.00008646287722166826,"47":-0.05538225096700487,"48":0.05005283320075551,"49":0.0195691462286161,"50":-0.102362899368458,"51":0.09972402317344192,"52":-0.03667755508220444,"53":-0.10254441464933403,"54":-0.14211281816178478,"55":0.07996859440476095,"56":-0.02077194430087373,"57":-0.054167052045620924,"58":0.031335343211035975,"59":0.0563188477951009,"60":-0.058261063667740996,"61":0.04926165957519856,"62":-0.001611213360541031,"63":0.02425546085756365,"64":-0.024364061964256754,"65":-0.020315854220449448,"66":0.04569399102256818,"67":-0.037854382941379175,"68":-0.004311248242111619,"69":-0.03552006940222347,"70":0.024294384161239798,"71":0.03126763215743997,"72":-0.043364158469490696,"73":-0.01885326686935067,"74":0.028906284345613938,"75":0.025965530186245693,"76":-0.06975313266046759,"77":-0.04029396964547621,"78":-0.0739781280245115,"79":0.04368830462494539,"80":-0.0685019928705996,"81":-0.014072743124822462,"82":-0.13973627590619273,"83":0.040324035306292305,"84":0.06066601178416531,"85":-0.019706725622216946,"86":-0.17428686254907128,"87":0.008767588370160754,"88":0.06238477874405844,"89":-0.023647739730376427,"90":-0.00868926904266539,"91":-0.13586180581162696,"92":-0.1383919655878661,"93":-0.000036546244932061644,"94":-0.07486858711898922,"95":0.00598437477886202,"96":0.05204888781409654,"97":0.06040798059367306,"98":-0.03018340773032367,"99":-0.06844050049921602,"100":-0.12085825580335012,"101":0.0208820407321197,"102":-0.1269609323350854,"103":0.07416019579870847,"104":-0.047383945063204216,"105":0.10670962510935322,"106":0.05077703133411969,"107":0.05906550632145692,"108":-0.0699928387346394,"109":-0.0461160309901473,"110":-0.12510869774382327,"111":0.09581094690539603,"112":-0.008826414994174477,"113":0.007582379274057799,"114":0.00947926764365749,"115":0.021862268230444806,"116":-0.020051077853901745,"117":-0.05458132374406682,"118":0.0440079093739425,"119":0.06905189451484155,"120":-0.006400974014230429,"121":-0.1033543593985463,"122":0.13960245991228706,"123":0.028779412938500133,"124":-0.0781741845493975,"125":0.011323208861088839,"126":0.07164512178493133,"127":-0.0018303305952380973,"128":-0.02655756502121406,"129":0.08897363476158802,"130":0.09741187679164422,"131":0.04610324566119286,"132":-0.026693774569702688,"133":-0.08109171333584711,"134":0.10132261876509048,"135":-0.08926777468704962,"136":-0.03211381175623016,"137":-0.08072279627434807,"138":-0.027006265955327922,"139":0.011108505393197588,"140":0.05659568073508878,"141":-0.015927576721114663,"142":0.016410016594534473,"143":0.03779536242704892,"144":-0.032360448061524716,"145":-0.025574425391566562,"146":0.046896011929023165,"147":0.017680359299688135,"148":-0.17411974507961533,"149":0.06544949396366335,"150":-0.025798735998959953,"151":-0.02683342034404575,"152":0.1717883697471815,"153":-0.10770073495517993,"154":-0.08859901311027599,"155":0.02992055516510805,"156":0.1418672355335579,"157":0.10174332910892551,"158":-0.024759415914139455,"159":0.0683316075992915,"160":0.0014013914531085057,"161":0.09106297555353586,"162":-0.04424463320476303,"163":0.09288297081485683,"164":0.12475856741016614,"165":0.018368746564966523,"166":0.03859124257899587,"167":-0.03973624129371166,"168":0.1201560740765803,"169":-0.005630403318559418,"170":0.003498292007103384,"171":-0.07405336833529191,"172":-0.0428436455045353,"173":0.023056388846023155,"174":-0.015310579056296287,"175":0.02291841403981129,"176":0.15711283162264206,"177":-0.03893395988252109,"178":-0.007960797417084747,"179":0.0002899446861950384,"180":0.08722229418411045,"181":-0.00940590270313679,"182":-0.020454433338010877,"183":-0.09051489581290913,"184":-0.03063216004655414,"185":0.17740887396712507,"186":-0.004944294973675766,"187":0.07140226582488789,"188":0.02451050721632278,"189":-0.023683948963795224,"190":-0.05572439931178162,"191":-0.0959584258643028,"192":0.017478793045600752,"193":-0.05614579845428032,"194":-0.0798782534428187,"195":0.11599361733085438,"196":-0.0007337413717813227,"197":0.011811377017891195,"198":-0.040631526081777246,"199":0.06623564131024808}},{"sx":5,"sy":5,"depth":8,"w":{"0":0.0008125644587336137,"1":0.07365875543542053,"2":0.0176911776144417,"3":0.0029472896598142376,"4":0.0832416615129755,"5":0.020924400468156308,"6":0.0022860279401788436,"7":0.04896903524536531,"8":-0.023843543107071756,"9":0.07289825085838782,"10":-0.015320468241073784,"11":-0.09197944144839115,"12":-0.13299348474627537,"13":-0.04335161191042021,"14":0.10768830384175658,"15":-0.06421741049703865,"16":0.04872612355001595,"17":-0.0846837466454175,"18":-0.025437676116834524,"19":0.06661258767641696,"20":0.07927983729126879,"21":0.11547532977205287,"22":0.030769175250791314,"23":0.02451228729970025,"24":0.1144471016756075,"25":-0.02330065374413861,"26":-0.02238732053473509,"27":0.07682218662029995,"28":-0.006423279733413912,"29":0.10713976234450137,"30":0.07925417118676352,"31":0.0027397338213854317,"32":-0.0317712490851284,"33":0.18019672080027901,"34":-0.02941182099906618,"35":0.06562182845462013,"36":0.04406107675004912,"37":0.06780955229874379,"38":0.017663280348551275,"39":-0.02333293089478364,"40":0.04689997166881706,"41":0.04561863508125229,"42":-0.06579874541542222,"43":0.1584916727901347,"44":-0.08442884119630611,"45":0.011224989843742664,"46":-0.008649448083015937,"47":0.15179971805300546,"48":-0.011325788776392402,"49":-0.08465778199560482,"50":-0.05542081920294829,"51":0.025957587150055233,"52":-0.006455041602494441,"53":-0.07967016808883376,"54":0.020535881206965503,"55":0.036032245794689936,"56":0.1073797638500513,"57":0.007727723321157525,"58":0.020980957000874163,"59":0.11862661625318573,"60":0.046230165518169414,"61":-0.2174402980626708,"62":-0.059373672352561815,"63":0.025122330571353737,"64":0.02783909322965575,"65":-0.1370233107434766,"66":0.022470522547794178,"67":-0.03512816097242661,"68":-0.054873531098979404,"69":-0.11041822486060171,"70":0.09603807179808328,"71":0.02676205140269128,"72":0.11870884001369178,"73":0.009214660407844317,"74":0.10735789400549532,"75":0.15327115183607168,"76":0.013600122883213842,"77":0.041530432717803406,"78":0.1806305289542798,"79":-0.03669091770789556,"80":-0.12552272030447767,"81":0.025223342935759827,"82":-0.028956654479111915,"83":-0.0385811012963095,"84":0.07059818988976403,"85":0.01021066832291714,"86":0.029796036004913262,"87":0.11270487792066688,"88":-0.051683095574177725,"89":-0.03094643067474741,"90":-0.1857023263294567,"91":0.0038492791402519127,"92":-0.06614239364556135,"93":-0.02162734730718095,"94":0.034291294860247006,"95":0.04506812838162375,"96":-0.12635794476766105,"97":-0.07844472153610575,"98":-0.06185914112924051,"99":-0.005057309357368167,"100":0.047295819271268406,"101":-0.0050371254466327255,"102":-0.019528926852389085,"103":0.07165127200385936,"104":-0.07513708989664053,"105":-0.05632821584983267,"106":0.029280645059005486,"107":0.010156747766415203,"108":-0.048398745385302755,"109":-0.012720509398049307,"110":-0.07285881489928167,"111":0.0410494852277923,"112":-0.03400019205916905,"113":0.008204958075749908,"114":0.026839880060747244,"115":0.002174903046854488,"116":-0.02320669388485983,"117":-0.06433471162846892,"118":0.09180562402957926,"119":-0.09432980580693534,"120":-0.020396614841118713,"121":0.14258659461393644,"122":-0.039674091880209206,"123":-0.0018864689074589338,"124":-0.03826160588025046,"125":-0.024221410501813995,"126":0.027880530921373166,"127":-0.0048740199288437955,"128":0.006957405588507476,"129":-0.03590166415077742,"130":-0.06977472175818925,"131":0.04358682142812285,"132":0.018051082091502017,"133":-0.06157933860703025,"134":-0.0003350055714685488,"135":-0.06563990462234887,"136":0.07244925134561997,"137":-0.08507098686463771,"138":-0.02795157983272452,"139":0.07016844142165364,"140":-0.026231179565439508,"141":-0.020617132632449176,"142":-0.07913046355844229,"143":0.0158374979593225,"144":-0.005066457904845045,"145":0.024933628852210562,"146":0.04291673696154286,"147":-0.017409619780920507,"148":-0.04035876093635068,"149":-0.0376769446255947,"150":0.06282246627567276,"151":0.038581075705536066,"152":0.06616793361608901,"153":0.012199188497115071,"154":-0.005947261246096088,"155":0.07426034023792834,"156":-0.0678641635461879,"157":0.028687423033154066,"158":0.005136738318122536,"159":0.05117049287945377,"160":0.014829468245538106,"161":-0.08265362562937217,"162":0.05903761369150086,"163":0.14917443826089816,"164":-0.19010786963038864,"165":-0.1494333127052303,"166":0.08830202061645293,"167":0.03043769722444153,"168":-0.011278581371522833,"169":-0.03284954382534179,"170":0.06384286262254427,"171":0.05606893294496303,"172":0.037981405954236845,"173":0.014032801286300222,"174":0.006344403334144165,"175":0.09868989495315555,"176":-0.002359573119907772,"177":0.10261893688720294,"178":-0.08457630172944741,"179":0.008809134487144198,"180":-0.028344454950065077,"181":0.09734674625677374,"182":-0.02391848208466951,"183":-0.09300033326101421,"184":0.06677586527869035,"185":-0.053563765937167565,"186":-0.018560178226760246,"187":0.04166114061845716,"188":-0.05149045191078119,"189":0.005472169313299553,"190":-0.048174966012736464,"191":0.011209326330752126,"192":0.017087510812145552,"193":-0.12443860662683705,"194":0.036987129182164485,"195":-0.05214864920663414,"196":-0.05031858403265591,"197":-0.06557234659912108,"198":0.018859703870334595,"199":-0.016882192028464436}},{"sx":5,"sy":5,"depth":8,"w":{"0":-0.03899764647269759,"1":0.026927632624537786,"2":0.019351591656634397,"3":-0.0062492605781181085,"4":0.0327991247611982,"5":0.16849018408832117,"6":-0.019481033719305145,"7":0.13727559732926795,"8":0.04785262358038481,"9":-0.07915926091541578,"10":0.09224165110223678,"11":-0.00834309363336479,"12":-0.05681607033540578,"13":-0.06383305570371012,"14":-0.0768894048470772,"15":0.0043622166816143304,"16":-0.11355212761692535,"17":0.12584311043221194,"18":0.04554311210165547,"19":-0.03499511125763928,"20":0.045807694457203285,"21":0.10985234722369255,"22":-0.07223200390083026,"23":0.04053425279202348,"24":0.023657131981163843,"25":-0.07761149110799612,"26":0.017483426883302334,"27":0.027949110988255695,"28":0.03871646175799018,"29":-0.21702402811521435,"30":-0.008338521772331655,"31":0.005532877807093722,"32":-0.10079966459197799,"33":0.05081251906811338,"34":-0.07304428639377275,"35":-0.13510829386816767,"36":0.16400951202545622,"37":-0.0743264994927626,"38":0.08683023468725302,"39":-0.044138401554912124,"40":-0.15106502285665963,"41":-0.09830469929726232,"42":-0.09717420870973971,"43":-0.13861081551477447,"44":0.03340083000212813,"45":-0.03167965738657963,"46":-0.03413650955339307,"47":0.010148547465403843,"48":-0.009908928031778777,"49":0.037228489782089313,"50":0.006952256827497732,"51":0.1196883875475462,"52":0.0561680925437025,"53":-0.054263109802825824,"54":-0.08183061742112221,"55":-0.04411760920177637,"56":0.01896346716244242,"57":0.00599268821571535,"58":-0.17048181931567336,"59":-0.02705295848301841,"60":0.041801831214215254,"61":-0.1756866803235243,"62":-0.1318208682144789,"63":-0.11638327925356999,"64":-0.018092647508091895,"65":-0.0107741088121926,"66":0.0396406558081102,"67":-0.0725479652186332,"68":-0.12461440788897708,"69":0.03357650992979499,"70":0.07852786975562126,"71":-0.09060082059429148,"72":0.07019894449342615,"73":0.10176238164601725,"74":-0.017751132240017477,"75":-0.050201761964554566,"76":-0.08320483359398922,"77":0.052247050988364914,"78":-0.1726524095646112,"79":0.00590081192887238,"80":-0.08788022580081979,"81":-0.0038011289589004135,"82":-0.16968731630564624,"83":-0.011949001052402838,"84":0.10216165483218238,"85":0.03835475798768836,"86":0.05596150462088477,"87":-0.009357726854761798,"88":-0.024469474011482462,"89":-0.11182687393293952,"90":0.06696574963202204,"91":-0.022379876180950074,"92":0.10907502586002567,"93":-0.07528746794380788,"94":0.03219898347463306,"95":-0.0533343486063469,"96":-0.09574373242430771,"97":-0.015786349288755074,"98":-0.0476738211755545,"99":-0.04162842557993554,"100":0.09095249859994858,"101":0.05941606885920287,"102":-0.030460305085653956,"103":-0.0805947362256556,"104":-0.0926538186469931,"105":0.0411367730445934,"106":-0.03024195039289503,"107":-0.012076545554196452,"108":-0.039844684115944495,"109":-0.06508227574693307,"110":0.023636072684913346,"111":0.052604338510797044,"112":-0.04957211927915385,"113":-0.019227827180084242,"114":0.04829806856742335,"115":0.0929586564981597,"116":0.0727131735813488,"117":0.0348350455288686,"118":-0.058518870354261884,"119":0.02140364518421006,"120":-0.05402962091831643,"121":0.011929105639701402,"122":0.000055780054435623175,"123":-0.09752927847102204,"124":0.09022790076772165,"125":-0.08195302182210619,"126":-0.011898018076342859,"127":-0.15360695558691848,"128":0.007771688639052641,"129":-0.1914204169078996,"130":0.0534971768382099,"131":-0.002642991366507175,"132":0.07951353145679954,"133":0.03286235096973317,"134":-0.026071355605037615,"135":-0.010260668190181555,"136":-0.02305589814835364,"137":0.11576140339965311,"138":0.08618168004653819,"139":-0.06207217816583919,"140":0.009853053097567318,"141":-0.012055304654889028,"142":0.15018251725120968,"143":-0.009961841647963448,"144":-0.0024778293762738575,"145":-0.11577185346882539,"146":0.081658929513379,"147":-0.0038918276720045584,"148":0.04213620999487202,"149":-0.05296930741307592,"150":-0.0019712968636306167,"151":-0.07778939662062334,"152":-0.10961576375571506,"153":-0.07468850846949808,"154":-0.05621319067047992,"155":-0.007226693663725497,"156":-0.11374281788628107,"157":-0.004919843261191464,"158":-0.08321594949269454,"159":0.039596102004885565,"160":-0.03191274765763415,"161":-0.05747081515800418,"162":-0.10119158993212644,"163":0.12079640313454987,"164":0.034725282738172984,"165":0.030178381637831354,"166":0.007260911578442989,"167":-0.03404209731603277,"168":0.022544615867943974,"169":0.09880373192871642,"170":0.03075916735486955,"171":0.04955300653234465,"172":-0.050402835159991166,"173":-0.0695807460283836,"174":0.09006407679421843,"175":0.028948848928589434,"176":-0.006207406327526159,"177":-0.04569967944170044,"178":-0.08149324230211545,"179":-0.1110061128547123,"180":0.07161724521750212,"181":-0.02880487795997826,"182":-0.07659188873724357,"183":0.03310248577838044,"184":0.015688816045002735,"185":-0.021160493455481315,"186":-0.008305843282395831,"187":-0.035447240764965665,"188":0.1306639668670253,"189":0.03281575927785913,"190":-0.024651138623768876,"191":-0.011698021644176163,"192":-0.12237621333359988,"193":0.060327937783784674,"194":0.10023076745573165,"195":-0.046220488481901294,"196":-0.03547193461119851,"197":-0.057259637765277566,"198":-0.09326113707413063,"199":0.03634327544266594}},{"sx":5,"sy":5,"depth":8,"w":{"0":-0.12578253613273516,"1":-0.08609877460432247,"2":0.13681508010275087,"3":-0.07457432542043926,"4":0.01871439198326491,"5":-0.007082687702499889,"6":-0.027059256107399073,"7":-0.14677289414298922,"8":0.09132588084949979,"9":-0.08099511717384139,"10":-0.035627420780313966,"11":-0.0640022281389612,"12":0.11644890111841902,"13":-0.14748993192534493,"14":0.060158213044297984,"15":-0.001698672491971144,"16":0.07921713919330019,"17":-0.007382014975356509,"18":0.020011227904139325,"19":-0.0836338854098806,"20":0.03522803492236774,"21":0.014205161582868485,"22":0.07614182267230912,"23":0.020705087147548654,"24":0.10268295230066618,"25":0.09395084016339446,"26":0.10404726737061641,"27":-0.024682669974824295,"28":-0.009007843322052263,"29":0.09155815142129131,"30":0.0004158012061952395,"31":0.03660402321924295,"32":-0.0290163801062268,"33":0.040437044286780174,"34":-0.04261746349724398,"35":0.013694634480214246,"36":0.03906833207177274,"37":-0.04580704443317507,"38":-0.04723901708800193,"39":0.018619004041001173,"40":0.07018574779979922,"41":-0.04420458595153764,"42":-0.07655500308593441,"43":0.06994060338189692,"44":0.011718329536698954,"45":-0.08194037925510299,"46":0.08359707894392,"47":0.0448543202168742,"48":0.07713212843019936,"49":-0.17116646644547054,"50":0.05534868001649443,"51":0.01749568803423113,"52":0.09341149925154771,"53":0.01452513476477056,"54":-0.04034117354757909,"55":-0.020553946210933226,"56":-0.02833683740164665,"57":0.009153843968374221,"58":0.028012050223178018,"59":0.039981197391297976,"60":0.10442603472378893,"61":0.04260254933023021,"62":0.05857709319128262,"63":-0.05476728331691267,"64":-0.01138539736571883,"65":0.08479328417448238,"66":-0.000022972654160119492,"67":0.007405515070596848,"68":-0.0381698494948882,"69":0.08899536049632706,"70":0.008112313681835055,"71":-0.054283678379235395,"72":0.11673894955852254,"73":0.05104275268805431,"74":0.025720120360108952,"75":-0.02388459745112954,"76":0.03652481245538584,"77":0.1574278658785281,"78":0.00554749714003281,"79":0.08317605584207503,"80":-0.0004697842855369374,"81":-0.07247030471179974,"82":-0.0010169331601931893,"83":0.04439765362672416,"84":-0.038201945400614334,"85":0.025691086529142475,"86":0.0716642239646226,"87":0.01897524214167284,"88":-0.02425577053841221,"89":0.016786880865686367,"90":0.10094150934839916,"91":-0.07832602478923267,"92":-0.06056985764418323,"93":-0.033537952735406745,"94":0.05297937182043252,"95":-0.03417101214352323,"96":0.20565327360847063,"97":-0.07220218619361154,"98":0.03769989329750855,"99":0.12832147388478346,"100":0.11837792520301142,"101":0.06913113320068814,"102":-0.07602107909778769,"103":0.0875513852743277,"104":-0.025375973845911858,"105":0.014141854296994416,"106":-0.08601961042741214,"107":0.0703459392873828,"108":0.0039110607441846515,"109":0.05967965501249041,"110":-0.028601329665682775,"111":-0.07298837751672631,"112":-0.09604034701767827,"113":-0.07982068671578607,"114":-0.17596934850184015,"115":0.07406120608401463,"116":0.037712496375192195,"117":0.014489868978071937,"118":0.0371335014308311,"119":0.006370224815527685,"120":0.0401195990397985,"121":0.022288485019607503,"122":-0.0749683916044439,"123":0.1612728726315721,"124":0.08084711982929575,"125":0.03586218450858702,"126":0.09893006948580983,"127":-0.08801750915182216,"128":0.056771346811347496,"129":0.04425557250158791,"130":-0.04536229305296114,"131":-0.14131013459752267,"132":-0.06622280881732709,"133":-0.03650124135635444,"134":0.02783927789056884,"135":-0.10656184401947331,"136":0.04441534659840039,"137":0.047356489686765625,"138":0.047718115193979574,"139":0.09241841305673927,"140":-0.16943641741592214,"141":0.034062369548904174,"142":-0.03217813293942294,"143":-0.0008911897532042911,"144":0.054597911590809144,"145":-0.03099266286636541,"146":0.038414861191033725,"147":-0.026262466492940402,"148":-0.025842013940533946,"149":-0.09231370860085808,"150":-0.1460576961795455,"151":-0.0025916740117443216,"152":0.06788588517397602,"153":-0.010592035293828583,"154":0.029603571959080477,"155":-0.1468220232579748,"156":-0.009536118291374759,"157":0.03966146030221981,"158":-0.0032792861502871926,"159":0.017172968364814783,"160":0.092256939285847,"161":-0.056262226776505934,"162":-0.057297499451646756,"163":0.18015624447943143,"164":0.030926442494429277,"165":0.02904123358923098,"166":-0.06846116236419132,"167":0.005755497282484685,"168":-0.030432287799133536,"169":-0.0396646236834768,"170":0.03516212507368562,"171":-0.01507096508048762,"172":-0.005606379624435785,"173":-0.030448463711643153,"174":0.10867984077357898,"175":0.027379325468955062,"176":-0.09123136486944883,"177":-0.0434176550620048,"178":-0.07504730457039131,"179":0.10984869950862067,"180":0.03613657313947609,"181":0.04288194628476122,"182":-0.006514154719131052,"183":-0.05224857854106367,"184":-0.04321131123222098,"185":0.11359567175429496,"186":-0.08363633011684907,"187":-0.08829646715044133,"188":-0.020009551948925477,"189":0.08765311567903854,"190":-0.074786774872779,"191":-0.1273137868773962,"192":-0.11079367792943187,"193":0.07852620901408397,"194":0.030596154108356182,"195":0.031452922373027485,"196":0.02025892908105123,"197":-0.03632589060161866,"198":-0.04930450585951861,"199":-0.02127447968633319}},{"sx":5,"sy":5,"depth":8,"w":{"0":-0.11908439716866727,"1":0.14350236553689366,"2":-0.020997574211000233,"3":0.06256353411786722,"4":0.06354417687959237,"5":-0.022771420832450373,"6":0.04452793043406892,"7":0.07652152995887282,"8":-0.05832234211185637,"9":0.0020616896433219975,"10":0.06228555688629094,"11":-0.16813069764817984,"12":0.017181077461719544,"13":-0.1072086863649747,"14":-0.004128364579336444,"15":-0.056169783096781056,"16":-0.04699968093771034,"17":-0.05379025007754541,"18":-0.07575494046938105,"19":-0.0031796262533008482,"20":-0.016709258999081867,"21":0.06016286332853805,"22":-0.04233023754260998,"23":0.08007581028151042,"24":0.003010522708859607,"25":0.014546410499159586,"26":-0.0564674310735657,"27":0.04168592805436955,"28":0.07788669788306726,"29":0.025310441444718803,"30":-0.023882358684962822,"31":-0.05868947293574309,"32":0.005569720218543253,"33":0.013345536205149994,"34":-0.014127337824260481,"35":-0.0051281892154530495,"36":-0.06677365062440488,"37":-0.08491954581972007,"38":-0.01604419458796672,"39":-0.0622800694155386,"40":-0.059659567651346314,"41":-0.07149546616879844,"42":-0.0019749185318092707,"43":-0.071252013543587,"44":0.06095665051136966,"45":-0.16320058104341653,"46":0.06351181624086691,"47":0.015247092786089734,"48":-0.055741440710013204,"49":0.042043362762406604,"50":-0.09099089850486118,"51":-0.0021981753592685265,"52":-0.08445894697927767,"53":-0.016403405960476278,"54":0.006947824998285735,"55":-0.009115922688527683,"56":-0.01028846417303612,"57":0.06998054847854555,"58":-0.02591776324822423,"59":-0.022431115853689437,"60":0.002748883307335427,"61":-0.04301323292457547,"62":-0.03926301311286238,"63":0.10975437101307757,"64":-0.1158926186200685,"65":-0.09694964977824143,"66":-0.11759614733611526,"67":-0.005993851693032888,"68":0.059513077125114264,"69":0.1035111970703055,"70":0.08945908978981859,"71":0.018093184707909465,"72":-0.12384833509826637,"73":0.01659504535872619,"74":-0.08973145573187859,"75":0.10822469160977004,"76":0.01676186073224431,"77":0.05691308324271709,"78":0.0511659875442109,"79":0.035076384815976504,"80":-0.04599168840976761,"81":0.0219175098381378,"82":-0.01607440158843536,"83":-0.13244627494584424,"84":0.06116081296681321,"85":0.08033425724730806,"86":-0.13529802808873082,"87":-0.019408178247594388,"88":-0.08091333555155665,"89":0.02779652830532843,"90":0.046953996266596416,"91":-0.028733765495706356,"92":-0.11577794932021156,"93":0.059148746765721974,"94":-0.03908272952426571,"95":0.021276122152540256,"96":0.04203731392241951,"97":-0.015658669967831877,"98":-0.015084719859158189,"99":0.0991930292720652,"100":-0.08386820360807871,"101":0.023636397808193065,"102":0.04391516437765606,"103":0.05291452839823443,"104":-0.04115372305025035,"105":0.09812655855640157,"106":-0.03902486608176658,"107":0.03423543122066303,"108":-0.01627068858352885,"109":-0.04207332791676195,"110":-0.04294869904024171,"111":0.05082092110403025,"112":-0.09968202068501197,"113":-0.13096557873816042,"114":-0.023333434561358207,"115":-0.01975677102272219,"116":-0.0035767921296538446,"117":-0.1285647275882965,"118":0.1472379884473864,"119":0.04083939396387592,"120":0.03806179103838602,"121":-0.10308095976857089,"122":0.001701161179063151,"123":-0.012928582811870438,"124":0.0114739566981313,"125":-0.011745509065943965,"126":-0.03902988332063827,"127":0.06990636642523515,"128":-0.1435010610222612,"129":-0.004304695496285533,"130":0.0058339432929620915,"131":-0.08714311818292941,"132":0.019431977328072423,"133":0.01296077335008302,"134":0.035249830199669714,"135":0.09681973410755731,"136":-0.021421627361008864,"137":-0.08386688428893346,"138":0.06966693882393905,"139":-0.012662622225443228,"140":-0.07305480788012936,"141":-0.14430228259073222,"142":-0.051328296224263784,"143":0.03382425236385014,"144":-0.08386692621217055,"145":0.0004935105221043028,"146":-0.09322135901507257,"147":0.012315973696860875,"148":0.038549737727538815,"149":-0.03565907607814689,"150":-0.03961570030840906,"151":-0.021403064287689986,"152":-0.0741302293732246,"153":0.11606575001000269,"154":0.04551321916817346,"155":-0.05445254004003661,"156":0.0006954711369904466,"157":-0.0008352375514361918,"158":0.07170198945274647,"159":0.041972934458911065,"160":0.016143647751999196,"161":-0.015141565882103594,"162":-0.05232573738623195,"163":0.009910088951095205,"164":0.023435420899812324,"165":-0.05650734251822799,"166":-0.07896950416681775,"167":-0.04765942655280386,"168":0.03527994699640203,"169":0.01968164530826747,"170":0.09768965207799968,"171":-0.0451291227705089,"172":-0.12244406787280988,"173":-0.005526979531676806,"174":-0.035251499070967994,"175":-0.007527925942810493,"176":0.04467157157037616,"177":-0.06930701552962795,"178":-0.04457129734060605,"179":-0.07332808908082832,"180":-0.006919037167676947,"181":0.05102737577864146,"182":0.036335309200303055,"183":-0.025785258380525904,"184":-0.002145477711859427,"185":-0.005941249709676552,"186":0.055526080952951494,"187":-0.04549185070807616,"188":0.06178809647112785,"189":0.11098598776740282,"190":0.05644986477681356,"191":-0.05200670233573118,"192":0.11287321446357057,"193":0.0999099656773509,"194":-0.011861741062815675,"195":0.0005341513535745247,"196":-0.003940543688774214,"197":0.15026584669765342,"198":0.009990834267270687,"199":0.07793150440709379}},{"sx":5,"sy":5,"depth":8,"w":{"0":0.039141618187023004,"1":-0.02212582801108277,"2":-0.04260600238674557,"3":-0.12351707317843742,"4":0.021443852223914487,"5":0.012697610048363017,"6":-0.004882923349618788,"7":0.014907351417012746,"8":-0.057591022621765686,"9":0.10725756410003397,"10":0.07260707442379817,"11":0.011497897175826262,"12":-0.13867519258974742,"13":0.010928373731897246,"14":-0.02102128753447052,"15":-0.019574045045515368,"16":0.11069526934182289,"17":0.014500607782617888,"18":0.05142431715725338,"19":-0.056800425572394224,"20":-0.05477645792988649,"21":-0.07422244751077511,"22":-0.028730419115520354,"23":-0.0818443651450938,"24":-0.07212445900142289,"25":0.08273392721695783,"26":-0.0645822304485877,"27":-0.04700371633639508,"28":-0.05345404677455486,"29":-0.07382426638701063,"30":-0.03772343899678797,"31":-0.07018752273597141,"32":0.031427197109704465,"33":-0.07907121382383003,"34":-0.08480607951978092,"35":0.01805186087136161,"36":0.04127400179408078,"37":-0.06821272260938517,"38":0.015509990136509779,"39":-0.09718795326567521,"40":-0.013266099690878372,"41":-0.07824736877192943,"42":-0.03489683046261569,"43":-0.12035997775187135,"44":-0.09379151683479589,"45":0.02954972398775907,"46":-0.03506572257199985,"47":-0.05574740557551636,"48":0.08706474177689727,"49":0.026704254847862863,"50":-0.07007503389065178,"51":0.0049925750269718535,"52":-0.06707616544022582,"53":-0.17110141680877783,"54":0.00815815845823865,"55":-0.008222083963684268,"56":-0.006773679661855495,"57":0.032762055427044065,"58":0.08698356225257672,"59":-0.08125928600203733,"60":-0.027573214586855542,"61":-0.08045114637310395,"62":-0.145954034960559,"63":-0.04662860265085235,"64":-0.009837643240300155,"65":0.015084562230507538,"66":0.04045917839386804,"67":0.12096170045425302,"68":0.03942015703524768,"69":-0.09931213573550585,"70":0.16902738900351336,"71":0.06640222623278781,"72":-0.20589913676143448,"73":0.1327803547054892,"74":0.05612155475706721,"75":-0.049321209955973055,"76":-0.03587314667550005,"77":0.21926259868263723,"78":0.025307949443065105,"79":0.05381102982995556,"80":0.03848250151791601,"81":-0.05775179851218241,"82":0.052983472704608375,"83":-0.01547775250776302,"84":0.021667687220277194,"85":0.08385266700299936,"86":-0.11047589357898117,"87":-0.021499242530812143,"88":0.06130872557138087,"89":-0.03006900051499733,"90":-0.031152880944020623,"91":-0.03639273926948478,"92":0.05966082721907909,"93":-0.029561566759969737,"94":-0.0059669666740452335,"95":-0.10786909331863717,"96":0.026169137043271704,"97":-0.08926707705767374,"98":0.045409650289503126,"99":0.025384948152197204,"100":-0.09296746388929275,"101":-0.04537706426567164,"102":-0.010660659461624356,"103":0.052641554271981486,"104":0.02619261516511302,"105":0.07825226669355727,"106":0.14930546849692594,"107":-0.07813655108545299,"108":0.04841710808166686,"109":0.005495944379250917,"110":-0.08136219590080429,"111":-0.03491616133233468,"112":0.10668827005056829,"113":0.04286204736350609,"114":-0.17473853173331344,"115":-0.08789511273387776,"116":-0.07554010482970915,"117":-0.03340137620134295,"118":-0.03248077226565025,"119":0.12967183691502163,"120":-0.07568354345094148,"121":-0.09156383805230062,"122":-0.023551733167561643,"123":-0.18718612940822246,"124":0.006248700139733233,"125":0.016555486473169408,"126":-0.030240681372938866,"127":-0.03150528282600452,"128":0.08739856761490133,"129":-0.02985399277081924,"130":-0.02063858570105732,"131":-0.011007302133177887,"132":-0.020482705017018366,"133":-0.02059743944799912,"134":0.017974010697403456,"135":-0.09239844652756357,"136":-0.0374573048163718,"137":-0.1452531206604429,"138":0.11822973117318926,"139":-0.04682391669787522,"140":-0.005686438476284645,"141":-0.0469232805642589,"142":-0.08120268644845598,"143":-0.15426868081588954,"144":0.03681842822419871,"145":0.10633252497092353,"146":0.016713187506808915,"147":-0.15005657687345755,"148":0.05334737831683154,"149":0.042562221687061946,"150":-0.05055466878824469,"151":0.012069423698224939,"152":0.1291143067933187,"153":0.006436504309760791,"154":0.01907947017065066,"155":-0.038167067203937984,"156":-0.0029821390192801382,"157":0.010613365789561565,"158":-0.108160827908247,"159":0.09233882729581505,"160":0.11726945311017015,"161":0.06844218005693341,"162":-0.06523205142288743,"163":-0.12962579098705665,"164":0.03080568953274779,"165":-0.07697494777388085,"166":-0.013420006305505308,"167":0.009477123981399174,"168":-0.023558349701581324,"169":-0.07465265419900526,"170":-0.0321757654130365,"171":-0.029465353350331333,"172":-0.0330284624749901,"173":-0.11845308731687551,"174":0.10835386960587792,"175":0.04774964899163441,"176":-0.09529980226620559,"177":-0.07726724748363027,"178":-0.09965024467048406,"179":0.12279289236987195,"180":-0.020350979164736396,"181":0.009410417095876436,"182":0.181611231599492,"183":-0.0025854673782962244,"184":-0.02067547357703311,"185":0.0758878352794863,"186":-0.03241333767847417,"187":0.07269725453045911,"188":0.0742370015495042,"189":0.1056735763009202,"190":0.12417772567778178,"191":0.09166348726400864,"192":0.07030678929205443,"193":0.09140260825007876,"194":-0.07706472800437288,"195":-0.00003752456817804742,"196":0.049653718300815275,"197":-0.06037708456931055,"198":0.013213143359747805,"199":0.03498596416830908}},{"sx":5,"sy":5,"depth":8,"w":{"0":0.07285037542413375,"1":0.03587639922915574,"2":-0.05771838000068187,"3":0.04119363902901006,"4":0.07557227254991947,"5":-0.12310429509884838,"6":0.050382039919872605,"7":0.06590763083724853,"8":0.043141538965575425,"9":0.08781988807360601,"10":-0.09873881941624471,"11":0.04714097467885232,"12":-0.017763911666174106,"13":0.07777064633511299,"14":0.0242781052343245,"15":0.0010503423212368127,"16":0.05722054997854575,"17":0.14411291136007784,"18":0.10781207734022048,"19":0.04171170120794174,"20":-0.15607403270303394,"21":0.08161429308125782,"22":-0.025622069290835672,"23":-0.10576914653364082,"24":-0.139928182972738,"25":-0.006122394197274966,"26":0.08112153311097756,"27":0.14059145124673283,"28":0.04314123596732805,"29":0.020461192396878804,"30":0.03167212378379859,"31":0.006224600439128707,"32":-0.0252622815369117,"33":0.08913730914019853,"34":-0.03368502122769889,"35":0.06322737897325059,"36":-0.11422004394808276,"37":0.028178564703941842,"38":-0.044379936679317784,"39":-0.10714492080861962,"40":-0.04349576239063482,"41":0.06462351036211775,"42":-0.06395526120535748,"43":0.01518877946486664,"44":-0.11165061854703189,"45":-0.014741698890944439,"46":-0.051822913360264025,"47":0.039029006278813276,"48":0.028767201069131033,"49":-0.014235576394643653,"50":0.0042634594974260845,"51":0.03672201809807858,"52":-0.04044106033919837,"53":0.1039208920502908,"54":0.05047954245097674,"55":-0.016684969916241126,"56":0.009507444572946873,"57":0.01690914931299984,"58":0.035002764762508194,"59":0.06639401774988084,"60":0.1345579012061136,"61":0.018252191849474683,"62":0.05401764399602164,"63":-0.011515604461666875,"64":-0.0045815890544513875,"65":-0.028122992394894103,"66":-0.022950314122506844,"67":-0.07385070148495616,"68":0.012785588945109366,"69":0.05736264249125895,"70":-0.02888136248566858,"71":0.0434164013582305,"72":0.015368166573260534,"73":0.035825290861183176,"74":0.10820394308136992,"75":-0.07415092159097741,"76":0.06738608776332758,"77":0.0928933565840553,"78":0.04120139023695338,"79":-0.06581834502244745,"80":0.027324610345366346,"81":0.019455963055519426,"82":0.15522740733146612,"83":0.0033589581393909085,"84":0.0006205360986858179,"85":-0.07182881649108634,"86":0.046291536150373375,"87":-0.12059764645409174,"88":0.011308669990997474,"89":-0.041790435889978786,"90":0.038641412982651946,"91":-0.1312966491284856,"92":-0.02486412103560614,"93":0.07955024705267653,"94":-0.02740289805006765,"95":0.06417350328441268,"96":-0.04487329339587417,"97":0.08386494888744883,"98":0.040877662700157344,"99":-0.020533440023091966,"100":0.004667958622744678,"101":-0.10836582058361119,"102":0.2318777218460134,"103":0.031476177599206984,"104":0.01801781355160418,"105":-0.09856293323128354,"106":-0.03296327683726281,"107":-0.07834828740410331,"108":-0.042564744906850464,"109":-0.06149508411807955,"110":-0.09185043092310535,"111":0.048093274120483066,"112":0.07285857900730337,"113":-0.03639034589243112,"114":0.12182549923598995,"115":-0.0034109163802206128,"116":0.054010805709523144,"117":0.011994392842571089,"118":-0.05524626048123646,"119":-0.012491469690920472,"120":-0.027592483242306655,"121":-0.0919639974188444,"122":0.09908385928888638,"123":0.04944248389983323,"124":0.02282478820998335,"125":-0.14549408416196416,"126":0.03423868990375403,"127":-0.03224665965835225,"128":0.00398010136090868,"129":-0.040781755313057305,"130":-0.09117930859094409,"131":0.05106931415020196,"132":-0.004406001065403688,"133":0.006435782269607042,"134":-0.07576175858294298,"135":0.1014583137657081,"136":0.15971870862333348,"137":-0.0794679161171036,"138":0.006517316120265591,"139":-0.10453612553749662,"140":0.08561839421789681,"141":-0.022777609672194377,"142":0.031021676503154797,"143":-0.03161263866457338,"144":0.012781351094860184,"145":-0.006503867461331953,"146":0.00781878350777202,"147":0.04449405129430209,"148":0.03576640002087932,"149":0.10415327347550857,"150":-0.035928621130251776,"151":0.014845180837468087,"152":0.03224926203551148,"153":0.016790036154256113,"154":-0.08158369118592228,"155":-0.011141607474925675,"156":0.03803099807014995,"157":0.009529527378698941,"158":0.008556322287564097,"159":0.15477069728869983,"160":0.009465723664070351,"161":0.01773449656639163,"162":0.03917259187723406,"163":-0.003233330778821391,"164":0.053569713700287305,"165":-0.12710072935782404,"166":0.029514583302966045,"167":0.04125624841684793,"168":0.12625954719288243,"169":-0.0012158003779691483,"170":0.02586833881232994,"171":0.022208823618858217,"172":0.061112435392324714,"173":0.04644660568581866,"174":0.06408697413874127,"175":0.0286999327191742,"176":-0.1150677113522937,"177":-0.06822676554646903,"178":0.04148129083311021,"179":0.12676610422825685,"180":-0.11550323256826588,"181":0.13986466570428188,"182":0.03382300055685222,"183":-0.16772788758348744,"184":-0.13650387777642542,"185":0.13404191386715558,"186":0.03319674601680791,"187":-0.031997162426300504,"188":0.004150133755436665,"189":-0.041253996549491495,"190":-0.11110795696400112,"191":-0.0040110067745586335,"192":0.008762049809745048,"193":0.07986926518433311,"194":0.07261677439969527,"195":0.05647487309398542,"196":0.08033510503442332,"197":0.0034370639714361357,"198":0.08111454636159425,"199":-0.07637166614942736}},{"sx":5,"sy":5,"depth":8,"w":{"0":-0.05478130924234342,"1":0.036778363599371464,"2":0.047650618384139976,"3":0.049378354885171886,"4":-0.08531373049919094,"5":-0.0232540933857459,"6":-0.035357434272918466,"7":0.09559649189659832,"8":0.03139821663508927,"9":-0.009402060710752959,"10":-0.016164446657778997,"11":0.026825785724905186,"12":0.11393589403540133,"13":-0.04545449947110624,"14":-0.05649599185077104,"15":-0.0737966631419632,"16":0.010390759301583365,"17":0.07718647687732517,"18":0.04369365072271491,"19":0.10185713807425248,"20":-0.05770291495135857,"21":-0.007257603359477792,"22":0.030759283202462427,"23":-0.040380272221829626,"24":0.07862781099073624,"25":0.09317466180868077,"26":0.044578381404496034,"27":-0.04276697853592687,"28":-0.2106350234787816,"29":-0.00911345467401512,"30":0.072819840430102,"31":-0.05760111451588907,"32":-0.13874816040408855,"33":-0.0004229190373713616,"34":-0.04173496552132519,"35":0.08353427535525576,"36":-0.02651011980749738,"37":0.043825573510051806,"38":-0.07804863670238388,"39":0.03233315353050187,"40":-0.01774066521450273,"41":-0.12198230949174445,"42":-0.009106663390353287,"43":-0.06529669742913807,"44":0.0572250308305869,"45":0.060213519244118836,"46":0.07638994879196861,"47":0.09241530510924245,"48":0.049726011157110686,"49":-0.10433650344878188,"50":0.09285087788276639,"51":-0.04716829246278054,"52":0.16467456455134943,"53":-0.21230460996570644,"54":-0.0893097782083468,"55":-0.06621622246440911,"56":-0.01360318080520111,"57":-0.0598785293571055,"58":0.11379708678710233,"59":-0.04583548061873943,"60":-0.05295241374081775,"61":0.08102095831071594,"62":-0.013097275502589246,"63":-0.02558252114711836,"64":0.07579255856306558,"65":0.09780439737801508,"66":0.03255043957234897,"67":-0.06452238860818423,"68":-0.05588832635964393,"69":0.06443545639307381,"70":-0.05581999842449741,"71":-0.037760793794912526,"72":-0.01414261275938844,"73":-0.010170775226187236,"74":0.09008013895101437,"75":-0.05585586495660635,"76":-0.07046309555570389,"77":0.1250532280992379,"78":0.004832928931993355,"79":0.0006512994725612776,"80":0.0337116620899795,"81":-0.035465944061259795,"82":-0.1033819558797131,"83":-0.04286050807085053,"84":0.023067071329056076,"85":0.08336332119125876,"86":0.001467759032370331,"87":-0.07804529230684532,"88":-0.10595808725273999,"89":0.15611804291620623,"90":-0.03027651622956529,"91":-0.09323692260578216,"92":0.022265077779853606,"93":-0.14449070038800188,"94":-0.12835457272402642,"95":0.038554112917196896,"96":-0.10003760168985326,"97":-0.046879958106917544,"98":-0.03995784812382187,"99":0.02467616633078391,"100":-0.03338770985763739,"101":-0.009149515816710422,"102":0.022377028355026186,"103":0.015993743999762944,"104":0.008276687250209106,"105":0.1043784241407068,"106":0.09125884375689824,"107":0.03803966141724248,"108":-0.007767973577147092,"109":0.039924413674178774,"110":-0.11472143954395853,"111":0.05377809970228518,"112":-0.046789758049761924,"113":-0.0007877016985930054,"114":0.0742451218568344,"115":-0.005821564413217823,"116":0.015973888615081484,"117":-0.08740034927111666,"118":-0.0960321494812352,"119":-0.09645529987137746,"120":-0.02071400145030767,"121":0.07825426418028579,"122":0.1621618924223286,"123":0.003294240966683104,"124":-0.03409991939780524,"125":-0.027283293223460528,"126":-0.03050653505231468,"127":0.14309171725179787,"128":0.026267633532431594,"129":-0.02670560285047505,"130":-0.05270424774292312,"131":-0.1818974923209451,"132":-0.01830165242752437,"133":-0.04941903502003761,"134":-0.0052590410362599385,"135":0.023640832632272485,"136":-0.008568893657606687,"137":-0.12886691003713932,"138":-0.009130474686739776,"139":-0.016331160077541318,"140":0.010695566188945634,"141":-0.02949913790473327,"142":-0.028969164895939984,"143":-0.02257666375328247,"144":-0.07535210803068919,"145":0.20973183359009856,"146":0.016692775548688504,"147":0.029583202082378,"148":-0.08975923490987797,"149":-0.06282905979367463,"150":0.0038031662200379997,"151":0.048124636394935486,"152":-0.027538379582127674,"153":-0.05605061845733424,"154":0.03998018193329108,"155":-0.13164854525285372,"156":0.056903040687953946,"157":-0.04102382224919573,"158":-0.06940639744370625,"159":0.03244278254449467,"160":-0.05142950215651906,"161":-0.025297625136438222,"162":0.013428736006205476,"163":-0.10735112333274625,"164":-0.010292475538775749,"165":0.030287146125690827,"166":0.02036277382030453,"167":-0.04350849860974266,"168":0.050126693265586,"169":-0.00003725302506612805,"170":0.048103626300978614,"171":0.0928151973538321,"172":0.03764179738749037,"173":-0.00859646876277718,"174":-0.005636595831145684,"175":0.0037305962763470907,"176":-0.0719387658247754,"177":-0.11401479978554996,"178":0.02432375104932712,"179":0.07507418547498194,"180":-0.030370860564107056,"181":-0.013237957054058407,"182":-0.027731353555406003,"183":-0.03706451572657236,"184":-0.12562004376561356,"185":-0.043732971799184485,"186":-0.025646939465925302,"187":0.044076973855720486,"188":0.01282276671071639,"189":0.034953849905621094,"190":0.013161184785293292,"191":-0.07849039215658998,"192":-0.057744168399885325,"193":0.016635860273563376,"194":-0.025707145817733108,"195":0.03094044631945978,"196":-0.0619868008701588,"197":-0.07069153212890533,"198":0.14693582354440682,"199":-0.07177876859362241}},{"sx":5,"sy":5,"depth":8,"w":{"0":0.08161130018361946,"1":-0.07510788621037658,"2":-0.068485384830964,"3":0.0373620097240618,"4":0.0019884464332260484,"5":0.05425497273435557,"6":0.12958718553296042,"7":0.05999841206984767,"8":-0.07100822187881715,"9":-0.01997820064945286,"10":0.02384050975618468,"11":-0.04264679260477841,"12":0.08023982041871426,"13":-0.09306437483060677,"14":0.017237507405211887,"15":0.235533680175098,"16":0.021136216028787066,"17":0.09247077260922912,"18":0.09059063938197792,"19":-0.062450580171538775,"20":-0.024453434849506916,"21":-0.03231543044588602,"22":-0.02168401148558618,"23":0.00392010857654425,"24":-0.0699590573627956,"25":-0.023969417859877027,"26":-0.08553497870618959,"27":0.02690906034497957,"28":-0.03470432624824362,"29":0.19436163181494098,"30":-0.1883377680953207,"31":-0.12293179801136142,"32":-0.018370818803465923,"33":0.031259141377609774,"34":-0.17371564241615758,"35":-0.09718073720765641,"36":-0.03868457689472137,"37":0.042604670858633766,"38":-0.1397269244109931,"39":0.049551769533809735,"40":-0.02539908613626316,"41":0.027905480837204524,"42":0.01628465586412365,"43":-0.06687176708886468,"44":-0.03518633108135398,"45":-0.11202245021928903,"46":0.009937587649643798,"47":0.06086266796520809,"48":-0.07401121992314566,"49":-0.0336302305438751,"50":-0.06436895240735432,"51":0.08089357851619354,"52":0.025426947525237366,"53":0.04719110547981907,"54":-0.1458447630233601,"55":0.013607723105563367,"56":-0.04191359021344633,"57":0.19738787982689712,"58":0.04448028584356574,"59":0.057814443384751155,"60":0.05018649233896813,"61":0.036180238463745025,"62":0.10291281926902089,"63":0.08188085912609215,"64":-0.08932231592823694,"65":0.13753170116445226,"66":-0.10552593268097896,"67":-0.0392068034390429,"68":-0.05271665682238589,"69":0.013759348205178233,"70":-0.0046541367804395165,"71":0.029325116179633907,"72":0.05926668084984252,"73":-0.09852081359152962,"74":0.0103426145200621,"75":-0.08379141709376466,"76":-0.0753047831495818,"77":0.006001778881435159,"78":-0.0794450267826153,"79":-0.024240474201344054,"80":0.09755064781060599,"81":-0.07584874350762166,"82":0.15601385557221045,"83":-0.16471489145188983,"84":-0.06267499456905529,"85":-0.08333636066368856,"86":-0.014798706284338351,"87":0.1593986492837528,"88":-0.06420128817702078,"89":0.026052928903893487,"90":0.11607473203039738,"91":-0.012400917819804451,"92":0.10336725442187587,"93":-0.05253868421303031,"94":-0.0441725041037332,"95":0.08427376062543855,"96":-0.04756420042998236,"97":0.017409016609545157,"98":-0.08671926091623125,"99":-0.08236197643997735,"100":0.025005446957466457,"101":0.015246602355904141,"102":-0.0993671966941601,"103":-0.0033866636412161087,"104":0.027409722888621913,"105":-0.051108795089592624,"106":-0.001411171461986788,"107":-0.011061211581249833,"108":0.08768131756637075,"109":-0.04484566459850542,"110":0.007284503900303686,"111":0.014416049664838644,"112":0.02900344395093726,"113":-0.005150291950469457,"114":0.02213137714499429,"115":-0.0036574815556885344,"116":0.0067479868262986294,"117":-0.022354246806514377,"118":0.13085178889717933,"119":0.008630553819476873,"120":-0.039645591872396545,"121":-0.02118638660680978,"122":-0.04883707025888667,"123":-0.11414386083915305,"124":0.09191022333946659,"125":0.15914796147101545,"126":0.11057187154761831,"127":-0.02369200028881364,"128":0.016391628379068383,"129":0.028166847621150688,"130":0.03191585106771078,"131":0.05189112936779004,"132":0.14054187884852454,"133":0.13130964131900863,"134":-0.11289591178525626,"135":0.02806204852520539,"136":-0.043095663661523675,"137":-0.043992242284880016,"138":0.120462387771129,"139":0.03974631062676388,"140":-0.11593083714188525,"141":-0.01999563809462346,"142":-0.043820810628166236,"143":-0.0020869377288809487,"144":-0.12587997716198882,"145":-0.14543631099971707,"146":0.02152617693642336,"147":-0.1146514477830233,"148":0.009632614735314803,"149":-0.010514547438537004,"150":-0.012486195934032359,"151":0.10544362225729474,"152":-0.028727562037197365,"153":-0.029748947624295724,"154":0.0064560480294012755,"155":0.064548741735395,"156":0.022824822621469246,"157":-0.01676473347964959,"158":-0.012555599938238278,"159":0.014825789378056195,"160":0.015531929711165824,"161":0.015464287901227185,"162":0.006354940978548487,"163":-0.06689256858143022,"164":-0.020037114110366176,"165":0.09042194260456149,"166":-0.00600503198821927,"167":0.016759484296374316,"168":-0.08361364690292626,"169":0.01927798494187318,"170":-0.014726701508667091,"171":-0.1537326523477015,"172":0.013238759272605951,"173":-0.061689352126878254,"174":0.12346212458566057,"175":-0.03031925376528732,"176":0.060442339112647896,"177":-0.187351705616344,"178":0.016425521393457706,"179":0.06500314814301811,"180":0.10477788267124229,"181":0.07281245281336642,"182":-0.01611556280311944,"183":-0.02048341427210715,"184":0.06165472130497087,"185":-0.11904735712819083,"186":0.03186269317274345,"187":0.07529868687521976,"188":0.038480085659518624,"189":-0.006903254062133528,"190":-0.057729751185213424,"191":-0.09764488325050179,"192":-0.11672327241343382,"193":-0.07093852035510051,"194":-0.03979013415000452,"195":-0.03813918465722165,"196":-0.09808154175874392,"197":-0.07273046342434579,"198":0.02278418047066316,"199":-0.18297507057476678}},{"sx":5,"sy":5,"depth":8,"w":{"0":-0.08863515752862519,"1":0.0445630245105068,"2":-0.11474766411817751,"3":0.04408906648748581,"4":0.12610107442131255,"5":-0.021580791948049474,"6":-0.022518057946354423,"7":0.0632380832765945,"8":-0.08250260126255586,"9":0.05062028319093065,"10":0.02275824393528479,"11":-0.008021769877176595,"12":-0.07640970785713393,"13":-0.062252275201880564,"14":0.1181158279815052,"15":-0.013102134613070752,"16":0.04366276206881109,"17":0.07478602466978956,"18":0.00749916647727347,"19":-0.024691599597192342,"20":0.11115061584244279,"21":-0.03988918228378582,"22":-0.047296858550083476,"23":0.04228622113775759,"24":-0.04701650104817338,"25":0.01737983952117514,"26":-0.023482701585431195,"27":0.08550243230580741,"28":0.05742376338805575,"29":0.006363564282073401,"30":-0.02820114548684461,"31":-0.131337797854027,"32":-0.09373304784011163,"33":-0.05204602713667413,"34":-0.14719838674583047,"35":-0.10644770143695165,"36":0.11226775012147441,"37":-0.010527475792930152,"38":0.05424586420048676,"39":-0.1844653855445504,"40":0.05911991565252587,"41":-0.11741402824057104,"42":-0.03488010945172661,"43":0.11899846756857128,"44":-0.17113201404454909,"45":-0.004926176049109694,"46":-0.07743731987089172,"47":-0.004479505121573452,"48":0.014276619240753251,"49":0.0587061869006508,"50":0.08818311635807789,"51":0.060183296289787934,"52":0.006968420443379186,"53":-0.009778862998464633,"54":-0.035395478183094645,"55":0.05830671845535041,"56":0.18484854862054984,"57":-0.08886184529863472,"58":-0.03392406519582254,"59":-0.08439804625179691,"60":0.0577771072619701,"61":-0.06649161924763831,"62":0.06197386976425506,"63":0.0585031194205567,"64":0.11477544114529822,"65":-0.13196834586061248,"66":0.010425062609734756,"67":0.03438554620006732,"68":0.09343341845254502,"69":0.046752797397983735,"70":-0.03840092442941295,"71":0.006852895369302703,"72":-0.00832569847395157,"73":0.11290673352564883,"74":-0.040763672787403546,"75":0.027007381595275975,"76":0.085129557029819,"77":-0.0000745614434924035,"78":0.11598770018592806,"79":0.034073924421586875,"80":0.036649632952038866,"81":0.07984018427395936,"82":0.11208564679802199,"83":-0.09801304858647784,"84":-0.08484440727824867,"85":0.007400017645518596,"86":0.003772059370906231,"87":0.13015844102164878,"88":-0.012197220112746725,"89":0.1035518183715416,"90":-0.07355125117377857,"91":-0.032599521651646285,"92":-0.04161133092841049,"93":0.014840924451591814,"94":0.05227960399173626,"95":0.05006836271186445,"96":-0.005349260492642055,"97":-0.01989256747514879,"98":0.13170296231081755,"99":0.01571359517783504,"100":-0.0644073579085525,"101":0.02431220651200673,"102":0.05910512816527388,"103":0.03364486072072875,"104":0.014539462744829531,"105":0.021160316323627172,"106":-0.0492752483874494,"107":0.06080355889131742,"108":0.04687036809440744,"109":0.055690112275080125,"110":0.0061063333749612645,"111":0.1604199756316959,"112":0.0006287271909610199,"113":0.029076284983011014,"114":0.06258839970533213,"115":-0.11198843822679543,"116":0.07317236281775641,"117":-0.08182785798604632,"118":0.029857343947549738,"119":-0.08417542431060303,"120":0.01665109343820325,"121":-0.04230969862379555,"122":0.053978422077091956,"123":-0.008418399475626764,"124":0.00003982694361752624,"125":-0.08294987318593984,"126":-0.19511411339955537,"127":0.05459993122936352,"128":0.042376653299709036,"129":0.0359051269857709,"130":0.06674707946259326,"131":-0.08118332210985435,"132":-0.029202786149454558,"133":-0.0028422358048543987,"134":-0.010292816260353535,"135":-0.037921495827689417,"136":-0.03381278886882502,"137":0.0772097220961692,"138":-0.12237816323694069,"139":0.002540679524857941,"140":-0.16043553982950964,"141":-0.05133540582711097,"142":-0.05789434785588738,"143":0.03258316304222238,"144":0.028786586960318883,"145":-0.0444965978342212,"146":0.09393959846446492,"147":-0.054259286598383055,"148":0.04010006557118623,"149":0.015897331110908183,"150":-0.1290131342352167,"151":0.0730440227631252,"152":0.13334270503065407,"153":-0.04877228491186879,"154":0.1066125496963374,"155":-0.04748129711994481,"156":-0.020532818273887976,"157":-0.035321865499862916,"158":-0.043798561364605935,"159":0.06012168602210767,"160":-0.07293073012143808,"161":0.05283632829929667,"162":-0.13415159507948712,"163":-0.09861740749345378,"164":-0.06725322955030005,"165":0.058718877039939436,"166":0.0448403970518004,"167":-0.022149274750802073,"168":0.01198251202706128,"169":0.026577665021192434,"170":-0.0039557990488203335,"171":-0.09494235979387947,"172":0.06948327785122066,"173":-0.0039286191918619946,"174":0.053663852485966286,"175":0.05063987904024075,"176":-0.07118561750645452,"177":-0.08971801066518127,"178":-0.08676689242370858,"179":-0.06339993188547592,"180":0.0029194392087793096,"181":0.06875276428325786,"182":0.017560673981957306,"183":0.026423376937918804,"184":-0.08835560847106191,"185":-0.1781974862847669,"186":0.03803762224959347,"187":-0.02591605699215856,"188":-0.1795631825359613,"189":0.049966034884970874,"190":-0.06683454493038479,"191":-0.035502726159458944,"192":-0.016292705432285226,"193":-0.012170005687982597,"194":-0.044840401946304814,"195":0.07571145889001563,"196":-0.03340310416126534,"197":-0.07688572587984184,"198":0.12902931693274844,"199":-0.05538313322076232}},{"sx":5,"sy":5,"depth":8,"w":{"0":0.05870032989481723,"1":0.12921837113051682,"2":-0.0912007281526762,"3":-0.060725890351176134,"4":0.020128463198649787,"5":0.008775321863116964,"6":0.017254467723483474,"7":0.026180549323495672,"8":-0.08422873960731378,"9":-0.011869477968166696,"10":0.03844174948843422,"11":-0.03974052381249505,"12":-0.03233983664869896,"13":-0.00024720596628907145,"14":0.017511579901512853,"15":-0.12801233380056298,"16":-0.02925176433045888,"17":-0.007386980499983599,"18":-0.004761217720877414,"19":-0.10969092266255827,"20":-0.03866278099624629,"21":0.06677311778158858,"22":0.09832285558540231,"23":0.08935344608464417,"24":0.0799879859746684,"25":0.005461985743192449,"26":-0.01899179880997547,"27":0.05942489670888787,"28":-0.1330011803577495,"29":0.08756894496723369,"30":0.06816160659546035,"31":-0.08674873324878539,"32":-0.005188143252391105,"33":-0.014453636237999858,"34":0.0028108400437629488,"35":-0.02380590313167441,"36":0.07208947872823178,"37":0.07175137660989034,"38":-0.07722443127417414,"39":0.09033948611474081,"40":-0.1156596849702003,"41":-0.03444744051555306,"42":0.09767551227098467,"43":-0.09091836529799018,"44":-0.023043341995316123,"45":-0.002528865073940127,"46":0.013312159515339494,"47":0.05470755000597454,"48":-0.08443433671767836,"49":0.09040883578188284,"50":-0.0459982670892095,"51":-0.07329907741448695,"52":-0.0821701092313663,"53":0.04743562376894979,"54":0.03804667240457803,"55":-0.008024333149180064,"56":-0.031852718487444344,"57":0.05250548360113631,"58":0.07994829114214912,"59":-0.050983202861277284,"60":-0.02002210127177597,"61":0.022598079198205136,"62":0.08540103804986549,"63":0.010328676288192756,"64":-0.03231168584620019,"65":-0.06879562252972203,"66":0.05859253103226992,"67":0.13513874409905025,"68":0.039444019055839524,"69":-0.04321448664818701,"70":-0.03905718254417855,"71":0.04499620084200012,"72":-0.005438037575684963,"73":0.06310849636511323,"74":0.06712852370184948,"75":-0.059421854699050106,"76":-0.0029828536521669924,"77":-0.14438579105320012,"78":0.04786328325732261,"79":0.014347265439021244,"80":0.06906656093958904,"81":0.039314127461893965,"82":0.06436792342165787,"83":0.039517840576328546,"84":0.05627924402652092,"85":-0.008621431046396752,"86":-0.08270217922973555,"87":-0.06138461375306244,"88":0.058366113585264154,"89":0.09733205519400949,"90":-0.043072118372317766,"91":-0.0109630341048031,"92":-0.14540867468630336,"93":-0.036692219166294934,"94":0.11935454575001087,"95":0.05450997607338232,"96":-0.07262606614712454,"97":-0.04587450745176946,"98":-0.0502282925980116,"99":0.03363820649979793,"100":0.00035347713432544377,"101":0.04390762418722559,"102":-0.05309158755034591,"103":-0.048297857696333206,"104":-0.09076575423664784,"105":0.055377123963644255,"106":0.15707100905780436,"107":-0.0789478647952853,"108":-0.06154720854660904,"109":0.13542598335869538,"110":0.055985826059892205,"111":-0.02934614046691931,"112":0.04994601270670396,"113":-0.03439583167762459,"114":-0.0666975888736209,"115":0.01487022043700262,"116":0.061250997890186946,"117":-0.142860412879937,"118":0.008297002249867182,"119":-0.00459678922354061,"120":0.07567270065435562,"121":0.04472445461571808,"122":0.12011391489755378,"123":0.023819707347817316,"124":0.014569219951987702,"125":0.07215383279818949,"126":-0.07412613550103843,"127":-0.008443251177922443,"128":0.04629938957769024,"129":0.2188996501486372,"130":-0.0007915775935210514,"131":0.05593332024155174,"132":0.0019316318859675463,"133":0.01070896400499068,"134":0.2061110676637353,"135":0.03913928120885721,"136":-0.06433122030887543,"137":-0.024351488611616318,"138":0.13233942568730336,"139":-0.07504648077772949,"140":0.1872029763051813,"141":-0.010499066080886592,"142":-0.08501458197871073,"143":-0.045241339274786775,"144":0.05244205355030358,"145":-0.08350164024243405,"146":-0.02851198559035722,"147":-0.06020029055102288,"148":0.10006251364163157,"149":-0.02156501977304018,"150":0.03362528482415773,"151":-0.1380505975392057,"152":0.03971328898337259,"153":0.03926338726918978,"154":-0.06845325421399674,"155":-0.08416434551740541,"156":0.01712891321180819,"157":0.04650085700356276,"158":0.07251172735067883,"159":-0.08153053926560239,"160":-0.003238786135756407,"161":0.012979850038548046,"162":0.013781674583503076,"163":0.02476674720031217,"164":-0.1060483606952149,"165":0.04684614471917729,"166":0.02185972694250965,"167":-0.01952270999216038,"168":0.10120744846047414,"169":-0.1440718210416907,"170":-0.05089555997144722,"171":-0.03150641265656799,"172":0.08977582592782322,"173":-0.06295966392474256,"174":0.0493724798688181,"175":0.011463862645443728,"176":-0.06596083166055555,"177":-0.0410644066977087,"178":-0.04992784340874208,"179":0.1284563046385251,"180":-0.0498599849850016,